{"layer1":{"weights":[[0.028716761744515873,0.006550960883827196,0.018882327388457125,0.016527435074718377,0.00598463355886946,0.0025134823449207066,0.006557575691054608,0.02717222485809951,0.020095823030163922,0.015246294431041823,0.03405395165748871,0.021240847469095863,0.017756314291833122,0.023349000944708147,0.021931907515381627,0.004170293869029311,0.009645507897664853,0.0051577793075205615,0.02020452678855947,0.016652740595699773,0.0009835995818202365,0.01408464176583538,0.006515525502679246,0.012854329549590633,0.01809627222046372,0.009493285417529473,0.03422191394770848,0.009292478870301213,0.011012196428158086,0.008099624994840357,0.016675693704957664,0.030206176136507928,0.017538903181318153,0.03191242657439381,0.024159237047708854,0.02437365716979132,0.04244280832618151,0.050187233017952707,0.03490564141878655,0.04925554361653166,0.04615673846958464,0.060079363654144284,0.00980291141820265,0.0335320391525097,0.0478175980571707,0.05705787518507161,0.047671306999284555,0.05287364607638428,0.026512700132749343,0.03672440765506706,0.02104497651307689,0.03850798494689964,0.01550776150766174,0.03075991048348144,0.028335990522004997,0.002521080720747685,0.017740111900407585,0.01884371431680167,0.015547678020179529,0.018475559016476937,0.0284953059086043,0.017714666118754895,0.028585032816194466,0.03601141801327479,0.04224095323282867,0.0595040807932657,0.09381664681621361,0.13063647870256234,0.16567364912460322,0.20180017736638856,0.1926280502466733,0.201833356687564,0.17319782622908247,0.13702785811237794,0.18354891244872298,0.16655065773683553,0.09233893172999219,0.09405478781826514,0.05024665756162264,0.0246820089656909,0.04287929601399006,0.016323706326177315,0.0012478509463147594,0.033704582153908695,0.0058622906288064835,0.02225429784407987,0.0008015473149306334,0.030385271844840963,0.01683552403090908,0.010755094189914135,0.03449515620655764,0.03528318504771065,0.019867714620664337,0.042113702291570645,0.10029009939517827,0.11822063859434757,0.10988938730936282,0.11404347953694359,0.1924570637903219,0.19491020464769077,0.22677972184344244,0.25264447056377654,0.29854121747690776,0.29188748582672064,0.20303131304474917,0.16265231420482068,0.1209545419749452,0.061535018960178114,0.049318824551330256,0.028006340445152655,0.006415977869132074,0.003190865358977018,0.010986636613700149,0.021696137291027744,0.034700250910447025,0.03700367468782695,-0.020204978903799953,-0.030112895092315364,-0.058018244323215756,-0.1560295389513936,-0.20659315876642265,-0.2381557590407595,-0.20818760366871064,-0.3086306793766443,-0.4071455385479346,-0.39759912549675264,-0.3526961447633787,-0.2018884731028685,-0.06088018570152398,0.04099459546372203,0.07953584684741455,0.024892368998034112,0.05005046854270294,0.10799736098436946,0.0702571711317057,0.0904257165396228,0.05951875355728215,0.01835568441241303,0.009314253918429551,0.019203181415373152,0.0009066243198019297,0.03331528556151014,0.007931689676671558,0.02674190399644027,-0.042164721025063454,-0.08996772561869787,-0.19176513428666198,-0.27869016070902125,-0.27004712211132387,-0.18742758902957043,-0.1337785752531591,-0.334796207852838,-0.3476420847418309,-0.3848957286003663,-0.35560399886855654,-0.3851142098834722,-0.32918223143342695,-0.07084388635824276,0.038306531136855414,0.03201684746748343,0.016206096888545213,0.04516981462331014,0.04148763210467885,0.07596608716211828,0.062407542651900336,0.012917198070323658,0.030157868700054512,0.03365976342272792,0.02353534845585212,0.03033799909677942,0.013092520204627717,0.009067235849991542,-0.07371048717905086,-0.1697111914862845,-0.29037142327520116,-0.2630919697961472,-0.16589402941211248,-0.08274629020149427,-0.04007536160151579,-0.1249769791768837,-0.09387140480914159,-0.1267497298811444,-0.07893129882103002,-0.3066943345672125,-0.4942835307118229,-0.3268580771052559,-0.19641104735148948,0.008453944238267109,-0.002994048176018422,0.027466536315632874,0.24535523856420297,0.21187491414671952,0.0847039463361267,0.027063356875828105,0.005339811018221812,0.0016879272738906095,0.028917804758771846,0.024952971981606203,0.020085504323295728,0.003522105953134631,-0.09156828133256958,-0.1822056874910975,-0.20273435327637562,-0.10618425138826781,-0.02976250639521337,0.024507739225684777,0.10967601778239001,0.06215693764059473,-0.05845753479796471,-0.18380115844190126,-0.25756572878122697,-0.42537715795954956,-0.5060872004206795,-0.3154840094091907,-0.04473250745464283,-0.04029083419790599,-0.0779828989886084,0.009288178574294119,0.16939557035248043,0.2124508403925414,0.2557465530046359,0.14078126088827908,0.010799158447041891,0.03419974932109907,0.0006132716427616976,0.0038360218622232167,0.02455983823166617,0.03643049545684412,-0.059303677896318074,-0.14089289629535284,-0.19228664495384928,-0.08636421611926069,0.010283608964740752,0.03555696671279652,-0.013422742298978404,-0.020499901684191815,-0.1775772414519745,-0.28372300536270306,-0.2788429582538661,-0.46068848874282925,-0.43997270321714693,-0.26010739701691615,-0.24999645460761427,-0.22167409682092037,-0.13963071308810007,-0.10469796028422775,0.11095238303669917,0.35142429461395214,0.31829163638732966,0.19043429719168153,0.04966911754100432,0.032581752096838404,0.013922361130783652,0.008806626250059927,0.03084647749427376,0.044387748530312146,0.02838600851424858,-0.07762947589943736,-0.1275283438022224,0.07373910370665542,0.1775764377174341,0.041633000066079846,0.04802515175197279,0.1785710297568279,0.2980493149082948,0.2294058003539096,-0.04862063951193001,-0.5194884457512593,-0.5984358885656876,-0.4837131411622263,-0.35942710339135575,-0.2953217695894407,-0.2532554070146964,-0.07247814690425265,-0.05579571324694888,0.3058215447158642,0.39321591347856083,0.24587159734333852,0.03254331228871061,0.0021403226214307203,0.012094938242627218,0.01810454386389935,0.027412028499670116,0.03374961185035756,0.042855591409712825,0.05501418301961005,0.06455546542827491,0.23104459436801839,0.26907571192479784,0.32452032200097813,0.47935770164027036,0.6133453979705692,0.7795022397117025,0.6226433220260883,0.15374767610607604,-0.43210795615144987,-0.645629637467712,-0.5212247109965283,-0.3602332729287715,-0.41969401550698576,-0.3673290865718464,-0.3675782967425936,-0.23857213708799954,0.10222317720349898,0.22857507230100052,0.15820364450960703,0.03698266549593974,0.013298499740660033,0.026068565598666868,0.026504811232592625,0.045239606592155236,0.05989358475139802,0.07681563039881388,0.08672689138340627,0.23756284397875232,0.34985864460675065,0.17218914381513367,0.4216444353658261,0.5567239099455762,0.5074564401887384,0.7336252375202006,0.7258000372955906,0.11803686272776337,-0.48695803886634065,-0.5195998616999838,-0.39780002929352065,-0.36240896681761625,-0.49392617125386773,-0.6626838845938017,-0.6949598978376715,-0.4358081636525933,0.02129605624562832,0.10714660230987287,0.05647894956981207,0.02123249586438244,0.004718662536332571,0.022636800501792086,0.02173718841728501,0.04746141922056455,0.058838129767221484,0.07342453994378435,0.13282220656549185,0.3734515439721834,0.3097384462787451,0.1434092522693474,0.19727272709517094,0.33721861694765626,0.4036826106822568,0.74013790250007,0.3907577037008529,-0.17468807645993434,-0.3544301042138658,-0.4457657905452529,-0.3193903156472898,-0.26144237003136084,-0.4696891794957014,-0.6470958945318952,-0.5753050770995503,-0.18091141521751813,0.21515060899415292,0.15211937704280468,0.05508127040583596,0.04947559823724464,0.016676080039199487,0.020687642415796455,0.03892082156347205,0.05340482774609367,0.05311959711275795,0.045683595534915224,0.09022502571378177,0.3279416154874804,0.26407434660941054,0.11161157204784283,0.15623096273287015,0.33126281774861055,0.5190057932336226,0.4757915365792366,-0.0022608294357797432,-0.329056838362453,-0.3686226106558267,-0.46822897969393945,-0.3296545570548174,-0.2832981192672878,-0.32984518328807966,-0.36175226771068025,-0.10464200210561311,0.2561276961754008,0.3690071534416213,0.26411593832972985,0.06141781950038303,0.041307656101995764,0.0361341056740839,0.0011630797489019845,0.00762129988072146,0.03939824177700262,0.007911025903275136,-0.061977769470199326,0.037993264338992645,0.10487368624854583,0.04260760126033559,0.12195381191422076,0.1995826259047581,0.2772438637971137,0.19649820904192952,-0.19668356514000285,-0.39085323713076886,-0.36328342073421693,-0.39096678570252397,-0.5562561762700514,-0.3929354308933674,-0.3483613841284063,-0.1294476784605242,-0.11114384705674239,0.1583025693879384,0.400278720779595,0.3962226999499285,0.25247967226621654,0.03812587719249627,-0.008345892491003207,0.029901231044254215,0.003281764725540564,0.02478263954787709,0.015478616793382707,-0.014764833207040036,-0.10906430948161742,-0.15982105120504342,-0.21517035217531,-0.17387686087285534,-0.009359856021021828,0.23310460899273283,0.2553334039301686,-0.0681014483453361,-0.26544990760092463,-0.4145267366975195,-0.25302080247997993,-0.5194235852385802,-0.5977810421491571,-0.3908978009570427,-0.22634030658601773,0.024112791772052007,0.22156577720228865,0.3012950144058265,0.33742912310170237,0.3401209344497695,0.2544849604763429,0.06620311398689692,-0.006325085878416486,0.0022744738778198875,0.028663756123818173,0.017279281462105826,0.029448359258562987,-0.039101537969769395,-0.09988197134348753,-0.24869673149745164,-0.32363611268349324,-0.2641815144133508,-0.2588368897886462,-0.02967794582580437,0.08282688678783588,-0.2238313204665447,-0.5004352153452333,-0.27462548039201073,-0.19340730059916228,-0.43071259060365097,-0.544961253888418,-0.36253962533460143,-0.08396231254905893,0.24022655048554567,0.3433381579248892,0.22439227099170586,0.20792585526610077,0.17821949650672697,0.2038800850048502,0.04230441573713117,-0.012987283427274147,0.021394861004709175,0.010814018259613836,0.019976727919524408,0.01380946409580269,-0.06929546281973262,-0.10626365709064356,-0.16240771287170672,-0.07250183676598708,-0.20662049278969613,-0.2710855360926262,-0.12803454906030878,0.0389807963367959,-0.154289545417374,-0.41546827119781055,-0.34040495838428847,-0.35145214814475345,-0.41045850377760784,-0.3042590560538104,0.08140655278267911,0.22852374938874642,0.3502168964503263,0.2999466132600963,0.18987117286174024,0.13407343897901505,0.021838701306411943,0.08214425000416409,-0.01187929678746746,-0.007709926140285762,0.0005383807850095895,0.031728204848258015,0.021862297874617208,0.010575013487201183,-0.15502267695845282,-0.1296396258861398,-0.005372491899267148,0.19469630667059507,0.04516253614772998,-0.23641581865831945,-0.15373304201798277,-0.04955437969488053,-0.10457302225501235,-0.1974846250322982,-0.2283688440708622,-0.26063400693090627,-0.1277320279811547,0.058996323284221566,0.26661726898204374,0.25160024721497637,0.1416858326344734,0.16561374140030666,0.06614179395093674,-0.03205410761895331,-0.08707616888721859,-0.04799928991530729,-0.07311760169022531,-0.0050400965026408335,0.02779472241811689,0.01642222939681425,0.026986903294377047,0.009577260725032573,-0.15116055906791084,-0.102444348320645,0.10981491841817098,0.253933222927654,0.19913463030057074,0.04138701840976032,-0.12620086480592607,0.04827203659290241,0.33666707749536895,0.3696945542665951,0.2945958917308069,0.10341576566277871,0.13166765178562098,0.14914013849323532,0.06636545943886704,0.09505197095621357,0.036680878096169676,0.017235349266242622,-0.08102574767665084,-0.1600328158631767,-0.12141681802431459,-0.09465241681683823,-0.07738855624996642,-0.011767278003514941,0.021613359569254025,0.015327396449716655,0.018604924277978305,0.02272760211101554,-0.10967428856764266,-0.14893684110066144,0.11829260880323485,0.1609429367215371,0.1607913239177463,0.16050748097056114,0.1665098161965054,0.308642314649307,0.40788878618157876,0.5013911212519527,0.3040162965068223,0.22010001690011122,0.09877523462234059,0.10733654490921869,-0.0403549855009017,0.06639729301955773,-0.11784953104045011,-0.0994653792059565,-0.07136284632618899,-0.0910682974585354,-0.09474987098566803,-0.08888887949324364,-0.0423851519084876,0.00752345833195456,0.005413143314250236,0.019550538468453327,0.010924142497698748,0.011092319663895067,-0.050309903596721696,-0.09511642155443549,0.004579545275424232,0.05588014873223675,0.13056171655796875,0.12257979625433801,0.0860710074605313,0.14387174652409096,0.21761527838545291,0.2578369487387877,0.19133741448853167,0.049631268107979076,-0.006898625826101694,-0.0075784653285480615,-0.007372671643417204,0.041746267431086774,-0.07290183150580476,0.04058237585261803,0.06372064796280517,-0.009645295724007762,-0.022610260860905368,-0.014489631132685414,0.0016503761428887551,0.004813236640478232,0.020888232832521395,0.03231933699187128,0.026134328104371257,0.011563117428811618,-0.03903924053383028,-0.09383422430633924,-0.06479566688549773,-0.0659552076249948,-0.0030284696607259533,0.08288418629275537,0.08471568347665383,-0.05996352260406357,0.04152901089447667,0.17727662120146237,0.11984878238208109,-0.018857854527839217,0.016048376764828724,0.0432451023072986,0.07722630797165997,0.06825109776189527,0.16295248929944434,0.12777364478238348,0.07879246706211292,-0.03631484862402735,-0.039474797129481314,-0.03277576129788656,0.025131322258916376,0.0028437747473013465,0.03560358248310394,0.008113242912234015,0.0029021067841646375,-0.001260999191347109,-0.0002568576945106329,-0.02286350428360922,-0.0038178887895543774,-0.0016216248011488776,0.015014285450410258,0.09416510944837285,0.07335846906163514,0.12504979019382143,0.19774650154974588,0.13278054209654916,-0.06565766905385148,-0.03651950351782369,-0.011579163149525356,0.06034605724977684,0.12062913352176255,0.19216246193245345,0.08868984992485518,0.04479607799855971,-0.017096409721968645,-0.04619793298474863,-0.05034581740251951,-0.021502398652217418,0.03107361564601158,0.00908027506685885,0.016029394836606235,0.013907748406128018,0.010272142493427085,0.014757490326370044,0.0037775732053056954,0.014346360702696234,-0.008266092803846305,0.02213136787421345,0.061569920127749575,0.09216666345098587,0.14810440908053504,0.017234541951936255,0.08096874394830916,0.1199875045886627,0.139429148403705,0.14983738506837668,0.21558598508693833,0.06042702227985107,0.034335192601447906,0.015254398040815059,-0.023574427226813566,-0.035158076948043016,-0.07197704264731261,-0.051952839023263205,-0.050976705178756944,0.0029959490983444623,0.011690439801504093,0.012709423768051932,0.01662885907010205,0.03137673565310959,0.017694460112688166,0.008872649053183846,0.02246927546142642,0.031191169311805895,-0.03047975498259206,-0.026334698096808284,0.008473536827696974,-0.043750794335081764,-0.10102717828115997,-0.06427120723885589,-0.01944200320641597,-0.09514090247571286,-0.1324387589902024,-0.16172154725203705,-0.1558136417300279,-0.23986531268678354,-0.2590553171134448,-0.12610615046898824,-0.10250218636953697,-0.08039791174408484,-0.013092627715218729,0.017139612305325215,-0.006910017952444172,0.0031770080019908986,0.00764258974948109,0.02610262774123211,0.02071358944882205,0.005777027026423813,0.02536709408364315,0.012096617005558934,0.017278978920853654,0.02078828435985406,-0.015126395277144518,-0.00849515724487402,-0.000490013528304914,-0.034282078838150924,-0.1013697699297778,-0.05548402787309914,-0.03947676781371673,-0.0782844778043809,-0.06167376548811671,-0.11331507568403797,-0.12179418226259586,-0.12862985376620328,-0.12737998928081562,-0.08714441229083048,-0.010546507608494947,-0.02515779012276288,-0.015298080352904862,0.00597727004788976,-0.0006755880185047966,0.0030781121156053717,0.034039509168102895,0.029012016494920984,0.007860971416788034,0.024504403318134787,0.02250923945847738,0.01988577630617744,0.02379782506659712,0.015959661206863027,0.007713581947868725,0.01898714289041818,0.0024264436524507704,0.04190018002516869,0.044311630849947437,0.03217786296674966,0.005799856700238403,0.026841528347849513,0.041186744400474394,-0.0051881957941873665,-0.006794343796176432,0.022515271970118288,0.03606326243915402,0.035614880487152105,0.037361459862306004,0.03174586668306184,0.01571233569875252,0.0127772747759441,0.02406640664222562,0.03239487692786346,0.0013595663242751649,0.01786250463943595,0.01936620053768542],[0.011117378605801928,0.012926964251955981,0.0006771943093687052,0.012984097093488791,0.020844092536629406,0.012030391259764144,0.009349378097567775,0.0192119547787723,0.019842625804114073,0.02285841380659728,0.007448098896766239,0.01800398780890435,0.01445688512935421,0.01833681040945356,0.0037493151921038303,0.009344902649956691,0.03565833246651621,0.022403198126069883,0.007419192001518439,0.003546691579959349,0.011098237505474617,0.002231756909041958,0.025309281508436303,0.00877104706753562,0.02392035351463952,0.007849704705804253,0.03190400969483582,0.01167932391006915,0.013939056361365887,0.024858012836204906,0.028356407811036814,0.005053875125229883,0.030416627938436434,0.02991222479869419,0.029522648002824184,0.01792125042986321,0.017158944345223533,-0.013388817053906099,-0.002441636824158091,-0.013295920576431688,0.0019597446504085285,-0.002675313922498528,0.0027225038945027187,0.03376686029374464,0.0277735653109004,0.019398902434743476,0.009151862959278024,0.007297574673048445,0.01709585507850929,0.008143802661582503,0.01644343548512233,0.020339271866659958,0.028459260112749043,0.007034861314527558,0.029287202691048033,0.033036078980091074,0.0325115698949085,0.021107177957694512,0.010191968644678931,0.0037562445755313194,0.03214971468085729,0.024222099155112756,0.029268624007732977,-0.0012331152604501568,-0.0014703421313586194,-0.009869663163794578,-0.03086963475385047,-0.06273302121454526,-0.061042638043065534,-0.027336890301223868,-0.0301622220970888,-0.006055476701186097,-0.0055424281359132905,0.004624908267382654,0.030976883557740267,0.025476249221434842,0.0028571503894174706,0.024256926310049106,0.012722830245225206,0.020096376005063882,0.02303743315741536,0.032444288513516606,0.00220592643875995,0.029064583843578653,0.008334491471028025,0.03541610959062791,0.003400732395704108,0.019699272172737113,0.010873057289556981,0.03431607636734915,-0.001472431147472695,0.008226255463582618,-0.004041570886379714,-0.05313000648788859,-0.03838277338330354,-0.06953092851845408,-0.04624230823908352,-0.04235682831418016,-0.002908162820684685,-0.011357812366551954,-0.01078124554247062,0.028504911215000893,0.04743842609312298,0.018446173634319555,0.02479942916902648,0.029026220665990074,0.03524324604111389,0.040235656124186794,0.01348590903844706,0.005167197267254051,0.014070395513639214,0.028801460562808943,0.009886011453098666,0.03009220988582849,0.030794527759824414,0.026382942430348184,-0.002335849196628354,0.016445398266021007,0.006860949228185181,0.04259178084335814,0.015120672459291683,-0.008643424417549467,0.02190784366609108,-0.003991929743557996,-0.009897344410619133,0.0014655078207898083,0.031796414157600386,0.04559252752571566,0.10790864774395645,0.12924217077831707,0.13197300265477965,0.12674869383761528,0.10766972043696915,0.10858165518296366,0.08962097243332542,0.03492974899372545,0.014022209264674443,0.025571553713828767,0.009697294101109553,0.01275177080404736,0.027908507494431484,0.009536874468123402,0.012600694953243917,0.024248415868958883,0.015801596243634357,0.026751709168978278,0.047533147614064394,0.05563262748558414,-0.011521802751444732,-0.027570448821937023,0.032945625657842204,0.06192682229717954,0.07640232810249135,0.11446799051567064,0.15508610047453802,0.18297405520021165,0.19173973194249364,0.23573493119961741,0.18613137318963052,0.2036329592559079,0.15851492984441823,0.15021692214349847,0.1424639416894235,0.12749319958769734,0.052679676314811755,0.023414896111128125,0.02575366499271073,0.031995637281108415,0.0033552495371626362,0.03213462360451086,0.0014781003208388667,0.024063296021359502,0.0034954764555188683,-0.005305242596305921,-0.013207963831170327,-0.04112842734176558,-0.08553625425841672,-0.12370346602436849,-0.09694713952488813,0.006155618008369079,0.06173560055128726,0.178910359853844,0.21618380433839154,0.20053582380097248,0.13555286234847824,0.06609739445188861,0.04126904067675093,0.05587541033047767,0.10019271155714808,0.07278312706376397,0.13249184297913139,0.21246371408702203,0.1534087215181932,0.07603279804544226,0.0270826359575202,0.02836207060333694,0.021906151037864214,0.028932969998573345,-0.006195009754540699,-0.03616084999309849,-0.057543767420039714,-0.09433085679108187,-0.13874481094114083,-0.1572095726987231,-0.24605683513207813,-0.23338136965203135,-0.1818981744031709,-0.14956658117896537,-0.021307949700176007,0.14144611701931242,0.2151486453428926,0.21644529735788082,0.05671955266308704,-0.04741539572702263,-0.1329588141783485,-0.1243525728463844,-0.14241215347499003,-0.006491094300405835,0.07789865287524422,0.17220246244751666,0.18102238295429435,0.13373683959345528,0.04179711026846566,0.024151443606931177,0.009236482176109645,0.028942392838819848,-0.03343373530912754,-0.059640429873957346,-0.11389471343340236,-0.09998575331124562,-0.16315505773091413,-0.3137026275545225,-0.37304238941053514,-0.27763453032589896,-0.20680167563752458,-0.17463906676932833,-0.06993682884978454,0.0009195074798101493,0.06837802892096934,0.07394240647269175,0.004909578347521407,-0.08985120167309732,-0.17474391850530901,-0.14183849123115566,-0.13745122878277075,-0.0046977923678836915,0.05746959109866492,0.11590371236771735,0.17688651077563738,0.11936912510176555,0.05414298652422505,0.027076498505295126,0.02333295485989983,0.004982410143162021,-0.020788667905792518,-0.07053084044787618,-0.13748026276320266,-0.14943329462712776,-0.12675064347780277,-0.30519179464332635,-0.2929271242128642,-0.22719323047581808,-0.19699317485159532,-0.1673687764597255,-0.21715805758177087,-0.20951163327356218,-0.1007128167695321,-0.14499035130628943,-0.16543961723693335,-0.1606612377183458,-0.15638566028499284,-0.20737625854556932,-0.13183085765039707,-0.07711326880974634,0.010484919097864847,0.04232341100277895,0.12069128163220703,0.06599438792239737,0.04328520333843722,0.0302721250954939,0.014301035259139522,0.02610205096718357,-0.026475306015535528,-0.09289076666398095,-0.08538687777403137,-0.12070207607779132,-0.16172688751753075,-0.20207436284917318,-0.13899775798308753,-0.15352866106890511,-0.18878113432435065,-0.21370811377801488,-0.22601760715155098,-0.20964378615730328,-0.07408117672357906,-0.09932188518794964,-0.27876442393975953,-0.24435084538213087,-0.13514263188273123,-0.20415466369943555,-0.26113736168424073,-0.24348009030893863,-0.11187197176935505,-0.07720416013002152,0.011606388405027507,0.057557365747047805,0.04218802061610446,0.0225295892006967,0.01253910549656626,0.01786893742415259,-0.034466866558407444,-0.0664866417155438,-0.03826805966792621,-0.06790145664569301,-0.1508992863968343,-0.1754545212224424,-0.04689178465220018,-0.1412207348146855,-0.1309531267222938,-0.05557425943086479,0.13010172896866812,0.20450955238568674,0.24172753073171843,-0.019112126979376743,-0.27578971054919527,-0.20336929473397497,-0.16986863293875917,-0.20562121604410794,-0.3463370838563232,-0.24595311924943053,-0.17907677593662882,-0.16224976856903248,-0.03735225963964574,0.026723173675216247,0.014576658362730805,0.014250155547765785,0.016124101881538868,-0.007933683993991518,-0.008084402206560617,-0.02153923339644909,-0.0029514988294849073,-0.02952613210388339,-0.11641618373467741,-0.12179333031139811,-0.07239327296474904,-0.013993606741093196,0.15115859966077583,0.424946834696772,0.5927614459525076,0.6942694522729725,0.477266078225101,0.011127673159559863,-0.251658653062381,-0.18818673532119512,-0.08088411116543257,-0.021697467120425334,-0.11300496008035761,-0.17390760826450627,-0.20414459210877337,-0.2698002809825644,-0.12489890830327473,-0.010114899099088368,0.0041519086230319335,0.005990533484436056,0.014289629459857293,0.02961434930461234,-0.011866658428705762,-0.04495565118001835,0.016976492449542902,0.014065193739537473,-0.0699354207620546,-0.048388918915668905,-0.005589817128338239,0.21726801434657528,0.4077391454676253,0.7362074365331461,0.9553069511692293,0.8512887391357595,0.4171660750119516,-0.0011939364977339567,-0.14541994954416973,-0.08146209207121885,0.029759045958546896,0.04724677373819956,0.018348005826846203,-0.10747065170560849,-0.259806167394322,-0.31615680734316914,-0.21219411025691495,-0.020271954407329342,0.0034164552149715615,0.001815625655822729,0.012079474535603426,0.015816755826790586,-0.005510657139542227,-0.008055088066673323,-0.01797537828417804,0.007572991506080344,0.009786758420949214,0.00898670444990501,0.10644266923900865,0.3866949911599475,0.6796573847177836,0.8941290516203757,0.8700356496223668,0.5739340788542884,0.23515514734936382,-0.025057646542772632,-0.012034287002166246,0.014172360889926341,0.04982339159458562,0.07281153144618087,0.0008840604861563448,-0.13806320291567928,-0.27606433855359025,-0.3177952680302961,-0.18487502265886846,-0.019398277179413122,0.006260507665381935,0.0034022612246532393,0.004140232683078901,0.03215027099955202,0.0051222360829637,-0.015583494678822531,-0.014569603935443532,0.006400052970782562,0.03232199413341664,-0.005134014468462907,0.15548256169779837,0.445880020955055,0.6908096778406859,0.7399613474339093,0.571788403685502,0.3527374882680667,0.06652782487826245,-0.04307872104953759,0.05010751585013964,-0.018655598514047307,0.05675700076932562,0.06641708623816787,-0.10565957273478518,-0.24380943144314404,-0.2200008140557373,-0.2301060449797361,-0.1652360879155413,-0.017042137393810705,0.034199798628385035,0.02356843164177216,0.017996088804961275,0.027422372855414563,0.007517394577671786,0.002963564931399554,-0.00818450818331245,-0.04899923895163622,-0.05477150567988264,-0.036802225472361276,0.014051339900644135,0.18454549165448228,0.39057360913899364,0.4285045826948488,0.31961196161491784,0.05563769698277559,-0.04977114673791268,-0.1237097478996574,0.024439430109593645,0.06308457068523154,0.1391150499815988,0.11445238942261232,-0.02893763404754334,-0.145191796833288,-0.13946749074503606,-0.12391640608328493,-0.08471948742998024,0.01990267586566714,0.018997316158975472,0.034761299663191976,0.007018879262981924,0.014511206826059976,0.011590511959778066,0.027760420464024185,0.013542350737310258,-0.0689975468139678,-0.11012424774889207,-0.15262123271429356,-0.1866312707059311,-0.11318624689664836,0.07140569052911361,0.14296319839544125,0.11203215919734422,-0.12402013700785276,-0.20728478906944053,-0.054604789925197586,0.10169379623388579,0.11158560468202383,0.11379113218100234,0.08951611303675876,0.028002120607289144,-0.0380079081365101,-0.05126998869515062,-0.06240942107827581,-0.013800376995335895,0.06632699745568485,0.029207214011856955,0.018540678014234292,0.022095674592665624,0.003486882893339475,0.01940475488310039,0.0295234494467127,0.046514899988371855,0.04406948544172585,-0.05536334659711649,-0.11483971591255007,-0.1115651941545333,-0.07331466183439375,0.06428685276825258,0.15716888990363317,0.13418286041899669,-0.10998631240791838,-0.13774905173453142,0.07951307095230414,0.211911413084305,0.17763894339697833,0.15443111405210386,0.13722985520220482,0.03795925459931592,-0.0038261938693426104,0.03342784860937738,0.060536555857655196,0.08181075559322513,0.06976980826214561,0.02185908351840466,0.002763965936840755,0.015299099905615529,0.014680998831708269,0.03070389543781457,0.057437309128925806,0.049659035574227475,0.10835849940537977,0.05119018221291996,0.017926394182501294,0.04305777049710617,0.10737494349583218,0.13819916806334515,0.12546115723114437,0.0622298121227284,0.012173868892616574,0.012165603015489595,0.17591543823458222,0.21919284059033933,0.23503287683028115,0.17528087993378888,0.17120546797900327,0.07040151688381449,0.056667279929430554,0.08826890720314921,0.1042249323285553,0.08168628492139798,0.0542844533750663,0.03089512217700917,0.031310450857466386,0.02595114515964939,0.0277593846827685,0.03702668733642741,0.05307484400662709,0.06561254687647991,0.11670345261163023,0.14235257812557003,0.14348761379688063,0.18300241281807275,0.17252937286452202,0.11965989522273889,0.14178786530688553,0.08318281470305047,0.01917659136136616,0.03533695657642213,0.15727857744909593,0.21494091441240476,0.2409755776223699,0.19400340129370702,0.164190818771482,0.1533474107517314,0.1553753254711723,0.16752156045798788,0.13801656489487996,0.09312294058026586,0.04541405987676598,0.00855065991139931,0.009937554614558287,0.021575399036163696,0.010167728512361817,0.03568563629324862,0.04758366920385385,0.05841108697922216,0.09390159571500495,0.15333933326046098,0.18551484724357467,0.1685042090839929,0.16586103708616695,0.06957603423165497,0.15284437885608376,0.12356914990582307,0.12998329370441747,0.03515759238020414,0.08223764610325959,0.07833041451220613,0.127741384605593,0.13592835857812208,0.19473569561144422,0.19859466420702568,0.14567382790806682,0.12986296421124516,0.11117498018207926,0.04221189030508335,0.023264052433622607,0.035611567999019156,0.01776411897026081,0.02534217001584474,0.024071920039217414,0.039921860744187014,0.04970441996996341,0.04773633729991273,0.036636669706528964,0.09749987040255997,0.07315005855355308,0.05519418645226185,0.018100447707346645,0.07212448874512839,0.13201690096659222,0.15229644014787183,0.07552886296540548,0.021069887225966023,-0.05412155673065996,-0.00167983884829891,0.01245879159517937,0.031952595796215524,0.10963647674689991,0.18581953898958214,0.1330365677773807,0.09601235979456489,0.0913996875310795,0.01983536968645787,0.028963579870114917,0.015521527020146544,0.019096710504999462,0.02005587482244997,0.017339623311787098,0.025309264696603235,0.02252386594669129,0.007129718927045223,-0.030119216934936858,-0.07602659797317914,-0.11309566032057256,-0.05212606133431522,-0.055584603650316616,-0.015933897786140353,0.03646563430631984,-0.02022323049641283,-0.07567954963521957,-0.0721138388076919,-0.06399289953828091,-0.07428038764337609,-0.0989503533556426,-0.02901102148517828,0.11826606481280467,0.16487579808161737,0.0707234739078255,0.06877096921861206,0.07560844295975667,0.02947288754057462,0.012796173395627879,0.03377980111667554,0.018144587653558444,0.01343156631297535,0.005159398386209395,0.032105765263523975,0.010039622663598226,-0.03431965263787416,-0.10346575602495987,-0.1533262587173994,-0.2047448131690674,-0.17212565405912617,-0.10667640335806823,-0.03384766568558139,-0.017731917515947195,-0.11084679365617385,-0.09776949471637715,-0.021935837280661005,-0.060647626016121114,-0.1014485899439329,-0.08635108741842012,0.01029569765112821,0.0772439982672333,0.07605532336969181,0.04436512650207101,0.0208390893713015,0.03267425903042427,0.029608919190351454,0.014308566253479373,0.0012350579355971153,0.032130159269198086,0.01475905746317823,0.004989252230770212,0.025715396901157605,0.01079584629806828,0.003051601259494805,-0.05189006274900681,-0.09936907290947222,-0.1403021267238129,-0.13652127610522277,-0.13058707327359553,-0.07124213010487086,-0.13107086895089443,-0.1408716394116917,-0.15100057855492172,-0.07024060935441348,-0.09459831880734487,-0.09925414830585982,-0.05147215467635667,-0.030406926967319118,0.02704904008239697,0.05810697139196664,0.026559372028998947,0.025861741022878398,0.016798846801194874,0.0008789531174530047,0.02238457237659488,0.018301317923500784,0.026863761741079222,0.011807612387366138,0.01990294926343128,0.0004466382459069686,0.01995040940561844,-0.0037840572444385024,-0.003856033035956564,-0.018685206937710527,-0.03703660356939972,-0.03863540213005242,-0.023746420966637406,-0.034837039953624964,-0.055438113446663,-0.05620071425669091,-0.08877540060708478,-0.08022735708549364,-0.07550861710244668,-0.05935465026503989,-0.038037129802656125,-0.052410425163839404,-0.0002370258354199644,0.00944223822712107,0.015395540927994451,0.024434897450936504,0.02958816722663921,0.011770084700707803,0.0022561150590002,0.017367730169678994,0.007053470479854797,0.027941625145103066,0.016083834585758523,0.034016980803495724,0.031850497185405405,0.029448299610513803,0.026499273589364165,0.014575060033202825,0.018337391397913457,0.0037299135478745275,-0.0026193073852743202,0.008467383848204318,-0.006397502495727927,0.01356534110907805,-0.020259630202176658,-0.020482256076326606,-0.013761507944803606,-0.01956133121694411,0.008934350684767183,-0.02131792847987739,-0.0043343446038453465,0.02224752879151274,0.030315146173455473,0.0061884570191138065,0.002389279228727278,0.03472351555391938,0.022407878025161494,0.007644297533276255,0.017157498957696082],[0.004916022648861746,0.034184803600614565,0.00004662291241253851,0.026617792228618542,0.029206069182647326,0.02808498336335242,0.030791341273024526,0.030502212088693675,0.031408011500934786,0.012446486037026463,0.013201449178011273,0.0007045013997533577,0.03360129384501199,0.007361699164283467,0.02637830370780195,0.01755836222840073,0.021071141717130117,0.0117392358859094,0.03248571145427955,0.03416922808346203,0.011708082096652124,0.00021631654064050272,0.006896812519633937,0.004582588431620294,0.006842098610305476,0.032673546177934054,0.012341135369167604,0.035368201186077475,0.00455173220292041,0.009406467072821096,0.025356023806009327,0.01025762194713374,0.005546018576891425,0.003086816446993943,0.0037441657153276923,0.023053556656842382,0.010187827599967106,0.01627836112805538,0.02359478486933283,0.0021472894342654,0.028069524440441092,0.015309163715179543,0.018453979117319146,0.01649557686290394,0.024837594279698127,0.025546934726826283,0.02960245868353905,0.015425637665336422,0.030259526515500637,0.026379796396770593,0.020036072145195177,0.015298104670787196,0.027329568916069285,0.011929631163714118,0.03236490676984322,0.004187310056087483,0.01234268985035263,0.018577097837313792,0.03096662512949057,0.028530282266548412,0.016821025408178935,0.022229797895435853,0.005838452331825501,0.027509120472796415,0.0371926001656973,0.03607485717024715,0.04466673053288664,0.047838876393179415,0.03322403180462693,0.0453699915859776,0.0506745419774302,0.03503134944581627,0.04298711872985783,0.040007280380912835,0.05906551221207379,0.0525514899095715,0.019769526904293594,0.03831758627504747,0.007248070393061747,0.0247138851273583,0.0332588231966827,0.021152000527026354,0.025244188249626393,0.01752646638057115,0.03405192170557617,0.004531450200619307,0.006466290746731395,0.027473322224282316,0.022092261164709723,0.023954659626815537,0.013080173038202447,0.006941247732575868,0.04666375628894289,0.09012826332292438,0.10565104884728822,0.06291098899588198,0.03177242094752574,0.005830117233744681,-0.03540320105321261,-0.03640450691709937,-0.028482688548633825,-0.027339637301210657,0.04859117976039676,0.031934418844825556,0.06541380190372897,0.06869668339613091,0.04054237699956253,0.022346561449829182,0.005970256640389851,0.018735867442178904,0.017909824853525203,0.011715919924413065,0.0024333606316261198,0.030621491836940275,0.018813120514953412,0.006829417424180817,-0.011179387421782011,-0.0027415488389002855,0.0005150457265860933,-0.04948752801254847,-0.06554927628285616,-0.06384543871726026,-0.0526860785426392,-0.05660648483848121,-0.056317627407929505,-0.05556488232811874,0.00003429280750844593,-0.028912414595831867,-0.03415408965798886,-0.013115824990757913,0.006060473056597938,0.08324695284918665,0.1259131396125702,0.1416822126490369,0.09027968551832581,0.07405563919450475,0.04565075815907866,0.007832350557370102,0.02724379474522803,0.0038684546269808196,0.0040235684560787155,0.019022152710748728,0.006097060444165608,0.011124353280375263,-0.037245349211535536,-0.04400070680826377,-0.1537685991629708,-0.1684523916792509,-0.19266130181848512,-0.11360420778831236,-0.04140890379710259,-0.0934960215548903,-0.07675806523397108,-0.07345982130910958,0.10302035508966982,0.12654090093782094,0.1322749385243079,0.26680269700228043,0.24799388145784398,0.24667941774501997,0.22392097921693008,0.26335526644297697,0.21254054857780352,0.1169307677712411,0.02614753192592348,0.016013788861697582,0.002277376299727433,0.019425902256085245,0.013292775072333951,0.013014047692702958,0.0006076365228009558,-0.014930184757023686,-0.10153299095914148,-0.1650481210746439,-0.29499220583899843,-0.2125249280001814,-0.22614202253500074,-0.07900624192607202,-0.048279444736636916,-0.04342972907180016,-0.08894490185440598,-0.03885030156624278,0.07116614411060677,0.1922485443580502,0.16506851784318743,0.20567407041461655,0.19751402524777883,0.2975765045645417,0.14435321138926727,0.09296710885099764,0.06685273909833939,0.03537428668283907,-0.00722267795641211,-0.029394917756892288,-0.008926916580898558,0.025867678953734995,0.03108233081236256,0.011969251382066958,-0.005196846641785073,-0.08473319725690584,-0.19614753149895323,-0.3336963578931391,-0.38021840696537107,-0.22622467248482608,-0.12182260196463743,-0.02619247903773395,0.04966318290674469,0.06826917884983928,0.10672928717270337,0.2206048880216894,0.320950621035407,0.30578222769698105,0.16005404840008697,0.006983172257036913,-0.04417636762714022,0.021224275823099457,-0.1640518907393011,-0.09923990329304476,-0.03809356161663129,-0.12008269511903505,-0.11293066096028405,-0.1287018084006456,-0.0166932248600633,0.0014452205003982993,0.02692969449553404,-0.00882814499881292,-0.057387350500397234,-0.09091211822460422,-0.2660946470599013,-0.30101242446227694,-0.31443146007184125,-0.20860782790658794,-0.10358712229688431,0.07893170657468192,0.07051880538397422,0.1701682573866852,0.2219666904532423,0.24204761263537888,-0.017369315386991872,-0.16390719340876897,-0.30460598992308763,-0.2859563479040049,-0.5043956152526963,-0.394164722921363,-0.40208117531493787,-0.30039483881801227,-0.3173176763004818,-0.3431908651402063,-0.19970869136677646,-0.1180572917240202,-0.02756091489034582,0.000030349554539158445,0.019365304785444567,-0.006727988743708803,-0.03884682963164962,-0.1339188651328354,-0.27996798470362466,-0.28991298854333863,-0.1851694162147671,-0.16947404000355998,0.007443406809736486,0.12978048844998755,0.2417658840187079,0.2846530683161272,0.22583474934692596,-0.15811767383865638,-0.6390470089147209,-0.7891930936423512,-0.7131280494716554,-0.48875314215518567,-0.5664391499051923,-0.6262705197265404,-0.5879189204127093,-0.5287298320225882,-0.4702248691772956,-0.388027813575218,-0.23893114867681786,-0.11824853298673749,-0.02083239442372556,-0.0009931102466319381,0.025331221402708524,-0.00867630472776596,-0.043105578904708015,-0.10744082441173883,-0.17200074577973432,-0.13680669514373037,0.0026776153917803408,0.053828351257462395,0.24017386792860865,0.30278932575518747,0.35648940220076786,0.2908275724066945,0.26900337456499507,-0.17853015909191514,-0.7007020710768219,-0.7874925138808112,-0.6848261371061949,-0.500554453520622,-0.5905765938695283,-0.556480261086657,-0.5925020430210437,-0.4228446258081893,-0.27449904469344044,-0.2827276610856347,-0.17888748749453162,-0.05808436739617685,0.014264990471913798,0.009659666161081798,0.024094386128744837,0.020515900714515648,-0.025459817246428332,-0.07496786809499191,-0.02840508330252889,0.07851924550520209,0.15324548714135627,0.14876858449174785,0.3344898394755689,0.25855727609832674,0.3432451453184118,0.29189611964152934,0.2958489161210475,0.07655719796221593,-0.21452250512776636,-0.35387350511568366,-0.20051425983556867,-0.1242516826306028,-0.18387691349054616,-0.1094921433390621,-0.04282966050058624,0.01137172131809249,-0.015896633530569842,-0.11035869229732223,-0.04342504873121201,-0.017744712644008197,0.018814727346660395,0.02135810050047128,0.010609501170370165,0.013760530845287213,-0.035050951582857565,-0.040310735451824356,0.03635672089634138,0.12338688000656294,0.22804504585550553,0.20016266329860666,0.11555234982716368,0.18182672113452025,0.11884173003434954,0.2265584527294334,0.2173563564055201,0.08533018913324075,-0.05456127835837286,-0.11562569376270997,0.08530310232452867,0.21301416454338934,0.3120219766944305,0.3224010660103206,0.41608360730118504,0.3410506781288909,0.09220757095429277,-0.03147413122199644,-0.01445463292427848,0.003057866903734487,0.021144432404025637,0.021828172679705847,0.008535122809140256,-0.0020224235745418236,-0.008820782933505937,-0.03866973824991145,0.0404074881235888,0.08662755082395457,0.1869886217903343,0.17961982020760642,0.11036417838698853,0.12634602202126993,0.09281408117189577,0.0048619719685641565,0.05098407297900751,0.10264628642079424,0.07933830117916148,0.13936638161913004,0.23873322256836452,0.3170145408513736,0.34565126862901024,0.40240833209971294,0.41105737549113264,0.32880800602704957,0.062138450253547445,-0.04142074942084344,-0.03006714568206269,0.010945875471414398,0.024124062111492952,0.030792550160822406,0.008536830830988322,0.020226936853131948,0.009610652222500548,-0.02766956251320911,0.043132783969093,0.05477115873434409,0.2520845264486973,0.24912492714766435,0.2225161147210855,0.2041582008807443,0.13884463057817686,0.20147227826133782,0.1339067702604485,0.20254189806238715,0.12168694802480277,0.13950924904446524,0.3229605879053681,0.2463992858100046,0.09165656218660721,0.13523216918642403,0.015852134356234504,-0.08692719067720028,-0.09409825949072248,-0.07566526252760161,-0.040190569783351233,0.01143380959937125,0.03027950518560304,0.025636590232118353,0.0033723944363809395,0.027542300405562836,0.0017054995135572985,-0.0246460340314332,-0.008930109446759009,0.05279790965465444,0.2072091825533299,0.33815448635312173,0.37639335475317687,0.19665554053994494,0.10308240981239461,0.10332978931555525,0.24286580736235505,0.3153737650707847,0.11479048990829702,0.055335558676209456,0.16908341167711918,-0.029145267059664026,-0.1547440251469239,-0.23561438490762007,-0.4139976267850693,-0.40410621241293476,-0.28226498390174526,-0.14578849560752496,-0.026322414811576798,0.04867516324714184,0.03358308112186557,0.021327962798255957,0.020123498575588948,0.005059396218153491,-0.006473021973440809,-0.028282117860969614,-0.022844879237272596,-0.005922741308675748,0.121063221421646,0.249131981562335,0.3690964866597535,0.3295848449453016,0.2551978947785967,0.1682451528736126,0.4084952362209033,0.3593671511067735,0.2222354001971002,-0.00305272426090084,-0.028265034259564115,-0.1101737360124961,-0.2997828801835207,-0.3715057613260514,-0.32249850470396535,-0.3299125827537223,-0.25600165204899944,-0.07267271740720868,0.06708499351346484,0.10162181110182207,0.04685848627625106,0.01912258272180067,0.018944865151493653,0.03354170841350353,-0.035459937022530114,-0.047804991421883006,-0.092032226098264,-0.15622125421304578,-0.0817721500483314,0.180552362337612,0.40478957946582517,0.5956998144922451,0.599576110251857,0.6630110379108979,0.7646049363861487,0.38030020343670173,0.2111645876208788,0.018872027738699945,-0.09714001993285061,-0.17990282527424428,-0.28752653397769595,-0.3355355912097572,-0.27813398990674343,-0.29141241534087686,-0.1627641024853887,0.022935479135725436,0.13557037874062877,0.0940104735279224,0.03905976292337967,0.022179038419781996,0.03017311395293944,0.02386982973685076,-0.04244285178576844,-0.07371593009275358,-0.16249807772769853,-0.18529052991880476,-0.17437523492910853,0.10070034113022669,0.4820086831251284,0.7587235102081669,0.9187914386142155,0.9284158776123957,0.7747742739188277,0.3437663692945817,0.20671164008987936,0.07937033329266366,-0.07895770503179798,-0.19901181051529793,-0.21262544008087134,-0.11270786335109544,-0.17465702542337352,-0.2391207919609558,-0.024630681407593672,0.15144109648387877,0.19919444059616703,0.0828553159878923,0.028331402703324918,0.02517862425846974,0.010207279658571882,-0.001308370274966629,-0.01971124273695073,-0.14712298623235567,-0.21013427713008428,-0.22417458075515556,-0.18633740915454358,-0.00037975967274436127,0.2667712772028459,0.3927573514331313,0.47386731771120993,0.4205382753673151,0.2413560671340946,0.1705075258883913,0.2324590385136984,0.21675062639092246,0.037071348661530265,-0.012150219681638865,-0.07116878011045763,0.03232171768274126,-0.09941727077866462,-0.0070971431672052585,0.17597854589606116,0.22460685854089865,0.21303605040319126,0.1019415426016886,0.01436466722067026,0.02038910751586075,0.01228366911504931,0.03400280761634973,-0.02995020173416571,-0.16578373610448646,-0.22161545693594056,-0.2020793497541151,-0.14735688103428637,-0.06546812918678956,0.04506471804306,-0.05981332728263432,-0.12685051373863204,-0.004720583462256295,0.03684788221095009,0.11502244826458742,0.09263429702859821,0.16766705388750086,0.024034162615366894,0.10550598477608782,-0.013475510427826303,0.07411679124473941,-0.021848047003213314,0.16502082945715382,0.27773726361264134,0.27368491133454975,0.16069575374775083,0.04045510639553423,0.02783466129738231,0.0248599587443468,0.03497286846557205,0.02005417367706163,-0.01185053997163938,-0.10048575689756112,-0.1597043377196681,-0.08721778813981176,-0.015334483622558386,0.04971070954761657,-0.045811165036249844,-0.09976752692229233,-0.08949022487469727,-0.14580939762138787,-0.056403315946571705,-0.05502939929843071,-0.05244257088412287,-0.06224268427687554,-0.0749276035417878,-0.01789859223352592,-0.06951665102366618,-0.05769129090727442,0.08505496402701786,0.31633015554778304,0.3199250127127212,0.23710064914791254,0.08013669085614168,0.013799294736813674,0.009233329280675821,0.03219131571930862,0.02822083099370804,0.035579846054727166,0.0022571545753502648,-0.03697392770204994,-0.08208057888365464,-0.1225725829091643,0.00021811220879833581,-0.045537741759178546,-0.09896600759345818,-0.15726381954544266,-0.1533751041949197,-0.121272982581763,-0.14741996984668174,-0.16537493507775705,-0.1425062064741215,-0.19559884562714894,-0.1459311761428779,-0.12195190344177821,-0.07833605539953915,-0.0258546170366997,0.23176551010180815,0.3728986896640482,0.25076737313143777,0.1682296748671038,0.07054251457337797,0.021308518391726667,0.024016005564704977,0.010333835229999325,0.005723573439875705,0.013656692888663906,0.0014083575958001753,-0.0050562740563475685,-0.07040892580543043,-0.15902248746366157,-0.2146306363939065,-0.34078194111524684,-0.24846862559565097,-0.24728783211908234,-0.26561237133143956,-0.1537687802244698,-0.10721332095374231,-0.11456631994329271,-0.2153378578172047,-0.274982176664892,-0.14790036259471653,-0.1355021574969699,-0.004352723710479691,0.19846163252162008,0.3372783221228723,0.2833036194727445,0.1694778929813987,0.10746661931858871,0.054457449921607816,0.033209431117238335,0.025954348106625523,0.006944052760595438,0.019430028897710314,0.030506476774128773,0.0029263976627363106,-0.003982748647779598,-0.06832744224287207,-0.17710119118212567,-0.32400476480436596,-0.4608921318075724,-0.46237248384101964,-0.3517796513948679,-0.2243908506486142,-0.19060145359485964,-0.09131574308351362,-0.17709231065441336,-0.08899389011452248,-0.04616674968764943,0.035721528423546575,0.1009489277399897,0.20298220384576773,0.21359250131006463,0.23347025939974053,0.1762516303956453,0.102500201137893,0.06744269854208103,0.01325630232140035,0.0309677377044843,0.012227052368320947,0.01966382367560496,0.010755145497184418,0.0334015709237311,0.005844263237914775,0.0062184558586961215,-0.02116548907182008,-0.05629138079121623,-0.13522020838694315,-0.22452706049182702,-0.31296440805312936,-0.25911352197403625,-0.16347595373157264,-0.22862253551976644,-0.22675282892986057,-0.157860349466965,-0.11071939900133113,-0.10556956270085942,0.03880294174226823,0.03918330793336717,0.029574060670321457,0.09085381959236057,0.16322302733684824,0.10229272778483421,0.022993199776161342,0.025055263348636496,0.012284649073221932,0.003765431100285638,0.010230250981798434,0.02483870251526621,0.01338444711196254,0.005373587756968675,0.024544353307592953,0.004615057718343603,0.005330496251703727,0.010619802951405043,-0.00812517678537794,-0.059172805170016454,-0.07494431803458763,-0.030130094247087815,-0.025055991364694392,-0.026738354666040066,0.02665017671218769,-0.046708293682317506,0.032773408112390885,0.0342665773034574,0.044217474494787176,0.023689021075131187,-0.07369595424783178,-0.028375133153099523,0.02991407947828933,0.039479327864099925,0.03326984053030372,0.030864605757857343,0.030198885953756173,0.025669730276077364,0.014526107619918047,0.006185582643516897,0.0028019049930348506,0.02574973235472567,0.004789367564732726,0.03449816971145878,0.03008787396153674,0.016334424052778275,0.01039012571371416,0.0026885320091252574,-0.00309366364234574,-0.032149777725464186,-0.021316796034833066,-0.015679882782172586,-0.024807174399268973,-0.02422040262326407,-0.02478647188701738,0.007400987869172048,0.008757961002040153,-0.021494528746730614,-0.03589689267823892,0.017735115703594605,0.0237485091072929,0.025720876389093757,0.042717642496294554,0.01719753802503583,0.029190963276868376,0.0035234593259538577,0.016611004504804565,0.010981990305675546],[0.02229092227527694,0.03427777606934153,0.018139110753291887,0.019181609133530484,0.03099579399548197,0.004535570604601683,0.029706206343175643,0.00046664887524255113,0.018153106887836803,0.031262671862891826,0.021730354750824996,0.020304998821560043,0.031242421580645174,0.029208937857966685,0.006968226333758487,0.029018326730456494,0.011120038541635473,0.012063394309315665,0.01822970427374493,0.025736895733435166,0.03200042194045976,0.025413261646708714,0.024087062902729908,0.008840161339561963,0.02437751735686337,0.00854173164377051,0.02024784262827973,0.014006047517776534,0.02931461229460029,0.030951918960902523,0.012853440759996646,0.02091914874457011,0.035005037852132104,0.004029112613573578,0.017764339033318043,0.021137355203276722,0.011576982435332922,0.010585643813131236,0.030725768199276093,0.004993444699498537,0.02081644961906076,0.0007210314310099785,0.009415695070014732,0.007962250654554361,-0.024075117381817005,-0.0015160751183628028,0.03404552253704925,0.016535027004448387,0.004018914589439951,0.025821450498239047,0.01837950038273486,0.017446223700015612,0.022012767585117117,0.027674011455018355,0.029105729476896262,0.033239849855322356,0.023405814163431262,0.013504254653198766,0.033254338193251284,0.027759281213389598,0.010359419835939,0.008263932022269032,0.022948185147802575,0.023353494849493353,0.03428577285417933,0.03307794079750079,0.016547167606066747,0.011037535731781734,0.03397761685992137,0.018610794591811433,0.02668164087588039,0.009925159982784005,-0.012858811769014156,-0.031326862147266786,0.03321929608615514,0.08591955688702212,0.08066613859944476,0.0387847079828727,0.03913175500897501,0.029348426492758137,0.021628740592438942,-0.00021234192209506467,0.01715453569892944,0.0074329133975388996,0.021070092263093636,0.03156874967524983,0.0053061051566339066,0.03405147051688014,0.03323676817325409,0.001343358138345619,0.019544864438652988,0.020824758500203804,-0.002355794728185657,-0.015913887186527274,-0.031496308007731795,-0.036305224135968234,-0.013063909191427263,-0.02128995790232898,0.048603762524613944,0.10685202643128752,0.16353900545454406,0.2206671300674808,0.2639881273236676,0.31683878449992026,0.23615211263517427,0.1399335464629916,0.09517409577097634,0.05259992068725941,0.015855975255332527,0.024118840193226233,0.006261019755117408,0.0014209174485184503,0.02311632256947291,0.028562468435380527,0.018537647996218314,0.02957537008562426,0.03209212639667373,0.0035563389446363904,-0.0038764509928481084,-0.01957361923394014,-0.04680161190668167,-0.11670349582865983,-0.1772407899696559,-0.21659526810300309,-0.23721792889132734,-0.23357821661978587,-0.23394051323216705,-0.1863893470836903,-0.018860588637919135,0.030225200017147767,0.14372336138548558,0.1958854522313801,0.14203585160327498,0.06594115816104418,0.03198428064599444,0.055655176861020436,0.01298991596338323,0.011657895589217234,0.014158148542540263,0.007695413296420573,0.0016027001387892387,0.0020777806685449074,0.0075208262359745814,0.010736619379984508,0.025970293083425768,-0.01751981733329774,-0.027568797511966378,-0.06887333180455621,-0.04762181741033251,-0.08910418651150612,-0.20488229920562842,-0.30162973317471653,-0.2859635478316048,-0.26266957240378835,-0.33386026261733664,-0.2939889847612851,-0.4358658744114614,-0.3845777060018846,-0.2763192501701903,-0.17339830879335907,-0.16531610390123644,-0.12393976493978368,-0.03220233368927636,0.06545099528078745,0.04095388112236081,-0.01742929078387656,-0.013388987573855302,0.03409544956219729,0.0001443356529023863,0.020983759485733628,0.009684545726730772,0.008333085869159495,0.02887698199078704,0.08627995205486987,0.07302526013502328,0.027115442766687228,0.009577980608683388,-0.04941061164396513,-0.17066325711496208,-0.24354928066724943,-0.07173924457705023,-0.02788223707227734,-0.06291407340592382,-0.07457830035461024,-0.21016513400679004,-0.2161768534042414,-0.2782305361123935,-0.24050000926306744,-0.32707011796283336,-0.16227866992153533,-0.09096993317734191,-0.1308621489531489,-0.1472822848291875,-0.0974026799297464,0.0013590018722516317,0.015433524554497952,0.026907688826301325,0.013009668078352219,0.030614151881059894,0.026469815527643884,0.009434204158450971,0.06667667824436628,0.07154496621861328,-0.0023841393873667103,-0.10271676940483788,-0.011903302327508232,-0.024315031045889172,-0.006104652125013705,0.039266345779801905,-0.011685421443146903,-0.03987746145692537,-0.05260436495025814,-0.0035875102762428735,-0.05705034998034029,-0.14937961960000623,-0.2306768225375376,-0.149238240068822,-0.1420615550674598,-0.17118936015898664,-0.27136571570848306,-0.2557178829188598,-0.1533824872359162,-0.010587421150095576,0.004047759434482177,0.0026149019636191075,0.0171007634272427,0.014074247969290446,0.028920486964712357,0.03639775275341351,0.0589785965046773,0.04457772928443074,-0.05847382942666034,-0.09790938551271627,-0.05026896230285089,0.008330176010345195,-0.01604456324146393,-0.08610591772444277,-0.17722965071097854,-0.2640658432936218,-0.2980137600195671,-0.2013209697354738,-0.05991366268329155,0.012526479498076289,-0.1108828220915946,-0.0825205439552571,-0.13677088829218836,-0.25851228495442774,-0.2659860808965521,-0.33004219019513886,-0.19917372174089984,-0.05447777972743077,-0.00835844601209319,0.009487316305226291,0.02268258486664573,0.04452340991179075,0.0430214833842479,-0.003471173313013118,0.039377827872334056,-0.01592401871953597,-0.12126491877726038,-0.09110924721749072,-0.021676299304726962,0.056143660714011605,0.011602270958965676,0.1348875419611456,-0.04267317741602474,-0.14939509784340985,-0.15624774806393602,-0.07782461174139814,0.034205471868016896,0.050657691118200926,-0.016827074148105726,-0.16399422043244002,-0.25814825887761145,-0.3506661248409465,-0.3824202544122996,-0.3940417156766882,-0.2797963481172139,-0.09427761487861419,-0.01565211658115274,0.033994973725111066,0.03359579471790155,0.04269600899884406,0.05352856899058264,-0.01966744700390818,0.016014049946245806,-0.06338101578676694,-0.0384545405495373,0.019303985045823136,0.02832173701742316,0.10080110967925453,0.21866997951677206,0.2734648744726354,0.07201452718025143,-0.19464008481062636,-0.2207304269189651,0.06283552733123851,0.14253608228575138,0.11129228045288685,0.05878999800232747,-0.06319887520459885,-0.11231530365750664,-0.14245351404764936,-0.2617139475224522,-0.3401803813178299,-0.22367858430827744,-0.04670440073567622,-0.007450473754599043,0.014296222121552347,0.002850544883320806,0.02439002537167629,0.02629260606104848,0.00736411420891459,0.0356704816176799,0.07280828315082451,0.17338537419865924,0.26983883659893537,0.17003565306748547,0.3257848056618868,0.4650001536494064,0.31681380464911063,-0.10505551633452498,-0.32418000885317916,-0.011679808302125508,0.3792558478486017,0.4058991047209086,0.38566610905913234,0.2380463876315196,0.1109322138482878,0.05658731898041158,-0.04054514174964227,-0.1884760523386498,-0.19792222240978033,-0.10529106142539635,-0.028434702156310648,0.011933242304511265,0.0055952725214677415,0.030310019709450308,0.02574533435500201,0.05725564564323307,0.07278626597784892,0.09578497133949156,0.19228582742646044,0.28906045781923817,0.3346980868545414,0.24072294396179947,0.2535573043694935,0.2679377216863642,-0.024686275088744904,-0.32746395441342513,-0.2624621371261044,0.23219888938638464,0.5790559094080261,0.45391136436669105,0.37666033299214596,0.34820091810777776,0.22698393423953872,0.2041365443087671,0.12840334526149477,-0.0177577629841601,-0.0791106042769554,-0.03848212770076976,-0.011437858384545054,0.005438759452842407,0.02371542005782776,0.03468652573573963,0.022038156719942956,0.04664405628858405,0.11765034335065075,0.24028865282221842,0.3168820746122415,0.27385777327418415,0.24195885658134847,0.09106015440444389,0.14481420351802998,0.12106353082081381,-0.19398690075926367,-0.24601814412387882,-0.11761885408649346,0.378920542010512,0.48993044215307124,0.33103044725930514,0.29933877477238957,0.4022581378636745,0.38627749473263184,0.34642964649697033,0.2179071974069559,0.07330035482027453,-0.0038405277002065055,-0.015299268511171013,0.011279962501852914,0.031061944674510743,0.013780388199752944,0.017797382500273396,0.034429126552019906,0.03064639652840108,0.08403764086416984,0.22464435401797253,0.3284634363773595,0.27227236412737227,0.17506929178516054,0.010337377312027062,0.024813170488978666,0.07251820991516855,-0.0783701637291998,-0.23817789959632937,-0.14731689055825906,0.28903815717008347,0.4142603351125985,0.35321356654348507,0.3286352087840146,0.4974962614126434,0.4602042351374353,0.2578596812844284,0.18008330975451312,0.08597976605291283,0.01110350811484901,-0.007927406588595767,0.00508579254204656,0.0006803464796711987,0.03020733292968704,0.025518853273841326,0.009262674663882812,0.037398435847771666,0.07324834571094152,0.1157312122928127,0.2245681997705137,0.200901809554452,0.09121016556872696,-0.0007979199697910696,0.09004205549875513,0.17367484136546305,-0.13252686420507914,-0.3774018724040104,-0.1332266642168985,0.35946350387080817,0.42390344114300504,0.49224980669914403,0.33909004426794026,0.32613935546840117,0.34834066371428374,0.17372081459699742,0.09698850400578915,0.016185303096240646,-0.04531427897503333,-0.012611670300171388,0.0003068026443368814,0.020235321752122958,0.0008206925187044772,0.034953160448651856,-0.011498847026273858,-0.021701415007115768,-0.010663005285632295,0.017049569359793154,0.004050227443143257,0.12271466496096557,0.13300346955937117,0.03938745533882574,0.027305587009867485,0.021820294831630834,-0.201838088739739,-0.2769111192867582,0.09389892131717585,0.4770595374930323,0.2674536927885284,0.2806233076884374,0.18979479514080824,0.0906664862668796,0.08634250430727305,-0.005036781698005171,-0.08173577744254318,-0.14926271131160693,-0.1501449784251785,-0.07856039895283794,0.004322148559633379,0.023584733742696578,0.01970920766251336,0.0078596409504432,0.0059543973455265554,-0.0738894964516951,-0.08868508061236184,-0.14293504619714717,-0.14377716479420882,-0.02646386036892825,0.10405227157207866,0.16580581875048037,0.08941031180059608,0.011991793774585084,-0.1149086747442718,-0.0017116213875838524,0.2017461702372123,0.4277313094941508,0.20647698274320322,0.055875504772233076,-0.03768896640855768,-0.1657431716475624,-0.144966214237834,-0.20515684313331886,-0.2910180240911159,-0.2773791974526303,-0.20596060339140349,-0.0996376316868977,-0.0005842466414893756,0.023635927833556798,0.022082228843845593,0.026831881927283856,-0.018046720305988508,-0.05251912509426261,-0.12712326114238118,-0.21100945953739006,-0.3573964501973722,-0.2978418099703234,-0.2582326921855165,-0.2217028419259187,-0.13692467428809324,-0.04424109452351933,-0.12682825150427676,-0.0509263065600675,0.0952800738733196,0.1765066838378818,0.027789615316729865,-0.06471158778210397,-0.21294512897901274,-0.18498036456357145,-0.16822531757583054,-0.31820492397622585,-0.4341418841569487,-0.3877829703220552,-0.265439040056868,-0.09902833045762587,0.023239881972799692,0.028622113400400995,0.031140974380555048,0.02525187919377797,-0.004188762015041691,-0.01758163301802555,-0.11375890889845038,-0.23135237274612017,-0.43464272924735026,-0.5588389656862895,-0.6784051503934594,-0.6332983832260132,-0.3563863873380471,-0.13069669601336137,-0.07697796703469917,-0.06067837796455209,0.011326636479765078,-0.021492105215108727,-0.03419859248146498,-0.03709620215832204,-0.16430195930562605,-0.18763032039462138,-0.20301279683438855,-0.3491212934332263,-0.40094226533135113,-0.32249189238725795,-0.1900238967153075,-0.0503722834208662,0.0032176278318682295,0.011825597530366693,0.007590988872565445,0.01988559756103508,0.0029493048320592312,-0.033179002810207164,-0.14935019535873267,-0.2800547660743971,-0.5125538111494198,-0.7151229762993214,-0.8458621734252818,-0.7829473378185978,-0.4557925932016861,-0.302553168992369,-0.05551894189374326,0.09817288508943406,0.118414622865436,0.016808823387461883,0.0439540623799893,-0.07072389030168628,-0.23760165011382633,-0.2324519643669056,-0.30642048288160306,-0.33495375366873537,-0.3210510143171619,-0.233971612592588,-0.10631863155704323,-0.018204444320197376,0.028956829606079808,0.033437883641167426,0.01970599366364435,0.03535600138788615,0.011270208645179306,-0.04081360388011371,-0.14890227194915323,-0.2751577685851151,-0.50878583515484,-0.6116101250255184,-0.5981849217867192,-0.4733476132194533,-0.3980086318410773,-0.24203542469930345,-0.000014576514996153636,0.011282812313513696,0.047177954568006226,-0.04343654493379439,0.051966273806205734,-0.08868185739235929,-0.30393452498204937,-0.3151414146355366,-0.33127445272972744,-0.23073648571002042,-0.23849792843193227,-0.15345465373280234,-0.03245285428329408,0.018914647047227444,0.03042065230493817,0.009135720247930076,0.010895901135549668,0.014929309965951472,-0.011227296960975354,-0.03325070096239735,-0.0948092800282116,-0.23164290217947486,-0.35330056542275223,-0.37753228870804406,-0.23071317808132502,-0.22927618754483897,-0.39313561403354585,-0.5031426481116578,-0.3657948886964718,-0.3659525156035165,-0.2563314381736553,-0.13862695489179194,-0.10837111577866362,-0.2721683010042662,-0.2889665124718579,-0.29400792595339076,-0.2004761230876701,-0.11829725789958437,-0.05355381910153536,-0.09116386756975176,-0.02588664231239764,0.004525526161918853,0.0028264508595754016,0.004662292843862216,0.0023064619755418037,0.020823907184340424,-0.01817264900652484,-0.0022339911903130763,-0.0450175174013502,-0.08097971341196968,-0.10814890960980864,-0.07301186702124124,-0.03780359435748208,-0.09981297344162088,-0.19804069738883878,-0.4378272828160446,-0.5080825513269241,-0.527868443062283,-0.44917247087311096,-0.4368273430037427,-0.33631226805764236,-0.32139928913468546,-0.20428720919817836,-0.09512953728286294,-0.04001004338083606,0.051600881362747895,0.06307106024774528,0.0151676601798939,-0.003045636217359743,0.0016178446779732847,0.020888262723288902,0.025748352615049788,0.001201758096171893,0.010093386556587456,0.014453170857482123,0.01854750679931038,0.048003453833232734,0.08168362046500306,0.09777424454773957,0.15098446571117877,0.10728881498994944,0.03794979264088255,0.10738926144078925,-0.12535589529278676,-0.1699051990894933,-0.134701377527297,-0.21056624670051222,-0.11814323066861421,0.015946026820381085,0.02814541620822574,0.0309433496263126,0.10701927414418143,0.11883010484281514,0.11901799779801775,0.08872134532808504,0.05826710664771745,0.0005707817994058029,0.017141236380682528,0.002017732605611677,0.020933764964619215,0.0223859512886506,0.03541355386576852,0.031437761527406516,0.004232915566560408,0.018283044001681972,0.09937566971413013,0.14534792266887483,0.19540310549526108,0.19657382047517727,0.13932869228532124,0.14123478800752817,0.1455239977171856,0.09052987201101424,0.07786242603619363,0.09013352710191978,0.0907401819010179,0.11057941911262043,0.11839576515253533,0.17155907037199605,0.15288187372563944,0.12211150098144295,0.08838474306066167,0.0743208822461921,0.010189247860417826,0.011506587578384702,0.02359337440017523,0.028707426948767108,0.02322967480326563,0.0031424183268902095,0.022865397920251995,0.033833896606490936,0.024808039528686963,0.0406055702009168,0.03377378313025716,0.09679094231413356,0.14504919279007072,0.13715968545841878,0.1380047601070195,0.11671195631428675,0.12187930663036085,0.13424231661071942,0.1404250049798121,0.17902049174345405,0.1166566118920402,0.09501061737187956,0.07524948847108369,0.06322527290482659,0.10000758453394223,0.06381265190314259,0.0396537291386524,0.036899526442175104,0.024764136394833148,0.033090369367601846,0.006120066211984754,0.02971512110210654,0.0267262341949251,0.010852963375122125,0.010269943022164314,0.030982208475811616,0.018742067770446385,0.004667285484030369,0.01928674779798014,0.020749489514453396,0.008986208743517918,0.031253256591494485,0.015077865505697851,0.01328242917938404,-0.004352326644154486,0.027547193579517525,0.0315580796395512,0.0453390531275546,0.033139034390736816,0.0399036421238758,0.03634546875330971,0.034322402835101774,0.0032109457591491717,0.011831101404184922,0.03475854707025944,0.013798101138119398,0.005207893859423404,0.0034404073387819495,0.015536922783342042,0.03223213794557129,0.019804435210538318],[0.014064362965240884,0.010350358990600288,0.0029960071734444244,0.03413052078476887,0.0053786072500769545,0.02245100246296697,0.007978723506136385,0.00024038380937957404,0.015263145888248333,0.03131239137270595,0.03466420709530126,0.03481894680995167,0.01958375754441236,0.034968734843102284,0.033854074950125705,0.018962140708089364,0.023844807800738006,0.03193524815654862,0.03368603224355797,0.0018137569775598186,0.02531708259832142,0.020644478159209223,0.03380499495504402,0.019152227936951087,0.03326703643671408,0.014430020542037816,0.0023322343839294163,0.006778322281783925,0.030071335041018516,0.0196880460387209,0.03445892111753401,0.011345042369863658,0.025442922813596947,0.01574198331556297,0.03207872624039405,0.012148308928492661,0.02010264012494724,0.02360255405120786,0.02226794981326634,0.013144155104509113,0.006958310384869064,0.024154561549007848,0.003495883683047907,0.017367343131689465,0.029755857736711796,0.016778035439215588,0.023793843870059676,0.008569892173929903,0.004582217209964119,0.005428904158895287,0.030120417782366914,0.029848859459198112,0.0068683123900913435,0.02618986524463544,0.014541455190745622,0.002763231955333551,0.02366360946195406,0.03244702442762699,0.011313864793292024,0.024100575307110194,0.02763675059999517,0.03340189238730279,0.01770164014880603,-0.0010532727600336298,0.006662166872583964,0.030980162193060382,0.02352967670465283,0.005792203644808825,0.01488252111330792,-0.024494997614036472,-0.020332426201114816,-0.021965279616750478,0.0022465819541634,-0.0014222860145818592,0.010493183321620306,0.0027936306665791917,0.011947915598792266,0.0011347339422857021,0.02725072464190821,0.007157162857648897,0.0006603300373232824,0.0006945352160822735,0.0022429315932358767,0.0213446725578524,0.006290676969999488,0.032820469012310345,0.014017888444911794,0.007463806341174056,0.019145085821149543,0.0314272265593378,0.03104402461756208,0.022432108524486124,0.008856288018298256,0.03371277752341453,0.009848457564730089,0.004776353427092677,-0.051989490890609225,-0.05056567315773065,-0.08579120616293384,-0.09794311410557167,-0.08849530025925124,-0.07943264753170914,-0.03962133634242075,-0.0345740814755542,-0.0026138940595174165,0.022324647113365688,0.0388231957038654,0.02629449821740698,0.019559950470997175,0.011379878813386392,0.009639005936824527,0.01207436988030006,0.014971931049773925,0.009748940797849725,0.000617849183057493,0.029733218148939984,0.017106874495691843,0.018391884181428265,-0.0213945829838442,-0.031227420718760546,-0.03906452138252672,-0.05480474432349169,-0.0901239475862298,-0.10588657152384609,-0.11876983939636071,-0.08523118171467661,-0.052714491273144676,-0.09277861764042059,-0.15462396429424177,-0.14313911495488993,-0.15529718841164555,-0.11413913286930194,-0.08123534967619898,-0.02542887479390668,0.02345444295481,0.03442170851413662,0.01750295268870913,0.01518680075493164,0.02501164485451592,0.025011095592343595,0.020650534076355642,0.033653573636457615,0.0031681735176311535,0.017757233607276674,0.006078649473755213,-0.020261530053185338,-0.047812750462549465,-0.0824575332101964,-0.1274882421594352,-0.1183477601228656,-0.13113495355982216,-0.10737262178127069,-0.07903051327880853,-0.054575455268249994,0.04014371203309462,0.029802113865859837,0.09008699481276956,0.07719184069308317,-0.028270919222820573,-0.1261132768384419,-0.11901167188679876,-0.04847130041579935,0.049189952819576326,0.056655523892049885,0.04377696068670167,0.03222520039268977,0.016726957103850956,0.03462149988500194,0.001785532032209658,0.021180072574003308,-0.0026362130941315087,-0.016416297387151852,-0.0330104451686287,-0.07409557771998784,-0.1309434402931882,-0.0870938481437666,-0.12841793915502256,-0.0932164685214758,-0.10196243561220504,-0.13543728752464357,-0.2086571985123486,-0.2472423533071712,-0.2972411109133213,-0.2172467461578549,-0.20910452611522806,-0.20011021839820362,-0.21260683575074898,-0.14118726925382477,-0.1473337894911106,-0.06227998593250512,0.07351138334292247,0.18310270489479352,0.09014767756180399,0.03417653552465216,0.021637934071373835,0.03350172208109548,0.03229301357598463,0.03347064322609651,-0.012286424637931113,-0.017995948113583824,-0.06867925472391324,-0.14073778906623424,-0.13560771552381073,-0.11530946410389327,-0.14445659555045928,-0.05396209885494144,-0.06323935726196216,-0.12504058272502508,-0.24127003910709618,-0.24590976927055277,-0.33801776455140325,-0.22787016781816977,-0.17537377625274236,-0.10294441923125301,-0.12076787232574018,-0.06036329071421453,-0.08283654399424077,0.028395494885716428,0.22087814818949408,0.24492012890520998,0.19294240002873075,0.07909489239749476,0.009895698094250175,0.011007599701503326,0.02265111402912034,0.02377294737688838,-0.005879523037880347,-0.04903593602091307,-0.09300819575819122,-0.07823770118318754,-0.03276600612557428,-0.08435902311018997,-0.15686621058043632,0.006656037563519471,-0.12300615264491671,-0.2500522665558459,-0.23871017769178648,-0.09254433489587893,-0.10737881813939512,-0.032095469684942875,-0.0060741980296476,0.048128159790073836,0.03527450336351165,0.14761701166096017,0.14789569067390357,0.14007211630082766,0.17576419472167898,0.19907040238465631,0.17983045900829056,0.08339759665347081,0.048694840339664223,0.009902513153913172,0.007904901661679835,0.011708680320922987,-0.021137248255564248,-0.08985380232815203,-0.13833367083014858,-0.13211949680831236,0.023614944249869416,-0.028301790035400908,-0.10894622180460177,-0.03655758419541748,-0.05055735590853386,-0.03052794648434988,0.025099605731756066,0.010438287801678964,-0.1774011370343822,-0.17415973892148962,-0.08533813117454314,-0.04628666004427448,0.040475438205499883,0.07433082790597118,0.06699995088238712,0.063962352534029,0.10237943722545072,0.12174282115803929,0.16579536987913354,0.08414757133067662,0.04727552671657876,0.025352615852047046,0.031564394356500144,0.020197111616915092,-0.040029671081774014,-0.10614058049562676,-0.09871899857089446,-0.09665622692196627,0.009957526320741575,-0.026242625108747197,-0.037869289600876134,0.013610201532718877,0.09310934495906853,0.11747191764305859,0.2563534167796408,0.027403037819957028,-0.23418271879744648,-0.308726804731948,-0.3685370917231874,-0.21456909965405113,-0.13744376517833898,-0.0023550633531090335,-0.0863869015068373,-0.08794143995692841,0.0004887741287707453,0.03578085424439695,0.09177050027572312,0.06290496396153072,0.007826527240810763,0.01011845839282734,0.02862469899358456,-0.005389762580382356,-0.047218624973234424,-0.08773954742102488,-0.05424359111181211,0.006451973049453103,0.029510339198776367,0.003926095976338516,0.03566304035762671,0.047337346967040714,0.11293699028236051,0.100219455599163,0.17190314782037908,-0.01707285692379245,-0.22867174597823306,-0.3655928251217933,-0.31911860536902575,-0.25709980587043574,-0.1745457715904787,-0.05480360498015695,-0.11285235559160504,-0.11340641509660915,-0.002318034652788762,-0.009150886686957876,0.038170339436990976,0.03545927435128639,0.003536723642161669,0.02745361095939126,0.03379918499519132,0.007460987392904883,-0.003025469044984639,-0.06664186327762302,-0.012357645989054132,0.00026460722846864915,0.03801033051404134,0.013856918579287716,-0.05110334603911721,-0.051127097102451495,-0.02700987072352964,0.11063314033503509,0.14150473895376528,0.06473637243195471,-0.02377828890758771,-0.1445295550106103,-0.15456607704895378,-0.15683483470625248,-0.03417839560294741,0.08397877301506022,-0.004106689481020841,0.042241662461109254,0.00774956105621875,-0.02004229265943201,-0.0014434113595802262,0.016811471024787177,0.004514298694130442,0.023874477526161047,0.014069040733796433,0.009127820583197128,-0.01954011236006022,-0.02634444480878468,0.01635667173118441,0.057476317351422716,0.06261829044441647,0.07973568535150302,0.000306973256677432,0.016819750138200987,0.055615769085520884,0.20810327481853316,0.37437356572750385,0.3953317027698671,0.2181206148211883,0.16955830401724917,0.08447554554864925,-0.022998393617556852,0.036640334166462236,0.1294392845412238,0.07509949112315785,0.05833143617412746,-0.0075327021982863965,-0.01789171363435935,-0.014250142184508272,0.02656526826222199,0.008702505918225086,0.02087952584450971,0.03539295561840299,0.01531622366273284,-0.00753186964907997,-0.027926919317383583,0.04585121236606839,0.11499835578917286,0.18794061992836908,0.18939327711778217,0.06009276644904754,0.06191438660153964,0.21602996898893007,0.3944782538785461,0.4969382632888216,0.48772346753353596,0.24266021538711458,0.14701558487375713,0.11618003188516475,0.04077557912308812,-0.03814197229795737,0.0023499376480290387,-0.0463427146606722,-0.10866163233327854,-0.04614830997530182,-0.01568164646676257,-0.029762861759964364,0.008440549661263863,0.013059232939138063,0.03141757641963698,0.021338826539861,0.013479157819594427,-0.002124395047367365,-0.002254879861051674,0.028200529098338492,0.1294512301050931,0.24026291603474242,0.28189161060127993,0.2333792684104347,0.09256458792733595,0.08247637354343,0.16044824277211062,0.29189946368845127,0.3705125316327296,0.13823459554633613,0.010007567458698519,0.07093736227280488,0.016796318462070803,-0.06613743334857025,-0.11484115533043497,-0.26756331587000415,-0.2894794142570485,-0.14189709712364074,-0.04116081723075586,0.006542663421275791,0.04949874811016138,0.02583890915392912,0.02392731891096003,0.026239235080451933,0.025063713790547733,0.00013812915744518758,0.005161377405330405,0.017998180125254518,0.06566011139574819,0.21130327257047335,0.2766259510591801,0.31289679804655024,0.16941424097299568,0.09559007674506141,0.11651460097991953,0.2818580239630317,0.29344227136941864,0.1512042342858801,-0.03083569477260241,0.03216760375282208,0.06908020209527191,-0.07448779719258322,-0.2050556989803367,-0.29252200538182976,-0.23748902377532516,-0.1678795970542262,-0.008556931005596189,0.029854008820216132,0.08432805616632723,0.0207285291247742,0.012789271536353926,0.035397289334997105,0.008495129157561116,-0.004685660781029372,-0.009794841661431656,-0.003954575901861879,-0.018653884978372625,0.143465105243145,0.29926260082408535,0.34586947815915986,0.2767362520860972,0.20570028791176084,0.3117185455034441,0.459540309382892,0.3662856442608407,0.20806673527030028,0.08486047606859887,0.13521553988652815,0.034230946278312004,-0.09517945067358856,-0.2865072938308435,-0.28730402162565977,-0.21179803640936642,-0.13641579671808204,0.008484183038019589,0.05888107164949785,0.05222100493566859,0.020229561280022276,0.03513886182956598,0.03167838828106129,0.016782579751489075,0.010044699294926022,-0.046943796782981495,-0.0910204705176564,-0.023508634468849647,0.1293805149443523,0.2995923961992973,0.4210856066050803,0.5302546534296845,0.6045545654661378,0.6655896935580345,0.6947550366369777,0.4298094750486056,0.1753685747600501,0.16587138209050808,0.13243464266926674,-0.05143269608316238,-0.12217019958519493,-0.1928182728388859,-0.22866688406514646,-0.16921529654214604,-0.04331376758793542,0.09935271222808781,0.13754472353681624,0.06011228969407945,0.02626738809302187,0.0019863916090528022,0.0112657404397724,0.015206013239337549,-0.0028953132064542366,-0.07043957989278336,-0.09954067172056257,-0.05783675901685224,0.052849009236541296,0.20596161049719844,0.4268925431891062,0.6013705370909366,0.7362520970795712,0.7190479575603035,0.5768313775994939,0.29910002795325624,0.22844018580853642,0.22969029662190477,0.1868410772707874,0.012670059505855532,-0.03539953426023413,-0.03833128536053411,-0.10683635481283894,-0.007157783178457861,0.11505751284814905,0.1774456236762169,0.13576021098411287,0.05287761412922252,0.027674658693877505,0.017949119706260758,0.02575587095997528,0.0031973010716857936,0.01040706561215622,-0.09727277169911666,-0.14824811610226418,-0.10183135123682735,0.010765819931654807,0.15371972392615854,0.3212035315453408,0.4002581676775168,0.4139212037625863,0.38751508195649137,0.1870046252842495,0.06959946845808528,0.12332771947490297,0.12015410988655005,0.04459839035079063,0.04996969203194205,0.05497742751472314,0.07162725097959119,-0.008537898991435654,0.0988778228049919,0.17246072990368902,0.17601214109362834,0.1042122495953204,0.025452192377976038,0.01756044623971136,0.033565541453552936,0.01871292203211485,0.017611410349329164,0.017517844412325016,-0.0643205595048294,-0.12288872223051493,-0.11183443971654533,-0.0011060693078554337,0.07461530016532995,0.21331562753712935,0.2010969353208096,0.1377175492715392,0.0027593580701823447,-0.1533416829376812,-0.0778828442319075,-0.027012194174077058,-0.06061225343060873,-0.021925104461108316,0.044127084820330675,0.09766067083047929,0.06551476978640336,0.07318023417299473,0.15452051949477857,0.19213355800543203,0.1387162300414341,0.07095342124457094,0.011314763427367319,0.022017718370796892,0.02311291416874093,0.02433829523225595,0.03562925442967136,0.012633373981966012,-0.044629844754643856,-0.08278064425332643,-0.11669559601938062,-0.04833000128304699,-0.02714088288508089,-0.0031868622345699606,-0.07809787149301144,-0.16395139053001215,-0.2681519062453466,-0.3225065415760879,-0.23659344806938665,-0.1961760191744958,-0.23526338118911416,-0.08490667793286336,-0.033598372358071664,0.019500641151773607,0.03579854043781627,0.08492808421371645,0.1564191229880354,0.10811378207822876,0.10224352314211428,0.03690765024398489,0.026271074401947585,0.034797281768807545,0.013766256955611048,0.026032384733951714,0.00742550376212453,0.0055968485384578675,-0.00445375362744991,-0.06533608756953886,-0.09030163841564026,-0.14963886155092104,-0.19640244831392847,-0.19076505507333782,-0.200650306450186,-0.3109702819289598,-0.23879584856403796,-0.20825865274004868,-0.12953832775774443,-0.19837220618757542,-0.2060923796883809,-0.13876623934498472,-0.0964819334945628,-0.025795999376277027,0.049222557574971335,0.12289535133905416,0.11414009231903259,0.06683016233066214,0.05108996916982829,0.03742848307781952,0.030491591494382644,0.028729706721328074,0.004992303537059912,0.03360902461525982,0.031986927187977354,0.011480456600190009,0.0018450982302164187,-0.04578843629624367,-0.10858964616470439,-0.21379028247260942,-0.32355793932531546,-0.36045727638003744,-0.32503970670884613,-0.2332466565981907,-0.1485410359758753,-0.10368285627035972,-0.1307902192361415,-0.12112321918764707,-0.218385049290614,-0.1881635293178433,-0.1082720915959828,0.022422222890272975,0.09434801660638048,0.0947317781402115,0.02665182157057052,0.0033446279636273166,0.017000307360857503,0.041951623777146126,0.03389896671412535,0.004092118295740792,0.03175466019744396,0.015287427284485178,0.021897192828176,0.035082080004834613,0.0087014405695126,-0.00568806883944825,-0.04752511180193742,-0.1119935994527943,-0.19923797054350653,-0.2835677231484277,-0.29126792492156095,-0.2699059391412951,-0.290432299164284,-0.3242648667790755,-0.2916252423355366,-0.260575417719448,-0.2944179755567863,-0.17164301299149337,-0.15917937460675652,-0.10512280714421181,-0.05003623457731467,0.014408567545857369,0.0051663729490665925,0.006495274682099734,0.022942910757245406,0.01166943593527876,0.025220951625904202,0.009573658487607372,0.002306831207421684,0.015513825559697532,0.029281138015892327,0.010388727510342881,0.018534327339570167,-0.004759135499206485,0.010893967113442224,-0.019327288826529093,-0.04330483676659274,-0.07368181493450734,-0.05253245243201707,-0.02460748338336056,-0.05581341869401284,-0.08839603591268631,-0.14980975954093476,-0.13631823561133283,-0.09560690453796374,-0.07046244483717125,-0.0451797680983563,-0.03459664173738161,-0.003616374715510894,0.030963684308649438,0.014164854395809338,0.02678179097046567,0.0235616274877749,0.021294604228171594,0.01597559090385076,0.034631605987061075,0.030549331731451974,0.0013494158200006673,0.03142346738450875,0.03472253281858844,0.0037015591901176093,0.019708013971254476,0.022374297627648955,0.01488070591336721,0.022965358299020508,0.005303586856698017,-0.003226920251298788,0.0005210531246655521,-0.0013419736166722465,-0.00942038804654906,-0.012353294616315,-0.016250350788134436,0.009363302199993687,0.016455097217848415,-0.0038387975675778963,-0.025745218919427274,0.011661373936506703,0.0320346605864094,0.029457905994008462,0.012185693565814915,0.02806448725538509,0.008226823536623342,0.02434642111723756,0.028013746066437313,0.019006328631438918],[0.030162515796804314,0.03189598111475781,0.019710249963768505,0.02390063132828942,0.010929211580108717,0.018981377677871107,0.014119342558627996,0.015947548929584072,0.03142043506226046,0.034830188825561006,0.011303111005764128,0.031037170819721564,0.009647542581522268,0.006148246996566812,0.024243683919611115,0.014244229578264362,0.005630769437903542,0.012854406104171776,0.01089565765913739,0.031181866797371973,0.01802362316463178,0.011381268753281009,0.024022457798230867,0.014046437390460844,0.009605763418024311,0.024384202946801763,0.002636194112095734,0.004033257399314982,0.026164824234573773,0.019282086308732287,0.0015175011833012872,0.007926552290842381,0.03200273435226201,0.013379452768135765,0.010659948308963598,0.027465207158194546,0.007921788628208115,0.02142202927933589,0.026150646209563373,0.035829742447292146,0.008958402275530833,0.0034232787817425527,0.018160901443081832,0.018672182804598314,0.008287537602702622,0.01631265651629056,0.013438773522416996,0.015493875897083769,0.030859706259726626,0.0009171666372507872,0.03470841183814199,0.004043423668358244,0.007350567487098646,0.013818537740359658,0.014657464388604102,0.006741354413457079,0.003454303127804418,0.01160190566649286,0.0173649993557736,0.029864518140865905,0.007032086899300942,0.027237003545091377,0.021950604586379853,0.01880165151522439,0.0033210457575113647,0.036819490636414764,0.019795139070991657,0.017439124421572208,0.0051029877389049344,0.011055126464030432,0.0259311182890441,0.03771207777848011,0.022567063165631025,0.032385677616040866,0.013636918843913494,0.03042369787700432,0.007352338423537155,0.0217019204769408,0.02978473857136184,0.010562837182871047,0.0014144210841738377,0.005187597361798761,0.005992221074467127,0.00795315084382591,0.030743849325445088,0.027888515743466298,0.0011067182365904022,0.02746815391220656,0.02106903511470523,-0.0006967217520179188,0.019778943130908583,0.020883229876232635,0.028212326910742554,0.028009428585694638,0.034647387500509816,0.012596796170497368,-0.0020051769556804063,0.014274410012908143,0.025787659110822165,0.050977997820475615,0.026544722255582562,0.0538752958326663,0.020312487583853324,0.03498148795111666,-0.0025116753175875714,0.0008001861238256566,0.034163558912475314,0.011833116148744554,0.02795807284560688,0.022187514729377314,0.006306203795657959,0.009295080140008698,0.01982116850931765,0.035350544220003687,0.031169153026165977,0.03505859962138282,0.0007144432694370143,-0.003912262763606812,-0.01922456080538548,-0.029263198856572265,-0.07931432781783303,-0.09265938228367987,-0.11524706351804755,-0.1278641789857018,-0.08401526847807579,-0.04017525125140141,0.053367469575109766,0.11204474644495895,0.1440679160141967,0.11555897181342818,0.1158927663818595,0.07022970148267631,0.08046442753016786,0.08956833800293273,0.05358060509003129,0.03996069945317117,0.0374373212711615,0.02177902934862194,0.03321914956861348,0.02061665472916002,0.03138060916122889,0.011975625379987928,0.009965882897621786,0.033395631611462244,0.02083153594244699,-0.03068102824450814,-0.05703251515212779,-0.11977552499770726,-0.1626197511195278,-0.16903084400680163,-0.22453985191171688,-0.22947991909222487,-0.14913769071467448,-0.03970392327656347,0.2069252321101887,0.388014571879206,0.527679027124393,0.49225479216325246,0.38382036180282403,0.32037494621113677,0.2759244946003018,0.2668724216067061,0.2047205984427463,0.14361405882949008,0.07096893754427708,0.013218311788300833,0.013706005801767611,0.023390640222241625,0.032325766154020545,0.005766971598118239,0.0248123602955532,0.010937313866537773,-0.029214095658403657,-0.06766556119600861,-0.1491559481638888,-0.10842232048025092,-0.10390135760412586,-0.10855836836595723,-0.16432175820136238,-0.18158406582883463,-0.2607446960482295,-0.2724783037418944,-0.2001466379474661,-0.08058392227493945,0.0015312655975369721,0.10956695457516638,0.1385150454912919,0.2848666410894508,0.3157018738928568,0.3434119140703438,0.3523181890594919,0.314408916072076,0.16782508017572523,0.06011059421003926,0.0142164866006301,0.023132873852139458,0.027518289589017714,0.03370072669801808,0.012044731175400801,-0.00858824329277939,-0.03411309781690027,-0.103814255685792,-0.07717015488218693,-0.001962242132126167,-0.017351348208469283,-0.041269991077576146,-0.08595925852739227,-0.09192773381483962,-0.2151774049600309,-0.37048507184617013,-0.5960498749459106,-0.5405039550930942,-0.4334132670405724,-0.14235733792859195,0.030778719882974027,0.1488216461883522,0.20051777387930944,0.3503871064682568,0.43818559141795843,0.3678640538414289,0.24395126145346577,0.10962213045478238,0.04356170069640127,0.027420454589867534,0.015188668286791631,0.015036489599163254,-0.016996877382372905,-0.04080221119858122,-0.07775681546225972,-0.05249736506475301,-0.024400872557308103,0.05315934240104304,0.014730559210187665,0.026794423037454728,-0.10239329716557603,-0.14177339024629662,-0.22653043330502134,-0.42564245730378064,-0.6264296291167377,-0.47730942447689795,-0.24647555746045852,-0.08904705702748193,0.010511930452154844,0.15397721800688674,0.21988315508824138,0.2411001041281424,0.2902684627509729,0.31771968447622684,0.2478391100057418,0.1314872917663486,0.03860388450491716,0.030487038536578852,0.02417382869188586,0.026591231817414213,-0.010730111730017288,-0.03599792836929324,-0.03744706956918167,-0.04047907701338147,-0.005153462505199871,0.0712839866771995,0.024081889745585852,-0.06611708030897098,-0.2588527073332789,-0.17562767147780745,-0.2745550481891479,-0.48645929901739154,-0.6638714269611454,-0.41288195364111707,-0.05734261066352647,-0.047329058832937476,0.04688148602865765,0.09266467190191187,0.06900079048793044,0.12930475424869578,0.18717386583457893,0.2500260738790969,0.22032814544998594,0.10330581061269684,0.02260275938429556,0.005397763635814383,0.014974745597080518,0.025504865347896293,-0.0038130194377230388,-0.042874893319369944,-0.031193158874104707,-0.03362618412107157,-0.043384926071285995,0.01600682910081039,0.015219251897352177,-0.028240190023245293,-0.1285725728573092,-0.14652081921804674,-0.1375528224344073,-0.31027490191026,-0.395287970991043,-0.12944455473967073,-0.03494839533940836,-0.07374619864022376,-0.055432193808438834,-0.09555956989204244,-0.17811483393526598,-0.09040923302869348,0.04317498012721457,0.09353226041008657,0.13074283029508688,0.0919071857766855,0.022395120314661995,0.01213636215025153,0.0123730917633789,0.004256336973534554,-0.0009645026486493111,-0.02327686111432107,-0.019864046645637994,-0.04601381701199152,-0.08564874087978136,-0.014415218775788777,-0.04887367333421683,0.015344858343232298,0.02663758214638925,0.06909040996611325,0.2084481616148562,0.004838583303940167,-0.15229027353060962,-0.08330751032565842,0.03992394273463035,-0.08086527098820706,-0.220475770059739,-0.31949321445698875,-0.36761749409729017,-0.22819424686213877,-0.06540560278449016,0.04164538626136024,0.09923414988034106,0.041273972926784974,0.011651552885265912,0.011092561476855313,0.015868796368667566,0.003528971571315254,0.005779885337994219,-0.0006731128294087478,-0.06730304890535588,-0.07518105347693642,-0.055711584646781075,-0.04359471211469815,0.004804691253882476,-0.0009008680241405454,0.19393149829787074,0.3813076339976362,0.46683703246448366,0.1002003649098456,-0.1906407485103465,-0.1789856861960327,-0.0945310226597994,-0.12215629947367174,-0.27909516359320036,-0.3921387525302194,-0.30311084399332466,-0.14308573657880277,-0.05004642303067215,0.031533477314113725,0.063217183276669,0.04396219255601734,0.01055668982972136,0.035434663451127855,0.008683839569937875,0.0017264654460116533,-0.006789582246821235,-0.02245851646751828,-0.05216557505352908,-0.06074738991068394,-0.020323871262650176,-0.01888488741111485,0.05351139703171296,0.14962243571025136,0.33508924980089755,0.5414634339310165,0.4853574245975127,0.11049856133059088,-0.2450213941593746,-0.22103763869448162,-0.17514914994636333,-0.23134014134456135,-0.3416621487701814,-0.28183375276817685,-0.17863166659747265,0.016167650989694242,0.05760088278439459,0.08235127094404177,0.07962763144526439,0.02342259207648234,0.029628559047667466,0.017369049685820034,0.032324050490474515,0.02718763543942786,0.004638499333971765,-0.00046281508114766367,-0.039943537776448365,0.001383827206121404,0.07405485779385126,0.037448054936196976,0.18011699706389198,0.23763596006165516,0.29049005544575307,0.370169061662298,0.3018985961187854,0.08907197033772286,-0.12242488188211154,-0.23014332217644887,-0.18670581181785717,-0.25193432486322814,-0.2794598314678752,-0.1382921522446577,-0.010149204240593207,0.1297942576063657,0.17452960965498782,0.1516068656199916,0.0769481856800205,0.013116885622896332,0.001872799558603166,0.00792982147684937,0.00446220779277632,0.031167315929795204,0.03004473124178836,0.017426681939053595,-0.005128768303984615,0.05406673137511378,0.14731140391610784,0.09015623018551105,0.15462259854690416,0.12022154083975513,0.04755417087027298,0.09204132158242181,0.23890356605871504,0.21736364168429265,0.11802056497294602,-0.07996807836758371,-0.1325036851297697,-0.22020130198217353,-0.1294903553487192,0.018137477988377355,0.006064807032640167,0.1391445015277647,0.157291730390284,0.14777850831507985,0.08260123351499901,0.023191312739829398,0.012325129176759056,0.013095257466401479,0.026620103101756176,0.00028761738795086994,0.0013208704143274942,0.008206103162902526,0.04150731256339834,0.07719262805212855,0.24357735511037548,0.08649136999051109,-0.0008183888059766898,-0.025821358649249993,-0.08657437043716287,-0.01383083761012942,0.1758717115459799,0.2785118977060073,0.2339338875057782,0.049258912137405006,-0.005044866899960964,-0.05748244051848301,0.0040311007827868745,0.041535060130617266,0.01650409433399817,0.06966581478151802,0.05822775156534557,0.13202773653308658,0.1159573458764763,0.07390679459925173,0.02803446099605301,0.03275246734466115,0.017703180263505338,0.014817476906605044,0.016139838529508836,-0.001453753921659026,0.04965179314760834,0.11483220332299307,0.2085405223771275,0.1481013981259441,0.003412424118430802,-0.11125506117868925,-0.08864003625150368,0.07533716481000673,0.1801136997425271,0.18535165440485873,0.09316523186792623,0.009135696863702908,0.050734667579178154,0.03413947318605833,0.13670260402085344,0.0690740835184648,-0.035523725893958115,0.014217306645824228,0.021172811793054438,0.07724017981029149,0.09682200724257767,0.05662211428680638,0.04338707322859106,0.03045660259613509,0.015437123120898573,0.0287964633164599,0.005564709194970362,-0.0043345194803162505,0.037967760175734507,0.12585416676141245,0.19439343986482402,0.17812968786799807,0.10511188779220047,0.061900781913242234,0.043494405953832346,0.07662395338585591,0.166966397906805,0.020081031035469238,-0.028159422330450223,0.021860819541042315,0.07653955131363836,0.10324443503162292,0.13705864068821624,-0.05583915384697922,-0.10329452762529921,-0.029413975415729127,-0.007109082683752387,0.10767703760025468,0.12277069583291864,0.04924405336260803,0.026712848347768207,0.015459162644061443,0.023958493412410097,0.0022000707006624674,-0.009621608305927534,-0.003174853171940912,0.030958473568842043,0.1578877357642292,0.24822241583089943,0.25553586778637655,0.3101924720652177,0.27487762903262625,0.2458717191728632,0.2221050760652963,0.11328547771022372,0.11871696364664701,0.14224944127915315,0.16771779094326533,0.17682898723788779,0.15543334407138035,0.12469039198621228,-0.0016225217518771931,-0.058935755618705066,-0.03650501596356927,0.04356680972824478,0.12010972655153443,0.12544319628975828,0.057616005780637546,0.020590973074447114,0.009956079829782328,0.011406071056074505,0.010014732244539831,-0.006436542602568805,-0.0060299785943954305,0.04335204121601898,0.13860143673504732,0.28367928672781356,0.40476248552621125,0.44478783768507013,0.377720614847288,0.3266237844423273,0.317695661069498,0.20483101293284692,0.0763426828464615,0.08288713529962012,0.1695353295784996,0.2076402058547922,0.19775384116648084,0.23366909850295062,0.08462719251201813,-0.041044909066186845,0.026425802873586406,0.07798594334837673,0.09874302109298964,0.08098739529903297,0.042945592323725516,0.02566722521337235,0.0009647149477889342,0.01343198981545975,0.010385204859250341,0.015373968726820609,-0.014904364503771273,0.0347964008477122,0.10893760427128696,0.27830616826482946,0.4476210036063983,0.43158517852089123,0.3335521709058871,0.27452192993804864,0.1860245014184441,0.16463352884241747,0.09257857728314553,0.06929802709695802,0.11145287212986797,0.11325299910037755,0.21439928801297142,0.24667121079344614,0.08080320724836793,-0.00006537919104468335,0.077860607934224,0.06937009945998962,0.11516269147222688,0.05338441961874741,0.035622086128637515,0.03396940780339563,0.016208375041726408,0.017040192539959115,0.029506923414545663,0.002648569043774439,-0.0004788149920286173,-0.002918123395710998,0.059388981796368076,0.17193097162793852,0.32251432437994915,0.3473607349098421,0.2587852020347229,0.19036730638533175,0.17761597081378666,0.1456771172999152,0.12720806906532575,0.07205060919512242,0.0383320377529064,0.09820821319627504,0.20475507016763134,0.1547911924212812,0.13221158990837545,0.08801012409065882,0.07320108241262088,0.058803225127690664,0.03862467709873003,0.040764220025654975,0.028934667638472196,0.017868840109764497,0.03386671153686407,0.006839929946051307,0.0339164443974256,0.01386303056256715,-0.004743132037549373,-0.021184976281740882,-0.018162932291144445,0.04490199590374538,0.10087204514779467,0.14677773074377057,0.11829998335164459,0.19090127282145905,0.18070673519727573,0.052332214617811026,0.0750674661904552,0.056652260853809394,0.06429670942841312,0.113345711341585,0.15722231494416136,0.07638940200787153,0.06598672828891428,0.050269098138889065,-0.02543334899203119,-0.011171967861916014,-0.009655289142310411,0.020732204660621475,0.033772725361275104,0.023308311843092334,0.0311216018229333,0.01986974460672954,0.03151695936794026,0.02689473691044236,-0.0001633507346602802,-0.01864217866024062,-0.06495083507850356,-0.10329546401206162,-0.08012519715347392,-0.06366906488595,-0.00135442342080112,0.020371769744304092,0.06648967400041648,0.04983806708013741,0.031013733931264848,0.08682572875944528,0.011316735857850093,-0.035957669416399204,-0.06969657663641804,-0.054388975852389616,-0.11919790148601193,-0.07696842330903399,-0.10101351377974895,-0.06814500306800321,-0.038736959958110946,-0.010398616908789479,0.031426839670057875,0.023665560353804804,0.01586310820637154,0.03538463863566594,0.031530726935188304,0.0019896142833266215,0.018573047085731136,-0.008886308710010052,-0.07065173985696978,-0.10977416202879027,-0.15709111371483186,-0.20071374203641512,-0.21325478228149491,-0.13875460590040545,-0.1871746415760132,-0.2831887864295361,-0.20655103800273097,-0.22931859880548486,-0.2301957562156743,-0.30099071496981994,-0.339481006324258,-0.33319478148824416,-0.27538949383562455,-0.16231332800531442,-0.10871419354162581,-0.04652186921204285,-0.0036998364810903396,0.011527952618899596,0.0013950109938638316,0.010632049164700546,0.026782887258700833,0.0214796763496779,0.0243500876993463,0.02302479987541755,0.011860620776393759,0.02268199546710502,0.010860619722823338,-0.016017584742284777,-0.058739100258665876,-0.09997102557620757,-0.09105570612645687,-0.11170869391980302,-0.15056485771698175,-0.18243869511619387,-0.16102391504617433,-0.20614135980948814,-0.158492907356497,-0.1730969464777313,-0.14419638283943095,-0.12528298963236018,-0.08391090158365512,-0.05526786079125769,-0.0143023754750792,0.009568845155322653,0.020007043895988365,0.03251208383943534,0.01798451334464621,0.011048211507028846,0.031321994672372074,0.009560065264138955,0.008396125667555423,0.019202670632113426,0.00726628519091556,0.0012434363959683906,0.0018643312328094116,0.010089753015641233,0.017399561322864177,0.01611492288135349,0.004940336352695913,-0.0027602872785433465,0.023508662369750105,0.00717315769472307,-0.0010515920479870473,-0.028949877933725884,0.021203573099116,-0.0014426278785617704,0.004225678647539887,-0.009774978197354242,0.015146371978630082,0.015212300288759117,0.021896104586589,0.013962804426685337,0.03389131920551868,0.010425120160739891,0.027888627987809427,0.022179718855261685,0.010460747470821707],[0.02110845388221973,0.025558026416474415,0.0346048765756264,0.01858632815370631,0.011073096296266112,0.027506722125791933,0.033213144507503733,0.005782749009742928,0.019633073024757173,0.02956417825170141,0.03247740744364096,0.022901277973482403,0.025554534518999212,0.011319657697202659,0.034412779990870224,0.008985152286568335,0.03313857890415708,0.01570980405949135,0.023627375723286024,0.0018490715971096114,0.02031394502523289,0.028175508689419444,0.007298275499530478,0.035120274440986324,0.01176297923645874,0.00312882118837612,0.009039823546915658,0.021355496182286327,0.0162709384207719,0.029745068808863104,0.02921151025476811,0.019383901175434093,0.013810206402512836,0.014832228502119009,0.007738998027142379,0.008187114669463438,0.0027100075559569657,0.02481299589162335,0.027038810689943286,0.024253810142257488,0.02674037383380173,0.008203917604450198,0.03277543379814773,0.0016579888275734644,0.029730754466959552,0.028202877739305864,0.024486633278086107,0.025848444039268257,0.010634801711610707,0.030914501676235457,0.0203229965393046,0.015574076224362634,0.004923590011641562,0.007899213921857186,0.026527628933741648,0.006926437426120131,0.01698006034651911,0.03309010456724587,0.014993012363810196,0.024114189471394647,0.004617473116349778,0.011343665840013912,0.04343013874431973,0.025529316987737014,0.023636159468506734,0.043958359674609516,0.06505316679516697,0.06118251550963306,0.1027481846979833,0.059216969798562225,0.060297067330357335,0.09357447333104496,0.09509391408525218,0.070299709516435,0.0625130743505076,0.06188103842672405,0.04428858616588819,0.025337349925310497,0.022892646785313168,0.02191787409153087,0.006026404924334537,0.00838281211771782,0.01560721432897888,0.0030452791038469112,0.033335828704171254,0.0027764989188543976,0.021902775659752675,0.015741101859971122,0.030666171652174043,0.025849776158700516,0.04740214547738941,0.03910781779016569,0.05782527239445356,0.11043442140360232,0.14107156179960129,0.1320041361342328,0.16666860653600102,0.13548812016094566,0.18072074710640346,0.14502132965644035,0.13702709048017353,0.17343865368734424,0.18045570206626496,0.14058302727366728,0.1585199449280506,0.14053218598985695,0.09541556458572316,0.01890955416525598,0.02156291408360137,0.03320390517368023,0.00768271144878177,0.033765930420079186,0.01719339688136921,0.03365804366535958,0.015645621425911523,0.03292830239298603,0.016520018813929022,0.037785414482629405,0.04242015324017379,0.06965573430941766,0.09266106596469321,0.09291714337107734,0.1417491717114489,0.17145114632521677,0.13673627873651267,0.10335275135141546,0.029573442793701932,0.06008529746447716,0.10550593451356935,0.10065270266326107,0.13763654709213308,0.0598154501274046,0.05242394433000682,0.08672789253568583,0.07981393838676905,0.04198125450044802,0.07892709513551191,0.029200363363299252,0.016341932292579672,0.021686892139476752,0.011443519784131304,0.024705880424194582,0.020123459958603113,0.002928952469847925,0.04996586524963868,0.038772632051823554,0.08227032700220269,0.11587583865205557,0.10579759693426061,0.1202965832903029,0.1517126698662095,0.11436810113155162,-0.027737119604439912,-0.13216058472401068,-0.19780162537566956,