{"layer1":{"weights":[[0.03184375750196267,0.014296554587155048,0.01722061622970741,0.03153453978715409,0.0166578928476142,0.022843314980271368,0.03008409488900451,0.015778584222892824,0.011657429413288416,0.014362076636528744,0.010462792848210667,0.001038139078778953,0.03213275366081276,0.012234460831390882,0.01986022707942924,0.007751356050976927,0.00629082569427865,0.032938871906953014,0.02301699518392264,0.03132187322967543,0.014625047677233065,0.026119424619531564,0.004617333195251864,0.016457093344742102,0.018489713388126345,0.02400452905455918,0.03342797831729855,0.03326731358083319,0.01562749677485416,0.026781665985092025,0.01351447056077254,0.02357502693871753,0.022331314802766206,0.03415774197755078,0.020109769436297418,0.025761961007125283,0.022240258422703302,0.019915849335283193,0.007951729296428163,0.02915128970387432,0.03653579927528539,0.02952224160387151,0.0014505276423806856,0.02148078398198317,0.02452024194353384,0.02698893741171979,0.004192982197321109,0.008176439944253606,0.008036141877623046,0.02926567417501109,0.008789843632916797,0.0056946249674524425,0.0066795954811172875,0.035444834295862586,0.002097414523258012,0.01417044477913415,0.000013523510769648211,0.023496780243526576,0.017200976974685513,0.02206967177215801,0.00905091692937343,0.030142671562352563,0.03428803012665278,0.023829455549272276,0.016394064261251277,0.03170358774195686,0.022235690096940847,0.019383893704490906,0.04114495512243777,0.02700008787363433,0.055447432097277156,0.039562115107950616,0.025251557985398847,0.058732588605615185,0.04062038382836032,0.033838533406180545,0.004932795077006253,0.03804614568782973,0.020658908131342274,0.023463261939577075,0.0024782246718688975,0.0037226389109719237,0.0348525342314644,0.014111108115124837,0.031241988547423407,0.02736514592130545,0.02959374869318404,0.0256203452654526,0.009779855723013497,0.016938340129260175,0.015381686236528495,0.015766493019537628,0.008998792596822826,0.012896506023973638,0.002393547764137751,-0.0025836522530229018,-0.026758141975051563,-0.026410548237566375,-0.06650691164449105,-0.005289878326692338,0.02612602392359334,0.03219693076208096,0.018754495709189384,-0.01145381465347919,0.012246888242759579,0.021232043925265957,0.001022016167811439,0.04207979559349072,0.039734065636877494,0.009395246291944206,0.03159232583972525,0.026875419874342592,0.009576343451824907,0.0042819479097299445,0.02627832728732035,0.017193093531653728,0.022666355258963922,-0.00939925145404964,-0.018101077509249792,-0.006911404351332151,-0.044167116188714474,-0.05481635063371016,-0.07493476952612707,-0.13010066185994895,-0.14007162139533932,-0.09753701339254775,-0.11954204352115123,-0.09699441066540523,-0.07107718824017469,-0.07623622602121925,-0.1221994330566554,-0.10503027795378468,-0.05464332469152637,-0.013258957884252449,0.018884421707911055,0.043166271894660095,0.0032323117464784887,0.013320777785760988,0.0027856331852526743,0.016030020791113788,0.030500210602458007,0.009703044083586394,0.006683192548042461,0.032831389886766565,-0.017274615679818806,-0.051914364942471994,-0.08952422374189153,-0.032602369125318734,-0.016582353901047002,-0.008170009973669247,-0.008730486442929265,-0.08358687562704263,-0.008848140920309047,-0.027971819957677967,-0.03390518545784814,-0.11404070987320428,-0.09488156038662583,-0.09048166791757688,-0.05135002376523006,-0.05968308607970973,-0.0832299558789438,-0.012855342602284171,0.056096900621830585,0.04015188679580373,0.024426835730696848,0.0027494398355218737,0.006692798539363318,0.03008081955786502,0.013036986976548077,0.022654113596221874,0.012343548841047384,0.003722602448371431,-0.08057694855555908,-0.10087557271906991,-0.09054317890711025,-0.008436526383993063,-0.04393384616792175,-0.025421059974475992,-0.058850159006748885,-0.1761382327553813,-0.20785713050169313,-0.1351756316349174,-0.07257206220161738,-0.07677479996687792,-0.16714249927064628,-0.1288319719685242,0.00043173384317466286,0.08942592134183701,0.04430878146823147,0.01880564879268857,0.09846533923811981,0.08531854274702347,-0.0009738467378297506,-0.0159489980507326,0.010749833419450107,0.007876027091151656,0.006033743545711242,0.010022632509926886,0.01817205354533048,-0.009605023379231374,-0.11422283949729074,-0.1401707299100351,-0.07484616855963697,-0.01591855515619772,0.002526286772971545,0.009509841076284158,-0.058231063140512025,-0.14117185937284749,-0.15719072565814568,-0.12911055514656042,-0.03930545856060518,-0.07509095108518848,-0.08452812885595509,-0.04003853848883384,0.10877700871300497,0.1745859454444126,0.11105993529839217,0.08544263705960287,0.08376670515239555,0.0945966654975861,0.025539158811406015,-0.030287855864854347,-0.008574984309605467,0.0007598208721067879,0.013020216460863708,0.02440836440391614,0.0048414503867233805,-0.014765837811795178,-0.14235300764153377,-0.1259063921717601,-0.07564517428688111,-0.021566693693313994,0.018360095606536307,0.07386154354615768,-0.04774890429149013,-0.016637304557808437,-0.017023706700615412,0.011108375540868024,0.048687438668048276,0.05556744684216678,0.11981181221078312,0.09535996062764611,0.12971129515855556,0.19554469545116915,0.09503225883836727,0.0659314148101927,0.08248201370463286,0.11020075095173622,0.03128413597649418,-0.022996561545695165,0.0049986386330098855,0.016196405170037606,0.03204496523510418,0.008031556744779976,0.01454032104505171,-0.016724435342361222,-0.08883343362762733,-0.07371723706108764,-0.04460822014884778,-0.06214488048943716,0.045127639240854445,0.09876754164537169,0.10455911735077761,0.1995400581307015,0.17145473230367783,0.19710676479771605,0.06264216091068475,0.0378058036007263,0.07182500019238841,0.1268400457970642,0.22108568668940903,0.2037082798946785,0.02371670111830582,0.047696004104334264,0.0964693915696178,0.11762029381518754,0.008109756143706221,-0.025448090190288816,0.004347042466548085,0.004312336655359294,0.03302093179883401,0.02957315841433647,0.020987476624554618,-0.04854242990432487,-0.045926334914425465,-0.02158937101654193,-0.001776225133382681,0.016874472737911213,0.12014026356489009,0.20869229586669288,0.25766453056867705,0.2398404272882945,0.15233122247105788,-0.0014069255361128627,-0.15446071437463568,-0.08838024966592244,-0.022490726722893737,0.03751000645350712,0.044782292150900696,-0.0019979335249055703,-0.0228604869328284,0.0695405919681149,0.13964912527554596,0.13867089193132048,0.021605192431956275,-0.019576779794081133,0.020991959996874397,0.011629366005699146,0.02385290679715868,0.027336287520413973,0.030173963399416054,-0.009052075343949688,0.021393979759746815,0.06406022418943681,0.06732107244261559,0.1264533433197973,0.20614242583574607,0.22536949572889547,0.1984636462256631,0.021109105495755464,-0.13051751482967008,-0.2875634667895621,-0.3822967474821993,-0.28186150362413553,-0.1668522346102938,-0.16522994932109752,-0.21178888971748588,-0.10596590086481467,-0.025224390809038103,0.17901333180104476,0.24822228550091066,0.16782512898079313,0.07300425298397142,0.012318140364180585,0.0040288542441254205,0.017113727780184062,0.021390050106837914,0.03092704317551784,0.022075800029282094,0.015744887447651415,0.06236607944443779,0.07129599564763153,0.10818257466466351,0.15530128500534693,0.1904150988602097,0.12087394736012427,0.024126821764404876,-0.13788330300483745,-0.21198100433520672,-0.26439508750209295,-0.4262359598089026,-0.23888961856393356,-0.18357250740055578,-0.1826346552133841,-0.2552717863340597,-0.10419135888977415,0.022939608100091404,0.16893168429653002,0.24277412963812633,0.20594754072509927,0.08735224043334733,0.003989083236281239,0.01581584280886354,0.006574290684314001,0.012133415601457392,0.003015643157999988,0.004324449984438824,0.03245710236237212,0.06232754787676673,0.09209078182278556,0.15539549227328542,0.17913359848688826,0.1649544307307904,0.12537311879485183,0.11383722840726972,0.01675781475472156,-0.07755833005290522,-0.13858949057104097,-0.16356263784978264,-0.06437339198899754,-0.1502263323766224,-0.1423399385579757,-0.11516312279967196,-0.024844936419701452,-0.006873207170839541,0.05659177250572769,0.19937308081992686,0.19207897512193078,0.10036855443166852,0.035568848511505276,0.017854208533811963,0.02738074651162399,0.006389624977637115,0.017025906874901988,0.002488569477315784,0.022628382727563023,0.061224718052421474,0.15935297938646004,0.18867583314831363,0.24706986029555766,0.21618929479151044,0.1967313629382504,0.18528622727904523,0.14918896616733252,0.027796304132488136,0.055307614360939124,0.0013543021498649069,-0.024457969019904876,-0.08929106797177583,-0.09609117374967764,-0.10304194079512845,-0.09604150697347831,-0.04554472608956157,-0.07366675264173428,0.00974186367381352,0.06665314296900172,0.043746161860654276,0.02499203779256448,0.029669667895358996,0.013091360873352621,0.017874778583737518,0.008006877997466678,0.02106651746502534,0.00659574694299388,0.022465039877773166,0.1211754876191555,0.2205949560125707,0.2828115989682649,0.28162335274014966,0.2673324988892824,0.26405117253504795,0.18812845117740085,0.08111435655633965,0.0024804197061228123,0.007222079640477163,0.030548626882778162,0.01924362903221233,-0.04681775157785928,-0.10315723103427382,-0.227131464687163,-0.18645658651145028,-0.16663743369054088,-0.14324931220800033,-0.035667067208965314,0.0360083521900198,0.01886589735706478,0.012356498349330645,0.0015491521235846137,0.03236359046461983,0.010719839160528141,0.01056821158757254,-0.040308261583244756,-0.03388578670768365,0.10338574099799902,0.22325218841540323,0.2772749729006448,0.3361572124121112,0.33098289615668813,0.3967283431812901,0.3418697984600685,0.2034557268659828,0.10697376607614859,0.16041818737810654,0.20706367387240163,0.14834358822752655,0.023994108300472786,-0.1840926051647082,-0.2464475722997574,-0.1735151792705336,-0.20230637642118954,-0.19982461314722774,-0.09564065573463693,0.03428390289958978,0.04918220732202101,0.04278449836028196,0.009411706475845612,0.017993795748555357,0.009106370030488056,-0.0032021366141736776,-0.0890475028357098,-0.05392352539490202,0.07010736850395605,0.1635377442097929,0.22212168390587464,0.2885848210600455,0.4468070531183987,0.6124301083868479,0.5949462309432909,0.47430874795778516,0.3614883407991326,0.3443643315691011,0.3528869777485311,0.12639493524403858,-0.036968844092871364,-0.09801154364997847,-0.19316311725269938,-0.07444258650893966,-0.15785662603135409,-0.19832368750951251,-0.09610279362681173,0.06862646323664888,0.09032584625718877,0.03387981860821344,0.020258994273876802,0.01199197384389408,0.02062896717130066,0.003356230530598529,-0.1370687585125039,-0.09100656774543694,-0.021185758731150046,0.02328105037099544,0.09913436777823098,0.13643263433610178,0.2867449413635422,0.4437268216031863,0.44058576040448,0.48697139942287027,0.4190882403362868,0.32936184285491904,0.27085793472684494,0.04959331658818275,-0.05189012196950977,-0.09514367631636324,-0.09115512936521915,-0.08019071998049082,-0.10998246240641037,-0.13932445901419063,-0.014181768280748908,0.0819448517419945,0.07819505971348119,0.03713876237372407,0.02193478181266018,0.033630763302477766,0.02271408280894238,-0.027392480123109395,-0.13726859040002232,-0.11968728468416438,-0.09361227725116744,-0.026111361094810832,-0.000537471845371309,0.03475678538003968,0.03536691485360652,0.11462610561466761,0.16788562995092188,0.22524810812413443,0.23917590987115048,0.21942119013199288,0.11910232313474689,0.03079990116378125,-0.04384832749483356,-0.03463707243541734,-0.07485293690432668,-0.09297956642461314,-0.0805528736462496,-0.03381319035278644,-0.00764296026231608,0.10680984934713127,0.06076619214254278,0.02924146733286896,0.004484028889453832,0.0067533110883245305,0.013064649197188201,0.005717982976217471,-0.09735056958532953,-0.1505681808866531,-0.13768257710644005,-0.05074647016398859,0.03897599845856473,-0.015269906102943598,-0.05917805691201685,-0.05837699829410375,0.0428929962159315,0.10944280675084926,0.09664237878740066,0.06610421157801902,0.09514673529007103,0.04218883888915814,-0.035330038928777924,-0.011502885401108543,-0.04950227224284221,-0.09590460962235937,0.03526256403527958,0.05788820559378569,0.0841934506524743,0.10547702007918859,0.05030981308247685,0.023826509699975372,0.025397349473389123,0.01688280623896254,0.030365604859122763,0.013327191250713261,-0.05976371455056043,-0.153134434495791,-0.1282629285238586,-0.09969175770895718,0.03284960110038112,-0.005784553941875164,0.011083253333606019,-0.010455019576844322,0.016784444441981818,-0.024235477583311613,-0.0692668201735976,0.014337455841025177,0.04867170895922019,0.010771112737291663,0.060609520016648766,0.046945373977942635,-0.01723918419433386,-0.024150080187977978,0.07542970837108172,0.09591667697632249,0.10415968492159586,0.08548683152240351,0.023922755371590665,0.013677825913055826,0.03106482686427084,0.02306279170224306,0.01568066503742261,0.02091685777788868,-0.03863156582834162,-0.12323103489701885,-0.09770967295491714,-0.09274377857718537,-0.036917150798270806,0.035634500774538516,0.011038073531888792,-0.04590503072539552,-0.08492136800502169,-0.07026268135606537,-0.04623768666178837,-0.02378718982225087,-0.0032381500583910264,0.0041613408247945525,0.020600502549428107,0.04991702734678759,0.01871628123195807,0.02806229401295739,0.07331092278213436,0.0875055216220945,0.08055290992219215,0.06131333338644861,0.035061401534664735,0.012186269911347527,0.008020662656344928,0.013982730419435088,0.024781912247980313,0.016598043343785934,-0.01621154394998261,-0.08460089346634483,-0.13466695592507633,-0.12836118140108363,-0.13519548021863878,-0.025569783302588064,0.0198549028902729,0.0213820348189776,0.04138993726139575,0.02051564540792014,-0.023694937336000556,0.0044366747182762265,-0.011199704602047453,0.033325332201970446,0.03989338025466908,0.04989079089653805,0.053631628919947646,0.10306651784122497,0.1074114917280376,0.09239553081248943,0.040086848359949974,0.03256466528868796,0.010775244108018767,0.03064428786816287,0.022624660020999905,0.024665921122439555,0.0028060377807852294,0.027924831037735562,-0.0006647940426168648,-0.03227799366789404,-0.062667845901279,-0.13514428365577147,-0.15817454330131578,-0.15660398611395857,-0.1109466557302778,-0.10683907012921015,-0.05282884440360854,-0.02619285682931995,0.0012992404015741668,0.07132303848885174,0.08091123512543787,0.09308769218787366,0.13494035556214196,0.174237132596126,0.13159682563805886,0.10407982723590886,0.07336606684539258,0.04753796516990389,0.05049444017272334,0.03849478838755425,0.030891866596877163,0.03369932415675296,0.0026947649256841644,0.012795259799798129,0.014656774199264153,0.014053515862566101,0.03328529346036714,0.002203296537439831,-0.0038396359100000767,-0.000509586422087426,-0.01920425112724961,-0.04889753550698503,-0.05801526372725821,-0.10088485289330223,-0.1381500600900996,-0.12155869567061664,-0.11246224464601265,-0.05140534822841319,0.03984097494398993,0.02681691605211666,0.04784300827931611,0.059999414808417376,0.05054514560839058,0.03173645180468353,0.0009792517616914408,0.02085676077692185,0.008926807517256925,0.035290667412139196,0.029807378815506547,0.022877943296068085,0.03551098506222392,0.021523117075027447,0.018941793641424225,0.003439494627388034,0.005596696124510018,0.025177255559056096,0.024390487727083465,0.02587738005038284,0.02193326456191353,0.007708525986605291,0.018302304556311096,0.005182734911840611,-0.007419024588834399,0.010508714731242081,-0.006651490748489065,0.004242808927008658,0.009519767570376723,-0.004429086827287625,-0.007714742068235356,-0.005384069394822957,-0.006757569170821051,0.018657454626301813,0.015380934800911667,0.007172133907222782,0.02830113578019977,0.0030343194754402607,0.008900075639792044,0.011731247789912858,0.0018319547274054698,0.027896240865156678,0.0027647011949988387,0.0003478860741161295,0.0238794076808882,0.02096731427133038,0.03350318245321304,0.016687934186321886,0.005440173957945612,0.013557009137891365,0.022216123544181947,0.008492970085722891,0.00810987474850683,0.023679086300725974,0.011922758823852922,0.00702451289816968,0.008564682301536064,0.00435398758599007,0.020225493813750422,0.0025873806407580697,0.0037866473154616015,0.027925703167624542,0.014703425885137336,0.00501989684178162,0.009279523711829116,0.02869975002717262,0.02911432459203523,0.013674337933337064,0.03243678958227688],[0.0018154703267739586,0.027507160934292944,0.011728595879556056,0.029502444006717008,0.006930320237211597,0.010428759270757188,0.017142879137185825,0.007313749691441099,0.004654426390733284,0.006840519145060049,0.008755952894698207,0.019632473645348616,0.030640156353705737,0.03306356130779325,0.025560004306059595,0.02492180526319264,0.03454056785194937,0.03368870149439422,0.024010967645246382,0.003319669160250473,0.02735870011883809,0.03186841614649993,0.010752760628931435,0.000418980913385444,0.008648772124032224,0.02363060028308183,0.01476050695998164,0.0014049785135359452,0.000962825312820286,0.01903477105771149,0.01602768040620344,0.023102676746149416,0.011640491468233396,0.021104905619868514,0.006596736001637665,0.034153725928697934,0.01943123119340209,0.0037057498608449274,0.02392428382198448,0.02939592903302496,0.021060398228012724,0.025850986797456513,0.033350590028949335,0.03278866213533049,0.015188364558609028,0.023729933625224454,0.0013298727826427114,0.007655285183913093,0.009226590983693977,0.008331744878637972,0.021586550531606637,0.01259842427432124,0.019762857913065708,0.03430609673740931,0.018609702539978408,0.022140694220290413,0.029698260381089026,0.02867465585786742,0.015177766237915377,0.030187071403527253,0.024652397561340043,0.023208997652058142,0.01844388093831061,0.02285163620751697,0.02795937462049499,0.01513621704879916,-0.00615657712100095,0.005108182544026107,-0.007873423784878179,-0.008860155703616118,-0.02635527283335103,-0.009833464371451541,-0.012855976581527009,-0.003981926220694411,0.01166132224226769,0.011390706734423252,-0.01023211167931354,0.006468479499959902,0.021541520331483564,0.0038063334154969895,0.030486720985027405,0.013221831512000732,0.009434383988569828,0.008210323127817323,0.019230454904580314,0.031821916530210166,0.03299531501338092,0.019669150405782886,-0.0021379573460396694,0.026674960525776784,-0.002593398646653417,0.006307132537334846,0.002194869721541074,-0.03416524700251892,-0.054530016270626966,-0.08025062862752695,-0.10402781959656737,-0.09817797987634766,-0.10772428087740818,-0.09962647323741691,-0.09723439713722275,-0.0690111890334479,-0.08000078602871454,-0.06415220829210862,-0.05344822918039111,-0.041862659540051014,0.002344686736628813,0.012561796174024009,0.02000183493923301,0.01907871767548712,0.0020095826665299113,0.011856648643491794,0.0191186414442654,0.02657553660033795,0.025038060308624304,0.02397487264619225,0.028059304614321975,-0.012657911698389286,-0.015712284682418535,-0.048351589523403606,-0.07929443177814531,-0.12556998318168303,-0.1711976922252241,-0.19031548045805896,-0.22486202614981896,-0.21206894225853937,-0.18038255736507797,-0.15959850828829217,-0.15336987535310082,-0.10975864423682866,-0.10330609775758486,-0.09224986306184535,-0.05007723370701747,-0.0019372231174161654,0.01796186032147383,0.06098632700407309,0.018600112265086757,0.008650199588047814,0.029914420147529285,0.03504418849440964,0.004272019059575131,0.02447365983441922,0.026145082511875403,0.01284382101124875,-0.010309503531660873,-0.02483914517841856,-0.07666557303370294,-0.12250866151387352,-0.1322150488577785,-0.15903775167452158,-0.12859053167854537,-0.1463563301428383,-0.12160034160260112,-0.07183524118522383,-0.11224566014564755,-0.1430832306546144,-0.11450598110520835,-0.032795169991158925,-0.0019958002933581427,-0.015493041640431922,0.02521556951755215,0.042972799970191544,0.0791349625941183,0.0660740000699029,0.035030352988663346,0.03314484650745543,0.013025635969788127,0.029603567446310448,0.029694222207194625,0.016567234920737067,0.02880472713864567,0.006595104131622052,-0.021819662836648376,-0.0453399626220119,-0.08536410568721878,-0.10563995119179137,-0.13481558809452054,-0.12277490889670353,-0.09889693162648591,-0.06648798381288798,-0.049475835045270714,0.015642652405776104,0.011251918030993244,0.002418591390036514,-0.018345687052411134,0.09667937762425333,0.1328599891888539,0.12170909279342945,0.13743423649115952,0.17250057600946547,0.20357444134178534,0.15530466255297112,0.04695304226809238,0.04410908379857634,0.009724644074773291,0.0019797001278967284,0.016335275336878268,0.02318354074411123,0.02067080280732532,-0.015643626192792,-0.048685745899794214,-0.09323933218330265,-0.08858117559029892,-0.05795547653147791,-0.06599529255259046,-0.055150089366774235,-0.00737065570626775,-0.004670157972817127,0.0446088887316737,0.0919253028979611,0.08272150566013844,0.1291385898222601,0.1735350193273518,0.21617815896533182,0.21044812799785792,0.17377863218650472,0.10197225242311297,0.11787821973549933,0.12058081206525752,0.16535971451957765,0.11870557209680098,0.06529505402573994,0.0004763817017256006,0.005920696295388923,0.02702684833303738,0.027988032883421714,0.011452976283288533,0.0047208306891186515,-0.09209684034735724,-0.07783539613670684,-0.061799091616887084,-0.018341048025211686,-0.022651489713125743,0.022067043391708646,0.04555045541843406,0.039089503740639214,0.0515722539682396,0.05487650535750377,0.036425649907158394,0.11079485754184228,0.19605877447245804,0.2104218364104711,0.16135111900732754,0.1093026054512557,0.09552179799627845,0.06354678692596234,0.1304811819296478,0.2727746822995165,0.20275501064880352,0.08993497196468035,0.04482679565305293,0.005888201750730889,0.009438458144350672,0.010809824949397986,0.026550918603702588,0.01276944510460883,-0.044495465201997486,-0.06270838502005309,-0.0051002192649871195,0.03088945436941517,0.07911778282191999,0.14081680581669637,0.13383688818830475,0.1587805934465301,0.11809069661636358,0.061730415588532934,-0.023688032930632312,-0.03132905160907106,0.07296880688117292,0.17554145110560895,0.1993750301683652,0.16304973141543685,0.11190926207683122,0.06850273147854453,0.1616863776796477,0.3212744457341219,0.24072448536750474,0.11987825913889791,0.02310674242819069,0.002140097428398882,0.0037648436308037442,0.012149084715701848,0.03502375932232974,0.018661993577965934,-0.002819885557299819,0.030880325785167653,0.06903584169518792,0.1094693332204485,0.16248242963972484,0.26151688800499784,0.2210286550621265,0.2272121695466799,0.23064031710375874,0.10627286442867859,-0.07876977062423021,-0.08360524210052532,0.0041093039659949185,0.06256086682217799,0.12320348727568477,0.07596981903059656,0.032663766545733025,0.028493087315619125,0.13552337325946567,0.22454548815600128,0.18614516717777166,0.07410657620870587,0.04141772837719379,0.01829856262146218,0.029721305439524726,0.005570350818511763,0.000998301076855485,-0.0069336873844136815,0.03468591818206051,0.07873387665545054,0.17079711294135524,0.1905659344217955,0.1459572639702592,0.12237925447080027,0.12173420974610395,0.21150467666552236,0.23855108193133423,0.18153454563937058,-0.05881195950517694,-0.26330968104988955,-0.24946352346300704,-0.14304441430850365,-0.12009632392249603,-0.11681759840784954,-0.08289651754119924,-0.04385869451435907,0.050167603029560186,0.14331903732262674,0.08073970174293019,0.03215003985052269,0.01610150666977719,0.008614549469090871,0.028942561577535535,0.03521782482689077,0.001518742384186107,0.013065562651410225,0.03549789363932452,0.1211343494327444,0.16158953187496564,0.10385863339935912,0.05188090417676506,0.004812403143907741,0.06703310810609305,0.20377991903863218,0.32644029199540064,0.14740498381197512,-0.22188371447034694,-0.3887969716166614,-0.35499347131866565,-0.23002053215500032,-0.18486441016851335,-0.16291769050257812,-0.13882590990584426,-0.07671658177174777,0.05385671153293955,0.11691610678631797,0.03531652154003537,0.010825033292673267,0.012700009302916947,0.002719935173694643,0.027701033071165483,0.0018733214267313539,0.01738359240687968,0.016570600571047707,0.044162806994225506,0.1274817566319183,0.11411794708718138,0.04073343527314222,-0.04404699629972095,-0.00020583371450144666,0.1468871982488233,0.21502215209696368,0.2537464949710155,-0.05355674512320531,-0.33867450352164663,-0.3396193307932267,-0.3461850768699676,-0.2705610901123033,-0.23231215527550794,-0.1461239064445406,-0.08270417811402749,-0.026266411765540888,0.09660038536732818,0.09423612384380256,0.037280287946601015,-0.007035807039047952,0.018470425245420054,0.030472550816424745,0.02849762650800059,0.009326236277339812,0.031722920456061406,0.008888511264438338,0.014862612611067147,0.08251260732467211,0.01226074994085945,-0.021007602751589628,-0.022529994402118732,0.045005828370563106,0.17255277694010274,0.21620645223044713,0.10973709139725314,-0.22388082517177216,-0.29425218749275145,-0.2508170335139863,-0.2782182831701819,-0.2696384263036227,-0.22655045137050758,-0.204699059843812,-0.10624941453461884,-0.02255488632034856,0.044240100691072516,0.07232661391160992,0.06075966722891966,0.014332264752475999,0.008088948040399996,0.030745454778620063,0.0006899644606696315,0.0074418398943414,0.03418091290079211,-0.0011402061236990952,0.01325305338436631,0.034837264138492315,-0.047120776349213724,-0.05838977057608503,-0.053272094415714816,-0.003178643668511677,0.0917298877126253,0.0764119537352175,-0.0552988003614007,-0.35351301680054326,-0.32463026980994536,-0.290922527535715,-0.24975897863258928,-0.20605628384047717,-0.1319360782473932,-0.13423655789106947,-0.11767960271713643,-0.07849654338637142,-0.030419227701307283,0.07573964914741427,0.021139688419409143,-0.009120251839040241,-0.007735298220942051,0.011036464332226974,0.007016664760261883,0.028317009282353638,0.019684190329155197,-0.0152023335310024,0.004510540709490409,0.0175135302096776,-0.054788283044281884,-0.07023762179502793,-0.0790648638671594,-0.10818199955470537,-0.060885113938484545,-0.06877873081177506,-0.29772927402549126,-0.41042841117492707,-0.35550784581955763,-0.25560288042961987,-0.21807861451790297,-0.14218931665883341,-0.0782651401401555,-0.07796742393259944,-0.05271549386385726,-0.10153593888554109,-0.023223845338780174,0.03350965928910055,0.02078746766971729,-0.003952650242128426,-0.01072281015915452,0.011729683716183593,0.008592679389294542,0.011805006038638734,0.021438295587231152,-0.018355305523354012,0.015763432886160205,0.05181989681079102,0.06028616511285094,0.00862000227713387,-0.05647476583759386,-0.09910708627503725,-0.056208129504847625,-0.13102459861059457,-0.3332397241052435,-0.42646406544364784,-0.3477906854360314,-0.18833384958945018,-0.10229855040490747,-0.04119484477207835,-0.03764909455885241,-0.03894750563028468,-0.05566068064024487,-0.08693455652465897,-0.030718075339641254,-0.010347851232038394,0.003588560544267154,-0.036639927537177014,0.008005055474840563,0.0012281053776106176,0.014490181162582624,0.028107147492982834,-0.00025076478054129945,-0.03871900051928381,0.004011799581473817,0.05828875231413631,0.12991209534504986,0.0950790916685914,0.040754105585685776,0.0012160878127331933,0.025557221428244167,-0.043340397626366996,-0.18741047963025384,-0.2917643185892876,-0.24097489335202982,-0.11270304063033233,-0.06673065062440661,-0.062226359413507515,-0.135071006936354,-0.13644356474044747,-0.1333717661870762,-0.07203968815800625,-0.018490881708153696,-0.05124564671750379,-0.035317389084673814,-0.02689070765478048,0.005586604330046211,0.009777128642850488,0.0299145509639297,0.02028457890759803,0.013769792624293935,-0.07145280380087045,-0.050893482015832645,0.06600637064818617,0.15484341156680975,0.1241457192579036,0.10177842051435419,0.0897116973407884,0.09557504317000765,0.10327336862289227,0.026354528484841887,-0.09374330085980383,-0.13557685422418433,-0.12995115027665335,-0.12311314888994478,-0.19025276150382964,-0.14586553218693557,-0.15691887450304326,-0.14582740505854144,-0.0704474570865848,-0.04291558654560613,-0.07147569593119402,-0.03463814671688338,-0.03210149206283615,-0.006968839663562581,0.006361337740232732,0.01782766530611204,0.012626623393179763,0.004797367251177539,-0.07751505769568917,-0.09753687563754386,0.01616908013062125,0.10174003309285383,0.11884362263486911,0.12294597607685723,0.08832828675933105,0.10976388182620332,0.1446571325269678,0.07172979188284978,-0.04143064702114788,-0.1395517254383658,-0.14992246875127743,-0.1991642275146813,-0.1322234159230959,-0.1487066505263483,-0.16141663990979188,-0.1142193108898959,-0.03835536380679194,-0.027090683091197026,-0.06133021501892949,-0.047298299304467606,-0.004441170845084728,0.005405427829365712,0.029049873673811212,0.0026289127042904135,0.003707790640460983,0.021486675710564992,-0.053492942781041566,-0.11254779652701716,-0.0401911136529929,0.012424374767045365,0.07076963377304304,0.06583493673048096,0.08701704257440294,0.07925917177338251,0.11837955887433294,0.046851455540229715,-0.0676840211236562,-0.13434774199922547,-0.1033562698425089,-0.11841308719945756,-0.10757379161632973,-0.091897254890858,-0.0813129811515086,-0.021418832710429853,-0.00904962031705679,-0.03216541081201477,-0.03321162733821357,-0.017788538863900454,0.009278542608668758,0.01796880106562465,0.021855344355296107,0.03461661517888644,0.023102994625475423,0.02330557474645977,-0.031803426337504125,-0.08123162761216546,-0.08756553729895522,-0.019539487744840964,0.0518571458705465,0.0860114860715496,0.1119134356037371,0.11485985807307478,0.1508246587726004,0.09660795683022937,0.09952435896897552,0.04700700750661704,0.012054867661156946,0.04263576760437353,0.008116716579704657,-0.0017555932811054882,-0.03367409200447015,-0.026151467764490555,-0.01554323625673334,-0.0033066425542088926,-0.0029381474916817304,0.002104566765839324,0.001496947885504292,0.01408113491976816,0.03425332848595515,0.009965104057961407,0.0043141402330858026,0.03234037732162005,0.012535261822605868,-0.01656589708741588,-0.0389418255851748,-0.050105508125872604,0.022996221623311386,0.05735157796233808,0.0600485434904002,0.12221907999734087,0.15157684449343348,0.1668746193530633,0.1679891605283099,0.1528996870977047,0.07456697856111431,0.06255397290304379,0.006240855763181673,-0.02643618158519145,-0.017429679891797098,-0.00513449088683774,-0.0026989845679456343,0.011135092222715148,0.003090100035317954,0.012842253212760783,0.016031148394921573,0.028835440236619023,0.0040965450803208524,0.01726588902179909,0.029945751123621942,0.029123023437960475,0.02248365865865743,0.01845738033916176,-0.0025702635866153116,-0.01200800548935096,-0.017118524672398043,0.0005601981132544473,0.02371442810092986,0.016302071546587693,0.02300188453386805,0.049965466603083514,0.07593628381187714,0.04414738094150909,0.02800879054863534,-0.011212243419958334,-0.023934174104833623,0.021423930435525408,-0.004308565754294406,-0.006753020360515158,-0.017027224184706452,-0.007232916747996104,0.028968095970470446,0.003512296525350204,0.010376463418387783,0.0011942736615625647,0.013958974564338937,0.014631612049532792,0.002140241071738277,0.027986677867364564,0.015378404662006557,0.00008956252387422892,0.014917549998772747,0.0013965081318822437,0.00826288263894815,-0.02827058650025529,-0.015437958851481972,-0.03301232104318816,-0.006536205181737152,-0.022267761027994118,-0.004115446658689175,0.010164710080109818,0.032673006635971946,0.01796343506521328,0.007105670508175752,0.02451445635097174,0.034631412372033515,0.01172862203978162,0.026653709227520878,0.01249138936207546,0.030861779196885097,0.015171634580459555,0.030134567733693246,0.021531885422126185,0.03198947075968166,0.024220116758067012,0.012673063237472788,0.023300678873552312,0.023732693463513626,0.024402584938893614,0.006651003698787623,0.0025821866380998965,0.02964997140064261,0.0020695555390282823,0.02771411360526044,0.0020537675916372715,0.019816596660894827,0.03539150676932269,0.03186258843852474,0.026431445608842117,0.026945623118505097,0.005695665499667541,0.01265727501418002,0.009891100028366066,0.029335647328277422,0.014611056869075104,0.017423437334454527,0.022725355664703573,0.0060349037962004835,0.027383943052806187,0.02542612341722657,0.026370145630975807,0.029143005004693887,0.017424698670020937,0.006600411929755808,0.019929659643465682,0.018842940460183016,0.013816997055572822,0.007440263959340031,0.022620916175005112,0.018254054804427038,0.002803322275332611,0.00261973702794959,0.014225062394183004,0.02847152199291626,0.01738003474380654,0.02540855923157967,0.0223850880581698,0.007478161159099058,0.022668767048196124,0.007800024003729057,0.021541655329531482,0.0085600383190418,0.02158890554068265,0.00016738964710727444,0.03281598619164938,0.023663470847195778,0.02489567629246813,0.02167214454402145,0.0053094585417409745,0.010801493859285203],[0.03571283638714194,0.008960136123551708,0.028401751409129466,0.0034062163201850943,0.03224172850427321,0.03495726850627401,0.03486020604303451,0.017258526903371645,0.013377959668600956,0.007447949763591644,0.00910710083969603,0.035315494601920294,0.035164586177825814,0.01199419275165145,0.019647919178336786,0.006707149805150514,0.03338098664186036,0.020548881364441902,0.01795471560646278,0.02096649800984494,0.02232485888173606,0.02258295498593104,0.026739966630860874,0.002148121879548873,0.01716608147934009,0.019304692712876603,0.010349694028530754,0.02683497326854393,0.0321514581864768,0.028754868281741435,0.026080555458801606,0.030988206470595962,0.02588416983753625,0.016512070366270913,0.02266746165721703,0.006579101758242212,0.03173218163056531,0.007353845589633692,0.03553267870364432,0.007896363651797907,0.0012252078167403445,0.03108123519628002,0.019250609684665198,0.00988896439041397,0.020563254548262192,0.02597417072823016,0.00456900304592565,0.03519218077315,0.00328009571639735,0.01722900138466614,0.02820395786757467,0.021042692596090724,0.03460320252533786,0.009815753183493179,0.015384366737175042,0.014913990078821517,0.02084429591665537,0.035014765693771134,0.023982316195680635,0.03280716145094466,0.030103864784168627,0.00208775213456831,0.016890504738057175,0.00970751916354307,0.027411119460744315,0.03397946844425621,0.022768574721876073,0.03152977931436685,0.04601474758771986,0.07307764505099956,0.05796267249494704,0.06569005336031532,0.08626214044844203,0.0661894596612505,0.07994924250805906,0.0705123322327316,0.06403696570903358,0.051410743407729685,0.034080294087504195,0.016719218905933655,0.02275088353079517,0.02788361343331026,0.026154458001493765,0.025812974028294206,0.0311302962672253,0.008155206955814278,0.0318996857993289,0.02553796117575471,0.011686395575457085,0.011001231585295809,0.042304458747721416,0.05542808877945836,0.030349905778725986,0.06821772660758223,0.07303370400661538,0.10156220328563544,0.12610172320298182,0.10374368625299132,0.1195838592032304,0.13318226810431308,0.10339910926831954,0.12162306983148995,0.1526728381997868,0.14537791056362082,0.1340522184138371,0.08897853567260992,0.08267788043149665,0.02945356420294628,0.009579065935732014,0.010724535583307274,0.003044745409962314,0.0024781191974837763,0.015280712727254715,0.033686056641862715,0.025363404369455844,0.013748011069140626,0.03685500246797649,0.04599252912261075,0.037758376348598036,0.05652591019984713,0.08865665995230118,0.07894340218096685,0.0851223561176962,0.08811797069540767,0.07862027814081694,0.01679491797550496,-0.005892625719516966,0.017906476148261997,0.08475856491974446,0.06632376736950253,0.08419750145561311,0.08174735785052069,0.10530014343846635,0.08813174740425446,0.07257063700678724,0.05003847924098082,0.03143855621794172,0.03754991263508775,0.03595554251790802,0.007114722062885182,0.03209949458682036,0.011374318253501516,0.006461848884277545,0.025442089947465864,0.04060581705163385,0.053593164436495554,0.07501696826680984,0.11139287222120826,0.12688863957060006,0.10342895617216252,0.11247436535626104,0.051670376621621626,-0.02960297062914574,-0.12684204715841194,-0.1328572021998352,-0.13230013359792692,-0.08635197790813713,-0.1057166903311377,-0.04044071102362312,0.0388524921556859,0.06706361629530537,0.08305771451207077,0.07201740212846856,0.09451339333192672,0.10261980944846816,0.06322162640974079,0.032244278597322054,0.005733562192303915,0.0349711463965446,0.01572389522340611,0.01250229328415052,0.005613724013984227,0.027227356770313665,0.06832082788780222,0.08708230445654133,0.09473347037019454,0.13681894494883068,0.14577429418677526,0.1338880836504425,0.0777021587631194,0.023632118930065425,-0.07455672540247459,-0.09920277095958588,-0.10021318949731896,-0.04196483559689728,-0.13314710715756822,-0.15689280953195175,-0.13622552223243206,-0.04515281355422143,-0.05051657577587266,0.0014203943624131981,0.11329224159978103,0.2000383852086576,0.14955877695570896,0.0820360039282706,0.018295155497267835,0.009157113406327133,0.00661983663178388,0.015321435506127745,0.029395624198521885,0.052872377668483524,0.06626373318773332,0.06307402132724868,0.11476633660226584,0.1321733947086806,0.07952912579842514,0.08651472752502262,0.05513178463472906,-0.030082592698167453,-0.07580847107805426,-0.06640996557048869,-0.0947584372707732,-0.14331527227440474,-0.1974740860473531,-0.1927489296488499,-0.15937144147267165,-0.05906371876400335,0.006967050831351423,0.07119706870629097,0.13926441544225918,0.27175273373698244,0.18932309232359038,0.07555244577670214,0.0314322274813013,0.023805780479099044,0.028225249793067217,0.0002331396734662018,0.004028849250229802,0.049397646928953313,0.051642801568428,0.07646614686816133,0.07839274854700978,0.0893528241745975,0.044744193678804854,0.044672657845760085,0.08335725728716914,0.018608218784501834,0.04434074749522723,-0.0412035282295183,-0.19365001208212307,-0.3632360509991862,-0.35365458159534996,-0.23083926466658133,-0.06600999743198854,-0.026050167070373033,0.05236141359413405,0.0341839553102445,0.08757767825604658,0.240569657933624,0.17514535423663435,0.059319573706328316,0.02428309160150369,0.030588596444622244,0.01954032315564323,0.02527005939874393,0.009858059662383591,0.013457350976504552,0.0403688618260253,0.04497245559807147,0.0526359163988774,0.06275103550876017,0.043493588192619066,0.05456070900338721,0.06220009881922528,0.03299739671143829,-0.0053053126865829,-0.044667501833288686,-0.0933606692278254,-0.27048938897296637,-0.358750541219952,-0.3690753891282991,-0.21073256839980978,-0.08753620094471215,-0.02964666599856425,-0.052730447230725896,-0.06607393456310517,0.1452221877083463,0.16390685411413844,0.07108063296755425,0.0065086992638871115,0.03217205474387514,0.010365825590130964,0.005809831299897839,0.018840054793188822,0.015255020647426872,-0.003555094404990782,-0.016439125994954153,0.037286760649369095,0.05001260303044124,-0.006331447231019603,0.1065900846221937,0.07854074216683574,0.0449433093679853,0.09797025943325931,0.12729156681315698,0.15044379506052868,0.030727814303804245,-0.17905194771103164,-0.28915760861962186,-0.2508459651040772,-0.17313548767995113,-0.17237537050898452,-0.2731489802727885,-0.20431896039630182,0.017638346044164456,0.1062693002202172,0.05108632333223142,0.011249992879751017,0.019966214726021368,0.014510469477491905,0.01036627660855537,0.02213687319671045,0.01074627964773291,-0.02634943712380148,-0.08367401805960127,-0.026386280937586853,0.03973711412646525,0.0798470369296151,0.12210720719257549,0.15940577550398682,0.17158449903813017,0.10769212909927284,0.24149081645478107,0.36762569015733204,0.334451763434778,0.1266701805706604,-0.07930981398688172,-0.18195198405575636,-0.2370133185535773,-0.23262879961750865,-0.3121516344146946,-0.2708563009230956,-0.07861819598241723,0.07845372281413818,0.0516048342095813,0.024346960476904354,0.012113507931798297,0.031642676406221766,0.008656108776605238,0.02244148586041728,0.0026132482859158885,-0.0661858943219576,-0.08013995790677833,0.026865312408259328,0.06286552207326176,0.07771805911780968,0.1391205970968417,0.19914230843574457,0.06661257901396159,0.09952659063520887,0.3221382063087247,0.4727468674283157,0.47852535055849105,0.17600590104952,-0.03157761237242107,-0.1307288463805245,-0.09320547248679663,-0.18682635113079343,-0.3011134050724968,-0.2852764759491547,-0.13702309308040492,0.030038342814471604,0.015936536961012625,0.00701218348144205,0.02558674148155661,0.011163313280788035,0.002886336194611673,0.034774411714872236,-0.015493881745105072,-0.09966077765306798,-0.07698664855701652,-0.0302068239400278,0.017287278605737682,0.06885352984530034,0.031919875419541235,0.12690812977105353,-0.0016824707426579114,0.1712868195794486,0.34044908788183215,0.47147585798827846,0.3533335183151459,0.11495657738260606,-0.05309815883527303,-0.015553502292065952,-0.03856049986178798,-0.11151983569262806,-0.23714715381631185,-0.21488550310500953,-0.10622520710885171,0.031548965147797675,0.0035370851217571826,0.010130408821623488,0.000771114656643516,0.021993442245637883,0.031367153869811704,0.03165428682048477,0.012027850377822577,-0.11927211551922137,-0.10810484759035006,-0.12401242100003684,-0.09501219176441017,-0.033150671848608586,-0.04811248485049314,0.006159735907831069,-0.024787382578043422,0.2337072545938935,0.4136923642102877,0.43117299544359217,0.3010000557292531,0.051599590696299526,-0.06761861184496637,-0.031419338528000655,-0.059056141661070254,-0.07775259714506529,-0.060579612207761376,-0.1259295368190006,-0.08223416070226741,0.025005229076427615,0.024160002996066042,0.02167265108631668,0.02639091279463399,0.013579254282601932,0.00489657235446051,0.04575659031182646,0.02341863350765166,-0.1177829686219521,-0.09784160993514229,-0.17687511075677045,-0.18522665534003865,-0.13501197891989736,-0.12743323936066053,-0.013735991226652419,0.13754676207446503,0.452343966182842,0.49685357272044894,0.48236840787799135,0.2522418569462877,0.04146093261732087,-0.11789981276786202,-0.019945225420709558,-0.05671563842407315,0.006200108958660482,0.017087846129474577,-0.050550568817964776,-0.03174796976333414,0.017890057670281404,0.03698288856920451,0.02569423994317836,0.02024442324731334,0.006786452080093609,0.03711493669654186,0.07283391979031148,0.03759817154391838,-0.0789546823020512,-0.12466599608595874,-0.21756698466337385,-0.1882406606634785,-0.1335109677550604,-0.11051678823055669,0.07502886448106544,0.4106289787391796,0.5655532160568297,0.5392532874535235,0.3551111249715309,0.168800376802285,-0.02705994069151303,-0.06968292644767934,0.02045385541529384,-0.012800265462644726,-0.006735922779662969,-0.0035517949175089686,0.004714749057191945,0.020227918823778057,0.03632700511915483,0.04025618220071748,0.01957359386515936,0.016016794368316982,0.01285271240200182,0.040980408789974006,0.06439041405903749,0.034319981778869565,-0.06296559196222068,-0.12574880001540706,-0.1771080911338415,-0.14869387706592102,-0.15821867108316603,-0.14238943034267457,0.10733550852594807,0.463665466620457,0.6022142725885195,0.42750448643403177,0.20139183543005648,0.05306271272175084,-0.02931541032090292,0.030213634552726153,0.08182324995778953,0.01673301190261033,0.033247059276984,-0.016860484805533864,0.02265118424802293,0.022407215461444432,0.021056681765764963,0.018743575306542325,0.016776071384151225,0.02598005668962385,0.03291235539612913,0.009694634911123686,0.0876557331337272,0.02155558719621449,-0.020827869940392065,-0.028297439374128028,-0.09725664205507471,-0.11110423199734688,-0.1898256715700468,-0.2496953466395435,0.019903103482176963,0.34701070477094464,0.4397470241883175,0.27281200649754606,0.0849395821559244,-0.02600642220379015,0.01347767467392213,0.09630987031699668,0.112437142529296,0.09754652503709041,0.008622568816758427,0.005969344868426794,0.038609268884170045,0.060154555792774525,0.04972404277164628,0.03072022482771268,0.02426736076511156,0.022365026120944567,-0.0008997776091961248,0.012121694543265447,0.09000505185893054,0.04346073369629374,-0.023677412211961794,-0.00630140341964631,-0.035347843579960576,-0.0859167448424202,-0.1530187322998305,-0.24213925244046244,-0.09103894194583921,0.09650115208192599,0.26913151506123656,0.17677582395566133,0.07582564867900193,0.08636358281600333,0.10992836534054294,0.1020543992888117,0.11216594696146658,0.06219351799249554,0.007830773114984393,0.03686350592072279,0.06963277723253415,0.05091823241757087,0.04517928100044623,0.025726687683758395,0.035580564749279515,0.013691754112106824,0.02409984105950335,0.036767114076366604,0.10671834450290772,0.07813442502528142,-0.005226148208517496,-0.03218849330606135,-0.010598446562392543,-0.03987145599506699,-0.06531133832659576,-0.20065887295745768,-0.16686681344733725,-0.02015268057025721,0.13937299796733732,0.14948642954900765,0.13115421233051916,0.14123181619010367,0.10209050588950663,0.11948771947829168,0.1266053893736537,0.05856089244731554,0.008696932473437339,0.11169226039669775,0.09455303263332032,0.056798959955479206,0.03849697401845996,0.03469500028111518,0.0012317703846120162,0.011285702543880644,0.031035362900268742,0.024229736032764314,0.08557087403357705,0.0970708865780844,-0.012200238352171558,-0.03896630833351966,0.00849518464727488,0.020932608229922982,-0.03329549306625618,-0.11140355054750649,-0.18155424489753935,-0.050152353226296416,0.03842071503186291,0.09009222922345753,0.07253316535211068,0.1379203776891632,0.16377107838631705,0.1364472043291129,0.1245793666541199,0.07240913555853724,0.10489856796704232,0.11536616547095814,0.07991993111836919,0.0354418552993404,0.011016870489638578,0.005047252466787106,0.032144710322244766,0.03538844083689808,0.01514378316500795,0.028369006368330646,0.05690797889180924,0.09029628187928325,0.0017935468735006221,-0.0565115546163593,-0.07569587994274397,-0.06857149044184521,-0.04315438557802261,-0.12018731291899426,-0.15943828937226556,-0.10316612794270971,-0.11966474395059301,0.008489125097358646,0.02126123338052941,0.08341278032322223,0.09328583951383204,0.110239060884376,0.12746692453911695,0.1151536704320704,0.1298017586405747,0.0797534746912977,0.03355013103966951,0.0027859627218718946,0.015393113613412723,0.010703856197671594,0.01011035544060673,0.027573465258338665,0.020687542214067673,0.00947178456356853,0.01882458395720804,0.07378513136841484,0.05137575801723093,0.009164730111353088,-0.019363770358254886,-0.04157730644690296,-0.03802328849729483,-0.09932841410920551,-0.16170327452842326,-0.1555124385635273,-0.11499164503682607,-0.06546257268785301,0.05493322825298517,0.10548267659561106,0.10687905703510354,0.15115501839892206,0.17236002608897383,0.1617294773928488,0.07396632903917816,0.02535296685319566,0.038058463448151524,0.034487760689884,0.0030068666908405627,0.006679477002582852,0.0018637273762459764,0.017422648373598797,0.02883900248174675,0.01395562211904629,0.020825339003711495,0.016452568013805357,0.04815707718457065,0.03937612244870652,0.06257406798851194,0.03895122124135952,0.021479571375286076,0.03575844795818947,0.025965936079604176,0.01903229060103639,0.02604223775350347,0.05345629748253663,0.05792775512733711,0.08015649037390822,0.12206984168854877,0.07968995784253306,0.10128116213299848,0.0631189346513632,0.05132150564891975,0.017394616393504692,0.03652701730133032,0.011935138724020493,0.034158514820750496,0.01574089673941461,0.022501154259470874,0.006877506963159593,0.0013514867861525528,0.029228945139614427,0.016141218695609996,0.03824882211235629,0.010492211716357837,0.013439901136591123,0.03663311392287307,0.042996489335698135,0.10853794266354604,0.09817786247907784,0.08877232608190117,0.10895667489655309,0.07863102810593416,0.06376772986295484,0.06004107338088471,0.06635707210434688,0.06222257085754629,0.05768809371486395,0.014946960922349015,0.009409096163683725,0.029882637065158917,0.011206109393071432,0.003633254851476291,0.02734406447443673,0.006361600831078203,0.0194030290483263,0.008930520929814953,0.03398242261193323,0.011106401616001167,0.0005904935066417459,0.03335299510354062,0.026634135477665404,0.005924832998387378,0.008927879087615252,0.0075941490791775375,0.015507201088494793,0.035482950299193954,0.015001842184215729,0.04116399573635905,0.044270460844520416,0.03693730275229753,0.032122587767282954,0.030992644222635247,0.03141403465148106,0.02335693513954242,0.025954241261182454,0.020958143395830516,0.0357835545089825,0.035350471123321583,0.032230895815218596,0.02746156150187155,0.009824194304691725,0.0004040620173265357,0.011976868202464392,0.0017278763094457955,0.012975948276097287,0.03203250981639004,0.020846227150007397,0.02327063184481069,0.022080288100543126,0.006284054194313556,0.00254521468124013,0.035709741937126095,0.0006783345362052733,0.013137854187170799,0.03285926953878738,0.03442345197195715,0.0009692587826082332,0.01659651956730799,0.018169607209221363,0.001526662280401254,0.0025038404065198605,0.029455601239838012,0.001639062961658666,0.0172051218572629,0.025968985013169885,0.024771023823998872,0.009066250896007155,0.012287517367207592,0.02350085415955272,0.0026163241069977077,0.003517383501830023,0.004545199741117135],[0.024363699086514874,0.001183639784379726,0.020388391217946968,0.020160466613297567,0.022530162504885782,0.002028581278342545,0.017714865789444843,0.003398616002859091,0.017419794216547064,0.023258046416981013,0.026539148568459372,0.011227958053388292,0.012613838541824327,0.033722424349878224,0.030698421459389717,0.03087121670048652,0.012664623684766936,0.013138293728766506,0.0007079712309803596,0.01245083556781126,0.025296691963104277,0.015314679088353036,0.03265681946821451,0.00006016888886600791,0.001578138895151063,0.0022132014354686274,0.013998352536211416,0.0016299715023656886,0.002408532138592077,0.03545261661640214,0.01802029963693296,0.034927821675043554,0.018080977359480496,0.018324741361543734,0.01891625935175476,0.032888757748882926,0.03570495108723002,0.021072095348059504,0.03217025247497322,0.031283336214340575,0.017681988016029018,0.008004005366308747,-0.011760148639535683,-0.01687728649143923,0.01877792433270997,0.019384031621059818,0.024190687991735835,0.014142657750941033,0.029197218724728344,0.004392402206476719,0.021438052174195105,0.005380129156130024,0.007423837461671,0.016718376504254753,0.02080659288529448,0.019405145363046297,0.012276007823095474,0.005609942147993858,0.024307457677365443,0.017912154607477044,0.022745998320163587,0.029863596987345403,0.0104729638281155,0.012470270390085157,0.027436345861884006,0.013412695831661325,0.02981064685081691,0.041353555933585945,0.009448720449725213,0.026769863140113228,0.0029726125174961335,-0.02521352478043532,0.006100072578200877,0.044303493526524594,0.04347652073323875,0.023498517418123106,0.013479272977836274,0.014521391982986059,0.008782251908131328,0.022801884618536983,0.021750541299799156,0.03520868839767047,0.004390126666059313,0.009571908312679487,0.027148257831999558,0.007931222854128102,0.016768292483838272,0.02170880347643732,0.010667673301441995,0.026258216647845906,0.0014320372646641401,0.016162596369584527,0.030778556104880016,0.05344016359868465,0.08951142831126796,0.08509888685261036,0.12242306962820779,0.1082051045827672,0.09886045688579018,0.0752471572573044,0.08783123060993571,0.09952507973969435,0.09914963390753387,0.08690374632974508,0.06979254712755023,0.02937239307778835,0.029872933038105197,0.01292087543354352,0.018791401880485278,0.008315609370023357,0.0031171076238481576,0.01635330221948193,0.01853706105934264,0.021025442288247456,0.004777025355952215,0.022762401619106826,0.004850460221258672,0.02901898049552098,0.024448580477847377,0.024180894446792507,0.08516346884966945,0.1061661044567993,0.11139518851419242,0.10055781211390492,0.09813494997078394,0.10467178280968603,0.06633142953335096,0.01736616485281991,0.04073665604299648,0.020225151228547875,0.015308128846321033,-0.036391401211528424,-0.07796973910155874,-0.05744888770156281,-0.04679971046610964,-0.02194307523887814,0.011979004397809785,0.018114265876216777,0.02110701650119486,0.01724361682674972,0.020555757994852826,0.019069864834847794,0.017042391242679644,0.031547132918727884,0.034632172447047624,0.04222096023648416,0.03408925453499427,0.07646768965776862,0.15229939682349797,0.19726675735889826,0.1744618899315396,0.151814912144454,0.13416327187306223,0.12315866177765573,0.035098121713034364,0.03590370144194721,0.07100689971589581,0.059587916192941986,-0.03832939311009604,-0.10587475189294647,-0.10743945673369582,-0.11666512305390639,-0.10011287981398677,-0.03721441834531803,-0.006780880150397362,0.05072458147591049,0.026964701097079963,0.017847493551716737,0.030914430412583405,0.03207198123395794,0.013336406173520601,0.02115277255441508,0.04155863128333198,0.06808565189589713,0.09927058642882268,0.1078066085157875,0.17724401942373152,0.2519133175018004,0.19343048559641102,0.1209509792190905,0.1444545240821054,0.14889460821603687,0.07283328961293939,0.06492868138810037,0.09571849720636263,0.07147655691073558,0.020509037383977944,-0.031062087841852,-0.05934380611658593,-0.044609805830267496,-0.010107415624486672,0.010687234860929469,0.04939237288446611,0.05539098850263952,0.003015468186206411,0.01964901132335558,0.009418925518930168,0.02236361204648228,0.027498177330611735,0.011565870870690718,0.022976941286595828,0.05812076528902423,0.08282341584451226,0.15616380988308554,0.2295534116404736,0.209344080520071,0.19332322651516357,0.10153210283948896,0.04430927284941909,0.07832708206078301,0.09942393215091495,0.09017784440472991,0.06455141627242661,0.10343855251369331,0.07398769167849403,0.026005484004476314,0.01664610676367012,0.02714225352914153,0.018865686767845707,0.03864127270367412,0.08428395581920153,0.04177889724981116,0.012851021744127446,0.014245731252196615,0.019588141406699226,0.010312599041527492,0.029460155373385057,0.018310215231392226,0.03700041732666362,0.035655816779741514,0.09761806229717253,0.14330355919673377,0.17707761161208807,0.21675173083811203,0.17014425844663852,0.01891693479757814,-0.05745198766289131,-0.10050595871738711,0.03388406057579515,0.02783593291766308,0.07124244885376758,0.054053657589505616,0.08209719133347004,0.040663585313884754,0.06597362767540516,0.059534407303365754,0.08584531177620346,0.1354519078967057,0.12043960062826317,0.06603140339186979,0.02970769300351889,0.022206432391186977,0.02477215335004008,0.014401262680684665,0.019841058207877564,0.03444898869780697,0.022873861291659067,0.06419424877457648,0.0990570473820898,0.1257858645653955,0.16601510336457068,0.17880305309113367,0.10888567926592875,-0.05282138507066108,-0.17030345793853474,-0.19623074738535456,-0.15291318304258045,-0.10278358040379744,0.02104204833514693,0.07958997757006363,0.0548265564234678,0.08217871407652896,0.09527690640754059,0.0952609454218649,0.13824595895582553,0.15942249304371528,0.1300009433118904,0.0828826246297732,0.028407782363992745,0.025253429717565695,0.01049004875573935,0.03358324898852,0.006446400425380111,0.029780312125442333,0.018002865718700876,0.03479211249395126,0.09760289297800516,0.09810241333979769,0.11550032455109005,0.06722805406451507,0.009765059678795977,-0.12755851819501376,-0.21326122903606684,-0.285435245299512,-0.25966918448419546,-0.1375796365643645,0.000937874520791707,0.09565897586599953,0.05558920616844174,0.02643167023678395,0.10163003023150269,0.1028934347419836,0.13166678892171454,0.12951268094606141,0.07855191795868374,0.030612983499584138,0.025442273863312426,0.019090790238773934,0.01814248572119604,0.013489720046681326,0.03252853085785079,0.03683277455681791,0.01896609997809844,0.03957348982547072,0.06246582577711911,0.0861872329974697,0.053152654607416756,0.04445027178268134,0.02113340799404302,-0.018075859977765937,-0.1475613572881542,-0.26742821490241353,-0.325797552249662,-0.2147593784342305,-0.030086203248055384,-0.0055057194699269325,-0.040288297595279084,0.0007877562912120471,0.0721471807299704,0.06487226457377436,0.07705545060737777,0.0661661068964594,0.058776722378026926,0.03397458446047784,0.00931585691620763,0.02720930905186449,0.006182481038118105,0.03362261276296039,0.0029501886914086403,0.008634088992785895,0.011982534902617279,0.014542094730834903,0.0359211720600587,0.0588382548617581,0.058979382434862164,0.06291274283643655,0.14276969986684698,0.1353234432528582,-0.014794021225405247,-0.21031909285036102,-0.37427512396569185,-0.26861694670565833,-0.10433358364575793,-0.046816770424031554,-0.025281217168597415,0.03456066784268421,0.07054516675736301,0.043978257483462166,0.06494695528281716,0.05741328292923089,0.041333094645114005,0.04339432033986427,0.024873491416095166,0.015049416985084205,0.006360750594935389,0.006241199441427879,0.007821614826354389,0.005815218710393914,0.023811180367659685,0.01589054243740702,0.04803202243917612,0.030130973059763765,0.0536298923659765,0.11972139881020868,0.2262864953885611,0.2603342416761436,0.15876612293344003,-0.07910702588117524,-0.34128581177120626,-0.2292258091761617,-0.07176728971522464,-0.023078853946269625,0.05835266621466086,0.11854893486848196,0.07608893374993835,0.05473460781248415,0.05240048169839845,0.049021129784940394,0.03917687760421021,0.024826707999157382,0.029011609648911682,0.03245560238039523,0.03102192427706605,0.03382711190618973,0.0027777485015895715,0.030352636760787814,0.03070142878388986,0.03302308924367822,0.034308642957681205,0.039539470641933964,0.07017466962558674,0.127412912561192,0.2486432599577794,0.25059689566502,0.157607981314046,-0.07978512117693906,-0.28251036433934085,-0.19499759685788706,-0.0184553267312078,0.11573498652315026,0.18363665274563493,0.15509681070442388,0.108892507777778,0.06871459332755088,0.03205800050665818,0.02653338100653581,0.03741580109051817,0.006289343453512069,0.025726549469040412,0.014404908908780652,0.03224311396377145,0.0077612844829470316,0.031104032960331377,0.007624908266823728,0.005650518735813525,0.06038790026032086,0.07062768413597292,0.06247228244330322,0.04879861780896971,0.127275200956315,0.1796848999795995,0.1290103629305107,0.05600070285053845,-0.10019884844785808,-0.2654028310147889,-0.07285711540162158,0.06829519826307708,0.21002950875712376,0.21837893968024472,0.15653136617702462,0.10150432906928307,0.06184885031660651,0.034384702791244955,0.02772115134546299,0.027404778871935806,0.037426199440892045,0.02871693706950883,0.031710652829760606,0.008139071336649912,0.008105139278300613,0.019893082472065324,0.0077048133475694355,0.036478606214727816,0.048271513815257884,0.09173807291121157,0.07622766514811928,0.08585659035338604,0.03268222327554626,0.020967080153364705,0.01427010258143545,-0.04262658511990491,-0.15280665091253218,-0.28993812827606913,0.0007228764219072869,0.15559501180807497,0.2660515798943592,0.23379841811332422,0.17431092522095118,0.10145789327026651,0.05124751930313064,0.04665576998384781,0.044392718417158604,0.064313039752343,0.050898769512978136,0.027309510114393226,0.021565000431123683,0.022367734138447733,0.0037279912125527137,0.019647935864389288,0.02943551475018989,0.01928590389091752,0.08089886378981717,0.1686846056349411,0.14812420341021573,0.05935747407923568,-0.019751570525503644,-0.05347644954572843,-0.03293093546168097,-0.12400272839889064,-0.18367602906821115,-0.233900758448158,0.040176712176443856,0.2696830144215425,0.2549420740923678,0.21406067063710746,0.15199217725499783,0.11653390049287721,0.0636883231302692,0.08003315081789804,0.08467853819582054,0.06867665180961476,0.03452436191712417,0.02849065102779039,0.005080729236376972,0.021455823372881204,0.018094160712960352,0.014514384226786114,0.008033540521998155,0.038001217903564526,0.12805435639477833,0.23486141461353602,0.16966006842797676,0.06383430083847755,0.010526897061589414,-0.0010609229743193114,-0.025773644080760633,-0.03284334456243334,-0.08595955877817371,-0.14457799074189745,0.1050957143085084,0.2805358225989797,0.2048352013799224,0.17631782926478526,0.122207139581804,0.12326545011784269,0.12634967619188095,0.12122670064525903,0.10842779104656676,0.053145901668791413,0.03165645850633588,0.02534159965782777,0.011093103697674496,0.0009034968476005805,0.02891945001664652,0.01730352877474812,0.041239293714866336,0.055470876455901874,0.15030772431406172,0.2050522098295078,0.141541031758218,0.10812641440522618,0.027435398320376905,0.015378635850823752,0.06923296153662364,0.053199091473573,0.014153847344768886,0.007551512742456079,0.13426293642710532,0.1664465291752238,0.14765770749006898,0.1185398375101298,0.11954290034938535,0.11415720370762128,0.12793214917420762,0.14267234884213173,0.07848332343111768,0.04992053716325305,0.047957913819405826,0.01931348094288516,0.024485525982093522,0.007039513016708988,0.014224347672820053,0.010374529324277102,0.03316806890464298,0.06585337955930032,0.09940209113602884,0.09463752853979424,0.06884044400429654,0.061536044325734944,0.023076990402205882,0.01903365283841551,0.07812302616062597,0.06889646599714108,0.061309564223558655,0.01905832363502935,0.07527234635052078,0.06721527083300918,0.02778143660300558,0.06517540469631093,0.15063397266138873,0.15327453768277294,0.1322764422309748,0.13095112007732107,0.06837988948661528,0.05691300698074636,0.02272862530262106,0.00071722662421269,0.0058535334900869235,0.025420460069460388,0.027893821855955177,0.02388333319721907,0.04882047451461559,0.053945529030713035,0.037618054041775664,0.022769635556761997,0.07344762202298255,0.08939303213419139,0.06453704673594758,0.01210645365644085,0.08958667377906816,0.10516975120500703,0.06257213298012625,-0.004717114529575757,0.01687047226455155,-0.020722243905727265,-0.04327251438310671,0.013770774627389052,0.1335116254276003,0.15568805884709144,0.1331998734736438,0.11321413628981955,0.07335623602099535,0.05880499563944992,0.031902768719386077,0.005864965154550943,0.02362470114963649,0.01511005145907911,0.030179391756936166,0.03524702265243202,0.045387539056874045,0.013861310403363376,-0.03694216444112418,-0.01857504563301953,0.00015318487148382193,0.03428467093596987,-0.004382870437593725,0.04559750754008165,0.10162345172652407,0.10428848780543183,0.03446939729178661,-0.049950523242682024,-0.022827940838398866,-0.10027763873716522,-0.11078136979126738,-0.0456035138912444,0.05810677097332695,0.09872165605939844,0.10122403873901756,0.06208125330005132,0.04528405423771517,0.02868716424875153,0.022310279789605807,0.016669589741845868,0.001888772236657937,0.017407540906587495,0.014361109447295422,0.007410001615885963,0.016087845637259967,0.02151928288118671,-0.047329368841994096,-0.05362653725580046,-0.0036441114586296883,0.005489876534796556,-0.00006310598997806513,0.045518635214181646,0.0582815905274962,-0.015520014899430782,-0.00850751337650269,-0.0002566420328051469,-0.04182469491348613,-0.12049669731817204,-0.12526806635215068,0.016005018304647314,0.09292431422035874,0.08838483770857954,0.10472117608576016,0.05949775063045821,0.04097324626652174,0.005430055633380161,0.016723222317777873,0.03035296410375757,0.012581284504114276,0.027742927660163636,0.01795589545143603,0.01257159080124161,0.0392438664265636,0.010227743085603012,0.004168937364665781,0.02247152734361184,0.022864244042769558,0.07603825768771526,0.13402068604996142,0.15081559309983328,0.14667821539024264,0.16503119699867722,0.21773349016877078,0.141928954087206,0.11241440915395365,0.10196369584001819,0.05011876401558919,0.021884024253478532,0.04658164270482608,0.048704446428090534,0.03486094637062502,0.04177701674567114,0.023786472844181852,0.0318097593000469,0.026189256347446913,0.03006546353535361,0.007475628886061125,0.011474301513124294,0.007719794837054325,0.014874942485302039,0.009716288905134554,0.024511998739631172,0.033045653515674005,0.03691372945906034,0.032417493452898107,0.04296258734803121,0.08158740075960282,0.1230108868181052,0.0978548940789846,0.08101993415512773,0.0983433615645972,0.08631707401763672,0.07815807302499957,0.05775671389701861,0.03770787772661593,0.03378944205464966,0.012145260709937707,0.03492754909075071,0.027615360581980768,0.014938505769409765,0.0061952648345625005,0.027031566819024567,0.015380992035950258,0.034297775087651625,0.006193061825170368,0.023835848230489325,0.01794080659338017,0.011265807826911025,0.034464568553757687,0.020242441562126557,0.008038034811023206,0.011806926980378487,0.012450224837546549,0.005362966797130396,0.01650668769337871,0.021909001701495037,0.014273998553317192,0.0278541719148963,0.011557395475455182,0.035226398266103055,0.011055203457713401,0.01854000638012311,0.02744014813453081,0.030635531533276486,0.0024991545442045507,0.029193495287644273,0.008461985711453408,0.02906685549140708,0.007975110153728426,0.007175458568374105,0.025222807034025112,0.0060341642385029325,0.023163004537484964,0.01798500356186538,0.01915564148009666,0.022988577729611468,0.016046219081422897,0.0051784385465296545,0.023145675458757335,0.01625175967900149,0.004430348558195225,0.03273194817308491,0.012014557794596235,0.018888751278640026,0.026309232754804863,0.026645173397697588,0.007987080848518596,0.00182585857478831,0.00823508015013009,0.034520735721006834,0.001640791467648601,0.0040112430571135815,0.022286059746316676,0.004543302912228605,0.033365787406427774,0.021647931552042025,0.0027485762541546205,0.02213435550580556,0.017104919326356955,0.027404470641292557,0.018417082643274938],[0.011698908147476674,0.020573103671595056,0.023630995466527176,0.020922885142124203,0.012084502893462048,0.022064981139110467,0.03464169668859044,0.022258064475549517,0.0007566144865672753,0.006165103036214846,0.033160293822745324,0.018333112603316437,0.02914841570795677,0.02135948520038488,0.009319984057965688,0.01677314103230776,0.028347990176410376,0.009688189886608809,0.0014336386566244838,0.035127706642592335,0.014562047384719548,0.025758684397247107,0.015551012537038975,0.004564970588552034,0.013610227537501407,0.033647863726926706,0.031780653557523186,0.021061729174473187,0.027823723624305123,0.030072103753815114,0.01032148662503691,0.031186764826557085,0.021573225783534516,0.032416622225933125,0.027287075597431848,0.02285631474885467,0.006852226970787392,0.009261177521691108,0.03190026930180238,0.010549495462472537,0.039896266417949265,0.020635037584980368,0.005620976050431708,0.0266923351408952,0.01379495457269024,0.002740358684793527,0.02833634197267171,0.004219572858396469,0.03258588682400685,0.011848552900211385,0.007982749729792734,0.010685835541393369,0.03272352292914878,0.02910995679724699,0.020259983490424134,0.0122177604521747,0.03301262925434817,0.023424195871357783,0.028107136117336128,0.014090942702307851,0.03268347654706659,0.025089875532712153,0.0025797380587149732,0.03147427209237223,0.012254511329888165,0.04782834251483413,0.047174795522079295,0.021731107031476467,0.04870174982115358,0.04431460992863295,0.024883125888063806,0.014784339956234946,0.016136733905423938,0.014817618084012071,0.04630538211997666,0.07862149109653993,0.05939291555313996,0.06102745834790727,0.05148727181671442,0.02921442834398826,0.03518406305454925,0.00892334946746358,0.026146991408202345,0.020173346928750398,0.02105448390196744,0.012296725036837406,0.0064307004354589945,0.001917861193111946,0.001108948176295456,0.03115305670498452,0.03640834263839763,0.015448941373515473,0.004025627754650357,0.029133021737863876,0.03231517711999496,-0.01309149879848634,-0.05566058563529744,-0.04176762720513592,-0.03813043100654048,0.039951424311470356,0.06767750339477989,0.1298987577219421,0.17830622936292012,0.21847216459047106,0.1863740701487688,0.1574241878920605,0.1003916825724829,0.09554905915242305,0.048952568889206335,0.019099773166641628,0.018151722648318647,0.03508675502898295,0.02575612163116667,0.01908561907288398,0.026888851827298665,-0.0009283123193563209,0.013261248689645738,0.016769071620090708,0.00703865267393492,-0.045156156686636424,-0.050089175390369146,-0.05989420311070834,-0.10145606048174517,-0.16865967956786432,-0.22551084235373905,-0.2445663690783017,-0.27048179838563735,-0.21650650317714454,-0.05561185521799528,0.03800334574656808,0.0532440501250934,0.13077850629708979,0.2024111122893793,0.16943127335612754,0.10110914368470374,0.08021416820470777,0.027733756545898734,0.023486588066274933,0.006500311652115292,0.026786412868171964,0.019897313867467046,0.034681425734810714,0.011600893919589047,0.026489144090511674,-0.00229065167053014,-0.023259416854583992,-0.06389041810824972,-0.1133165591908697,-0.09026680568090568,-0.1195832513754557,-0.19748219335277764,-0.2784239944168999,-0.2173655409148046,-0.2509761161078761,-0.21690614122069055,-0.21641741307048504,-0.20024064636604247,-0.10086418622322445,-0.02843022173961939,0.06098694206724902,0.09774813364146125,0.0653197797404661,0.05792644264323509,0.05396675894582417,0.009077865969638985,0.0041801870193311046,0.004798515319018369,0.000024587288863099388,0.020706282748520138,0.00703617822869819,0.02844025364841466,-0.006672595891621739,-0.029762805112363386,-0.05690872959460488,-0.10859468911867416,-0.10700291143526441,-0.1247427570720566,-0.20027065210905595,-0.3004348502831342,-0.3545864457792487,-0.33921112095959466,-0.3272647566699163,-0.2524508470626908,-0.203908499949718,-0.17503781354783918,-0.148778176364126,-0.1364707692463975,-0.07040026227492069,-0.08388061013614218,-0.09063224945041012,-0.06674898602211395,-0.06228527511612477,-0.09219542658440887,-0.07394076251217503,-0.018129033352044556,0.012853122943045121,0.007910480992477376,0.011842006334608053,-0.00749781591653485,-0.021156520418248097,-0.06851988376391178,-0.08830686508740489,-0.14004980302658135,-0.10859328959114195,-0.1334624248348902,-0.19856555765667064,-0.26699954557868166,-0.3346036096696991,-0.43630976475318295,-0.42584528692538964,-0.30557220617242353,-0.20312613897107867,-0.16841400382845592,-0.21119916766100363,-0.1961300220324587,-0.2068661593251299,-0.19416059987025558,-0.1698165918515476,-0.162837987632286,-0.11705932103326452,-0.11285032973865794,-0.11896903595950328,-0.007688939760042402,0.01501153901972177,0.018176681397582717,0.03185263405338766,0.02255517889353065,-0.008189311024456938,-0.08907517792653573,-0.10827620182444067,-0.12064934794439713,-0.07565150948210257,-0.1011173926876151,-0.17686219996517114,-0.2685456511824077,-0.2756167221587368,-0.38602276905834687,-0.4066842988577705,-0.3184399431285075,-0.24767292603189903,-0.22148400268377408,-0.2591086351034583,-0.3094889341650322,-0.2594620653787779,-0.2217579120391033,-0.27230255814843707,-0.2832364600848939,-0.2013709614049025,-0.15166502356342637,-0.14988600929824406,-0.03327179932788589,0.004948438642575715,0.007592037749563534,0.00827458613264579,-0.0012136657775713127,-0.03128940471873381,-0.058225136808474444,-0.07100908184345035,-0.04746653960649681,-0.06413635948214388,-0.042204153175379094,-0.1288573671326302,-0.12726272873399072,-0.11702767274240998,-0.11427729324710414,-0.19826484838810185,-0.24312330729349818,-0.21176774924538005,-0.18308300852485687,-0.2396163162372651,-0.190100887228332,-0.17664267410407344,-0.2582008460454748,-0.31930647452713334,-0.3308185714744763,-0.24773435040382588,-0.22628547325561713,-0.15827993800559703,-0.05005052106013114,0.001466780686279187,0.0339554240074865,0.03197892701603958,0.02052527006569703,-0.012489743550029459,-0.018789402157874703,0.009605398318832798,0.026575316503921795,0.05718033754257464,0.08357351294079307,0.08479916844892285,0.14291926177915196,0.09469598700179063,0.07311261190202432,-0.02442444197440655,-0.15081487332597923,-0.0872266370529097,-0.08282045283528909,-0.09817137903768768,-0.13475776470427725,-0.1401978979316656,-0.19732576765704732,-0.27074347000212845,-0.23807372996463383,-0.16934044768367962,-0.18023896263241923,-0.1194066195611752,0.001309858356131773,0.005386039749487353,0.00919137903939467,0.028865770134245423,0.02271051123793084,0.004335136489679702,0.007539416547171079,0.09773835454678913,0.12427747525689732,0.21285215549816386,0.22122646643367683,0.22313397845589675,0.263083959325718,0.1663857226775233,0.20388924969947012,0.05921506696976281,-0.08452196403579224,-0.037316421847208764,0.09819146290155856,0.09366970769474339,0.06244884907528368,0.01986455958859748,-0.04911748076051424,-0.0031111244480778767,0.021819260753798538,0.027376544569512464,-0.061776870875398855,-0.06808735923068432,0.008171211306466645,0.008979520800537405,0.029648721404871483,0.01850102854828614,0.03339594243682863,0.008673307367015482,0.04843134709658475,0.12325840331398864,0.22267346031013088,0.24256939690898988,0.16519197366329683,0.21243441913820194,0.2643683059527718,0.26727783831186613,0.28668148184963826,0.05913443263505188,-0.18341966627357925,0.07075189320642371,0.27778557478315197,0.28286301261158847,0.24095249208541072,0.12132919184745702,0.08757442112405735,0.1953410050936932,0.2565911645557606,0.21977232513865233,0.053860782484025885,-0.0032311269971163448,0.0018683056389653873,0.008728788579947303,0.012884815437235924,0.023487110165154822,0.03148696305536051,0.023249930406055958,0.039761813488665754,0.13372063049973462,0.22790532804000463,0.2222012242009188,0.18075276288224865,0.1285472633873709,0.26681215036807476,0.3681351420277074,0.2748298911868601,-0.06728626448770574,-0.1540302619767049,0.19284075718604274,0.33531493422742026,0.35111513028579067,0.21688905414259105,0.1501147870022003,0.0894480011154643,0.1884539947646496,0.2746892797506534,0.23936042106236188,0.10267510144216173,0.013276721943957997,0.016661403435830807,0.02423035897618631,0.027232416648858816,0.02617852160126063,0.01482215118768872,0.019349429998588588,0.04145889148244809,0.1376331184227118,0.23277523840146025,0.18922483097211867,0.17210232891503913,0.15330540014846525,0.2507783670689661,0.33086423992968267,0.13436234923999674,-0.07825013126745287,-0.09440214424166028,0.12223727741385308,0.2497047167992085,0.33300798092883055,0.2073986718002389,0.10881362428066248,0.12132532690539137,0.13545790084219378,0.16630072807309418,0.13719184405029256,0.09962203255631957,0.001092009666894211,-0.022014883294586625,0.017735658517759084,0.028257231511146747,0.016372912430766745,0.00643121940865019,-0.008459699593490601,-0.030663734809038595,0.05143783510694395,0.13816196588001958,0.18677007286502514,0.13827552974629162,0.14776442879040916,0.2332162282867508,0.2624701941763509,0.07237210357566796,-0.04589614978418028,0.07681192392224455,0.2365775446093389,0.30358992547789587,0.2882700501617125,0.2022901627652679,0.056330503023136615,0.02724042309095124,0.046713912501326484,0.05457559539025634,0.05766707967616939,0.036974218379874975,-0.027957681168224315,-0.028457897824136963,0.018837784984917175,0.023809698808491153,0.017823170231073465,0.005496710100304031,-0.020432665446671622,-0.07239352918109174,-0.025568417230736717,0.061676594654895917,0.17520281138844868,0.24792716561700007,0.2691896235262832,0.25284109338986954,0.22092158104193302,0.07715937471610115,0.07967481661363489,0.21703759183744273,0.35738825363783683,0.21667017793395904,0.20299001114721432,0.10152951114850703,0.040431483253985906,0.03662957256508855,-0.012855360368074458,-0.06342078733970369,-0.05071528733740049,-0.05855805368272599,-0.08167811249262875,0.004226337747784898,-0.001615854915470311,0.017403397135396785,0.019401368101401553,0.024970974687026054,-0.04592195505191095,-0.09032275154444802,-0.11622028887796144,-0.03340800860530701,0.08415317761204581,0.20644205727761847,0.26284493641785794,0.29591604722591336,0.21887069844464654,0.1084255087558078,0.10993887243530986,0.15332410982906536,0.1600301298265045,0.04677502243247109,0.0259153399654137,0.0008197339232131819,-0.040041263381133,-0.02309087117439421,-0.06254639343453161,-0.13788444336870956,-0.13711886810905188,-0.09446102806718576,-0.07552251811260227,-0.004218358987563001,0.02802289363372003,0.002412739158344809,0.03558552995672244,0.012880268027634971,-0.027116853547433636,-0.12293868514577592,-0.1755028027607454,-0.23494443844350216,-0.14610605893322806,-0.011896230026074954,0.1144007140143915,0.1358672859245865,0.0395285047310564,0.04503890302364924,0.032565861029416276,0.009493677615445959,0.04675526348822533,-0.021968472757424386,-0.02948829012804897,-0.03186988879296901,-0.02751890801467898,-0.04495488721112507,-0.15999513385576988,-0.24525686403972777,-0.2253021950539211,-0.1372909185933152,-0.03768025722985028,0.02197614788175267,0.019629198014570828,0.014002782382005197,0.0019379098595853068,-0.005593151937293348,-0.049418878741626086,-0.14123059708463603,-0.20547169496453002,-0.27278600223256666,-0.2847798745576552,-0.18332257433941124,-0.13232480071885078,-0.006341857417060839,0.012902195701166498,0.04843952374522609,0.014186272741334797,0.05713168926998985,0.07766394800928228,0.050410230656983857,0.074075531095741,0.05945117203742606,-0.0061295318240799715,-0.061830011271475804,-0.20923145579894048,-0.27838000162314636,-0.21416012413019306,-0.10865080351770505,-0.015807138299659403,-0.009730214590276431,0.0038065897766926537,0.02751574242150512,0.018123944162842333,0.007607883450079071,-0.06658172682889879,-0.16517225261204047,-0.2648685969361186,-0.36870165089350443,-0.3864888814879976,-0.3597318668762913,-0.24203043854879142,-0.10770526941892122,-0.015266313404774344,0.10034395016702063,0.15945709362483543,0.19179972057152855,0.1968196572280439,0.14694911682240552,0.10587373321132502,0.020525560732601478,-0.08034326656047507,-0.15338074292854045,-0.226298901825339,-0.2472630710908717,-0.17341485915457527,-0.03393306025955301,-0.010384742717586418,-0.0038820732083407815,0.01299623035452016,0.02338673285324159,0.0173972026570142,-0.001369533463718982,-0.03033277003730109,-0.13009074863766848,-0.20919411717864037,-0.3471701856405294,-0.34762846917897633,-0.3851135617047318,-0.2920308577998239,-0.173458846453175,0.00825257880617732,0.11529100453185176,0.16466751057402831,0.1869923354649537,0.13186012464970454,0.0358745225677049,0.03100868752270263,-0.07817355776338608,-0.16670027367434262,-0.17290645913767494,-0.19045850176882007,-0.13479612548766504,-0.06651004514067009,-0.01682734416170427,-0.005540183057176032,0.026437004255656114,0.026643266275105847,0.014378808899242049,0.02534788352476362,0.027331701561153318,-0.029959006380651767,-0.07200666503699,-0.15796468472679429,-0.2500099554630476,-0.29821136022299116,-0.29363983308993796,-0.31914116138160925,-0.25669457964299425,-0.22842879624571885,-0.08727742006721222,-0.047269409206898844,-0.07769529296761582,-0.05809819269690158,-0.12517980120121822,-0.14957199467020343,-0.1429513736675624,-0.12840024664489852,-0.09170176143533133,-0.04657921717461805,-0.03400205422089892,-0.020700647334221736,0.021445896445227243,0.034695741760993715,0.0005852283546831626,0.0074054597851952,0.0047945553786615325,0.005863905973203354,0.014106337576921757,0.0018174056804791956,-0.048507056025372655,-0.07827679909778029,-0.13679049830616832,-0.2158118801492894,-0.19503746746335332,-0.21627407541317625,-0.2804702156955234,-0.294766908488879,-0.2717374484858146,-0.2489233926444182,-0.17861079417968823,-0.15313246384144072,-0.14204041230699888,-0.0641353392468229,-0.018768364704980625,-0.004753787869876558,0.0494796096549413,0.05302311766132369,0.014884315951525035,0.0028186268005852876,0.03185068593021468,0.015254912763723195,0.0011390369551503743,0.005937675426512158,0.014268918833537323,0.0049175212952620884,0.0006612308192354433,0.01919358712650586,-0.0011700169725063305,-0.026028158443294643,-0.047456409788597755,-0.04744341747183827,-0.03265688147306043,-0.0629403645170387,-0.07345698122288771,-0.08083766950030989,-0.10360269761416166,-0.07541398794567322,-0.052939955434061235,-0.0432020804016822,0.03449855169290866,0.04677550959417296,0.040947566216470575,0.07012720421909004,0.05296571220824825,0.06364828826955943,0.04511813030063907,0.01639217273704367,0.0027481137222922477,0.017709075443408998,0.010151391200185912,0.020905538719965016,0.03335886839722889,0.03216863789992647,0.011655173297859785,0.003523594379182323,0.02780264697411757,0.01561978085937862,0.0013300118873780247,-0.00171626436725569,-0.018758789687869405,0.0013767658583664164,-0.03297900547560561,-0.06198135361404387,-0.08732647419836995,-0.0910443164754257,-0.04833337247199901,-0.009042787483329665,-0.017257071364259625,-0.05341444875230804,-0.006772966244280833,0.014885385046835828,0.010240166620307816,-0.00623988784963528,0.012809116306224807,0.007376511052756404,0.007378405096187902,0.029204110130628562,0.0214248216440997,0.009130151065907342,0.019771292531338185,0.017390258351349514,0.02225261259127211,0.017398015189815447,0.024175522692980816,0.022734698824627475,0.0017995564168362605,0.0021820937327693725,0.02709566160579183,0.013022242304071995,-0.004206358503021976,0.013160063189285962,-0.026003421301156435,-0.029340489085713854,-0.0017638050994204155,0.013207567083293568,-0.007861338559505873,-0.005777494608351651,0.012270306461049275,0.007149090931245785,0.011777660752321294,0.018333549516263103,0.008334838503322329,0.026818073131110152,0.003354382165515223,0.03551120908909652,0.0004322226428854254,0.028974321041076518,0.01902526731743118,0.023862029507181574,0.024979670404812877,0.015625631836347815,0.030895033559711522,0.026768335583369725,0.021666726793492568,0.024199747777217513,0.021478051316362705,0.0016960127922410512,0.008575058867008567,0.013985716520724526,0.032342359986997804,0.03345612037909628,0.019223215477049454,0.021663648320828448,0.016647255411037936,0.02500314104403035,0.014164927313917062,0.00986578022844335,0.022762577450040948,0.033538252480659156,0.01399270643039808,0.0072232214721404476,0.017446446274360008,0.016951170205912452,0.023473746755328564,0.002977238245884663],[0.027930580963148568,0.006782369654780652,0.0028082767722983825,0.005248074039552146,0.011450015601810035,0.004704813177079389,0.02383094110455884,0.013973248577967199,0.021788496305201084,0.029929604623409083,0.0009873862928265911,0.009286806304120368,0.022920206613995055,0.001999268252054376,0.007030018763464439,0.009406165060280487,0.007044567643449914,0.0147158805617179,0.025689814291726447,0.026479275840173868,0.004652751953827694,0.02704458306725357,0.013933405336065796,0.009884331456268316,0.03440959464957872,0.01708216662606482,0.028364131618228223,0.012416226155179242,0.03118747173635025,0.011888771488698316,0.009916866691874788,0.01201783446638154,0.002825670639956835,0.0322052901884678,0.015789641639966354,0.004598822526682848,0.015494247721064091,0.02203070250337715,0.026061033205188894,0.016383227010278938,0.01526542672331393,0.01865791949808769,0.014981167543805346,0.028049785570192855,0.0073982061856958485,0.020243537382470568,0.012835005445983675,0.026839272145921435,0.02629847162567231,0.030453957253902375,0.009160189219367851,0.02981806765614269,0.033607799639746416,0.027987547977661557,0.013712250131886872,0.001635043240464524,0.006410306120059138,0.02878767212179188,0.022110999323567446,0.027753391322887497,0.019101979025592,0.003074940954082124,0.033684032240495085,0.012430464601186363,0.010540268253534473,0.05039914261082216,0.05356488326964167,0.054412395158338685,0.034206127385029816,0.04754235458090346,0.05910957123934424,0.0857363998688481,0.061598027425260576,0.06521878896747962,0.07671586070888567,0.06393365571529666,0.04822299591067959,0.020296866904009784,0.01606134457139751,0.0024293932932531403,0.02182695990583764,0.012350005140793438,0.027636719742151206,0.020481441910912,0.023445538059642074,0.010710454246884802,0.018796437253416433,0.03960099322582788,0.018718024244753464,0.028630270691315046,0.04757384568830242,0.04598509753447236,0.05961233109242904,0.07764366504675305,0.09881458090553175,0.08611409156617976,0.12272315322357878,0.08931738064021273,0.10793266597928153,0.09476847699827912,0.10041004981111562,0.1281046482385731,0.13684207770853604,0.13827121747885485,0.13277800110499802,0.10492038932936464,0.06615271045637913,0.023196132763984433,0.02772625041956739,0.025998515365291946,0.026355899723672027,0.007587786804577406,0.03491278508077313,0.006083973431318984,0.012609973972352265,0.030189748122320212,0.02545964096256717,0.022018561097129484,0.05061843379854996,0.06088740086778954,0.09120845356628167,0.10712400371123146,0.12291229343776351,0.0991845939143289,0.11265107733265647,0.01907732501106362,-0.0013898725606923952,0.0028584400260734844,0.09080065285804699,0.07097322802623147,0.07584638498894344,0.09140159051077089,0.07912355257527107,0.0670196047925186,0.050912333633438916,0.027396899125524225,0.05443652847937429,0.03364946286130389,0.0036110172341881326,0.008688780054159344,0.03323414395325254,0.012805425883353134,0.001451971798795078,0.023050150639056664,0.02119550447293499,0.04037764841989087,0.0862383242604965,0.12417616409231472,0.14894320239002637,0.12724889627778277,0.11597670108359341,0.05575045560474607,-0.021484882273212803,-0.11066027505652493,-0.11061252840339826,-0.09130403179479847,-0.04638873706167552,-0.06083634545387556,-0.014623548460229022,0.024612014946729207,0.0741921864965303,0.06501206684135702,0.04249501966064605,0.07027179189168825,0.09449698519662841,0.06854058160549542,0.03773864986250305,0.005471024268437341,0.01302155327485051,0.010678719978989046,0.02059795051717061,0.03744513290341207,0.028270174050121916,0.05801232698352857,0.0677971046311629,0.1135934949900825,0.13843669731677385,0.12890146805728375,0.10242125173049707,0.043551338204777364,-0.014400862390061372,-0.07203110749663562,-0.09902544655466369,-0.09125020116930202,-0.026043596184121713,-0.10052327913423194,-0.08063967159603956,-0.08378875943946537,-0.045139163378609445,-0.04644786363753207,-0.026342333122121933,0.07623446589193239,0.19872036920326908,0.11209413155699118,0.06056613941953133,0.02216331901686733,0.016462092254999543,0.030849582408287054,0.03749740010742037,0.023818919784830382,0.058988220549837996,0.04239595581544236,0.09042501109385363,0.07456473204426724,0.10626801356540001,0.04983685456743904,0.0921770993713573,0.03774500536173317,-0.06470874063160165,-0.08773691636997279,-0.08166598480115887,-0.09385996089285807,-0.11706016104345239,-0.17513909605452457,-0.15986325743923752,-0.09821993610465131,-0.048251989582787626,0.004563725808341758,0.0659676190028353,0.11452176637564018,0.22783066498398236,0.14323441115387084,0.06685383860545384,0.037743691943164015,0.012902627494717392,0.02979239564000742,0.009775743259750131,0.036524921212052246,0.05041232383543097,0.0713566217465283,0.0695203225609436,0.0699245007151469,0.08729584510388237,0.023809478565451975,0.02835482469944351,0.03316736860346467,0.013215107427738858,-0.0051803850243459315,-0.05293566514286002,-0.15493640684719356,-0.34318438207683655,-0.2966834872214327,-0.20857147794864747,-0.056354610138153065,-0.031383529473793144,0.06512744102073363,0.03778318935987794,0.03179459775726195,0.1805913181670844,0.14684006147036716,0.06358238050593491,0.03783562420615148,0.014938739328148995,0.007765201888143879,0.025216459864318426,0.023026836622822646,0.029870905662146233,0.03648795370386605,0.04234569858666955,0.025093836380182918,0.06091266156660733,0.022381359820934938,-0.0017823692794455245,0.035611081505296766,-0.027883429154535896,-0.013702359120537464,-0.028651144431000204,-0.10575204255829021,-0.22877802855754112,-0.34642422354975266,-0.31367699748125305,-0.18060719385604915,-0.05675459127034411,-0.008000478388925163,-0.042013206631671865,-0.07078620907914968,0.10485046824430799,0.13364543136972196,0.041377844112814866,0.03241729339822606,0.03452603423332561,0.01193222181707183,0.028374829260464845,0.02863272220390427,0.00901174548978883,0.009600772057980862,-0.015009041490780368,0.00840799188072549,0.03160476152028245,-0.02385771696163637,0.057370007099728164,-0.008484331284999445,-0.01434150660366026,0.01959575728448873,0.08715078103578491,0.09991732009373722,-0.037860151422982026,-0.17655086973490866,-0.27844522051160664,-0.21744551457701242,-0.14936735734650622,-0.13472590640168802,-0.18608058799576305,-0.1507064184649951,0.014002318844021712,0.09540411502980309,0.06288169293917745,0.015433752869930593,0.021913269637240513,0.003959749847227517,0.01246232775641156,0.021726643280543755,0.019303937417993727,-0.05333152187955703,-0.055995756140344084,-0.008021079185433424,0.04693048373296067,0.060369006173009575,0.07452711601435867,0.0893980756260395,0.0376387276828239,0.027847840399165758,0.1689086686141453,0.29671588031798274,0.22820802196841694,0.04628568164556113,-0.09271600913245209,-0.16487141244535233,-0.21045312904875998,-0.19824472179353667,-0.2593744551170137,-0.20823171680845406,-0.06962944076910649,0.05531311099477605,0.04962491820241097,0.0010238326286247518,0.024853644018464214,0.01402675781829328,0.03283496896564136,0.007655694127937408,-0.019637303646192535,-0.09787328726530171,-0.08847600421006391,0.024771219643874725,0.06894116854910258,0.08289153969265278,0.0990075011887819,0.11561154934016102,0.01823145106781498,0.04235633420468819,0.22979309374115772,0.3759704439445877,0.37618953390202187,0.09308134922655872,-0.06673319051575174,-0.1325606411370372,-0.09384960932854272,-0.12952422249451903,-0.23565946541984134,-0.23372843746832972,-0.09003450225318264,0.017099999274279472,0.025839632699706027,0.004321349040181117,0.003931138743587641,0.031940663429160444,0.009108119819608186,0.011174509224831899,-0.005989109257729322,-0.10284952603960981,-0.07824011941141643,0.009342531982643686,0.060239566835702765,0.0983945557440295,0.060050367739964056,0.08597388845420016,-0.009838543744648013,0.12331963635664314,0.3275092825239067,0.40541782049001907,0.29355576005476486,0.07916902462154243,-0.028287077641162714,-0.04719737132801247,-0.05044005120075244,-0.1236490711888939,-0.18633665614911965,-0.15575906809446896,-0.07786415368463523,0.015013283411981972,0.0318198016965619,0.025674747550335556,0.027085178280903326,0.005822720335237317,0.03012661740359105,0.007588534527035367,0.002350367926172623,-0.0976277406093594,-0.061805913259469165,-0.0791789080165752,-0.02940017752345657,0.039028035479419965,0.02104188413901899,0.0026395762709545377,-0.012458666289214956,0.23766664310751728,0.3816209251572158,0.36598592247590866,0.28563535479094304,0.046287461970123865,-0.056692364375231404,-0.01637739216428609,-0.0482995492630027,-0.07785774216862086,-0.04372801068962847,-0.09009770891268881,-0.055299732295244736,0.008784000624621226,0.012375964937025618,0.012418814952080488,0.00039886013603173716,0.03137840231258202,0.02611452210087984,0.04535629636581115,-0.007493347858721116,-0.1083920788644244,-0.05495620102701724,-0.13024217307353164,-0.08458753544199436,-0.06460124937008116,-0.08661750238157771,0.02322357005663804,0.11787563421305,0.3968770515633556,0.4717018353834681,0.4141831901731196,0.25940711141718387,0.07418995720399839,-0.09106907463009893,-0.03466949348085666,-0.07034592174980546,0.0001942230956418689,0.043948368921448114,-0.024034492148512714,-0.016102530352034582,0.00519981220525188,0.012431256831686093,0.02476600877691146,0.014428788035526203,0.03385527926614184,0.019320778333674234,0.04976076011214559,0.0025221026444148644,-0.07684335161029776,-0.08590157020159526,-0.15221721772139515,-0.12197931647547382,-0.06387768981366201,-0.04560937928909049,0.06866872276173171,0.36749438410251845,0.4991724280705521,0.47349054373206406,0.33175546715877247,0.1522868221406024,-0.0007894998224959912,-0.051613729722144196,-0.012702502878816465,-0.021746997717300147,0.027931376421291235,0.023451041906194146,0.001604045031464781,0.03126674582431931,0.03186386095488937,0.009362435813553935,0.03583390635926586,0.025465515360141862,0.024364319096032754,0.03329135943596323,0.06382810561659132,0.02351025323687003,-0.05095402754100888,-0.1047672567566498,-0.11895278051183006,-0.09985979347948186,-0.10112306968098829,-0.09422981496340804,0.11739322940667418,0.4159639012535994,0.5341877888643438,0.3885686714478059,0.1863613588654961,0.06371926723708272,-0.008948821994724418,0.05035773878046119,0.04357170524987564,0.030125144141009964,0.061501368616401236,0.003730644435154873,0.028594110129801863,0.015357609264249904,0.05137839865348903,0.02039167318140458,0.01693655516560127,0.020307982841303408,0.018879170592449576,0.026330823824181702,0.09806669315884098,0.025057184023014312,-0.009298542693015232,-0.006500412925739736,-0.06710962133985675,-0.07177569585431073,-0.1260617623155807,-0.1870388763308922,0.026354666117965015,0.28284348835971346,0.399369744024448,0.2547106413509337,0.05449731102803248,-0.007894907570093208,0.00805812730683697,0.06591059141113323,0.0811527116216021,0.057987426330199196,0.056595536755605975,-0.0001524977646132033,0.07353932292052828,0.03641195200548124,0.0454376989506173,0.014875090773844992,0.009236864137757048,0.027343028455185738,0.030795735152811067,0.03764328962682219,0.07576908548738441,0.03547178867207828,-0.041125070052590196,-0.013106849719670046,-0.02645942626195996,-0.05039130504848487,-0.08378599129931123,-0.19603786990583041,-0.07482083549481856,0.09492163639095363,0.21925258105510168,0.14506978677286242,0.06908847189510108,0.0968301811612238,0.1272063275105997,0.07631737726687347,0.10264613180715197,0.05584847701461881,0.017324418070488103,0.06596114409735707,0.07562643089000405,0.0718844935201022,0.04712308453235252,0.007553481558385027,0.024860962155972256,0.005934141499862338,0.0030358717849865023,0.02739133363919077,0.08111035748253834,0.08416318982051677,-0.01216682866083595,-0.03060773759320246,0.0029529414837696447,-0.0035050331902665,-0.03076896876250308,-0.13125590614733487,-0.14705964494516932,0.005386155236631251,0.10417861103444984,0.12997122120570795,0.10582254752306348,0.13837224121904176,0.09879377084503124,0.08991514725265544,0.12546883481715515,0.047361042824404176,0.04728698844054628,0.10841120711743539,0.11064189932443977,0.0360257245742913,0.03647882888474101,0.03430100318692126,0.015026441045913146,0.027476291106846743,0.03128473485600413,0.024770942880101274,0.0817101790382647,0.0918079891252737,-0.017245248408663684,-0.05802413008571569,0.006864314258236561,0.05206153943328371,0.001212219154075203,-0.07626865071703945,-0.12787916060009272,-0.04660381237895896,0.050501063147841446,0.08586418041770424,0.08134604591991135,0.09796561196020198,0.12444147295548723,0.13281681233295656,0.11307781862919088,0.07547126405766695,0.09901947108035095,0.11216478319132404,0.0951361031397335,0.043484377210330515,0.028229568581478456,0.006916799394282401,0.014022237868323406,0.011747055098588036,0.0262152503374534,0.008984511354133994,0.05231422607159863,0.09089679353239502,0.010408360463045324,-0.06518388713023103,-0.06765366842647155,-0.05958482777530896,-0.026122170551116427,-0.07951686055995986,-0.120770753237621,-0.08755969245523723,-0.1025810350447379,-0.03415229412961878,0.0009730345929638983,0.06723164654030289,0.0635855453035953,0.08781698456953604,0.10334228043228293,0.10367559404442805,0.11655817610600504,0.08081118053758488,0.026088558731209043,0.008369064663333469,0.032993705116948505,0.027764125162054086,0.011182267138767125,0.0022102492316411404,0.02097893522088757,0.03320852899892194,0.027207702609110075,0.05203105449992256,0.049538141170171336,0.0014442070207936007,0.0005203446615791744,-0.02797667187499936,-0.030326098372175907,-0.0978233510899884,-0.14464147498212201,-0.15714545544441616,-0.12023475147237336,-0.09552503415424297,0.019382901488097532,0.08617439298654596,0.08796665923307752,0.14035152881212493,0.15830382461236098,0.1191324282757247,0.07903093704195824,0.054616010134745555,0.016232672137511426,0.01631302089011763,0.027795185772134617,0.009910642714880097,0.02265830610912026,0.018981028544758544,0.02838316508387104,0.008646267216983274,0.023640469364490026,0.01851928704080354,0.024125940013936364,0.05061274161211619,0.05804928927390056,0.04621852532767059,0.011977393632166555,0.023736114939656962,0.03199884949876981,-0.00864816711426529,0.018950202542831012,0.02068049466025862,0.043465010977153905,0.07489010730318389,0.10803661551768064,0.08789723705901556,0.06501200564429395,0.05612998128785795,0.03957850673567548,0.013910466637661559,0.03298346213877699,0.0038777938768112517,0.018347142611960146,0.023235970347231585,0.0070693154965245485,0.02423180096544249,0.027439902331671626,0.010734300135726068,0.00863868780417917,0.0073366865301345025,0.03839912014954301,0.0389654675750959,0.04125714954435945,0.0648095995092181,0.08237446623461137,0.0753887593946494,0.07888151136045513,0.07637088310066019,0.08706733304948268,0.05466199629409438,0.05664176194738623,0.03853278100931245,0.0692220839634623,0.036896353717551414,0.025766087683361395,0.012699527037003475,0.0018591221932174554,0.0034952998806169508,0.030229473422594886,0.03183133503776038,0.016875851597252637,0.027219335136034844,0.008234315699725738,0.0036387779167570094,0.029591658103777778,0.024881122306440333,0.008429132837353304,0.026972755046947766,0.0058016812396947046,0.018058595795969995,0.0077641858173406195,0.020666471556316467,0.05163514165550829,0.033430196819613005,0.0250810311321621,0.026900062531552624,0.014211908121814032,0.011365693439830842,0.014225723791805084,0.021605515970645053,0.03332809009406796,0.03632677453171929,0.01925719528242535,0.025690892508672257,0.0036374176042825806,0.0221498883066096,0.018172935766073938,0.03217944876449119,0.01969578638748924,0.01814370884313807,0.02223672425554205,0.018504694533282597,0.03501525470123214,0.0014517454338217844,0.004248606023335282,0.0253998578993823,0.013243074770650716,0.011679771676806814,0.013019145866006276,0.02135785815423361,0.020502300512064493,0.024980721924158605,0.020012454150712955,0.023281921550831936,0.0022050137716720557,0.01718829258863776,0.01843563120366292,0.03153549821755363,0.00304335548667471,0.016670863553900208,0.004067499714984562,0.02922356439905565,0.005058888480944252,0.028613951458465094,0.02868012080774954,0.0008943933545374325,0.01418086750625615,0.017961135457481958,0.026841947634210446],[0.008128087345724852,0.009833926540328783,0.015786511775076357,0.016441899793411024,0.023965297786285644,0.013404048946500349,0.006653819306823826,0.016844209667665817,0.007233625624354986,0.007662698585573192,0.026671297750183905,0.024418243984850065,0.03295567103291266,0.02496163710670143,0.03194308137668018,0.007045183213753785,0.0341088437034705,0.03268974241657165,0.006101157875122847,0.02566826539930494,0.030893190651103766,0.0038527013645693964,0.01441030686013846,0.010303481166796382,0.004231347316129143,0.031931003080637524,0.012505474418695206,0.02061354339823568,0.021761176069969135,0.007378889993933443,0.005032064843105358,0.016961623139199078,0.015555124114946679,0.003220483168152872,0.0012919610007141088,0.012446037348439043,0.003467266641266866,0.013819531109346764,0.03103100506693524,0.0034061582392135793,0.012580298195234806,0.01521024279338245,0.01637038206929392,-0.02152722830493974,-0.0006383404894476459,0.027348360410339896,0.02022542042260056,0.03512382493324592,0.02804551347518313,0.021086870234966033,0.023478624570414417,0.03339016833995645,0.012178310850255765,0.0031059115307946077,0.016939206720550604,0.0035409010395731555,0.015609558404165749,0.011410935237835032,0.01983387800662457,0.01708837758351426,0.009081110220781894,0.005945974969140809,0.017497356818893983,0.027364157157030517,0.019353222337440374,0.02526068094568307,0.028096813532044483,0.013573063661114148,0.028688328440366916,0.008036503557461019,0.011037532472229505,-0.008352886385229642,0.02582854218284867,0.014006126116043962,0.038056230616199636,0.037876757209372586,0.020769708715988256,0.03739625369043049,0.009163622867063164,0.015862861861090687,0.014378092516919001,0.0295964141853994,0.008379138185913586,0.021588238052570652,0.022783509422286765,0.012041638732229718,0.008306107218547762,0.02424414171428614,0.019708005867396104,0.024378509069302844,0.0034133850552562433,0.02607721334675156,0.03272963622266069,0.05674618156871562,0.09379316567827214,0.08271528484406569,0.10870852952843288,0.09810026692067479,0.09650250727412396,0.05701424284248672,0.08866443924026575,0.10051831042646145,0.10719365135237818,0.0986546071062607,0.05528706185254384,0.03308291231146907,0.011917285782563711,0.03683700046843785,0.03178776973720315,0.006412814454841404,0.019354094326501047,0.015933083077710575,0.011792743335757932,0.0012623509070108505,0.02699930916369818,0.0023871697684474426,0.004194713606334742,0.02362580007285633,0.035210874140051134,0.04399363245217225,0.07537129496333614,0.08234583152780273,0.08247602575805077,0.09733970817337342,0.09014559388453865,0.07391999611336544,0.04144674967047581,-0.0004394967466150581,0.04321913058589743,0.0317363787357107,0.03073744217900651,-0.02630654277547922,-0.050025932769308376,-0.05113476250065119,-0.05253239860333318,-0.03325555160414843,0.015094333851733427,0.012663530196964635,0.03581893282958202,0.008839295817039324,0.03259624395300832,0.034490441115153446,0.009475499708656058,0.005327645950572846,0.000417948869748203,0.026106297504617976,0.05344386513552171,0.07091990305831568,0.14885235559916904,0.1736467503416534,0.16945708211622354,