{"layer1":{"weights":[[0.02984982357569434,0.014486453106988604,0.031875113663197396,0.020704078218171655,0.03419846092073534,0.02362418081799236,0.014584099424683845,0.023943856000850527,0.0005960667942838353,0.031942845639464326,0.003497562132181117,0.01858859178038113,0.00619286636389627,0.034468987174300914,0.03361727544383051,0.01154187549660745,0.02491992740187344,0.0191904621994621,0.027068453061875553,0.02727675238445006,0.005814165545210985,0.013637029896959132,0.023082230457943425,0.01939316865113892,0.00822533062579478,0.0031692583788000234,0.01786880268883859,0.0030491416521273135,0.009222149180892576,0.0036021739456809166,0.005474182061315185,0.021411379127080545,0.014672269507040633,0.02149650794145984,0.03564604895543657,0.0208362622861348,0.01940901858355149,0.007275411750887937,0.02379712154676969,0.02093452307975282,0.0034862304320978535,0.01738542398273246,-0.00907608071585081,-0.07218621803786632,0.021263654796678678,0.02649447112649467,0.011573416220654035,0.003053926490511553,0.034084730807995046,0.023332720821036837,0.030754195583672726,0.0014534827623127852,0.0019479175082139683,0.006625193185377655,0.008040386038570038,0.025331563770314362,0.004345968683153544,0.023796277389364923,0.03227253739054349,0.010617669720419278,0.005585107918372716,0.03545352042015558,0.007383622441631521,0.00238402966486591,0.04857546100181685,0.0636238802464643,0.0563032173965531,0.02955551819929401,0.0329531697332368,0.02574375961665919,-0.0463591688381844,-0.11455057756823542,-0.06662345167671192,0.026296768916707312,0.042117760889104565,0.033853628300128745,0.0474261104062641,0.01783241494358309,0.026954344945896914,0.03582368400381333,0.005094090487164927,0.0035558469455887727,0.01306979282268377,0.00427092548716946,0.017811882652548388,0.003172420889088106,-0.0006326947605515175,0.02396811923684021,0.021177724479475107,0.025760040540650505,0.017408498543742372,0.03251841146214726,0.04384045957490776,0.0874121334062762,0.14590720825807127,0.21801782729819952,0.16596137679686715,0.12701600020150985,0.1160469742785561,-0.05657977554145494,0.000035705509176873995,0.059958516959141714,0.12542768864458806,0.08469211293868163,0.07572594765420693,0.025717614032152638,-0.026598744426344478,0.021034622501624644,0.027141228599495075,0.01596389783088092,0.026954400989840265,0.00043294586116059727,0.023966819884902926,0.019851128521467903,0.001508978663186284,0.02965992511320601,0.01454871472192072,0.03245365530324041,0.0207104685592046,0.07300970022077126,0.12419686273032944,0.2079588880795621,0.1280123742233469,0.25092577002647803,0.23408483542426567,0.18026379031660517,0.04213563297384875,-0.1689082588053874,-0.13093626553268217,0.10701798402075886,0.027618312129952725,-0.09893742169464108,0.04168208378852006,-0.010698661458354448,-0.04693040740876824,0.01875904934814992,0.07050410870416254,0.056172685005384616,0.0251903195944156,0.031784488010282975,0.025157911345602895,0.02792750373796617,0.02096998801806693,0.023497367833552944,0.022193607081935688,0.0375080892577692,0.06647560248205936,0.11464353991222535,0.31573903453842544,0.4132175163062803,0.28767739419914,0.18098505710152238,0.29102198352931735,0.27036516198527666,-0.007445037026154743,-0.2939264586146153,-0.39210827694505396,-0.03643194078431524,0.00929357882120579,0.009663667435835542,0.07139081996186222,-0.04077387179316959,-0.03900943337647598,0.04784708489607062,0.0790673466661895,0.10594483256925596,0.0462420039008386,0.023613562051721642,0.005160277464686812,0.023253778446135423,0.004093864736047426,0.015326567861337966,0.05294571265562332,0.09551401527551015,0.1479924174193892,0.23710842798984136,0.37525960415991494,0.45260458615644805,0.21786478356240394,0.0001699216552936639,0.143879391489176,0.28795342306568433,0.07559265966874952,0.07266121697873865,-0.09056176177684616,0.013389760377054432,0.058558770911039386,0.15524584268815417,0.03955198934952517,0.06640144616775784,0.10328551646002701,0.11226155295111714,0.15337519114768472,0.09014877069039831,0.012913471268036556,0.005777090278252447,0.014965194448916665,0.0020157765787498223,0.010036804772583919,0.02067777041663685,0.028411343049372637,0.10306907255354392,0.2068590834328333,0.28765332437145025,0.4169252065023518,0.4230023266927531,0.25639971335743406,0.01949664289108278,0.007657847886020248,0.23773193404921283,0.005161054914450809,0.19186554556306448,0.21710700686795598,0.11347598038924696,0.2679580083747381,0.15461181604692226,0.11253820750618262,0.11951183855458244,0.16918907786459253,0.18408071076179552,0.21498344233607608,0.10537131289850851,0.031414090167141806,0.031848760632159634,0.008610473469300524,0.0353254012913256,0.01638887424062533,0.008948229629668125,0.034833097383758185,0.09484305810040981,0.13776552052226868,0.2486614542160682,0.3621445987688985,0.4257879359721492,0.20831937983111032,0.07365322604535864,-0.002487802533996917,-0.01767202489850546,-0.08847687311546784,0.049683865765998474,0.2055484389830448,-0.0889718150167259,0.23541436764136411,0.2696259045476892,0.24511207398164236,0.20259587858778125,0.24094366205921827,0.305390798269693,0.2673075947041733,0.12391925340668024,0.008787263049916953,0.024373711400455664,0.0003991945398762207,0.02587804612803092,0.019775031356954735,0.03040371972949656,0.054581437989362845,0.07145139617464666,0.13817773155623514,0.17739683777511858,0.2845555851460884,0.3651246078970428,0.2382368419920713,0.01967605886161706,0.17551220548329888,0.002900358968711392,-0.2061885424188107,-0.20585619143915657,-0.12280022817828981,0.1123218631375028,0.22674752063069556,0.39224251500574325,0.32163037817048523,0.2321182699748545,0.301023266664476,0.27657767948392953,0.2183097068275993,0.11419760966354259,0.03819127655905817,0.018838702893836365,0.010135046344333343,0.003057967356094548,0.016354748857992412,0.011758667920337976,0.04841766970434904,0.08502476850986876,0.16970109018719937,0.16881073235955193,0.2144376787859328,0.20712397093277768,0.011495115203096228,-0.03632003189801871,-0.037514029903746166,-0.21940423017480692,-0.42287922765003694,-0.4223753493360749,-0.03667338322724193,0.13187855455002506,0.17965854787300586,0.18487863465960308,0.28989885142019,0.23500354501612644,0.2487516683689662,0.24498445612159744,0.1829643226746901,0.05050193447671547,0.022710026431392624,0.031402480449996155,0.02552141994036763,0.02130041930572582,0.026535091008411414,0.02527637685984794,0.00819183064797538,0.019492904871514935,0.10047827398387388,0.12762588781337555,0.13996969091899622,0.10529441631247212,0.08736694020725563,0.19079663779566808,0.013967505443593719,-0.32830886405848725,-0.49438900899196736,-0.24033855629206216,0.012614967681171967,0.03634728300944015,0.07261221539660878,0.17666529642442902,0.20252884312220776,0.11643935024984571,0.11098639369698272,0.1087734332313947,0.07960172431413,0.05768517372992604,0.01611631708295984,0.024953480237624587,0.0236171957997015,0.02826235783631656,0.0034033375009502875,0.026050665362047216,-0.012260256321285586,0.023399173385910285,0.036418846791536785,0.07168428865145626,0.12307810800538578,0.10544681783236975,0.21410421333395288,0.4425681110534965,-0.05744616708299714,-0.12181116456174669,-0.263940568060251,-0.11934933002089669,-0.01831186687378598,-0.03205318245370936,0.22538081944038652,0.24117961878693298,0.18059720566817902,0.042232356433212985,0.07467415699683014,0.02527156844640268,0.03714410231115322,0.04265805671710701,0.027350726601959443,0.004948763771358496,0.026253304733459413,0.011059930304706799,0.015567038259171096,-0.012266181544314423,-0.006144257798744264,0.01932395191530259,0.025174105239663333,0.04733106813718488,0.021304185131823843,0.034132445888109764,0.2899232320181791,0.48022922906990656,0.04084246926709863,0.24969382511468544,-0.10250317628723879,-0.040412898320348535,-0.0439716955677595,0.023443535535287077,0.3523545131625668,0.26144803747994,0.1192405680800787,0.049907902731142,0.046122302104425125,0.05173350601098962,0.05335988817441689,0.044932368317419216,0.05075405061241768,0.004641536328439509,0.013468626132274475,0.0247057104352752,0.014548107482034944,-0.02265163434969392,-0.00264739156043346,0.02452409289237349,0.03418616696997401,0.03278453601192959,0.04531721129049714,0.08044081262158428,0.25744151471707494,0.28046309644006673,-0.007636922669074945,0.19125450699326155,-0.15281623578457693,0.026937071798238118,-0.11798885775444687,0.28231554858361024,0.45763876531807424,0.2527129007596148,0.1319254770567834,0.05747059833202589,0.03522523521239315,0.040739224760631826,0.020084880483908295,0.00413871248608508,0.015566796672710064,0.0020173006886121743,0.027951594424861125,0.02636864633394029,0.00930784882551843,0.0338244429576033,0.026507971806863383,0.05672932340890736,0.07006219197043118,0.047258733164484895,-0.0003387225516483676,0.03251343871080055,0.2085076476522747,0.03847160056490054,0.016160072519665877,-0.12537119196584115,-0.35417229333154976,0.10135864236553388,-0.11052602574969261,0.4081475269345204,0.4183062096147669,0.24239627504750816,0.12446408727866745,0.046137503207132995,0.03463743403049259,0.03639550599906936,0.03323244764224532,0.008338585798983469,0.011995647650947685,0.02089757532523393,0.013617324141995629,0.02364003958867995,-0.004228765730397071,0.0026364597976975897,0.009070139771635207,0.07864330816532755,0.11858340716235256,0.0726096638055637,0.09290787592637857,-0.0005668571893012496,0.10590073371135979,0.03149732700468229,0.2844720966022777,-0.03987748588631953,-0.3943000183347029,0.10924792860464998,0.05534958001457299,0.5304242495199663,0.3946389339794053,0.19756851654659877,0.08353193476506554,0.05475690023274208,0.09137385555678858,0.09103187916234451,0.072666746398863,0.04690096168581218,0.026147375066027604,0.020790262152738527,0.013036085066731515,0.023950050713095656,0.003174665870627294,0.03019743964653926,0.0444635607039219,0.1238817641919864,0.26798828846278455,0.23410422748978876,0.13297238257967428,0.1738929534439954,0.03853832198856743,0.32207233288336684,0.21216226468001326,-0.22524594183063482,-0.49786581100781674,-0.0329125702880405,0.3611493668241418,0.431198641784137,0.30894705742696577,0.10108899377600493,0.05310280704179569,0.07075558340736168,0.11329578830422579,0.10296517233446525,0.07934687258131153,0.04759165058109758,-0.011553387251865645,0.01676646255105486,0.002282127261639299,0.004838505409338742,0.008564768543502554,0.03267495844831212,0.05748946483893029,0.19374141746465748,0.42124589657337386,0.2981887696667974,0.1676790970672888,0.1813979784798593,0.1744617140257305,0.26571303804102503,0.17996905185715825,-0.316181589616995,-0.3721581435844187,0.032552718808852965,0.30718081407180603,0.10192982552994216,0.060951872660882846,-0.06380012644842621,-0.010105013027870586,0.09565937394647456,0.15579746849127318,0.09978244703761968,0.06228547065592795,0.03899496998187086,0.008282971184026936,0.018934341827706664,0.018630840133365405,0.006458552294044566,0.026518503570160758,0.016894263110962822,0.06784612903876568,0.1904404731594252,0.2963358444494484,0.21768204969620641,0.23432809707786886,0.16831187253883687,0.2971879966793083,0.26809409248284083,0.07682350560569245,-0.3120470607584279,-0.14631052197464692,-0.10715075356366735,-0.0533642956189418,0.026637245817768742,0.02348939575794614,-0.08047655837641322,0.1034015265924348,0.17482254957335494,0.188155816669248,0.08879230537310027,0.05730252263799903,0.04675463031701751,-0.013353286425366552,0.026787955157063843,0.032476710964210516,0.030616462182648515,0.036180742101665574,0.04400148138986396,0.04008874902874625,0.10947167649512282,0.04980467827645866,0.11043232837378207,0.10029430171891245,0.18269288511217377,0.10808215419644729,-0.02191335878835517,-0.28139821866046283,-0.18852549313947517,-0.1333466032216077,-0.15302537988266587,-0.32465259357516163,-0.15490993433565278,-0.14842660543431466,0.03266607634282296,0.22942115860885373,0.2417906592900377,0.2426100553569421,0.11591342318735416,0.06521443752090302,0.052706676087659034,-0.005855910844228588,0.013532940864514979,0.020292303874314323,0.020591662250289113,0.040510961926947225,0.015277093461931436,0.008293728294891809,-0.04496050668366081,-0.01702183926313059,0.11056276554223311,0.18520748717588265,0.23027192437464888,-0.12773152684112057,-0.1418745763751737,-0.09805137777862928,-0.13946292611598457,-0.10364523944559634,-0.12888334253219874,-0.18314521606203768,-0.07272361652197029,-0.05712957261458623,0.13690378922051988,0.27169291307801846,0.29076345745540944,0.2069775802819325,0.11159489976784079,0.06943892130963909,0.020679258213046087,0.031068101438712283,0.013640881073565944,0.009493640500324734,0.01072867829837291,0.020739606382662028,0.03090505148921012,-0.009117416304301055,-0.12185725552644516,-0.03758454438538494,0.06614861425137046,0.1303565878199406,0.10129891096874967,0.07927713478002521,0.12010296182424945,0.08651743080722853,0.013710500763364247,-0.11937536770443141,-0.0016638722815963483,-0.21578387551168482,-0.27799058642279484,-0.12252932793870296,0.07044211607842539,0.1609394201894893,0.20561129235049624,0.14100401235134905,0.05151059897207798,0.03683120543773883,0.017755760571767844,-0.0030607957853045235,0.015681007652121548,0.008728369220545857,0.03349757937767262,0.00587030064451678,0.034983200283176544,0.023525563501922676,-0.05373271948215932,-0.09680430767294046,0.11754693654367304,0.16792078709032213,0.12122185464401107,0.12132006566421692,0.04462117196065691,-0.08003183178437023,0.10499254082431715,0.20067349958480088,-0.06494596361240791,-0.23865651371809196,-0.24385880399550647,0.05854063708331093,0.2382981558836466,0.1869621921945985,0.17137646835357292,0.08510967973585545,0.06098422293049959,0.017699651987116476,-0.004754055935161939,-0.009752840560438337,0.032976932048598175,0.017104258852906524,0.008063817383766365,0.01194629046864383,0.03283004930357004,0.036364384836288656,0.0019439340053390983,-0.031263580705052585,0.11738496729716531,0.2435969609424338,0.16108890473332912,0.2825411818349407,0.3205623685122484,0.2878961258005262,0.3344937224881809,0.41052226298885347,0.38918874037201695,0.3459047292191648,0.08351040052042198,0.06618322516037131,0.10059975486291829,0.08605231473633876,0.04786563785625385,0.030849952216781124,0.012418358466891183,0.014380127194578521,0.03051917768248769,0.023077970780801108,0.027365903778841523,0.013090662650531073,0.015209461778074656,0.033995502124810055,0.029654552013676904,0.016563201792489348,0.04651903622307285,0.04960244889925171,0.10799636255967798,0.1312941861588294,0.18151510980108163,0.40889243729126434,0.3879809392112042,0.3026203902843748,0.299345767088494,0.3892603418248434,0.3719833956957611,0.27187871460920415,0.15719694385922667,0.08537406312423026,0.040712803865426736,0.0353282745848574,0.004454521403469817,0.03326826341120673,0.017207757041611774,0.0352395962863079,0.012675284163420324,0.011876417783332292,0.0016256145802729621,0.00410995425835488,0.027700938556576165,0.03427863623796582,0.027530880006421576,0.033890779239751145,0.018716267504532567,0.03954892959470779,0.02633993950451197,0.028890933778649784,0.030791145866749563,0.05661046043898556,0.06238361033522274,0.11838125462499063,0.10948765136190744,0.08036871932668001,0.08758688368673206,0.07278052079034088,0.03378792163452857,0.04266609671415637,0.013835819983162204,0.03001737225070926,0.011204293383617153,0.02052590734506849,0.03115843420909059,0.009657162135574323,0.010248362406587786,0.017182828983017213,0.017277633665061205,0.0003794304343160891,0.030138001401455932,0.0037381808748482054,0.011793569100763417,0.023380247446329747,0.0017242031128468656,0.026367785340096837,0.02576702029457018,0.03422533255873582,0.008503779125015914,0.03889090499438553,0.031021870602682942,0.005663515708179427,0.02166193822264544,0.025194051520457422,0.009222600480564159,0.022560506343232714,0.012804632517189324,0.002908211422814423,0.011718604390400672,0.018822726725695866,0.025447809449787244,0.026721751900408573,0.014696329176160507,0.004667188301199499,0.027565311333662832,0.021719730314499402,0.035128762246314484],[0.03391061755559086,0.009568901138584916,0.0020318487839323584,0.03154591856948428,0.0008425283265650539,0.027850428391679467,0.007495743689306064,0.01844492751203632,0.005809714088996697,0.016292980096401382,0.022870876936359204,0.007993025147221524,0.023090281553483125,0.030363632803561875,0.020100173682453523,0.0059380624934435135,0.02455264365194672,0.02812541510651833,0.011317875623216076,0.030327563870036964,0.016473105947963567,0.0009434208823500387,0.003748818866649287,0.004648950438350024,0.025750950030340336,0.02061061791411326,0.02341316236216066,0.022804854555747316,0.007373589232289836,0.03351774558830869,0.0001223290286518194,0.020382252700126106,0.03301374001907913,0.03359774413723796,0.008993569090934633,0.03447114236945024,0.00811951465388421,0.022687037998496046,0.01785787729300877,0.015400314028639063,0.03453895353544235,0.0028711047955823077,0.009888613167100156,0.012910185951627066,0.0007155029949319913,0.019535559830355556,0.027250856760273764,0.01687645220548617,0.012984844576199063,0.03336285745285268,0.013708349690125729,0.01872344449870883,0.005605181614081967,0.01740584125327486,0.03238510548002569,0.03035687677612487,0.0339353968408766,0.02735338012014758,0.005782100556636611,0.024017063906203624,0.015440107139420484,0.02258206083847157,0.023272211859932904,0.007087959537645712,0.009600732076813752,-0.03406485525986357,-0.0018316975726269632,-0.033438383341466496,-0.011298074214170145,-0.00875738104952386,-0.03438399805779221,-0.05050584944239515,-0.06334907879507315,-0.04651997765214585,-0.03973666862936636,-0.03920585404248084,-0.04015976877615921,-0.01854803266115416,0.021507434747930432,0.016270720076670662,0.010552570421808313,0.014166501480781989,0.00676694190712288,0.00109504088065623,0.009334634285890073,0.023476838757380516,0.00279801814222911,0.0026411505162176035,0.027249707278934523,0.019246082487356018,-0.013111698414838897,-0.018954032209831318,-0.09061163848236024,-0.1348503726289102,-0.1606460444740414,-0.1653575548190757,-0.19434743215679548,-0.29132043478961617,-0.39911561623860975,-0.31487116463316644,-0.19343872445724417,-0.14343454453370014,-0.21548959417708785,-0.22220956795795324,-0.20993635792930665,-0.18468397122027239,-0.13417368174999447,-0.11209134890701207,-0.05448686082206211,-0.004790206742413942,0.03383844719053282,0.017158834456474006,0.0071042491696938215,0.007294582622795073,0.029654033498743383,0.02204878931931912,0.024035047164700965,-0.029358882296714,-0.07144768122170818,-0.14210999545674988,-0.2034924134218482,-0.2966819049097858,-0.3932884078190224,-0.43453097563115234,-0.5194144177151764,-0.47878706874876753,-0.5615339009970498,-0.4796173736635845,-0.4397798137956171,-0.21399652192499494,-0.2692718633876653,-0.2955567275887822,-0.3102331727095511,-0.25302943392506505,-0.2709598844954821,-0.2517853547617626,-0.09910655791542534,-0.011146043117265672,0.02728468536517413,0.03213867027582858,0.030948510941624294,0.024345753819809895,0.00028314347783524075,0.031667651161491346,-0.018616463891115324,-0.03888088404616768,-0.11760287466826691,-0.24088245022541027,-0.32828266148191837,-0.47108601720563187,-0.5256552425432964,-0.5359246756754736,-0.5854376006153932,-0.46248536400723766,-0.5373716296825765,-0.46090842897683765,-0.446158016670534,-0.5068409238667831,-0.49372258204007796,-0.405874521994178,-0.4352017025649341,-0.2653258270924647,-0.2633354006828571,-0.1625619881551188,-0.13160303059938472,0.01871729203298481,0.030312709127501114,0.014168171464169684,0.02200314961695225,0.012611686552918042,0.02412564572694859,0.04437670180756133,0.01665883814085841,0.03773138968495881,-0.11162214828950079,-0.19694142914851004,-0.37445328648095644,-0.4616355123708279,-0.44723194559877877,-0.23693110686387517,-0.29536169222879977,-0.48527626309748234,-0.3957692132571295,-0.4656975771626966,-0.4948054354665691,-0.41351766893982983,-0.2937851238979846,-0.196700514981679,-0.3268553277190423,-0.001014225315866552,0.00909849894552862,-0.018158508564508007,-0.03445846509178254,0.0023801489465722766,0.017926603303631744,0.013732692211537821,0.0020754115574210526,0.0025760547814787137,0.07560132318242357,0.13786213051737808,0.040385029322670025,0.15921791205125835,0.10085663315644605,-0.03264011831307286,-0.281233436974489,-0.27382813281900803,-0.2180379653608888,0.024373481470462036,-0.07084236424012118,-0.1920980012364358,-0.30814549789740986,-0.46961499313076177,-0.3390981662176021,-0.4463539708180714,-0.12064435709977508,0.0378405491776922,0.14820651734718063,0.39373066519249217,0.3867924931787438,0.5322872902588465,0.32562446700616626,0.2676674764079135,0.018760549998292728,0.028593658369616966,0.028791695264901634,0.026723466736607908,0.09197997676440234,0.2765762153604211,0.08991807252572034,0.1831060009469659,0.1536244870590743,0.2903604414280288,0.1148111197737346,-0.1298823554363857,-0.0642969593660619,-0.10211646846637494,-0.006175010339364235,-0.06808100205377011,-0.03887843034715904,-0.01304126428690474,0.03458559730074119,0.153817638523902,0.3221488565596633,0.5915212608637632,0.637446589223612,0.5429671378341505,0.41927719084930276,0.9046021929515803,0.548215410818004,0.2904291790916998,0.010340281186762283,0.01040954649628794,0.025573010616560362,0.04495272271038963,0.1643938416267999,0.36364390169541144,0.34494997741974703,0.4408542986106259,0.5169713236881953,0.5005089134191948,0.10887592547600822,-0.002423677721368681,-0.06195828866984421,0.07969959289016473,0.2451665283362242,0.42475831654473334,0.7044859649492994,0.740785351760256,0.5496465540873532,0.4567103182763913,0.5908625098874111,0.7506022590718265,0.3730618583486583,0.6988734460630844,0.503772140516199,0.8005010792450119,0.6752210570500377,0.3883416427718081,0.07031486568600784,-0.0015640949764626042,0.02662648018518507,0.029200413194287813,0.18819903851572267,0.44259943172617305,0.5302887875919554,0.556882266022124,0.4957119973959617,0.36078300362005516,-0.03837487375805114,0.2723458017069572,0.5469355339490365,0.2539711785127857,0.5291804834264261,1.0524829777784415,0.8595932113470759,0.5949193354364277,0.3361004920584917,0.40914606484243154,0.380824088906305,0.6836100118691618,0.4575562867209259,0.5350630761552956,0.5130043456287949,0.7143659409143799,0.6413971199375771,0.39135619398163923,0.1110114312459196,0.02292330380672957,0.01616019385228286,0.05439470315397853,0.2462976972780587,0.44714816239544397,0.4909471336105571,0.2423602239546136,0.14026743083223664,0.10215819139930474,-0.18252822125634427,0.5062203324324426,0.6806349163905615,0.3948404791733087,0.6898108773515762,0.7271698336335215,0.07823862351525443,0.09581416932738848,-0.09867836238555866,0.0933225693606486,0.2771099755220598,0.2533482744418507,0.20674910539759,0.20734167594601155,0.03774731600186646,0.24560982982431837,0.311256005902643,0.19545938238709196,0.09893962618256857,0.012449219453982337,0.027813519673844378,0.0643135607766942,0.1856790638818849,0.37317068627012495,0.17622862888913138,0.1190459062313174,0.09514631556761909,0.23695596869660038,0.3789718480883118,0.13192862437986683,0.20685283911029337,0.1699255096492495,0.32267210489906306,-0.04274046073953028,-0.6606974711512301,-0.38570009878531303,-0.5308603353572787,-0.5815818426628093,-0.6418688756460238,-0.7790874563013876,-0.39792346494287667,-0.4615331543541932,-0.22122721942122753,-0.14188218944543093,0.016047891670688378,0.0861267329853398,0.08577593453150494,0.024994453641186888,0.033251605482153855,0.02746847258314273,0.19472181268359554,0.19807948335306252,-0.06555735910066753,-0.0012202916077818158,-0.037051418947701455,-0.1887182903573149,0.2118334713397586,0.1869696710259549,0.07254639674817225,0.12447537183702936,0.17935720357557242,-0.5692330704098564,-0.8725364471358971,-0.8459183289850973,-0.663132405919299,-0.8893323016991339,-0.9400943033994521,-1.0199696018558269,-0.7259732471823553,-0.565193944647622,-0.016455020878281115,0.016013587506373432,0.01604076869263647,-0.004160955773889567,0.012704483938530122,0.006764230821970847,0.0014300584377622376,0.01922173864683419,0.11567441486764903,0.14390331719249108,-0.13362798978639612,-0.07180446693358619,-0.03188588869730624,-0.25885328220623294,-0.08395910124169792,0.007838661425469663,-0.007983240635184439,-0.039582276862142364,-0.22892339272732806,-0.8766722942671056,-0.7431830167713068,-0.5100465698247766,-0.636645525966621,-0.6969428412627516,-0.6371632751387254,-0.70242045169844,-0.527960585975032,-0.23517995910787445,0.1018404293027461,0.1923138096956445,0.06807675851484114,-0.012147571524935997,0.003679737549959193,0.008716779635277923,0.012375630769645556,0.008788581323091649,0.03761964533422086,0.102728027783264,-0.1660859536311412,-0.2588417572763418,-0.2898970879564544,-0.16444623461087163,-0.10437927615268118,0.2117435181711833,0.015890423195946954,-0.3719149715011584,-0.6971880340853646,-0.7159096688018584,-0.4155387295188925,-0.49079120815971783,-0.6815054911230929,-0.23516194832317855,-0.3430140600800644,-0.26754206517890194,-0.07225294540445544,-0.007776499159327549,0.0851958732309044,0.24839015532016462,0.08542031084805608,-0.021869177693770028,0.018879534269545483,0.01556121584638903,0.008143958236274645,0.016926555127400874,0.0089083854029089,-0.060471075060919484,-0.15105735018999625,-0.08448365842451282,-0.16557678041086413,-0.2502814498712704,-0.22098862456849694,-0.024188291637312145,-0.2847654540120701,-0.8605521901889696,-1.0655906521692569,-0.5270393451687683,-0.35297801144915825,-0.35870831416077875,-0.6016298218491996,-0.1273535525981057,0.021682636561413983,0.1741650858857994,0.07340187512202342,0.049154024312632986,-0.12227577432777197,0.06057793125890796,0.0981931533970831,-0.07138755649307188,0.011130985271305592,0.02558863115187396,0.02323142023815184,0.02263826874013436,0.0053843641248536725,-0.15458751916289054,-0.22253752033269786,0.23205907161574435,0.4675106838852793,-0.03871143268451736,-0.4221389588496332,-0.45366947289696846,-0.7819417165156862,-0.961316015447632,-0.7042806831209145,-0.20837623363735616,0.020633393565577172,0.0611983050366712,-0.12272574580714388,0.3286853526367144,0.23559113666444437,0.08519874489995763,-0.005139772471277111,-0.30084319571760343,-0.22743863823910365,-0.05760337055145621,0.048956101453737334,-0.022486406586433957,0.014848050025107763,0.027027807546219012,0.006877400449328273,0.027604102501163186,-0.0022260399309877057,-0.2406591140082895,-0.32183776365239924,0.09297766248963316,0.3599057615875473,0.19199600941377726,-0.3238617393645477,-0.403095406074623,-0.6758265342753114,-0.715004646447012,-0.3896481646351237,-0.12063548286573185,0.005074947602160675,0.19694028416004866,0.022359711908272687,0.2228071324393799,0.09776058335937732,0.07868664121719718,-0.3035283181876679,-0.3041567546612606,-0.327586554882845,-0.17452125227505833,-0.030881054542897968,-0.0016940804699691133,-0.0021603631141789903,0.016188252113770868,0.009334710941711727,0.046129846475546625,-0.024600205141039555,-0.3247234443628358,-0.3565575657023146,-0.023390745373337664,0.030632161357455872,0.1241100442272714,0.1112924319392084,-0.021502500455462606,-0.1881600847317918,-0.21006614491633763,0.02987768933360543,0.027203051592011574,-0.12155956566966748,0.08206830503999181,-0.2754136752579715,-0.005612455773257046,-0.07110892790885052,-0.13716075044736872,-0.3670017350239115,-0.35370200783150296,-0.3129330854145447,-0.20952609497036617,-0.02628176447627953,-0.00449071800155311,0.013642363741951212,0.010524220313809538,0.03453408288029603,0.02336048117038207,-0.04282053854483063,-0.3964911200581022,-0.45875371584820474,-0.1594304888511618,-0.04502658031299388,-0.06283702358207459,0.1723110451542772,0.33328737159206795,0.20665288283477665,0.13587960828963766,0.25090549673657797,-0.06746864945781807,-0.2077480657684393,-0.20077813275602302,-0.16280880290399816,-0.0606139435505556,-0.22639616978316904,-0.3838174708267214,-0.36806511643801304,-0.3194914522787458,-0.345238225019223,-0.1507927882028796,-0.01685788166249101,-0.015224315625029782,0.014845906556090882,0.021465731320779717,0.030088321823805678,0.01704468514219023,-0.01547945333680742,-0.2790724935097979,-0.412220534207236,-0.4105100442487153,-0.09927457380163661,0.01245542570544267,-0.06780192453291134,0.13006460549723062,-0.10753417002427856,-0.013869361282266355,-0.2350005502899683,-0.2805464937562503,-0.3138994333073213,-0.06530776960363768,-0.09777666871735101,-0.07175189934705002,-0.21894728258200416,-0.19786789280373382,-0.2753729984532908,-0.2627559253974872,-0.23674682211129944,-0.0913503419094602,0.04396263835380831,0.002952873692382128,0.024672024883039725,0.005001587426765154,0.02525023472395514,0.023530876637650966,-0.0036720793269655883,-0.1514827971913386,-0.2997171722276598,-0.2745527977038026,-0.2562687379387166,0.05046120698138546,0.05122655589148953,0.08920834894736056,-0.03453200850804971,-0.16625595768529094,0.07545691300628041,0.08746145453096436,-0.1616168401132456,0.1897150067411972,0.08729611120890338,0.3248789955650382,0.18713998587914993,0.15756379588642366,-0.1399508500193171,-0.1629123745603002,-0.12967465860949387,-0.13587505727651022,0.04614441674764688,0.007230498973471874,0.015541757326873816,0.012766765459980265,0.023689003992736442,0.0007833538972831392,0.009774546033318647,-0.06203701192014174,-0.07807883418706371,-0.06138746881412724,0.02535746733725663,0.25587723009666585,0.19800962547715478,0.2055554332252721,0.2224201348293272,0.08014354429761848,0.12296540398319274,-0.09094534929551515,0.06125416214922274,0.2583687346848752,0.32654662015671554,0.45462810620343563,0.24051635032623347,0.10933765158344362,-0.09420400956599692,-0.17117227333950422,-0.197101237716915,-0.1745108428367356,0.014527458511674205,0.029110612540632175,0.02736566669210648,0.007591443867648706,0.011360171336338447,0.026574155473726508,0.015592182434155924,0.005506209651043111,0.035777864476948244,0.010165373837174179,0.13797421883005845,0.07043416707409268,0.017875085023902056,-0.16822760248270704,-0.2726257446848771,-0.10625157513857865,-0.11197552329129702,-0.3477907433021929,-0.13158144177044037,-0.05676894514858136,0.052483309905339226,0.24695690605987794,0.037681010670246776,-0.08899991343458606,-0.22553844453274946,-0.1616346187160653,-0.10883369046944867,-0.1238884010953549,-0.00535083171672929,0.006811012919536665,0.0028683136638976148,0.02621824382932869,0.030910949404911618,0.019883108607693552,0.016696886134975383,0.012735817835735125,0.03595374243925837,0.048355436889822946,0.16533671273457992,0.20550950047446023,-0.045005611450050866,-0.16534264794864442,-0.13042557245927658,0.07943348163858455,0.000572252135412705,-0.2683642024787885,-0.08246589925180564,0.07925083290263599,0.1436988052765008,0.19092907367678955,0.09922267292064238,-0.0043718185806562735,-0.2423714787636563,-0.1676936492517497,-0.05547990527471974,-0.04939953188286351,0.022022584391449003,0.012068255811679418,0.03349037511846573,0.03180990160270506,0.01474898836939482,0.002141852511936477,0.01526619726060946,0.00776278348182021,0.0029144938152856647,0.02020237279066582,-0.04601342884046557,-0.04674952904382262,-0.03937773110049437,-0.07249278837839351,-0.24459107571133204,-0.2352241019627311,-0.07760823779017655,-0.09904456452422637,-0.18862771406079518,-0.06249667095249325,0.1844356344421543,0.07561892701624191,0.06684359844496772,0.09870262401036596,-0.1561113313715971,-0.07001754814303693,-0.004527885616097173,0.014112332711693954,0.01092567890442836,0.0342711435480198,0.007853348387229413,0.010086636539926188,0.010890612613081472,0.027611544151387786,0.028961025252022543,0.02188389040915521,0.02342041243883967,0.002201255592370793,0.02532594402479438,0.014752196900080096,0.03288790249067622,0.036267412783606304,0.10431497867759033,0.02696067223399937,0.007117400252790479,0.06245446378292025,-0.059741468072231595,-0.037209389069273596,-0.012573957798849268,0.004414082823626486,0.07032234609842018,0.03794774699975795,0.0022887822132089328,0.00479136115513126,0.03447562528940028,0.03317426438748058,0.01640643901202222,0.029083819625555635,0.014461678091712655,0.005860344071403408],[0.0010122371257669874,0.02525849680784584,0.0347182720528063,0.015704530644667775,0.02944021717400358,0.016203006857465698,0.014527154005564933,0.03269603832402516,0.008942109173313268,0.025186296532472032,0.023383342046485536,0.017711522022397848,0.02460713854269968,0.018737990473109613,0.028433510606148425,0.009023260762804842,0.021208086530692036,0.004160339368547206,0.03118878753234507,0.028899009962671134,0.005007221019307261,0.018766115457127634,0.000902578818819214,0.02403847308942927,0.02038935771582025,0.011002887318297802,0.021754691760351576,0.007634992637724404,0.018717647320245105,0.01836428557125649,0.006361370242090635,0.0017191879852326444,0.012035056221948538,0.008299970756160133,0.009122521036152291,-0.019616614431635256,-0.03562778744666531,0.017985819187489652,-0.00034885425282488,-0.004475791367509493,0.016912349430522052,0.012560604861341916,0.021726269869689622,0.014680221781149916,-0.010160793040870156,0.00918095672398407,0.018367014086378565,-0.00824365812881656,0.024267982749875665,0.01484575279582448,-0.0003411294681438298,0.021992348516774136,0.010166657642335692,0.007129825190154696,0.025439546802988797,0.02090686587316284,0.024109059401504762,0.0061112389959392865,0.02561944897840957,0.016446849063549984,0.019556791509366088,0.02962182510311493,0.005854610423437508,-0.015275999487860993,-0.05079082027459788,-0.09425541160705898,-0.19949781390716217,-0.15580031745806214,-0.2257079029554598,-0.13351159401642831,-0.13143036777883066,-0.1541574012459163,-0.17794035881306308,-0.13998670984126135,-0.1547090221056173,-0.07082004501203712,-0.1046413773005742,0.0059237819842177285,0.03394131131719745,-0.030204703041388403,-0.03528136034813725,-0.008931705529797928,0.027181292035724478,0.0038046476982760502,0.01976627677291836,0.028462007025317378,0.011628944712415002,0.009059348918683477,0.023820308303244043,-0.004782660412531947,-0.06634349655185066,-0.13183899428347817,-0.08127242927278522,-0.18548106091362046,-0.27701025741967533,-0.25472704210224245,-0.24502789270074932,-0.3699523340642788,-0.33479595226079745,-0.3293426057284031,-0.0893181982618041,-0.05245624226996906,-0.007258983065707892,-0.06381568605761602,-0.32576506548423917,-0.14539133626102574,-0.007822889845034518,-0.0031130613539829353,-0.030965839731133316,0.006693141291691298,0.02588405529578275,0.023466969716909664,0.018842525190133092,0.008401151282614677,0.030099389725137437,0.014294287198960047,0.052067350754567476,0.048984316778357136,-0.07666896179878088,-0.1722866390133461,-0.11509610496482736,-0.12104215260593656,-0.48089149481969967,-0.10945972220671106,-0.06123715152622878,-0.16210504726789082,-0.2219179581715236,-0.06795545932281907,-0.06453963520096964,-0.19403865430148468,-0.12027695253777448,-0.14615614366230906,-0.13946874183840022,-0.02589798206654922,0.1608423332199108,0.21647427686690277,0.14049022764515295,0.05317351276343077,0.015483452982593574,0.0056846138509599594,0.007425935225425879,0.001278315608901023,0.0027201504320473737,0.00690013208353069,0.05974415069640026,0.09984121032369234,0.003113955031395159,0.016438189814026512,-0.05905619674431737,-0.09614261410864988,-0.23099414318263775,-0.12451684099510843,-0.014580005580682192,-0.12005377851552489,-0.24763140007550138,-0.23189196134863002,-0.25245163676964255,-0.23011134801873329,-0.0697563144476687,-0.04726740626994956,0.14364674364622793,0.31615383400658253,0.33607171318211687,0.3841764663792346,0.2631367777744654,0.11273599694459252,0.00634159785454169,0.023769559558654015,0.024986595107735172,0.010283016416744695,0.032398539063030855,0.031128429059296612,0.12832731796659486,0.1766344842204372,0.03775462925605659,0.11378340209415644,0.10948166207536038,0.0083179054789286,0.14954270333948852,0.009403359672263656,-0.11348949762557907,-0.023402342665932226,0.02071458434259837,0.11222488747996491,0.10957651314009027,0.3107324894228362,0.15413430109242532,0.4191862630043606,0.45464931214473103,0.46900923067638495,0.5453591086051027,0.5217810330939374,0.2512899212098047,0.11548693948160743,0.04427655816043039,0.008850089392827176,0.026813099464735507,0.0124254876563662,-0.014283094598186816,0.07263477735804595,0.12824540379641264,0.26609365801148727,0.10457335995258953,0.279406558992969,0.023522632585387997,0.061809999047837,0.14331088729409305,-0.1850252585818076,0.15525790327453234,0.2895363646366129,0.3322365992782137,0.2636560490905656,0.33249884797800017,0.2554342840152607,0.08442829413440178,0.36290150080495226,0.5188137662108155,0.47571224078780744,0.4343376019614467,0.5322488276911602,0.27170873878834745,0.10163365831466971,0.020908600362286832,0.008055503194570648,0.007862144921844937,0.006477921560617216,-0.0025599531517359773,0.09780702938973801,0.14889872387010764,0.16954795362720232,0.052836019497349423,0.1866580629778672,0.27189773398022765,0.23068273529734148,0.2658686631384024,-0.06303295057082617,0.04462766145652572,0.07977299878742337,-0.13573149589701353,-0.05495272823465097,0.20368731135734566,0.2901350072288001,0.4196569098502605,0.47068420018215973,0.5558861277392204,0.5449814394997612,0.3564092646489712,0.5756959227714415,0.3660986192441108,0.13740587006112934,-0.025741334858895865,0.026006068848485,0.024861049221426464,0.01211427709205237,0.03878072939676573,0.13513764446950188,0.02955941313638237,0.0047207735162567615,0.06871703118575276,0.07725635567671148,0.07776881754667014,-0.0362155854852001,0.1362741188863674,-0.125316942845163,-0.11392403861319109,-0.08756128462959877,-0.38071220172811465,-0.050698921039732045,0.4917937383312582,0.5870358896306531,0.659336601784505,0.5846136453768465,0.6076718528623797,0.6710265970875691,0.43762099342679245,0.5963957962779788,0.40514463513901483,0.0585250610779636,-0.021976741480617047,0.011531448348130685,0.007889038072585904,0.0031499523118371803,0.037719335468011615,0.1332187947014183,0.1536056179993343,-0.013749141957398741,-0.08054470399475194,-0.09777507469951531,-0.20272140162058888,-0.10767384873045091,0.0599719219363366,0.21523474218142827,0.36497251922144,0.35146427299089744,0.16059475470441997,0.6861312400896421,0.5119129344811859,0.43077454447303265,0.48292736763616356,0.5136022658981332,0.29150532974422155,0.3695889770543189,0.3664320158654612,0.3852945915035052,0.23691330795807528,0.01099963697831325,-0.0071655495467213325,0.022033810694757728,0.03378768047755251,0.015792080215990125,0.044548996611660854,0.04055194164610416,0.16092791699586037,0.2580215453719624,0.40052890305796257,0.4736174884262884,0.4842162793782132,0.6600710063429654,0.7957301396579157,0.9755749887863758,0.9466179144271393,0.8452037888652926,0.6564280059498153,0.7311087403865477,0.37863099891135976,0.335513806618797,0.054392610230192345,0.029708340799983822,-0.001206881379202481,-0.12883108176111144,-0.035982370400223715,0.07428627166680095,-0.055886746891876386,-0.12491251989698186,-0.015384469330784611,0.02881678728841281,0.012990817473404777,0.007095435823364837,0.009523539280131266,0.007977429416609028,0.24972451139869603,0.5983816363821273,0.9710534762130053,0.9992185926250359,0.942937330982456,1.1100914690747716,0.9806975491455519,0.8704272416695654,0.9289640069489523,0.8914633677414786,0.4309658003088522,0.3590827203136575,0.36443744093721764,0.10365372637431039,0.08114934134635989,-0.06900182483658616,-0.17907365996074823,-0.3549362930052343,0.004866454084577322,0.0869346480944745,-0.2507489755344514,-0.16978546166190733,-0.06950547628546248,0.018017178744437673,0.005266745069927778,0.005516861010540022,0.00738576752833713,0.021367690864170397,0.34763464044726594,0.7633235605331552,0.8719763016558854,0.7300413247007351,0.6108828852637753,0.2575880426180659,0.15664693630643992,-0.3090338153333873,0.05242922263877004,-0.16006528531658232,-0.09038078605887091,0.21145051369861928,0.12675311996752853,0.21350702923960668,-0.009643793275705522,-0.26506700150466195,-0.17015695539203177,-0.2029127992094534,0.056654639641473326,-0.0032460547864487034,-0.31166843736875594,-0.18924134122999878,-0.14068071218750758,-0.04865103572575673,0.027341913515191205,0.014642755433527934,0.026822003525024524,0.0374658994753364,0.25959594579758866,0.5751127366204162,0.4235400792593562,0.23278541382781745,-0.036216057102047595,-0.15894096879323738,-0.07861521391578745,-0.5821516760716345,-0.0991729535328097,-0.4172300790048302,-0.35293265167559407,-0.03633730801982647,0.04704247193737044,0.20412117464076282,-0.20617807002573213,-0.04184764981698782,0.15300161056595185,-0.18378567072219837,-0.17662075345247755,-0.1348779017298196,-0.25051005029883294,-0.18512432986066757,-0.13395825467261985,-0.005666336227173304,0.025611511096287974,0.025607772243863666,0.03539474416471523,-0.04967182992114556,0.017197323380014163,0.05626392075880132,-0.060486721706360644,0.025338335660468773,-0.2117398676211474,-0.09851748852140474,-0.18961201670036873,-0.46319350329733217,0.0828064942810869,-0.23816381873669082,-0.5473065308047907,-0.3881262865737677,-0.1639643140156828,0.01722432859480891,-0.09107778752795975,-0.165180062197878,-0.1811422053097635,-0.29311551609641806,-0.025901681450316967,-0.05435690379801361,-0.23140584695842464,-0.23459504534606193,-0.11136101881706963,-0.009499805335028345,0.035659298996558626,0.03417548471559863,0.04048696512735346,-0.14892489158557995,-0.1969893785436307,-0.3766521563532846,-0.35858799105214345,-0.1462703767635004,0.04409521303749069,-0.25092335791379067,-0.34966029477482163,-0.08968521538764135,0.3058535547417045,0.14596989037808394,-0.35314715199460517,-0.3921913117124975,-0.15210817618612796,-0.07190173938883626,-0.09029138635302869,-0.39036675353153927,-0.10903346514812919,-0.2543687533744996,-0.1418312181546386,-0.2291780883314506,-0.35597531952624933,-0.42113355431175653,-0.15252177126758446,0.0005659668713036487,0.00030045176872296145,0.009147571300013166,-0.018949111965461177,-0.14195047442640243,-0.4210624857247754,-0.37476144898411734,-0.5040822779516938,-0.2114477092357165,-0.2872012348020056,-0.19729592782546612,-0.2820257799343685,-0.06811387390318852,0.1762104907730688,0.05496707261753381,-0.46475520453228525,-0.5261176614606107,-0.13356081670211464,-0.32577297696955876,-0.36159458242119075,-0.2856229244477229,-0.09528957676581148,-0.11296367819620474,-0.016493180175052292,-0.20470635576964988,-0.41544646315627615,-0.3010632910837519,-0.10549269255682009,0.012399132475220618,0.03273248831205082,0.024912963445928596,-0.005254969641625346,-0.07356500612417252,-0.3276378121033105,-0.29697767993251134,-0.20350935618176536,-0.37071929098067796,-0.3000657073507847,-0.22948994009220441,-0.25769136631368567,-0.1745828442400439,-0.21197529061392578,-0.15987141565427665,-0.5870327501788855,-0.5431688396596402,-0.4371011765519514,-0.41738265955828224,-0.3305086564589601,-0.18287548363418116,-0.2170097562883524,-0.1444742220604136,-0.4232583580112927,-0.7061374492003823,-0.6016200302081809,-0.29615842396602876,-0.03895178400341959,0.0001108005115734192,0.03218185974847473,0.02844772756051337,0.024866613806978993,-0.11637018273070869,-0.17008317062578224,-0.1719716573609022,-0.019663407024340676,-0.05764670302433023,-0.054069837375164284,-0.13377087758715628,-0.5272132999613945,-0.4191461777665132,-0.02245693223744884,-0.19543074239209393,-0.028962536410230066,-0.3931737920846291,-0.3518749900690028,-0.47882815887616864,-0.34102977979929733,-0.3065386230664463,-0.17426333547425124,-0.22189959200599335,-0.477880732811952,-0.6745127694054832,-0.5777349720285085,-0.32586729501276585,-0.10106934042857696,0.01666237970535126,0.002256244950339857,0.026916289483066402,0.03863703814220869,-0.16592278051150589,-0.3022154269458369,-0.4477924874864248,-0.4137435865373983,-0.320512496353386,-0.18293796243468197,-0.16869000224570493,-0.24918431449433642,-0.3788933784432936,-0.03882303708464223,0.007658153141128372,-0.09286607573582502,-0.17649515071196048,-0.08226343655361307,0.08609135958973581,-0.17019907349581706,-0.15597439872494154,0.05339703506792207,0.13572389827412826,-0.15036487764981116,-0.5470211403880787,-0.4290754999806764,-0.20037063291238094,-0.07108190905464483,0.021702073524607266,0.012287079951526725,0.004793628115241118,0.027850242588383697,-0.007823982944433991,-0.08419290177369106,-0.20555865065369316,-0.22222696030974964,-0.3058881653203535,-0.12498315182669051,-0.13478461046831103,-0.10289378415508098,0.030010398073651714,0.3252051977970466,0.11692382855925613,0.10912727194887231,0.23431428357759337,0.45718273725547537,0.3629729685507206,0.3411730339901889,0.2606695254596731,0.1917802854658945,0.061613549672351164,-0.08331817957910154,-0.3365110141617015,-0.2335549111486039,-0.06472305824704631,0.009375975000549566,0.012106290026688211,0.0015277991436080881,0.004408063053514945,0.009334197876968427,-0.02610273209244328,-0.05325178601423523,-0.14765093510209504,-0.0853412800629679,-0.14442727768430755,-0.11281611287629277,-0.18784707197430034,-0.12664529829784718,0.2677302088588539,0.20921328651648297,0.2582273976812098,0.32019493129647675,0.5348616688689266,0.6449591937395497,0.5238553629543679,0.6228098476762607,0.4956237646676969,0.25125478366046294,0.15007362974493638,0.11936111273211063,-0.006559322304088098,-0.02829909455669633,-0.0144900891627832,0.02064403701131238,0.002411360470487821,0.02065817854782509,0.023772572554448052,0.0011662859849356634,0.008608975716778775,0.04845475095712995,0.015368384543504124,-0.008373150651838215,0.04060878314902127,0.009284830518372771,-0.19349775166114053,-0.05432684623650848,0.27719187119467964,0.260093079103041,0.3071691410288811,0.519751789413462,0.6389408474999627,0.7266785498210535,0.6161864316231823,0.5379235856699704,0.36048659965653795,0.30720662790924624,0.14972485264575186,0.2494112189485612,0.12957632471456149,0.04638966687454456,0.013101011447275102,0.004111869318815273,0.010701804424885886,0.014471244704052009,0.00796836286160236,0.014294553627056658,0.07176795831599513,0.09931985185758271,0.22982903533305477,0.33503313185659384,0.2579530849820116,0.30254724162056434,0.31817484656999756,0.3308687559137098,0.3400515008447506,0.25578722160508827,0.35197789651257505,0.3467064284302643,0.47017641185020326,0.47183434030697297,0.2938827694892462,0.24076389072030868,0.22701578212926338,0.13576445722814454,0.1399716942360886,0.1647154412209038,0.19793539070965915,-0.028491575429218628,-0.04535969602938261,-0.01650812097203657,0.03385124663647669,0.026735859664861472,0.03383666595484745,0.023317357497840502,0.024917655895104314,0.07437478782602817,0.1452997411345234,0.1768228396165479,0.24501813751950663,0.30828775894312055,0.3913510096774336,0.34506333390116234,0.3531113498800246,0.3319059895276774,0.3101879905789388,0.3291649439514038,0.4141229468480954,0.3511935574082168,0.192338566081164,0.13171720104904452,0.12595033538274783,0.10520534384039441,0.08775415747737768,0.10580354956490087,0.11508337418241728,0.002882734957129703,-0.022564373209064275,-0.02036382933575824,0.02018538871339015,0.01979515534841802,0.01052286938606302,0.033098958096514884,0.007504197806260355,0.025144860890041164,0.03274436332087264,0.03741040533118254,0.06457981527546323,0.05669831947051211,0.052552071903453026,0.03768963553136838,0.11817874459530897,0.1143283112292577,0.09399981093112253,0.14116106369894227,0.18166264835460966,0.1357588430948346,0.055702005579656884,0.04253211668653968,0.033166197736446856,0.03751663015153989,0.024280975824506966,0.016884473076775056,0.02944558071685055,0.003898997800052183,0.00855325970352005,0.008020401530700287,0.00359065241147757,0.01642524061006633,0.0005669313094821311,0.034884480686828596,0.010876977881332033,0.027125855072140666,0.03237405374806711,0.020044992578061572,0.012918155847568166,0.02991409781852428,0.030504721520782662,0.017174377458465458,0.011965505416910233,0.024936139799411804,0.005150925185236459,0.023501508487926773,0.010863225032455816,0.015556190601387852,0.013543409123212431,0.02440001152612604,0.008906275334986101,0.02457677774142587,0.003827577233733915,0.026920562351146263,0.01089898596065872,0.01658066225668205,0.0002890107654285799,0.006107059424674861,0.02171252326079387],[0.034654184244754645,0.00730177480018985,0.016977675084630724,0.01901356140289542,0.010544456448863997,0.016916691102974224,0.022336191677328827,0.01187789673798985,0.0004075551377435268,0.010259782068404317,0.03364017064039691,0.025317405181261934,0.014286971785711594,0.02318949963340776,0.027730536958798856,0.013976988239474226,0.0009482592497734628,0.0005243486930443282,0.006324334475138971,0.009074774963357466,0.009244310771084967,0.0048361639142254775,0.017953612448256915,0.0037425020840028173,0.03326844084878832,0.03522083177934524,0.011286191690556955,0.020491243447203718,0.021273410122073805,0.005581779715214928,0.028275078874740647,0.023719793063463928,0.021901903918149966,0.007638985632145378,0.026562264096623878,0.023059598785671008,0.010149662864478541,0.035590837452380106,0.0295915389548505,0.005469295705240585,0.009318425443331895,0.032651753285492205,0.026344414910745323,0.010177139772936657,0.038971695108544195,0.015658423686986032,0.008889930461922761,0.029027264329881803,0.011189834809129967,0.009907888631366758,0.0034873587148486073,0.0014822301637491618,0.006811568273470038,0.01993695632047358,0.02921137824630467,0.009195903023137846,0.024089439574939215,0.010549884403431393,0.008283661845463938,0.007013413243886865,0.007244896149620565,0.013550670386050841,0.01744796953078009,0.017926888297243388,0.009369814107647152,0.04879080837822566,0.03727078609411285,0.0652216085923548,0.08559105706663586,0.0764505586053417,0.10952243742711916,0.1286473193137589,0.09294616469045285,0.07801771737700243,0.047393531166906006,-0.008838241756991598,0.012694385150057337,0.0009908136053395768,0.02315260889238965,0.032832505973602044,0.008107873900006474,0.003690553393464151,0.0013169397713617692,0.003016054741859691,0.03151910640652384,0.03137587257964973,0.027106532751516532,0.004961686630227175,0.0028522671087411857,-0.010004908947154029,0.024701935330200365,0.01790762178767703,0.0015878715480397005,0.02268201616640353,0.03430927958446969,0.06332461452884076,0.009771752284416518,0.017660051900895528,-0.12581988436180958,-0.06544995230455458,-0.09283336089674897,-0.1976846177457697,-0.2063739573237474,-0.21027395158082532,-0.11527415475692528,0.014263744826426486,0.015508177818736098,-0.034577656931082404,-0.010986893397339366,0.011269414904375415,0.012197380711012711,0.022962496734833835,0.013670915251855573,0.022479710489233574,0.0011770363716659394,0.02414578310014971,-0.04627615950643885,-0.11937876086481491,-0.09194690266020056,-0.09727214415604434,-0.16311224719378972,0.010863819507856204,0.10133442352951637,-0.0002806695774770545,-0.23927792934850053,-0.33374881559944874,-0.24141977856452798,-0.3752034382142094,-0.09602846321758893,0.10907833752895937,-0.162384682426199,-0.16047927696891703,0.08027563304716225,0.16827379399043413,0.23541781828882233,0.17937844105897127,0.04222129020511048,0.005137041229522275,0.0025546745455458084,0.03506903378903371,0.004453446028217163,0.023354731566306037,0.021101080454662444,0.015052444376964541,-0.13016254358965676,-0.26894180114222394,-0.23858161589382298,-0.20347958707575126,-0.12851826547893416,-0.012487753767871097,-0.030520372586071935,-0.10619844516367989,-0.09338563437697943,-0.08084988914425356,0.03961370034288958,0.09572482735346147,-0.17514531187619467,0.1307691618699156,0.10875177373609568,0.18712004186095113,0.20958392173175105,0.2518836366298735,0.3522233152413585,0.3367924194837969,0.12782750779767763,0.022774866209435085,0.03790912589116005,0.03037908074746082,0.03234166236524176,0.010959348127044717,0.0209544782347712,0.05876076650128164,-0.019992893683043644,-0.16416937518937097,-0.11565788316845448,0.0353760492347186,-0.23214730218446644,-0.10820727790151645,-0.07105091339616824,-0.05020342630518201,-0.12841743850511247,-0.34362724356479857,-0.14731290628797986,-0.03966774396406965,-0.2921602880124318,-0.41815067375848647,-0.34820284026990067,0.29888299124910506,0.1503274882816101,0.23074989287681935,0.40191560305867335,0.4427545664095567,0.19529001837527218,0.044743636976161905,0.012140037662405238,0.003811410827328229,0.017488809438457324,0.02391356764632394,0.09065001280173199,0.11442915364851328,-0.09394301597617849,-0.13466034616622385,0.05303003170526014,0.07993611188475576,0.07583812626072876,-0.09825911993855699,0.10055815118498751,-0.032269086960903345,-0.2573270578656665,-0.15507698513487447,-0.3752841379111805,-0.23453024855431476,-0.19510745193071755,-0.36444682735677675,-0.06680799830653296,0.1523568935848981,0.13129256387050373,0.24579305884207406,0.41398789654967455,0.5317583096093503,0.2170001088821798,0.030970067894496356,0.007599704806516588,0.009149773768482234,0.009114192118952678,0.03390304759420637,0.1373882356199324,0.08561131374769639,-0.0762183792569341,-0.06399133047425559,-0.02265710969080264,-0.05437912935467627,-0.08539374211314785,0.06363630170049281,0.0845465891001841,0.14670854468603398,0.003967330101768152,0.05379689005681128,-0.10406013661080606,-0.20714055490623134,-0.12627611256914842,-0.09839730421610804,-0.09165618613877716,0.05060140503862039,0.048989018799582285,0.14018652345961408,0.17804959095520753,0.32575405460442186,0.017214886359850644,-0.10894549294160225,-0.020173516326660063,0.004736693890221039,0.002390789820126258,0.04405449849965054,0.12618904408735024,0.04795342841086096,-0.13641691538897438,-0.09194929901138593,0.009820623512704707,-0.19319067224158473,-0.2641965655783215,-0.07971779099922253,0.22469108069410804,0.630149503263842,0.49955258482279385,0.3704526179140537,0.07335672000702763,-0.22868076126908649,-0.07839729390191227,-0.3477401133140642,-0.2173564918817662,-0.07837140209064282,-0.38601664244193024,-0.16670780181042158,-0.13026122859475425,0.0053548280914723105,-0.1582259294466328,-0.15320658945298166,-0.0276112929662786,0.007344717253502613,0.013362147083397138,0.04870636218742241,0.05237317364668867,-0.043605285798152656,-0.08345501170636717,0.09503377070937442,0.31773251168413985,0.2399867221862374,0.34464794937249515,0.6634853654381816,0.6560030353159195,0.5988032775009345,0.41722964178582356,0.13888653689397973,-0.097996953575204,-0.042318528426961176,-0.3389417038387259,-0.25784971017883956,-0.24007611365250797,-0.30878834921375053,-0.33494209161225297,-0.1457157082939286,-0.06718905482263957,-0.09226278918578289,-0.15443769190790044,-0.1088006660154435,-0.02250379126050007,0.01986246747092842,0.025060564107784126,0.06750961113806736,0.11810681923770623,0.07865339085137604,0.10400761543164097,0.2931189675088469,0.37454539788542573,0.4159869962957437,0.6281264579240933,0.5943665038365118,0.4906605616101917,0.08494196388632004,0.10364802777225138,-0.055698118543963386,-0.4386659338507076,-0.47710922898106384,-0.17851962689844672,-0.25875000954611765,-0.13399012183002837,-0.12968169580395383,0.018769252062494166,0.1986026675840456,0.2112970494077625,0.19178479964209,0.09334967929182195,-0.02206578929986918,0.014568069728330286,0.02529607006138355,0.02590575920930603,0.06748099113331003,0.12058222570259598,0.15193912152292158,0.1920915697475673,0.3819973757783427,0.36058199905624,0.2646200141774625,0.40060514292047944,0.18220094262673858,-0.008354700265601188,-0.10528163511715623,-0.09671543503580601,-0.11763096580302211,-0.7993717414242234,-0.3768320590323803,-0.3186890129383436,-0.2482377053288398,-0.31710428825468934,0.07145345813376398,0.46874588355124464,0.419546784675548,0.3194049388808208,0.26554416919564366,0.10993406005490254,0.006869035583110391,0.03476397774533113,0.010001264180282875,0.019396103668646077,0.0505901697940048,0.08962164387462607,0.07953084520600351,0.04992719645217006,0.23676826595304543,0.3424137254436074,0.22416704879275795,0.26227874648065885,0.14113431337521518,0.2181311297182673,0.12356315749268132,-0.10547974030409292,-0.27078448464589383,-0.43731909190450907,-0.0763869138188629,-0.24685449587669844,-0.14151576746803574,-0.26517174884699,0.23462175901716673,0.5101122142986678,0.27508969036418807,0.3627290967271789,0.2428447124720884,0.09581775416484908,0.011781369051526453,0.0063233170770147385,0.024064007656504228,0.0028541894294070126,-0.003700448265444513,0.02076114841390088,-0.0034791543093763994,-0.014344898244845273,0.12793113362434613,0.48861985891089754,0.43327513928815176,0.18789182203831442,0.2419002762105108,0.21169617998947068,0.3723029599896202,-0.20261036021478232,-0.1608757555342129,-0.07294463731633948,-0.00023908444687348974,-0.12789614983418937,-0.03396044230095339,0.26577127269675044,0.3403851993564753,0.4977479270832655,0.33382528512472837,0.34535560077934546,0.12783899572072305,0.06961249322353104,0.043934589933405474,0.04603406678922207,0.023363301122789677,0.016380498252554606,-0.016763641092064296,-0.021774020755938216,-0.014145101302226253,0.08503940462960156,0.27828144113721565,0.5232259559925592,0.6008458162636987,0.2896899539178086,0.22238673293431105,0.14469512827550932,-0.29525782041324666,-0.368728815880063,-0.41897319035234126,-0.24961964473687773,-0.2428588640489498,0.02142025182426286,0.2857437916143406,0.45692846017054023,0.07712496552925309,-0.2928464354197929,-0.07627056316755433,0.07948267472094778,0.02215019170784473,0.029791382843535094,0.07795788296622057,0.019088580504040706,0.017368042899875133,0.01672887523404493,0.004928137233749108,-0.04533542640921092,-0.0672668866490799,0.012810194840699759,0.18496706307203056,0.3843506018226534,0.5061028630049641,0.7296595696364814,0.5646757195535986,0.3888247338115468,-0.09902301271785723,-0.3540955014931434,-0.5457262775542142,-0.24555121751921452,0.194755128752853,0.2184441817149604,0.1812361520094644,0.1946409462507445,-0.1421394277330119,-0.5561845924877591,-0.3723896320246173,-0.24330008530204983,0.04143423169209388,0.09039997839423984,0.09277901871240334,0.06310960422786782,0.029569857484696,0.03510925848185447,0.015200672838793639,-0.07013450222593251,-0.2384562140392434,-0.0114919057242574,0.029766858893827654,0.2322901408718349,0.6366716082201971,1.246924782418878,1.5793659411508005,1.5288907203645452,1.3232373410016274,0.9853003937997578,0.4929757620615359,0.24614784221009783,0.3938611191819898,-0.02427479992986905,-0.05698082427103297,-0.12459313279013363,-0.25696658270549233,-0.17817166616854596,-0.389585278656838,-0.25381749370212914,0.11098160106249332,0.3334615709186173,0.13769149831220387,0.024573617760880816,0.01435791808867064,0.035323930380073705,0.012825174571422302,-0.06197557385269054,-0.2916170833058454,-0.16719950984562648,-0.1876999815889847,-0.25157330680574336,0.32730813488569405,0.7169539984931744,1.1547556115787694,1.578818949860185,1.703065009196311,1.6114364679626192,1.2081480940612768,0.7288491634734564,0.3087352970907735,-0.09725291679612147,0.010693071895469562,-0.3408496661071458,-0.42611086989152774,-0.0917598690145247,-0.34793012220936587,-0.22065938038285626,0.24285302067471498,0.26656879730956956,0.10934953405859543,0.03450434683104954,0.0049831186759309466,0.03416264474614455,0.0006539894831775315,-0.04878877318560255,-0.3795619298145926,-0.3116116714225858,-0.2865737435391582,-0.3396808309427683,-0.2001140464621045,-0.07794029714316722,0.006988282839994553,0.08650904696194613,0.2577484441249172,0.30697889845425563,0.4173812942575832,0.5698125561789429,0.3678046382203062,0.08389152681532845,-0.13634194781737474,-0.22683431913978838,-0.2477712077628886,-0.15006572120129438,-0.21394845817479174,-0.007641556898993644,0.22039631811980565,0.2044249975887457,0.06792678105759067,0.043548579435819676,0.008652483380105453,0.004854321060467562,0.012973771927921705,-0.03626457614926841,-0.4092060404644774,-0.42859716617751686,-0.14325814778080934,-0.23885192048447465,-0.09879721817659907,-0.35916400501747714,-0.36706553134341463,-0.32978732749884965,-0.2651614477812411,0.17878586958683873,0.15833576046439396,0.12306078126827105,0.26094278940827886,0.21118137838825665,-0.15151713301638925,-0.20282025575446072,-0.11532116998483606,-0.16116927445539952,-0.0740814032569645,0.10692078057669491,0.32894347212152836,0.1363165088258675,0.07361032291090698,0.01900300354959943,0.008986095832371442,0.026258979751663095,0.01122456334253855,-0.09129827132091377,-0.3549136214640976,-0.5733445331204575,-0.23958631946665684,-0.20513066494872634,-0.14792162793970692,-0.22032770333777538,0.17437538615816417,-0.018322714459277096,-0.05419124848476677,-0.002620237551581518,-0.043191408989900315,0.148285744128358,0.16702702553903798,0.0818759557115433,0.014009386549553287,-0.21134835670998334,-0.19321912797370713,-0.17447517274402627,0.03276774405665497,0.2546679758212239,0.2981343337040176,0.09397612107817628,0.027351431535555422,0.01568581512879111,0.024155030480425534,0.0031470867255238054,0.00821029654079157,-0.044913821275747966,-0.2710283373875744,-0.4724332704666673,-0.2641498790166438,-0.22099302434556622,0.16421577881425312,0.16521338366906516,0.15294408229840914,-0.04793806214257636,0.09839505701074808,0.260872990399565,0.26207975042091874,0.16518428851403663,-0.10770841020732558,0.0007568856811436527,0.09576175828222552,0.062343013772158326,-0.06995174740717278,-0.09300739005215611,0.16826948225544774,0.21260637197711305,0.15339522807065054,0.11863114306666651,0.07346112764856018,0.03218640846964726,0.025370401442056493,0.0303723111256961,0.009466210377410744,-0.015820193996970086,-0.15713101871943938,-0.382741595200951,-0.4124001728450635,-0.38133015830782774,-0.3029690136845947,-0.03131996234067918,0.028191027992255917,0.036209232761415966,0.2847574269557708,0.3827913142680487,0.025560189894405828,0.11234919832373501,0.1089098450456203,0.02793684726665216,-0.03835473595787421,-0.009056357264845324,0.07163739977403467,0.18238018683420523,0.28736588168452093,0.16682796942812586,0.06839193051316397,0.04429990340802138,0.024537119618465532,0.0300113235550792,0.021277615491726132,0.03467887014572877,0.029558052771394974,0.02589085882696993,-0.02706832923344945,-0.17975587236140897,-0.34492605170385565,-0.4917507281678401,-0.407899616233163,-0.35138845607812724,-0.2772438046234425,-0.4438811751647344,-0.1633737051999391,-0.16813506092346778,-0.23851847025772063,-0.005891980498883867,0.036439381889831264,-0.024472414760188892,0.05818868766387799,0.22274970172000144,0.2764146955253341,0.17706188711110027,0.03486130756724952,-0.001986222278587425,0.0010574454778366966,0.010570833862328684,0.02921415370212427,0.003095697705500502,0.009568367320047297,0.012036685553126298,0.008377565584299815,0.03241461723712074,0.014708905343903891,-0.00011421583935918404,-0.021183630681310038,-0.012870185071179882,-0.06764239146430634,-0.31583518403393024,-0.394584955712531,-0.3243179090371009,-0.32428213122536637,-0.13541405202020962,-0.07916921125922366,0.1578956602087861,0.11930552928373953,0.22150442335105827,0.35594466670746594,0.2078156967051835,0.21013460130855127,0.08863710779983384,0.0463683200787527,-0.004743243059742445,-0.002369993348542664,0.030941265755107927,0.011165529318270691,0.028916467002152755,0.023385542421275423,0.01302135502992904,0.0018642245337014338,0.0017746787500982511,0.00660795105018103,0.015146543627058827,0.011219570304144229,0.01739779711455692,0.011151526169312663,-0.035505652155966266,-0.08776542580732527,0.007471185013162996,0.07712092000707098,0.14488114667297675,0.18234971615124915,0.1913555612541674,0.11909478738413036,0.19468553961329502,0.16456527309369243,0.10693836525605338,0.12662287058256536,0.03667495277507318,0.0073098468062440455,0.0018409018197282315,0.033295093168883426,0.0003811077584541049,0.02942489215766825,0.0010496072981731846,0.023895393520896265,0.03431324596304404,0.008817687124032834,0.027266958091453686,0.032282344383780255,0.03042643363807758,0.0020938512627458592,0.0032649908616482295,0.020318129049042306,0.008692098371263985,0.004642045867492297,0.014421268045614322,0.014337002875881263,0.01977146399008372,0.03025011313686238,0.017202169157617422,0.025064403040797475,0.047101991440083944,0.02622593489892432,0.054717941002582364,0.043203434854406336,0.03143366610429889,0.006218977469232547,0.01865880631211539,0.018508791863107922,0.02192191406781165,0.0164988228630707,0.008938587860260852,0.01436836087350764],[0.03484743666769096,0.0156148909433502,0.0055368955376726625,0.016780432581157863,0.02081302997094257,0.0092139528707221,0.026988698274550266,0.010989316036162775,0.020287216222800213,0.02066478684603387,0.031178439738114603,0.004315931178699693,0.018242609145359218,0.007138723999709676,0.010831247473343547,0.011108469588940482,0.02449428898111802,0.012126853271678728,0.0010036187230715945,0.01720010879366238,0.005739247515284905,0.003598733865559597,0.020979266722415346,0.0026878570361607962,0.01713094966635586,0.013229545594264544,0.012419970923966628,0.02380617890012263,0.013450752740578933,0.01762774461257075,0.029270656672897695,0.011656237435216694,0.03302689714823904,0.011824044929906154,0.02883177489375292,0.020865130080995845,0.008799243850508613,0.022034942205678847,0.03284493221071694,0.0015580897779116387,0.0258543641659295,0.011230072138868882,-0.01607843112749857,-0.05699702886775702,0.01025433594280435,0.009699900633384748,0.010884943588242886,0.010874076592105247,0.03296506381277803,0.009028646349159192,0.006163698147215159,0.022864386517519743,0.004997554301850885,0.02922911438988775,0.02665075788387089,0.014946941912579384,0.03395144494157846,0.01736957641384495,0.004978577918935824,0.01439754630217991,0.013216633706319501,0.006072331809196974,0.015993629556013998,0.022834038213577903,0.04771734080323621,0.06110173148844162,0.05702471233508456,0.024001109870041393,0.0074448806296469675,0.023056406513840534,-0.04846243306871461,-0.16718097435845927,-0.06230299666612161,0.048791542419379226,0.035630553973229735,0.055833792650869477,0.03971748179374452,0.019913130708539926,0.016540037338132328,0.03241019397477942,0.01521880533834512,0.001402317560526152,0.029613970526617468,0.02641284626833651,0.0019193180710860053,0.009195676630060394,-0.002500197430849887,0.02068724832176103,0.02976183390603734,0.03221171770343762,0.02797596573672865,0.03404151178508066,0.05459192324034597,0.10007132879292627,0.1367847050931328,0.212325715536167,0.12239648614373003,0.10427699591802007,0.0802643386678971,-0.04512718648917896,0.006383634467091743,0.04685752696999846,0.07396453664086204,0.08041597709540704,0.08890934320273508,0.04364837841831087,0.016654945602953903,0.020656062851899318,0.027857800548985057,0.016007436533358833,0.011217147516665454,0.007105301080093488,0.019286703006610784,0.0005417115253774351,0.005524688198250334,0.0028759326977899654,-0.001458343583974364,0.03676518577498911,0.03837011847152023,0.053144173649844716,0.10465822288315431,0.14999887450339558,0.03717456243607223,0.049354188990482065,-0.004015272166926297,-0.019674403416990286,-0.03755478712081289,-0.20449405485447442,-0.0730640054621808,0.16317062563546522,0.15433054400159152,-0.007712639694884012,0.09326772274445286,0.011311282603943559,0.010837442006989072,0.004276757358268808,0.040974309941608,0.031038287692366977,0.032751101146071736,0.03640427512202435,0.010596626143016081,0.0010011142224582437,0.01901872106999271,0.007257531181925136,0.023147792821537894,0.056783183227175835,0.058648244475839294,0.08626870803602615,0.24424939905916976,0.3072790430730158,0.13589086417481597,-0.03331057220655216,-0.036075464819741256,0.02389475544144053,-0.12378847271248965,-0.27409661594207163,-0.25460453844200837,0.08078253112058664,0.24713169965179116,0.192500832278675,0.15339281661915444,0.02647493675969919,0.00478850498629584,0.044263468157832185,0.051614562091355995,0.08729349229603836,0.014923181947438992,0.035243234700249045,0.01950173931426782,0.029297607687658742,0.019808722758952395,0.003448407325933899,0.03003517619874832,0.08110595721265308,0.1339011209466934,0.21100165603849394,0.3114281327475072,0.3618860051425206,0.09282728406027344,-0.20169295923877434,-0.06118747835259991,0.09079144197403759,-0.008031717069034947,-0.06895634135819158,-0.17599388497699087,0.12692403052320753,0.32317696247529326,0.3667450832570489,0.18681658081040645,0.11944715408579819,0.09772667520324577,0.06451091300014178,0.09532866319066644,0.09896653959005766,0.01636801243938664,0.03189569441175041,0.0024281914873298324,0.027669812809958356,0.019071638409094135,0.005404422647712513,0.041916375452080795,0.10317080639280199,0.21465642882801467,0.26394746136699204,0.4048940172244987,0.35023646558197924,0.18056704582311628,-0.05079079121328375,-0.0348413199905218,0.12112046348815854,-0.03497488614501054,-0.05721339527665236,0.06568856175494167,0.22559271852061769,0.4707317810906297,0.3235108380736142,0.221712897883741,0.14566368630896276,0.14063718922942522,0.11520490034611516,0.18078741064600434,0.08589748059487476,0.003318400048943581,0.004829679298232458,0.005449796711500667,0.027474576552088247,0.002779442102564722,0.0059230950205509765,0.05322559499308021,0.06926184141637114,0.1330625752717193,0.22541877100069344,0.3198869217325729,0.35791444202165734,0.18043401051543642,0.012000859479147637,-0.07344428467618354,-0.21536637452848664,-0.30564460572552493,-0.1518563540738954,0.2383750460656746,0.27206050985170355,0.3851340429230106,0.35114015667211645,0.26638962616357864,0.15286634169070873,0.19146594946773668,0.20591325168070415,0.19554006353607878,0.09284501865196465,0.02873707450252452,0.03404232884686631,0.03351111410600981,0.030417525315326082,0.014721619138242456,0.026856725203781733,0.03627849419383367,0.09349766621263052,0.12766713596915802,0.14931577293699752,0.25237713732219313,0.3365435870647165,0.201837071234358,-0.02765571477576634,0.08230170069477126,-0.2225765908554379,-0.5147994876684135,-0.2550763326827973,0.20134915484491378,0.4367884808032883,0.36742309661531475,0.36809975042283133,0.26747800838607916,0.198123846210138,0.21285599367738905,0.2409122958676831,0.1754768064067321,0.07438223050785124,0.018871995205143644,0.015049071479737825,0.007949918381082298,0.028982534024721764,0.01086372390848802,0.032002085951642834,0.04245889944395732,0.09325090623330426,0.17497104654903062,0.18194617904724256,0.1447750449423216,0.14035106860375984,-0.09479417235516091,-0.182493806886272,-0.14955396921843517,-0.5053727634274096,-0.5497363673072655,-0.16507528664491555,0.2718880319206665,0.3997808335050038,0.3516099297873569,0.20727148418295413,0.26325225512604167,0.20088671570364297,0.1861412989711631,0.18251768475724148,0.14110647483079458,0.06193134506267573,0.03695175953695665,0.023340309563614856,0.0027881098818587054,0.022646519460408247,0.02122513981209327,0.013204548653705767,0.021264991448800168,0.050241033089300495,0.12412470951837704,0.10348479835408785,0.04134603142993491,0.05358637096506022,-0.03960531737367565,-0.01391268946463864,-0.10252226704420059,-0.3980920899026503,-0.42269460503109757,-0.09380166955806796,0.2520845907011433,0.28880224355483275,0.2104994343753938,0.1357363684294592,0.15979832725336232,0.12876956426484115,0.11079007013168254,0.0879001098159932,0.07187589839569007,0.03141146865780597,0.026184086153702293,0.025134640095038914,0.018876526394213555,0.032531074795459344,0.026655283870387535,0.014680605961612204,0.0060217828147488064,0.05345875012682791,0.06518353268518003,0.05511325262813452,0.044371418273275016,0.031141658818017764,0.04562143826953067,0.21302643434629523,-0.1500822094008656,-0.03199318207575813,-0.24195306964894883,-0.08087831992162563,0.17369239567304773,0.18483889574842288,0.20203249425764186,0.14529002765595259,0.11302685187946966,0.056132189868522774,0.04735940042066697,0.03547618745119865,0.020405143422149653,0.04661725496118607,0.027371611158343356,0.005677455578113216,0.016667304397654237,0.005443939386030297,0.012562537824748978,0.017833409248011876,-0.008630196288586717,0.025556584033907155,0.015204636674676267,0.005224106296769798,0.0009538817523707915,-0.008595215465272308,0.15368557033508268,0.3526884906020693,0.04869674650833668,0.35432541609988827,-0.07590422591580594,0.039006312735123956,0.11575575488468234,0.11018952651689351,0.23232327141776288,0.19504073544335462,0.08483254063522438,0.03192629251054624,0.05668231225870209,0.06073010722519795,0.058243514653536534,0.06165427292543925,0.021944836347619172,0.003771839704422834,0.029320168155566054,0.024286557135809683,0.019755371963367453,0.0005780481668136502,0.0007480700733423324,0.03346048228351426,0.029900036975955408,0.004415177173026664,0.022590902407268992,0.002484919565838857,0.22669149031658486,0.3308566173690235,0.1674145894045302,0.33101219827273015,-0.05145069674600389,0.1331278195611334,0.08643851108776922,0.2005610358306649,0.37057241072912367,0.17590133778343642,0.08417429685743072,0.0410364812112213,0.03214686560166633,0.03181617279680477,0.020892327356410802,0.020722364408455207,0.006532552034001188,0.005041830502793751,0.006842185289026721,0.02040679298044968,0.00909267228139483,0.013765521400696049,0.012633547065279666,0.05833127538631167,0.07218479992052951,0.04739123037377621,-0.008891532642042588,-0.00007053081157682546,0.24450407722763526,0.20957829262621905,0.22776069075351985,0.05922104782540285,-0.31074529994947725,0.18127168625757462,0.0011514073691537552,0.3143376756023331,0.3100856516281833,0.15712909489471774,0.07543715962987373,0.06110474971315597,0.0605002527387727,0.044436960133804104,0.03833172462429984,0.023443773463499636,0.022760105469555276,0.019775320227218736,0.0034660825028184155,0.020142516362287925,0.02767251456333059,0.022050030358328004,0.0342756789419924,0.05869627874900989,0.10479879292245373,0.09827998835994448,0.10434397231158934,0.03456959392391478,0.1622094583075753,0.23450707054383127,0.36205830993920196,0.04744146786121174,-0.3655459513679463,0.20300639636626255,0.16596650592336284,0.4092949633790848,0.34374902469524,0.14710242894297657,0.034417289309109846,0.058395552752658335,0.06647401183195482,0.08523159200638482,0.05485412507391893,0.052726475534447995,0.03955882921575599,0.008852463402153236,0.01350210331825725,0.01977986100145617,0.028592425513274466,0.030714467348947335,0.03406978628197442,0.09670176741938413,0.21596260121844796,0.2087588844012743,0.14677061966337757,0.19369840263847193,0.1356016250728606,0.5001120450025497,0.39299000461296096,-0.06381866195190347,-0.422565037088383,-0.01246667558898676,0.327515066220222,0.3544038546032638,0.24127666791155333,0.06039758789502247,-0.0064465437306784204,0.03805450741196796,0.07624495359275787,0.11205821763280666,0.06384736627644622,0.06815038100353486,0.010303486924066995,0.011007449976196695,0.012673459542694521,0.006148302046850096,0.026740244937842154,0.017173419138716603,0.05877291658574895,0.14009741713470855,0.3028586975442657,0.28078800819239286,0.20237530010362006,0.18565879850794284,0.24942093216255531,0.5438735959159167,0.4164392050501527,-0.11009528011212458,-0.39735497556801364,-0.06962534559202142,0.21329397742151687,-0.004537053370434795,-0.05506239020770142,-0.1737598642872668,-0.10346620921409007,0.02444054565661387,0.11918360668908722,0.11593844796975934,0.06987106221528802,0.014341917598178627,-0.0017754703108593065,-0.007724219707104211,0.019552755188525412,0.003851315712972532,0.034767991282008213,0.030586217304422222,0.06971588121421918,0.153077083376754,0.1921787067170016,0.10689354854171396,0.16151558682176456,0.08870440537786123,0.32500373455424564,0.5264004144645164,0.29048187810741916,-0.19676501697274493,-0.2016277302482638,-0.18049208268856018,-0.11845577577696625,-0.07795194247591485,-0.16320382101803435,-0.22682691470849645,-0.020237665401678075,0.14237210698771713,0.18823100021701786,0.10239835226068446,0.039429816804456626,0.021435717954765784,0.02514825931848555,0.0038291436356211054,0.0015284796888820815,0.0032888959762993326,0.02830118257838158,0.025475668933311508,0.06318743509063994,0.0907869786514332,0.037579840296689204,0.024572102607589106,0.03394285830672768,0.039735384999356825,0.17764391570541693,0.23474628160709923,-0.0874159816538948,-0.1925084675566992,-0.30254939294627425,-0.20872155721601185,-0.31271056189382035,-0.18590856927777502,-0.3168093304072144,-0.0977840180030031,0.14535523882309734,0.26080007855065973,0.23886009236343977,0.1386729457154507,0.06709074573305301,0.028530544691134238,0.01402735469810759,0.024711022198972428,0.00607508333302886,0.029768763077685955,0.010169650042106881,0.011120487982162256,0.041783284243241445,0.014281211256546855,0.009647389355575103,0.0932955002280703,0.12363091108119954,0.16415598322145364,-0.0012588469638792172,0.032977002825797755,-0.03834263085996588,-0.20989871699131923,-0.27301194231366466,-0.2234797746853589,-0.2132334694594888,-0.13499027362121785,-0.24365730136322375,-0.01541131666126277,0.21390887466141362,0.2796478145583829,0.2266523517183818,0.1331554804495194,0.06392445734317309,0.014899386618047723,0.024796358187569745,0.03267972113886333,0.028368811460486056,0.013316098018647344,0.04052082738889906,0.03272203215651854,0.0022604909487520517,-0.09627720721927355,-0.035748460522729904,0.07010064905826774,0.09188740870990685,0.12291875507781849,0.17252492654196866,0.10942257959331342,0.0986353592916483,0.09369661758972637,-0.14112080098190488,-0.06751678594950689,-0.3174555501812678,-0.3712070817116165,-0.3324510101000777,-0.05571982381248978,0.08606599539692818,0.17341313624277763,0.118316626469043,0.07239602368929533,0.04500469510206977,0.033331333658789576,0.01353794792417473,0.004675883897093936,0.03435741889445266,0.021351594191615014,0.015400016293333063,0.032919805045553634,0.009735937547968905,-0.05767134504526791,-0.07054022012738675,0.07741729308031414,0.11491482258184965,0.12407286088280967,0.1670370321869076,0.13071021280679307,0.015340498046743036,0.18775254999522875,0.1643246201421915,-0.14048256343381543,-0.2626985401046216,-0.29990175687912074,-0.031182159799970396,0.12914369698157183,0.140448962067775,0.1406022529529403,0.05507764221213882,0.053104576041702316,0.022882199275113143,0.004147927725682562,0.006775088535647954,0.03464922691504659,0.03333692208319335,0.008234233423793718,0.021931698966773376,0.038996289908785814,0.004714652490070822,-0.01591224300806674,-0.02548111667434256,0.08972795495746634,0.18837856261175234,0.1935092310766331,0.30053614795482303,0.33505332275603433,0.34721800226188415,0.4157226065086988,0.44891889497921333,0.41161203399117513,0.3825906725210991,0.13190151106250816,0.07240999765810684,0.08747432745742746,0.07871922784952994,0.058555822528159635,0.032919902573037986,0.024135782342618088,0.013532539588900563,0.01563620920969598,0.022422648719696257,0.01637628538018255,0.03194467164900622,0.02188980176077691,0.02536803837540335,0.018379473652832393,0.021250857054552163,0.02502603715149135,0.045412089881258944,0.08998125030600755,0.09164235923387014,0.1520125850925488,0.2891513191698294,0.2982500720806142,0.32651359170961397,0.3147037283119381,0.37345011470229195,0.37315163635091236,0.3056459422570221,0.19669000926593588,0.09779192316823156,0.016769705389954263,0.020471824750256187,0.007255562688095584,0.02757932738455135,0.026396464240153933,0.022203303015750943,0.010112083545893368,0.03204622112841844,0.03220638757525127,0.012309791175860634,0.00800558724302857,0.006361639073562765,0.019508827055166253,0.01965169550382541,0.02681994456414449,0.04062545561971424,0.03932284578283071,0.027746954954955435,0.03616339118970537,0.045332111903500956,0.07995705566375913,0.17481487634649026,0.09421015054091389,0.06597328642951422,0.07146161249486883,0.053128013397179104,0.037456828812339776,0.02810068960673415,0.008618652145002318,0.013657010024716275,0.026065200543924662,0.03354582283577505,0.008186165283309043,0.003468921856681082,0.005175395713277698,0.01019682822937834,0.026068371700217776,0.03423483042217068,0.03097369657775606,0.0028951093492991203,0.02379000347009377,0.0072439807855581555,0.02082501547059084,0.02327407877392769,0.025785806953327575,0.0227245584879097,0.021329532365669722,0.005853024639259428,0.008044377167645897,0.0023550475899004903,0.03633361234795237,0.012488154593992001,0.0071307765569599895,0.025850195900757846,0.007998085234204295,0.009708138877329294,0.017742144550474456,0.008792160196323836,0.002817680801726779,0.008321254690556681,0.013270339369456012,0.005372491299559523,0.007173909853117967,0.02924852186762128,0.02282728150717332],[0.017491391983094375,0.0255220038848564,0.033166353826552496,0.02288402402894895,0.028914130275509382,0.021508271961991583,0.00017530717507057464,0.008525778780039033,0.006905032274239846,0.011400258398648793,0.004863510209100982,0.015343091825964581,0.006661965762052547,0.018411753370824978,0.024959566710850437,0.02502278256991961,0.014750524961910825,0.019131295711679708,0.0016240261235493697,0.0331096029145415,0.0066449675662235775,0.030528120033834132,0.023808344663991416,0.03303565132691223,0.0031099460517251226,0.028609817441530967,0.027550165643549514,0.016650491513649526,0.0339759982334354,0.028349409410425377,0.019355934412685034,0.007301528370416358,0.023913392544967577,0.016913247006326976,0.021085514136594458,0.03355926556230919,0.023101035926778802,0.007578831270079929,0.010845736115148228,0.026074204414599775,-0.007350458980747003,0.013975494423596234,0.006438290918392743,0.009025977738912526,0.01298244779065806,0.025369793505225873,0.010285878592280752,0.00871654236684866,0.020744565302073525,0.031230021740434145,0.011037322749120993,0.014728586174051955,0.024942345238817,0.023832591289967897,0.030431972055695818,0.0340501006973878,0.021076886667583,0.010227293479370387,0.03566696330526658,0.001418395067193913,0.01770728312415924,0.03328387820461079,0.0005855258666041589,0.011319550705068761,0.03576034155172165,0.05196394673864405,0.029258872117790213,0.04797703032664984,0.02394145490016351,-0.004752212401550928,-0.021866742566188983,-0.02560876844046323,-0.054887434580648424,-0.07140483666032241,-0.03406323625657345,-0.008206918659360948,0.009099790830418734,0.0007821830103039419,-0.00021009864264905139,-0.0016080049240763136,0.004124968681341695,0.018523478010593557,0.02724999312339264,0.01920623782079134,0.017265427079790587,0.027510252238137085,0.01151958919492312,0.007481450468630753,0.00667590491755501,0.0411200277581739,0.03376206845558101,0.04985150311396385,0.05790026613961066,0.143915250090604,0.2046190446731534,0.36500490899605165,0.2820855705711612,0.136924204473291,-0.003856566423520114,-0.18400345517503558,-0.2239533224048551,-0.027419959007761247,-0.020503857543138604,-0.036305383265402946,-0.0245837371516849,-0.05329904375295635,-0.02072389640181092,0.018441692396231554,0.0037343908450263763,0.0000986595273609797,0.012115768608234965,0.013237101907108409,0.01865688115570386,0.022606948756597186,0.034516781647088046,0.011813847029892889,0.06629821085413766,0.12943325992898133,0.13602856548741973,0.19558078745010496,0.536089660954927,0.4679510325678812,0.3108432969835805,0.2768970697960366,0.41815383040282783,0.3371067312478255,-0.0195261418680636,-0.2685019527320695,-0.5685617265646918,-0.311081352972348,-0.1752966581452037,-0.1030044724360181,-0.06531900352040283,-0.31157909887908913,-0.424670030774815,-0.224323747362748,-0.12635667851838775,-0.016672651334879794,-0.0009076928470429139,0.023533040021720315,0.014223480939130315,0.022678151434862952,0.020763336304915243,0.02363809334528786,0.20037502900390533,0.44014049041137854,0.5935236574095661,0.5599596166850441,0.46028661450996133,0.24870777159481325,-0.044996203242425606,-0.12445652425767238,-0.02412337516281048,-0.06472638617634068,-0.12796190403342975,-0.07729456565776527,-0.2977280080049795,-0.5181337281397216,-0.41468797405944297,-0.07863027972006596,-0.34180903385417666,-0.5978297319896044,-0.7259970876840298,-0.617123368426192,-0.39734719637889865,-0.09485468993448784,0.018763326602096043,0.010205113969600088,0.012839802374174505,0.015994260245964783,0.015624645731417362,0.11503758590696275,0.29030419629694826,0.6060516364930727,0.6932208100152233,0.4502301448961691,0.33182835644894826,0.1912859598250992,-0.1778951169441904,-0.10621501303557877,0.19626975587928447,-0.0782455733249554,-0.13429446516605376,0.10200433151838807,-0.0353736088262745,-0.15407194762220255,0.05639309206346992,-0.4602871331524441,-0.5540325371274054,-0.7179610252498483,-0.8021940372752334,-0.473093038597429,-0.43154512782864635,-0.1257903123608597,0.0020263026116278753,0.042151309535437234,0.028286344062305076,0.03364017148320797,0.03148243258883838,0.16685970416847112,0.4640545803888696,0.48701552040409024,0.3262059273479339,0.08966210270744036,-0.09477933402608577,-0.1651347972979309,-0.4653098992389484,-0.1573886008223889,0.1410238608000998,0.019112358159180748,-0.13742059234870915,-0.19481812052478323,-0.3592020068415166,-0.43685639740581284,-0.5492059720677426,-0.470522606512228,-0.38184289712666664,-0.5016199926767383,-0.5648228211107573,-0.33881395994647057,-0.2503457964532267,-0.1388656320761629,-0.0036737603707241257,0.026495790321013717,0.031451065042372085,0.02341449740590226,0.02210979430487259,0.09570393188906562,0.4758588886019792,0.3956176141187897,0.4123340888241984,0.18987771640968285,-0.19075142976734658,-0.19479204422034374,-0.4722969104653266,-0.38501545378588387,-0.048926049809780374,0.22563848589593022,0.3423857932912544,0.4326295848951694,-0.10708306028187699,-0.05711314495149495,-0.0959534482512551,-0.2740896481352141,-0.19572897017264318,-0.08946155230287384,-0.20706264906737126,-0.367413581772854,-0.15712328525444205,-0.07300492597604079,-0.0011767962724128077,0.023474814986682455,0.022360965592265667,0.02248322334371503,-0.015771234532252064,0.006132077926571296,0.29655566018133067,0.3046139310669839,-0.012684132415609548,-0.22126863586876236,-0.5875218005094811,-0.410492506793357,-0.3631439283116606,-0.5318076803945845,-0.3163458218590653,0.3928365971098517,1.4797673976504302,1.8596215719818263,1.4221130933236101,1.0557947864863164,1.0365012995918514,0.9396211456950364,0.9204449045157203,0.7663055379356117,0.47847434408415307,0.06708034417906447,-0.0017633071128521297,-0.051954123804949154,-0.011809955636442701,0.005021384781688474,0.031186895886986657,0.009920726124530727,0.00940104813376031,0.030136203291138662,0.1362894785152214,-0.04085302182824782,-0.31666859478359993,-0.4703841838037138,-0.6873452704890027,-0.8053387559973146,-0.4784220555540897,-0.5504573493162248,-0.5894463254166684,0.24468339308440962,1.2273347903445373,1.4331807906759064,1.372581980330309,1.5687355088729733,1.677967566336092,1.4919445524985622,1.3073547498543654,1.2447652004812975,0.8498282618994386,0.36063260168702177,0.11212239363802583,0.012124281002644023,0.014306394078786805,0.026848455340689623,0.023831677398633344,0.010726309393070057,0.00945034904405693,0.06291736332128361,0.04754895401621914,-0.009173172810286526,-0.445692985455072,-0.34024042973867885,-0.13880699107520258,-0.24639934826925522,-0.510142322565451,-0.19593719334172086,-0.16241719352190645,-0.27759743087338956,0.0576903479409222,0.4498663739997364,0.38438269422296745,0.4393646456232883,0.597329916081883,0.7571564764692752,1.0325361458190594,1.2466720984002473,0.9567423465428279,0.3106775714463382,0.11741369999726256,0.03190965528252899,0.01794214987422856,0.016637180621134003,0.02027049838143609,0.02209951715632477,0.032852808628541695,0.01678820919261411,0.026935661448626406,0.03644549417211924,-0.3832925734130172,-0.1743559000096229,-0.0753588668103097,0.14522756529608785,-0.10908144084783025,-0.24335619770559272,-0.3729728474937138,-0.5551559440694475,0.3886333057678217,0.5793130755689415,0.45971584944939514,0.29631438086658074,0.0977405472599444,0.3503280992185903,0.3927169175723988,0.7821028109995422,0.6059993423140055,0.07764908969448049,-0.0058073523181464285,0.03815827065227413,0.03922545310060185,0.02042058080583276,0.028169866845607745,0.0344438247791321,0.0038955695582980868,0.013540727644803087,-0.011899859355152734,-0.13047566886682554,-0.23333218975415748,-0.23962057516279012,0.17945521853821844,0.20764328481871683,-0.09063220753061318,-0.3104786427404029,-0.22653694236065283,-0.02477894292817619,0.5827603742053707,0.7589363631164986,0.6984009584657019,0.3809063541407557,0.4225030046181839,0.08565895605546966,0.21359766644397957,0.28195072549484124,0.06169182252925154,-0.12199251985303047,-0.07964740838239438,0.044825913530156546,0.023131152838282775,0.029266937135863806,0.01744429115444406,0.034979414718544724,-0.0031502686423849286,0.0182613718542514,0.0637965096303996,-0.10975244206633686,-0.20367347897263915,-0.038576395686590485,0.060381083582714185,-0.041784985630658834,-0.27288827238787333,-0.13512940582255678,0.003113249414459459,0.21797494796162611,0.5674146754862668,0.5287804234386428,0.6736276505708488,0.7152330771521614,0.6608516563486553,0.7234220156589056,0.12536313630001425,0.0029420808238839716,-0.2577941850903282,-0.2419738890163446,-0.134805743097461,0.06569628341032797,0.04877435012436,0.012053329701508863,0.015539678324102604,0.022059941781178805,0.013902038230556246,0.0032740121890384643,0.05497042410443969,-0.02690006325277772,0.1360556604301896,0.25588911999455266,0.20434278669811937,0.1516575658553953,-0.05565326504786872,0.07738617361178092,-0.17165788990259634,0.34666881432324353,0.49401781059651567,0.7342871351613485,0.6448305022933003,0.5245357155914382,0.40236850309843925,0.3786391800153618,0.016389342489431396,-0.23809756395198087,-0.18448164113690524,-0.1664895798600047,-0.15970868469559826,0.054140554195551124,0.05412811121616023,0.005999564201024133,0.0034868723860750645,0.012612420541285497,0.03635897033461673,-0.029729005240530886,0.005944847718498102,0.0642416480379768,0.18767919848684347,0.40966989948414545,0.48245379354461343,0.4473446414684529,0.2299655311720298,0.2603385023194507,0.1871380536839362,0.3357302710788403,0.5461289152636845,0.5916730440237133,0.43885400787112705,0.1673187613119597,0.000613703415971448,0.06260770562019186,-0.07691853687907968,-0.3377700806425884,-0.16427108604982965,-0.16550865138593443,-0.09587396962829864,0.0564162132684621,0.048916796329386454,0.014477772908111435,0.013026719931374562,0.014311669304246218,0.03282713637939355,0.04806461173874325,-0.016732224802971814,-0.0640271890460078,-0.16625202555636334,0.16740577921407476,0.4116776263641246,0.5897248837166219,0.5147376296052163,0.6663637283590463,0.6711234958918084,0.8610386394127956,0.6624637740607523,0.38611148301149945,0.4848209942145955,-0.013451834648183772,-0.4719377512458353,-0.14133615464338284,-0.26679421350107246,-0.07520851530445218,-0.12114613308209854,-0.08099575177505418,-0.07728468233959118,0.02540361899510936,0.020985214277877032,0.014317608727613385,0.034583962990987344,0.009778875040163703,0.04668127453889113,0.12334360400750653,-0.059806022790059636,-0.05638420793879779,-0.10063923479452297,-0.14260501123610855,0.32973731446846927,0.47753882132730224,0.7229868442303754,0.7798402567369757,0.8937240356758485,0.9831280536382514,0.7974651890226816,0.3596379924355478,0.0013881836937384014,-0.20760815930214913,-0.3343267162583973,-0.015846117736459886,-0.1872048009239483,0.1526813479869538,-0.0866703913167771,-0.11477793331667922,-0.12588647386636068,0.04201687621801839,0.038938865065784874,0.010473372908939002,0.02122113743726556,0.0022683375504349676,0.03350668138024615,0.1367975853162169,-0.03719526618461373,-0.008959556654807136,-0.15586056688609556,-0.021677999064427876,-0.09227176334357226,0.127393350914917,0.48323855305880814,0.14914527214146492,0.14024879432121642,0.39039192181908855,0.0507974625668742,-0.15443961237119874,-0.3749319619770391,-0.12136355527348015,0.10121563821106723,0.12175406354109593,-0.04341841933340061,0.1243282477604702,-0.18342824234850724,-0.2727639581078749,-0.13980234202135947,0.035395068735833285,0.018249430445223404,0.035183580095150734,0.0229690434687121,0.012541381352029549,0.053859358301381284,0.10155141592157281,-0.07925309149113109,-0.05642980292523698,0.19346825480604204,0.16783198887992248,-0.055392497992565154,0.12080858515543381,0.17759030204196227,-0.44056806400650045,-0.290292625135988,-0.11029079744203148,0.1932228308566298,0.030646339050211344,-0.13086600423205533,-0.24451524894787288,0.1048248230717226,-0.08548214332513682,0.02554755255127123,0.2345922664823276,-0.35126187847594503,-0.20113046109579372,-0.0874015768796271,0.022796403983451372,0.0253709879208788,0.00006986081884774774,0.029299504538945458,0.014613797357936284,0.02208380135483867,0.0782663079599285,-0.059502098834678024,-0.18902470403929234,0.07547237047672596,0.05048436222144828,-0.26481551393790087,-0.21518266511998382,-0.30994418256976686,-0.2585219862693121,-0.23595156208501247,-0.24714858438978815,-0.27628899538890717,-0.252431455288326,-0.22586136638385296,-0.042768976540030486,-0.1196262245602675,-0.018880208430311532,0.02532531471890046,-0.3614785281600552,-0.3609243178747282,-0.06513562706623749,0.0055444710456776305,0.02159894190971279,0.0210679351989098,0.0035116595750147184,0.009678023074351626,0.02953093521294114,0.028904793022310523,0.10821163439741906,0.12901632996298637,-0.01779681597638679,0.1783727504914334,0.12764151455767048,-0.018183456318064558,-0.3120933572923765,-0.0060887336310112795,-0.25318255242300464,-0.16452380822836765,-0.31621306375715535,-0.4287422030343635,-0.20089147909344962,-0.1710227476600068,-0.13663960906656566,-0.29461162228446997,-0.2142267479543392,-0.08796519730313264,-0.4119620098526652,-0.268397810616792,-0.01775058128793826,0.05863576181358745,0.021921623324143335,0.005830872464810713,0.020178145367897443,0.024177785795102054,0.01747364340980336,0.009245549686598482,0.03609556722301009,0.06428887276792612,-0.023653947896390665,-0.048409245836469425,-0.09814793065280436,-0.1752741023803183,-0.1470736776894844,-0.08339023076023495,0.013145633226002585,-0.027549390596853237,0.1333054278937181,0.016246051542629494,0.004787128557513172,-0.1051614168999147,-0.05399664034924153,-0.08160504754923792,-0.07475214023779368,-0.04828900991792844,-0.16223829147553176,-0.16891188383531927,-0.05958153259425018,0.05595391620746436,0.02045363527376262,0.03191080441389238,0.011383689798050909,0.0026892578582700744,0.004303405793576425,0.03057278473486999,0.014034167848237192,0.0849488683092575,0.07581708820225459,0.08615040595023803,0.09158948723973799,0.09067017781874992,-0.09986940096282595,-0.13847644605260984,-0.07650033323510945,-0.4210048057151963,-0.3797757205720429,-0.04814031862833852,-0.16175118786881007,0.101425325876114,-0.004911776981674688,-0.22982734301032445,-0.021360261433520787,0.006250029272388942,-0.10647965699069785,-0.14717707226499585,-0.036375265542247466,0.022529397599198135,0.012334810361113066,0.024475887964096773,0.03302599059127289,0.020321185339775696,0.01279061671380933,0.030897562321368473,0.021262686283160106,0.027464846375340163,0.07887546787450456,0.06087931149110584,-0.018490076354143244,0.033669323814100136,0.14115973526341327,0.1964725657747444,0.045754704377600056,0.025916098653432026,0.023150148674765492,-0.00763339175771208,-0.2469208689311415,-0.01070509079740986,0.011312911451279167,-0.11946340367235482,-0.07892213163591812,0.0220634383265497,-0.11998791712148772,-0.10961557751433897,-0.039761405696871706,-0.005227978233028621,0.019905675085434445,0.022629029426623957,0.02770783610075635,0.0033137136318907657,0.028705980572564935,0.025529348108382113,0.0014619570728729688,0.01695459058676781,0.03464919097756584,0.02802543160723185,0.005626549139906179,0.027606571909081827,0.09115058971839912,0.08465827081130854,0.02965170839268243,0.010021679250997393,0.011685626399105396,-0.0029342783349005494,0.03014533811764654,0.06448027332625918,0.07000325944050927,0.0004269690847740388,-0.05188781229016901,-0.027034928588699967,-0.033907301918849365,-0.011692887131971688,0.02820673448331633,0.014425822289151704,0.025739282250832926,0.011549300591314768,0.002444722728549826,0.023846353431315033,0.035332778837437115,0.03223621713422575,0.030682584033626694,0.028455270833061756,0.02387366684927966,0.016546149746492666,0.012127934222942754,0.03017036241038859,0.031131657112607822,0.01994748835093769,0.01479835908383537,0.029367696955149025,0.02323032793876525,0.010174755150741205,0.015255378029727908,0.007810455945591978,0.010593388102195078,0.050083823527893596,0.02617874770490951,0.016054861761240824,0.008233064336571736,0.030467816221193267,0.005512541987318893,0.00957330940110211,0.022006243387556444,0.02155425831336865,0.01960388058334313],[0.024773200301781723,0.03191862724092973,0.03281402904601068,0.0282820836586058,0.002404626736622863,0.008580394721459297,0.03436495089190833,0.007036221774732644,0.008388391431696673,0.005146027321010461,0.00472071436039346,0.008995840680329239,0.017841040467062044,0.003735463956640285,0.034433722851827664,0.013374378340427382,0.021746278655917828,0.0313461812172701,0.007073050263232453,0.008999520422239457,0.003912940326006563,0.020012905887568395,0.011528972035070386,0.0019732238052191137,0.03385518993799843,0.01014217608325903,0.03384594101263254,0.034912996000885425,0.022197300165320757,0.007159089770236533,0.03134154975613238,0.012002304296091781,0.028539559586955806,0.00018829077334363558,0.025923059269238807,0.03494356401835087,0.009782102882013368,0.027866944607339537,0.014043365663103187,0.021288279593482607,0.008735719448150651,0.0015049975345918566,-0.012409820667013072,-0.04480024097405979,0.0022496411568532063,0.024892173073022234,0.0019375653051214089,0.009432401739594214,0.03462921430684562,0.03434761058027301,0.0005344080078158299,0.03336947850658302,0.019572204263801057,0.0036484406210199488,0.013238263059314843,0.035152770566064466,0.028255140934169302,0.00848053205691081,0.006096868936963695,0.029261790560375454,0.03368157426628087,0.014928369516456036,0.014715915001663755,0.012086749574256778,0.015730276552752664,0.028422652391124046,0.031671057333237385,0.022404404021289275,0.030047442525627095,0.013350393203865206,-0.03476847747270088,-0.11046071707495261,-0.07049994686495803,0.0452640139391055,0.05690326502526388,0.06387778258514748,0.06279330055530112,0.023310707615010393,0.03151186694628331,0.013689290111206035,0.030614177868369705,0.0011649838451220308,0.004019902488314575,0.022304911779599177,0.018672628177037482,0.003961077864089645,0.021879505629902537,0.023175927074221357,0.00004448878398300928,0.01406470118467952,0.02600310667348565,0.059021923925317056,0.05388776316044311,0.08750802561920316,0.14904948516395786,0.2088472339843838,0.15844948338083462,0.0750357184509394,0.06333009891439353,-0.05623422202521954,0.06099811847727293,0.10768482199845099,0.09832981956569024,0.09535428155674859,0.11035209542069827,0.021830659061211972,-0.015125276594341363,0.04377171502540561,0.018328107014226425,0.013785035645792332,0.021602140566382634,0.0355306503268046,0.013706576905822736,0.006078572659071549,-0.0030668014482943956,-0.0014018793694750198,0.033531442581759274,0.04557411585854422,0.03174442430186623,0.06655712200366526,0.10632136828704694,0.17793487592138132,0.060589638203817284,0.16249630878088944,0.09932527041385664,0.005213045106792425,-0.05054014185458633,-0.23512642067305822,-0.17445221857723658,0.10272804122916147,0.08783738937909003,-0.09515885347914471,-0.006419721718742302,0.017757618719186276,-0.020097690996199503,0.03847281443386349,0.09469841175858643,0.04186114969301807,0.029858012653426972,0.023263929261486377,0.024381891189591092,0.021300842620259712,0.019907200137544566,0.013929910854946749,0.01925896045828482,0.054553329760398665,0.05641297463129565,0.07894209967083884,0.24883128797335113,0.29706139308598545,0.20549208247881737,0.08580331743331758,0.07572619665834877,0.10687341683614723,-0.09583257524029515,-0.3243794703875884,-0.31653137699785966,0.05325541500162363,-0.024360567474510854,-0.10281541699928716,-0.0022341367280529403,-0.0002049038664146262,0.015032039783408462,0.101009388328385,0.138739246019583,0.12128412565024708,0.04384267706985361,0.011676820128112025,0.013361755532212003,0.012795181761153188,0.02988866312990003,0.010508471656730892,0.03721533633655273,0.0869335963275118,0.16346875418401158,0.23852974377590322,0.3108949795354354,0.3318539615636557,0.12531978542059458,-0.09083510686758432,0.05046489519699869,0.1341504332038738,0.02834998656312903,0.11024479240766032,-0.017872003589077187,0.11406838739015748,0.038832004514882036,-0.0626214945676004,-0.035988667346259315,0.15176827496151343,0.25863935514719477,0.18697005807897005,0.21832313261227335,