{"layer1":{"weights":[[0.021108906143342893,0.030974190155496906,0.022042814497352063,0.023450293313286543,0.004687769464114422,0.02669479682689598,0.0071228984378214665,0.020789981309476735,0.018548817024449,0.025455992794055065,0.0004264550274949589,0.009150790132667215,0.019505042134133694,0.008385970775291888,0.033109808796438704,0.012076720450306265,0.027877609579788624,0.02904709856734449,0.011283058257796947,0.02118405738068429,0.013729949703350872,0.020172461421071375,0.02468480918174223,0.016170277451559793,0.012459868205029803,0.031404004760584324,0.026197535711195003,0.008499436716487983,0.008675684770653122,0.010264236136049844,0.0025727042030942054,0.005368703138087715,0.024216066939890986,0.032201517593518296,0.010277143595115905,0.008532962514829228,0.021005727467756495,0.0012949547167095197,0.007446654668580827,0.023494872875594215,0.02457878047141827,0.0338804670163303,0.018233033028569354,0.012600878683648344,0.018845943802894973,0.007128335245779541,0.01990343569564101,0.014214651707504704,0.01508088422129783,0.021834065164503796,0.0010345151106675601,0.0039640985613246015,0.0333667352957405,0.01767644096474449,0.014293721609716006,0.012024850966083396,0.032624427123057874,0.028686750984471234,0.013652010781430237,0.0319824409894043,0.012068398170892699,0.014480188840824084,0.003306395099978285,0.028261491303229688,0.010592648446652284,0.012394498669322155,0.025315981086293918,-0.0019636882448383283,-0.00436305242845433,-0.006356754773229835,0.013680728061124714,0.020287247142615154,0.0346535144955162,0.015185982869391643,0.019763859585117855,0.030832633898119625,0.014026788937841237,0.01637160038568878,0.03423492469886563,0.0008154448637011458,0.026255908323394694,0.014989046052763876,0.012558756278797656,0.02830875339240895,0.017761647430959124,0.031397105672218595,0.005391262179379374,0.007109733316149178,0.027910835189845856,0.027669140910227173,0.029231610936124697,0.03296090788930342,0.02375680792471778,-0.03488108422260992,-0.03823935136663824,-0.04342325661458583,-0.03637916274631531,-0.013643065230755641,0.0020290734655195055,-0.050971575729947455,-0.019254096373500257,0.020622112743235246,0.016008250786196505,0.03420047531491742,0.029968556407704534,0.026755959087097544,0.03366236746141971,0.027329429405901554,0.010125318616120297,0.015092403381615271,0.008234403488168054,0.018134222894410683,0.014441408707432666,0.032810292295525796,0.026874822399372923,0.017707519457984947,0.015563303708481465,0.011855397607823073,0.0005067103518540792,0.003904630345441261,0.01412984430422565,-0.07675172812916141,-0.07747215336811016,-0.04337210206075577,-0.09344463999096413,-0.07221894232612142,-0.09462187042489226,-0.03726063352163051,-0.01809265244268972,0.0035604518421380907,0.03087526072164243,0.008046989933179108,0.01785930551358136,0.01444864068485815,0.02324780412131686,0.03771081671033738,0.011253771171380853,0.006261842672048919,0.034262272899298014,0.027145786360980393,0.0344221581596661,0.015507005605104485,0.018156038384058715,0.03294024820599537,0.0016273105744992486,0.008360283220136381,0.005327736655668612,-0.025521536240880348,-0.01071935423054968,-0.0394547203029337,-0.036193848493624635,-0.01484026547791181,-0.05812740485294766,-0.04260479059880798,-0.008189326884918937,-0.05147383428971191,-0.10237924684994958,-0.033456922835352586,-0.002364490652096003,-0.026280596492851003,-0.038812027163482005,-0.020499732316351073,0.014255267798565452,0.03591842905323127,0.00968830667220632,0.01868834040373825,0.0016221350353724509,0.028412739201595847,0.012651803679220577,0.02040343630775638,0.013878946306218614,0.01851677192505597,0.01616871649711753,-0.021606992719847222,-0.01322408633892425,-0.021257028491241392,-0.023104956488134525,-0.05426476929464223,-0.0650525684098208,-0.018774500479573793,-0.03566844501753684,0.007991511797362976,-0.002013912026885567,-0.04597791433946277,-0.008439392348219618,-0.04473393673617877,-0.0361920153170462,0.03654444785264488,-0.009743453477607111,0.014857747598045755,0.0629986431971549,0.04365117384401482,0.013878938158489666,0.006501631851452206,0.024453058537318665,0.02985128871727649,0.016146417328506406,0.016804192189066442,0.03325756257007871,0.013292012565560217,-0.0022956126801701704,-0.015409746496974915,-0.009911728977033088,-0.01551233111171786,-0.03408044249187686,-0.07832272725572742,-0.024774254524431716,-0.02915636685456643,-0.03245943340676543,0.03177801828680295,-0.006044128231918761,0.018934232607031403,0.025267990316378237,0.07577385270046556,0.03941584657162343,0.026395321290044144,-0.004229554307049697,0.03014253505523606,0.048298842340312884,0.1129876394946651,0.07050669617623867,0.015560519680910507,0.03374660634252119,0.017291986186126377,0.016617828294780465,0.0004301064899806808,0.02842835223789835,0.001002905639576712,-0.00917599596053319,-0.006589527399630583,-0.0019290302597200994,-0.0042044637371761884,-0.01903222947655245,0.018029536870808834,-0.02533744225246196,-0.07386813096518233,-0.0007628526759127303,-0.027726765875732796,-0.04037630483363117,-0.009930372265662556,0.07919942206257252,0.11052931898693459,0.04604911681878221,0.014440911206916311,-0.013332805437643473,0.01877058829689403,0.057499400729145604,0.06634604787819981,0.05044393748451983,0.0389398790183112,0.00936816806409301,0.0006352396391676571,0.021824384836092843,0.02728980393327467,0.011090041628361032,0.01582610143165528,0.022180421418970656,0.02368620577107987,0.04956621905296861,0.006569795735398321,0.03539866519961147,0.05148558496934946,0.010319642262253683,-0.026095846548258084,0.05647803123550625,0.041602819851103486,-0.03539358184507306,-0.04962653788426722,0.023516736573132423,0.08605828537505879,0.01977153356014143,-0.04835172320034018,0.029578577687153135,0.024391928138658932,0.0413716370894066,0.09794404433424393,0.07795059743348944,0.03592299054641908,0.009503736564635091,0.012307447497036026,0.004804028889283329,0.03173573525799371,0.02064868764379216,0.011879344319373038,-0.0039657736599095095,0.023387781540062262,0.04029180558904881,0.03805992996820036,0.026628754377032677,0.07033470374145408,0.04413977292232487,0.03565651045499124,0.05584001016173192,0.0533722932549215,0.0012316082024209204,-0.026959952794566276,0.024631586869390383,0.03464126108385742,0.042411703538048476,0.007598478598408235,0.060195609035061604,0.04455680799468858,0.08979520001701707,0.09391534818264964,0.07321210593409876,0.019463520464897813,0.023431234369149113,0.01295132344120847,0.03110788609965567,0.028154749657418786,0.007311113909372653,0.001183128224516649,-0.014542841744078485,0.04501185847250482,0.07147466438391815,0.09522666555127986,0.06681610794189378,0.08395326666969487,0.0717254789073877,0.09947299842246576,0.10347527406401397,0.04286120808666409,-0.09403034752734878,-0.14916980466467036,-0.0029691503681503893,0.108366167255401,0.05805657696620799,0.07665008267414437,0.09179268503891341,0.03589513486425836,0.06715689261511662,0.07381149907825955,0.06335205429275068,0.005543873823175204,0.02732584459844395,0.0029450736431365695,0.02195930998581527,0.035214576837387455,0.03275775396132071,0.015253822935272254,0.029941919090794942,0.09530267846230692,0.13392427515743266,0.1097085598681593,0.1269913808135024,0.16421629365943755,0.0945025800756587,0.14836351074756388,0.1309000119880641,-0.04449938604366887,-0.2273647089997513,-0.24396527227179962,-0.0595694329546738,0.1064918438661473,0.09321398609504063,0.13245583919667445,0.06934804992033186,0.052487304339558095,0.05828528360958856,0.10011728891623307,0.05542730051339747,0.03857341365038869,0.015396718191549048,0.01269176375710522,0.00044897702805745543,0.0274070519547869,0.013871382891034276,0.027930255762436264,0.06497634964821118,0.09942260739825083,0.1285543133540558,0.12347832702372884,0.1194358746208628,0.1359122477007839,0.11994154200033348,0.1343190179602086,0.01561324856188021,-0.16967071080577073,-0.31008721019082336,-0.27915148739038004,-0.12694349421160536,0.03561826714823898,0.0941762588706954,0.11547419795739385,0.06399483919815963,0.08549768208903841,0.10796378889871515,0.11525966993878506,0.008432794800539746,0.03641409712821229,0.03489212310974663,0.03111545137188246,0.009889353134127143,0.026852805174739442,0.024491905997200254,0.020323160382246696,0.04801094903270332,0.0998377494396933,0.09419482575930012,0.08981963277890315,0.1302516618439015,0.14581202619531528,0.09576163403431258,0.1204837458563339,-0.006909499811316727,-0.22052366038949253,-0.36255622668239507,-0.32838419629236887,-0.19699942543011084,0.0026410879974008445,0.0863454084064599,0.09537052260138955,0.09029763849167778,0.11043553508408392,0.15291101313431946,0.145135936863009,0.05256472277264193,0.019365249315146334,0.006124456100581335,0.02230987966269286,0.0021090839185597004,0.027517844158754086,0.008185283303094862,-0.00360277022488959,0.02638763050017819,0.046594831913874736,0.038137574880520206,0.08420485207951495,0.15441621371112804,0.09363955509373535,0.08984309141944921,0.08809822380558287,-0.020131197708847724,-0.2682442198090408,-0.3710037763713923,-0.34220357742699337,-0.12013642570781914,0.029739127804176688,0.06480272363232042,0.06143067776246627,0.08844037136281488,0.04333660781548023,0.09779881242581584,0.08999259606372588,0.0011906922700687722,-0.023173195876173787,0.016039353128689683,0.032793044370694344,0.01775056720525215,0.03138476859748594,0.031450200047760814,0.019015554723651205,0.009623320135936026,0.028834877825155977,0.012298349509097164,0.07842012245925431,0.10968538472294725,0.05908668870859722,0.07175188473567558,0.0774017469313516,-0.09762716893026857,-0.3107588634182265,-0.36084937537048584,-0.2841427283596512,-0.15699587117603003,-0.01400619781828643,0.007414899058314779,0.040812043745249,0.08209435244099944,-0.010260721374488822,0.04911873411887237,0.060664444965791896,-0.0365075914969142,-0.07273547827438077,-0.03189718081143593,0.027026376847580164,0.03349808381115499,0.020830398166683944,0.009976974795367667,0.00002386276246336694,-0.009971745458762156,-0.000873041605925471,-0.03327023678458712,0.0646665530844491,0.06413245375859122,0.06772696059719535,0.07792826930243377,0.055953909089914676,-0.08770601118467646,-0.23321859555121333,-0.2747349356853583,-0.1987009171259803,-0.06139509542800576,0.011968575006114014,0.019456019157680467,0.01450440252680763,0.055342170884962225,-0.04829213284447443,0.009703429819694173,-0.00012087914114672099,-0.04235309664381832,-0.06536981062853116,0.005742283650444418,0.009662426878085946,0.007909806045959818,0.003213393180739793,0.015386487264995984,-0.01809378631663045,0.009836050695109795,-0.02546991027381217,-0.05906076189402627,0.03600582969520971,0.030074763041955443,0.040117336384070036,0.03361891327036477,0.011021637169739933,-0.06120231348176722,-0.17153824374086768,-0.17711045939906886,-0.09271428587273592,-0.03634670952658158,-0.012004765522806563,0.007079420731547887,0.003409444448100169,-0.04351034638927155,-0.03323595455123011,0.012929695067066826,-0.011184270382551159,-0.040396725017078014,-0.0482122913451664,0.003947487359718396,0.025932496233330517,0.005885105104968701,0.03381531399216265,0.03463364835714567,-0.006215730459942169,-0.01719957358608343,-0.024150086895973255,-0.0390134389071371,-0.03700091285287575,-0.007445725641631757,-0.03511134969562108,-0.008250915729513064,0.014733198574573718,0.02527110516115581,-0.0805972395834804,-0.11356760920952737,-0.06643660969835961,-0.06447329899612543,0.029699512736396195,-0.0008466288205712137,-0.03670429117559412,-0.03871942940965224,-0.0549165727953783,-0.006743568505911569,-0.055008014103142384,-0.0033375594315506216,-0.007392531409916498,0.00858659796802176,0.01211716743676806,0.0030156459519441697,0.040696215575565,0.033840884895480094,-0.018053752423168715,-0.015042712472608757,-0.023934143316251617,-0.0808566128334648,-0.08045917879357539,-0.038108236442277295,-0.02356029135993486,0.02967617927582241,0.045291084350214734,0.017204537714011845,0.0006972387278312806,-0.05812020958307805,-0.05509939933019682,-0.037753384645330255,0.023596886600875045,-0.024562775985676688,-0.09236436371672777,-0.045843009177179414,-0.041673491382341464,-0.054739740589328074,-0.030317818786696434,-0.024348271843800864,0.001993814810689319,0.03037552916261807,0.024699956203784866,0.028981359181767398,0.021245751896744137,-0.0011767675523530075,0.016989614884565282,-0.032316354911820125,-0.05569319280489565,-0.0728013149170738,-0.07311941932876542,-0.06177647946741271,0.002304950356276057,0.050424722228693354,0.04624686798018489,0.044738177977381735,0.03450950006434878,-0.023972728779116277,-0.008611677343080408,-0.022829184126849165,-0.055693200564706453,-0.08546378973731363,-0.03438734097388397,-0.06806941563192803,-0.04897580254141397,-0.06835226087425966,-0.02267633459745563,-0.036477288910320246,0.029740379953856016,0.017698121562074762,0.01352278706103453,0.026165016259171132,0.019846746677674637,0.002387562887391908,0.000525820352402475,-0.03799741172855291,-0.0681500442774267,-0.0578196421408646,-0.05913073601001179,-0.051012764910502176,0.009191337392013757,0.017221673699540606,0.063298539012872,0.0832989906842036,0.13972136313905656,0.08764887766834252,0.01899414000020386,-0.04644281448503485,-0.09361325099509041,-0.0919562333175553,-0.033950774486614,-0.06033086616348585,-0.047015352510689314,-0.029691504845057278,-0.02637691118095667,0.012740313241003028,0.0352651398924867,0.0015511758288361925,0.023999430870507037,0.00718347755334618,0.013171927223084325,0.017074326309867348,0.017513637727822672,-0.030716009071373347,-0.047876749314893156,-0.03166866414499051,-0.04022580921840099,-0.017517241387324967,-0.017554888752002028,0.005349099321368472,0.08203161809112906,0.13451313636973425,0.12475377097535859,0.07287237654137137,0.03824515486682103,-0.02187447861121119,-0.015494667134137965,-0.019668287205611985,-0.03135917010916926,-0.03637517086401322,-0.03173020286124682,-0.01152947111552826,-0.01754454541405348,-0.0032513420014152424,0.03179156978308218,0.010737760296519669,0.02156413529898537,0.01531033291322026,0.028948908283888224,0.024538989808369112,0.024403549788733533,0.005625077733488968,0.006654136412516025,-0.0015886554911226237,0.014875946580919135,-0.002408703573254806,0.01556895184018774,0.028920274351048807,0.006687579657379989,0.047420545263290634,0.07048537709273363,0.06762249569288419,0.05470589644483348,0.04661913812703133,0.027859182922036534,0.00819702464719852,-0.001605863961964961,-0.025852359786172122,-0.02084924320723794,-0.004397301944798302,0.006801919505842564,0.03293866207861108,0.026730957003292772,0.0027306492230024138,0.020627567833264755,0.010947086152653425,0.020761418713264763,0.0037359286695348637,0.016581509674803565,0.02126372831279408,0.02533333097789952,0.0051874976004552,0.027029839546796438,0.024905481211626532,0.021309750080870618,0.030660762602587717,0.007988500476825141,0.010214571709810891,0.006549194000097747,0.022565984894769794,0.0323493449379177,0.012151130730428695,0.019789058778384935,0.026238083843256165,0.005284370940996195,0.03462760227521987,0.0018739046721053046,0.0003471981723154669,0.03544677748099316,0.006531751810123087,0.024248861232199874,0.032687423758478704,0.017885015608731125,0.007943325060334834,0.033907448803224126,0.023448788226798047,0.016887618529446535,0.0015642296087350984,0.0014756554847704742,0.029630745457661794,0.00761521674802923,0.03285277331427065,0.008667396178303168,0.031891959235991,0.012066399167925797,0.0109073859695476,0.028519910708310368,0.0030990814343882095,-0.00006047983801364996,0.020438485576136076,0.007374549393023645,0.01955251242422253,0.011803486191150942,0.027105004043729983,0.020560835183824448,0.026105965521449687,0.014429992051246359,0.019134476072526458,0.02766000865377381,0.021710752725538542,0.007809602424828675,0.006106561974907133,0.02054353935602466,0.02978766145788943,0.03083101171446136,0.031191710231899143,0.02796672409522382,0.010746693420153386,0.002085236758522513,0.030256133445112965,0.020372962381297138,0.011472016985840747,0.009389888021057526,0.034063927817426266,0.024815388169192074,0.02990894052299962,0.011113456985327999,0.014845928769725696,0.032082330971104,0.012176291632183003,0.019141053440203806,0.008479143404741532,0.009867799922537866,0.016384652933080716,0.01692404189747332,0.027914616747674766,0.01464880298335106,0.034201900146249846,0.0008127885268918485],[0.015951141759597443,0.01662195155640282,0.03513063701003317,0.016463752220053578,0.026172826171139252,0.03253740133175325,0.01824498523161337,0.01752306771070017,0.023276522115707195,0.013345814258798858,0.012478124350325184,0.02042723800832343,0.007078386523134723,0.006448485474882112,0.003482211193183123,0.027378920474483308,0.02419373156650687,0.026891966648241426,0.0013815692144629346,0.01893401702427246,0.015666693417051198,0.03075450305434627,0.0028905260596869342,0.017907986826411766,0.009322642585060159,0.02514319957895759,0.002272516067058361,0.013936982749313733,0.003539883314643317,0.03547512003055508,0.034506070032619636,0.024024506318509053,0.03552089269000032,0.03214274434647838,0.006182607606985723,0.03324279337516068,0.022430788352804973,0.020021454696787653,0.022723028404896282,0.009706431696102621,0.0006551068813392456,0.005510679123395058,0.007790623371477406,-0.03805677182294438,0.02711764168739548,0.02413549397579268,0.02252116846575117,0.017664613433194427,0.01376443181099304,0.016154029464539903,0.016570327132396152,0.008168706928297464,0.030679581813821164,0.029570393040914182,0.006279047663720917,0.009380790767367975,0.0036989725317234023,0.02333721516812118,0.0031321119869088094,0.006232342461823109,0.001156568581015318,0.006416504416123315,0.012817865606946154,0.01734680823640877,0.014171314743376554,0.052120608687362575,0.04101037977733867,0.022327518610862723,0.019786879456246766,0.0196411643435947,0.03496810527732823,-0.023435928306388208,0.02571839994062707,0.047758894020036476,0.04515535221064651,0.0024404074900160736,0.000005593053817124382,0.03401041171690011,0.0010023681606040912,0.015831370927899796,0.006176346410804349,0.02293422411566263,0.016220024588931514,0.006158811639538535,0.02109579873860404,0.017044406937153787,0.011004019873381517,0.00996821690418181,0.0271698971572334,0.0335840559407775,0.03078667015543516,0.034792262447445925,0.051434415305005095,0.03285824718722777,0.05943790668888992,0.12372277005956533,0.12391723285862899,0.0933907001786977,0.08892261734301167,0.004758734219951607,0.031098925320380548,-0.01755383425137731,-0.07454682475940615,-0.03505490068760489,-0.005062850041744182,-0.012100259202067776,0.02395350379726947,0.030968481830281613,0.030084941296154997,0.033422871162261295,0.009776964758248494,0.019735605124806765,0.016049900892686954,0.0019955099035509627,0.031063783401223937,0.0181423714285026,-0.0004034765206225271,0.011399680788985268,-0.0027822748779679947,0.03525971971653141,0.04458405586224023,0.12156624999501993,0.19940964851905144,0.21986665702119995,0.18312327974414352,0.0905286836789347,-0.0011920809597183743,-0.008656155356362895,0.03981595007967189,0.04599495809725647,-0.024560124242379727,-0.05926004011286,-0.03401989890978495,-0.01502610321080667,-0.03055420593398486,-0.013910995546426464,0.01242509288236732,0.02963374095041361,0.007120670014196703,0.0016076050669849376,0.03406466245382805,0.005358367522327585,0.015065633053106896,0.020225506595202405,0.029722935028079895,-0.012635155929045017,-0.006914569456851721,0.0575392224905058,0.1613647560739742,0.23751190605615763,0.30514111525134235,0.2839281600833992,0.16375575429324188,0.06452543452145149,0.054445315624803696,0.05204840655275359,0.16257566151924144,0.09480252634831073,0.005383246239900707,-0.08045192334286509,-0.09032403073838136,-0.10636645011958973,-0.10073964191714557,-0.09401886561433712,-0.03599952434638805,0.00636150554947322,0.006705041135463696,0.024351199451648098,0.016999951019601604,0.006757088657815625,0.036461883589934754,0.027450471539344778,0.025416276003942865,0.018902145915633377,0.045077461267244066,0.10538729695575554,0.12435568810890074,0.15318882778695286,0.16800665872023476,0.1845514186552471,0.15170483613399346,0.1896431697606509,0.10456890547846673,0.06079331916274329,0.09741464085717588,0.028748431912995746,-0.02613504015286402,-0.025662694188845783,-0.09293459887991769,-0.10752962392911873,-0.11675407967454672,-0.08637664485081703,-0.03997350065259367,0.020321566898289397,0.027493232086026626,0.013617574814823901,0.015160091372288322,0.001493143305717513,0.05303117248595767,0.00011478633120588553,0.016755317700147952,0.03295343589276273,0.08695885724357197,0.09062766890613562,0.10349711570056144,0.08716795491183285,0.0016173215687351433,0.09844844979995102,0.10491339538347808,0.15272300683502898,0.03059809206384482,-0.02463392293943843,-0.015818846882930553,0.002759159880341454,0.025174054806564965,-0.004400304352236448,-0.052927665809460483,-0.08371267667051699,-0.07971956441833232,-0.06859439302678637,-0.013620001137903006,0.02453489033798694,0.013657402642008825,0.012989537521085706,0.01492690898943705,0.026512443630148583,0.03227926956467256,0.009307165460056424,0.045252284652589715,0.046267776839208186,0.13344444503087735,0.08050632269374754,0.12225606753372935,0.043853141447095144,-0.03191879492490823,0.020236942620218953,0.04448728128616615,0.025086088369483048,-0.09297590621769794,-0.14629431073502333,-0.03194764457840752,-0.003935814564049141,-0.009153527503938125,-0.0344117287259621,-0.04308044450155273,-0.048819259350435774,-0.05155719577638868,0.00030958760608431897,-0.0043363278422551554,0.027471552941271737,0.020241197676489464,0.008547261076316981,0.017675049917087175,0.017543110133411845,0.03965465829042002,0.004521870015305489,0.04348683972605486,0.07838931657288518,0.1121536961056133,0.1333947086399433,0.1251628207520138,0.07899289339028435,-0.01952012984074013,-0.07568444216839859,-0.036502802415609915,-0.13535121793841576,-0.225452089360955,-0.18732751935174324,-0.047922141202310656,0.015152832342588048,0.03142254528122991,-0.055536484909463585,0.01262664981210372,-0.022469747327390252,-0.012267000069981953,-0.004800421754941488,0.003801087024581446,0.03338048711168393,0.019718526817415163,0.03154335917845729,0.032276202775256994,0.013055088510138086,0.008799663856328408,0.016412756108025794,0.01778427821675037,0.09490954602053778,0.14236654975709384,0.1852542363995124,0.13328119817086514,0.04813359450198623,0.004168429148506824,-0.04482403936705592,-0.1263554050472998,-0.21355707173572558,-0.2175625809283123,-0.17211682454229774,-0.10409043594448801,-0.059903569404208275,0.022536862376451493,-0.01039895984876426,0.050891676539541006,0.04806794022263391,0.05502965050118817,0.04488417720366161,0.0302990585018131,0.017082989175216584,0.006973030235730611,0.031988927714040584,0.00006745031031667776,0.019389828216615407,0.020732387231973678,0.018332387201830013,0.02184567187754102,0.04967975928967404,0.14632274927811104,0.1648815440423191,0.09728340398865554,0.04820172039934089,-0.014845856045963366,-0.10106579458800126,-0.22624591859705248,-0.31857756640769813,-0.2238247595424977,-0.176921984089822,-0.08141129684035721,-0.04255441731213944,-0.012467846681933353,0.064881438293756,0.06421248077575255,0.07507989876248022,0.04525801312123682,0.040188500544666675,0.0347100314322495,0.02123699832636944,0.027803180406557083,0.0031396893802231153,0.013018633400059638,0.03250887944033671,0.014572534702862322,0.025718898446792385,0.021676012787201996,0.032297511740163494,0.05844023573453553,0.08521336921724026,0.10322324517972584,0.04636504032167832,-0.02628837527348925,-0.09686202259818653,-0.29869355737093234,-0.35185342325973495,-0.2987077262377339,-0.24026477911636587,-0.058629749062532,-0.028884800866539915,0.02283979211776876,0.10611598269069855,0.08450036979753545,0.07920348171509135,0.05667093667420123,0.03377838012159799,0.031244139322153967,0.02060487134437879,0.03981421299656143,0.01610132781513613,0.0038979497966308363,0.002748922534841449,0.017249463660398548,0.02694196104411782,0.011207095187333975,0.05397877516117912,0.05228241042839992,0.07397146431888736,0.07447593626113422,0.0502714104400922,0.06647089265809293,-0.03625190291727897,-0.21927694879111445,-0.23244686827799121,-0.31389922583321467,-0.22458137275271164,-0.10327151794414954,-0.03927070297038013,0.05461843849027174,0.09961167061688067,0.07925588344662587,0.06633996176464954,0.0758363971885414,0.05301225422315011,0.06745595983610943,0.06270993849123373,0.06546737480828406,0.035538547879093545,0.03339640156226038,0.027070866374293196,0.02588220273724541,0.03329561813595654,0.017877469291767385,0.04472692351092752,0.048863127625924825,0.05293454573760002,0.09052322118084653,0.1214383061325951,0.14893788011672984,0.04430200920569329,-0.11960757118918451,-0.16943598062317067,-0.30491074185824246,-0.18678408033950114,0.013864329581111542,0.017426792492111456,0.10641437841415147,0.11365406682935138,0.1452102466177091,0.11509782425865618,0.11590625397229404,0.08854771678089167,0.07948348487785449,0.05794359808556645,0.03976026707596273,0.03411075720838949,0.017970836890483097,0.009242054450559756,0.021831653976278446,0.004414806904971667,0.04034019981182651,0.03884902620948403,0.07514983104793352,0.10024629509198439,0.12848740819903948,0.17018096128666205,0.12251585358923826,0.054572726598429905,0.0059263581290129735,-0.13988873317740894,-0.2553477653588996,-0.1976236314049143,-0.009071137018615708,0.10920572481961068,0.16796404502365497,0.1823362768112959,0.16665105451849388,0.10264488852312534,0.07460683770197561,0.060686990231950774,0.04370688740308466,0.02221060320980838,0.018870818927982685,0.03259371685653449,0.025610966587065687,0.017583788863499452,0.006676053953137713,0.03587807000128649,0.019232833563817865,0.0554678538070682,0.0784540966711635,0.14402516610943286,0.18497170917703604,0.20584097455207861,0.18316105021776655,0.14868006321214172,0.12845588442244865,-0.0014658863229738092,-0.10229284139961593,-0.1706291004143015,0.0137312076006154,0.14202105549751345,0.12737570171198492,0.2191149942847787,0.1758192442167326,0.14930272413345314,0.14281197247339308,0.08469406411690217,0.05841861908329619,0.0706374332139774,0.053532015089289904,0.0006691229048821585,0.021666830907672702,0.018437236432965538,0.025283588195065244,0.026150819063034354,0.03156546054467193,0.08140201077904867,0.09737826909537177,0.174812846750047,0.20822790671027494,0.2795670231002616,0.23416804227109583,0.2667424776382171,0.22653915428873161,0.10599533822208969,-0.09788266291606057,-0.18483048387629414,-0.03252942454088767,0.11278868818457896,0.19807769604095854,0.257652076990971,0.21082840463299335,0.19166745556964823,0.1545119005189694,0.12084577251165803,0.06828323658715296,0.07768138099517234,0.037354243921863754,0.012297430077472634,0.030034764152714857,0.018548567919852224,0.018513930544112267,0.03153703588734722,0.03708222423373462,0.10500507605452195,0.10933384767560789,0.1587560491264029,0.17169037252455605,0.1728736755943299,0.22326074227912246,0.22346200472055078,0.18173324265539148,0.18024391745202378,-0.07168423824498815,-0.20629537312203133,-0.022536102641804494,0.07561698658560108,0.06817236818168547,0.1576785988927999,0.18874050404463613,0.1627197701233625,0.17729540498853727,0.16992913069804932,0.10667994033402045,0.019337752793580486,0.035022963227501126,0.027597442821682014,0.010432878176573481,0.01244731925594066,0.0010915563227419176,0.031037873470242137,0.08228205071292737,0.0779206860316575,0.03415985726274626,0.03445016198750865,0.07086866077381067,0.09332360220440383,0.17957810470567706,0.1404924521146724,0.18152756584477028,0.10485673643417184,0.0017006473692930421,-0.05659809604353113,-0.00604134485334865,0.1203771549764068,0.03772583984404516,0.032513374458909484,0.0851238136024246,0.12265070956408458,0.163797772751145,0.144784486212829,0.06103745984725374,0.05309438947413621,0.0011702745384969124,0.024074135043361335,0.002652651674462444,0.007548877021118278,0.02335469776164511,0.03492067202258912,0.06548366868298937,0.015559689770902822,-0.01515934864637463,0.027444462899201574,-0.02025238087082095,0.015401393463224515,0.063429567865826,-0.00032131731093848606,0.03666570608626885,0.09366098738881096,-0.06041934262255001,-0.03375879349064579,-0.013492600481623967,-0.015574370097754387,0.0007482095182746332,0.020866113753359266,0.08493901126577323,0.11963386320668233,0.12781457335471474,0.08262642840677754,0.03630591721212238,0.027540417748711337,0.03291787383408309,0.00047137809354228394,0.029964822923484586,0.024535210688990693,0.02332893132143712,0.017579845266609856,0.024548718365821183,-0.052713280426197134,-0.05899815281091033,-0.0784212967992094,-0.10203768872235851,-0.03642157235142659,-0.07534989556053537,-0.011727144001357262,0.045117556631113304,0.048355569819279375,-0.014095061364056877,-0.013968646000051361,0.016641325270628542,0.044090187226143954,0.019286791783912214,0.07350614191881273,0.04980920355907063,0.07511809072525676,0.11494305625943618,0.09283736048216615,0.0578502046566441,0.020976801622188204,0.02640974464240326,0.02717727199833849,0.011545782592380835,0.01723507712901014,0.016527898116382837,0.04192447649295229,0.012838550275224856,-0.1107317706814488,-0.09815528871947775,-0.08337924058678384,-0.1330329344960949,-0.18140101809615738,-0.06172972737419533,-0.010479131501978165,0.058630485600204944,0.028189021375643657,0.011051127321851376,0.04387341860603419,0.08113737152754459,0.04964612250572074,-0.040766658847784944,-0.01516710972847409,-0.020919073550192957,0.06050727494010215,0.06710839181035008,0.06526515124210874,0.04160521228967624,0.01191321649071493,0.013948495501750044,0.010384695559149271,0.03278437157292446,0.0340153461065197,0.02654349035783216,0.024751939534475555,0.036768593810522304,-0.027094277244552906,-0.04149146751009855,-0.029901133771474568,-0.04764835779578625,-0.053450814469455384,-0.08174942835265742,-0.04621574868317465,-0.08332709823696058,-0.08472361118385478,-0.03690100869388773,0.028760236026607086,0.06695756429652466,0.06088091927501577,0.12134082907560234,0.06530747313307224,0.06306741451968138,0.06160262757509867,0.06085533687234216,0.0494054575300748,0.012054462171673063,0.0024246223497564343,0.006269720578962394,0.0326364459092462,0.0044471785174753364,0.00909467558917358,0.005071037491111675,0.03523206535255629,0.020337973748875086,0.002409041370593525,0.009812130840472619,-0.008441579635647536,0.01705359748805857,-0.02566368360929542,-0.03986341601595976,-0.03460204377643515,-0.03011160964356838,-0.02379871221152035,0.022463548456890643,0.059721584918478836,0.11411215153488938,0.1009660346716782,0.04273855171410307,0.034587404699753195,0.010194719292420646,0.013612691465507856,0.02583509332010014,0.03519585582939052,0.0006322129783045489,0.006342578688489774,0.02800034666283993,0.022826681270712666,0.026137261791060074,0.017175267381519182,0.009090131970798545,0.008857131092181638,0.004283885353050695,0.01133702277731017,0.0035149822711863453,0.03032150200843935,0.00915137682547124,-0.0018435556036335843,0.029705867269123942,0.013284609637360938,0.002360534355826468,0.0032040626990432297,-0.00014227295391428508,0.025223452038373208,0.05466093175628017,0.057053951872232986,0.022754555005155185,0.025439825479987636,0.02788798172168324,0.0028760943287747275,0.024490204630241437,0.006899063649172091,0.009392929580724895,0.023358475810987364,0.03205032474910563,0.02066375459604212,0.006670446772557966,0.0006258519582030989,0.020783721325284586,0.02134705882901308,0.022377387447502912,0.009938795624647096,0.008635903488144097,0.015989176002306753,0.009724336190802993,0.005954960053910219,0.008379681810620185,0.016608117319664512,0.024706406164239962,0.019730454227913013,-0.0013464816415940809,0.020355061401463714,0.00957566779812147,0.028279701178585026,0.0234211476252364,0.033600835355010836,0.01147048396527057,0.017059674630563664,0.03370451438090177,0.01961441137300716,0.018889374321214767,0.012270359628797951,0.02496444065371276,0.003383070184376082,0.007978684468371982,0.014330447912822777,0.02927669693718659,0.006530606747960561,0.023403365045749143,0.009485269413558817,0.009918671153591725,0.012637680636763507,0.008474197258489422,0.0027962856882240822,0.0038292033428093003,0.01819690445120822,0.004865040666038624,0.015229079566340944,0.01524225786589621,0.0011103197070068682,0.022699870302378473,0.011152892950573787,0.009249694363388794,0.004043741172522676,0.001719297357067186,0.02277735600637489,0.005777535802072163,0.020184687646578388,0.0181072363638026,0.005731736849302045,0.005729605074695237,0.02832869458685468],[0.0333784991172072,0.009908856612548209,0.005856975941943002,0.031077988183378178,0.02992297977180757,0.013860993817209835,0.03414001318434161,0.0020252108541830177,0.026554151378157118,0.026826034443142504,0.011840322899047604,0.029227560204580522,0.01761768074014668,0.006464159504973205,0.02556960838629657,0.02140777929606877,0.029858291018484053,0.000401442830310136,0.029494834923346164,0.022306515942233058,0.020144457744532544,0.012119758763886077,0.02280962210698703,0.022056164148858852,0.030665622868800986,0.009238183630296801,0.007722721280028425,0.020943164351300416,0.03198409619386579,0.009289188872330283,0.034330424748883225,0.013574429218892514,0.011137581877623195,0.03147230083748049,0.00032165506932901086,0.02028520005003385,0.024111048960791727,0.011358438597908818,0.03540338440239293,0.010473065029100464,0.03122064527413546,0.02085239751529574,0.006320578053923356,0.019184739371979412,0.039012730982030765,0.02420393314589659,0.010463776400947098,0.005120567183104956,0.0030700456901378175,0.016250402912858064,0.004811998989172862,0.02354095235467694,0.02001007975073479,0.011469800389299376,0.012272249552700256,0.034747502580587085,0.01922016549485048,0.01699906176908933,0.0336047155680741,0.023475145538160228,0.005138865463905207,0.009713056165176736,0.006125952411136456,0.0007877247746102814,0.006587363350666653,-0.008911743379510303,0.021157563066667214,0.016016807264089612,0.01355059247790379,0.008754570037987549,0.016139506426850372,-0.00707962234794635,0.02872025856225765,0.027615986610291462,0.03268444509445647,0.01680612341506374,0.01740807212656719,0.029217799101545275,0.007111914368211604,0.010306713815157317,0.01149429691400371,0.016627258229276413,0.02185910809306615,0.0018487143106729292,0.03566764691367363,0.01872009233127886,0.019363572100727453,0.005689124624766653,0.018055497025641076,0.00400146301406536,0.005654511641788629,0.03012385522469855,0.018020408899579836,-0.05909744785933435,-0.09855411810248096,-0.09345397924009875,-0.09520059197621641,-0.04055911527135462,-0.03697199150074963,-0.0901342971871495,-0.01151408662576379,0.005417432423150903,0.021996482836449553,0.043352253266683946,0.04961581955891307,0.04914631985393543,0.03684348082272265,0.005623253770199275,0.018325836295443355,0.024000152068034297,0.03410054898539371,0.02278992098781097,0.012515600479899414,0.02641067453715554,0.018550919611935807,0.01979495866203838,0.014663347545971863,0.014047325428740758,-0.013178283041668022,-0.007393052351734647,-0.02016583293868753,-0.13368922117441173,-0.14123768166604012,-0.1300432988651078,-0.14024229392326876,-0.1349868466355436,-0.12589553389651356,-0.06814344080046908,-0.04006255663534244,0.030705602589179763,0.04523362408364041,0.042647116127573145,0.0696190358566913,0.05698535495040754,0.06829664966826827,0.035772426368215815,0.02593151222971997,0.03301114685728668,0.015017761842819657,0.013594235242494233,0.023056412108451496,0.00012220131023232033,0.02775020992477727,0.016876842068348708,0.017071241419049362,-0.0019008592648452733,-0.002721261119341333,-0.0530839545183353,-0.07999064833421363,-0.14372529967670716,-0.11003778871154286,-0.07230096765477208,-0.1211776706743613,-0.04395858255935096,-0.02621577081908803,-0.08508579564658249,-0.1667725346927178,-0.06920264371143127,0.025176764734489647,0.005516087682755777,-0.020848100621302636,0.03347253129161653,0.09185372573784269,0.0913688001940763,0.011505508855928733,0.03330403823574722,0.016450181928324568,0.021498791340136363,0.03463373479067309,0.022347542897250734,0.02936977177841694,0.024545442544145157,-0.0007362130073238681,-0.028036752997149684,-0.04836613740451109,-0.07229004911028297,-0.1113329978630462,-0.1620928798045123,-0.13646053426824553,-0.0653709233996379,-0.11626029018132752,-0.013824129301837471,-0.046078777980141115,-0.10244790389693545,-0.06313162834404816,-0.08276912071525527,-0.02756037836979069,0.06964726879115472,0.05572680429010537,0.09070275611301802,0.09199420389728358,0.08591672956312414,0.027128644445322352,0.03149274047122589,0.007489402229108729,0.025916911315191634,0.00623724131719962,0.010470274806608155,0.0287321093372819,0.00504377507431563,-0.003861808535450351,-0.036444730218042926,-0.05066071471489974,-0.07886298092774734,-0.13412067245767187,-0.1561977073258402,-0.08737837954525696,-0.09149730919211062,-0.09379971058057436,-0.012056410974285496,-0.018647531513531018,0.016979325995648963,0.0730382622392792,0.14915822395623393,0.09035384895433694,0.07928334140540114,0.04376813563397321,0.030426152897903975,0.08653355865119873,0.14516301906470377,0.0686819883294993,0.03136869538459653,0.0021514130798036745,0.004025681357397342,0.02282145761655052,0.008008399451936581,0.02216031982534531,0.007874739149471448,-0.007027226340652322,-0.016306322716038185,-0.023918740573661126,-0.03501121962642075,-0.056360381190597435,-0.0018600330292791265,-0.057410640507033144,-0.14596177383468725,-0.009362040418596897,-0.03908578834348992,-0.047717824106551135,-0.00168157863027358,0.20463819067766018,0.23175711056111653,0.1477237887053139,0.05455506753404237,0.03890459990257221,0.05736578865680333,0.076450021121932,0.1026466166571706,0.07592427443721808,0.01437014548616663,0.03142723255253158,0.0008639003700126284,0.009467698179005748,0.012374088886342968,0.03401114992310325,0.00419855764313045,-0.008835532813754043,0.020762755504064957,0.038955013787125896,0.011444026284799711,0.04705234359571249,0.0541419689895028,-0.026050406198903715,-0.0525955004896272,0.08988618564117787,0.09522761989037273,0.05943901932696121,0.003470395102509701,0.10077894438623337,0.15664022430742164,0.09480121527839247,0.022590269941972954,0.07157715216686847,0.035180961284349097,0.030205283956697186,0.10757534008676078,0.06625697576238797,0.019637686963901377,0.01292377269096611,0.0013205760985812562,0.035182036110384965,0.008182305007324623,0.025327305345242232,0.019645005458411097,-0.014635390983378908,0.007023816707836548,0.04582499569436793,0.07891354649820594,0.05361186857448993,0.13013737548776244,0.034384938327086036,0.03857958776487681,0.09874938267753612,0.1934030539238398,0.16450456164376517,0.08845654981356368,0.06007798268822417,0.07187145112674094,0.10381572210630807,0.04950549957458752,0.1299258355661364,0.03775189548322747,0.1060253194779719,0.12118932612479827,0.08049102556626102,0.042591554879701295,0.019048891255611343,0.022332193265956042,0.007488157580014365,0.029882674589396745,0.02354744682952442,0.005015000812170967,-0.01853765200979688,0.06459844290063312,0.15696413600772238,0.16100001316573276,0.13650455000505432,0.13391556044837113,0.08667202421453908,0.19826727143698922,0.2675417062590163,0.2295524883367827,0.046565278241228414,-0.08539133009326577,0.04130771825863198,0.20196932035990958,0.13102083418476831,0.145761063098223,0.12649329591107633,0.03717495478647288,0.1190938486574349,0.11962121284669792,0.06757521222899203,0.004462717572131123,0.01695168526749684,0.006450982550148407,0.029655833383619205,0.019562594771139644,0.004930961198360857,0.005942087612653107,0.05253931715394207,0.17046732435490325,0.25115015881122676,0.22946427175066564,0.21543925664191277,0.25891189470317916,0.17594566304590145,0.3195501692161828,0.3260029547936141,0.0928469913401819,-0.18195229079678443,-0.20568622660505512,-0.041817775325809374,0.20867325914348314,0.15730409244393279,0.18808022716117373,0.1262442068855567,0.09523580726130751,0.09527735272132663,0.17200016614425953,0.05183397387778916,0.010600726702936453,0.0143139207247874,0.02453440973267905,0.029373066151734423,0.007458564327685791,0.024429297732653076,0.007054070006428318,0.12032307064218468,0.2045240805615983,0.22537507110318142,0.241448602016281,0.18151756576593636,0.23893586312604254,0.18188562820721457,0.2339320789927596,0.11108749277183642,-0.14742246345793059,-0.336656061052193,-0.3368970721544229,-0.17256038423682676,0.03891876917615211,0.11747397376117148,0.11381381762679292,0.08150180134240248,0.12535387774065088,0.18073619102747449,0.17506917732734686,0.017173225296311396,0.0006227069094416335,0.02938807576640024,0.02580527798149258,0.030203597631663477,0.0014067254265339962,0.008716535500023556,0.006362046067971723,0.0708808347859098,0.13290335174991738,0.1324718857446354,0.10136584799737386,0.21708133181605166,0.20027865678378992,0.17508086724704836,0.1708218364234166,0.02930776675017057,-0.20585319716678704,-0.4505984514291687,-0.4476900954358238,-0.31123848873900206,-0.04012711399505506,0.0580350402811742,0.05994647219335187,0.1295014254484496,0.1011557664885383,0.19869558690340938,0.18465932747991898,0.0603565896449924,-0.02742983322741845,-0.015690423515956495,0.01613777825670476,0.02111538725303699,0.019554723309726026,0.01245939753274016,0.012018286619902376,0.026949639264375203,0.04212912235200036,0.02151876666530892,0.10392607168931522,0.18926967301304679,0.16292143440505347,0.13169018652046527,0.1545596122678604,0.021365524490300238,-0.31073769757220765,-0.4531033621860279,-0.4350444516463728,-0.26071489590168223,-0.10379946040071071,-0.06430208248940579,-0.03326259730680412,0.06568360057323014,0.04763347371611459,0.16653904135897327,0.16241669508724388,0.01595839711947436,-0.053294881798369415,0.0007755519561237894,0.007045832558190001,0.0018375926181898,0.03442467993474595,0.0159397836836181,0.0048200133970303545,0.016323037447743573,0.009185286483269094,-0.04028107160719746,0.08670504002611241,0.15436566549720687,0.08206730197853324,0.10069998939657714,0.13141635229833776,-0.11745108414039285,-0.38499587417220515,-0.49924552411387635,-0.3457548331696588,-0.2774909405436441,-0.16016919300381022,-0.1212318031373937,-0.046200904800308806,0.035948458197349965,-0.03039555101072301,0.08705232447623402,0.10864678358243987,-0.06887855906295845,-0.12551421372101068,-0.038787595864305566,0.008089114429052177,0.031557192725553906,0.023090475361399083,0.002454029330428766,-0.03248585934225634,-0.0333883617050145,-0.02366207229249209,-0.09822470313784049,0.06480918366447731,0.050908434309165446,0.03792698068018947,0.11397435590523981,0.028169119763483373,-0.13183884524432804,-0.2834059119382662,-0.3221409772819722,-0.26797872280549084,-0.16581154533550102,-0.0987107110160156,-0.12957548645855263,-0.03861732781511877,0.042335291568264766,-0.1107315037422997,0.014476914715134473,0.023684006563320183,-0.08276880072890307,-0.120308662598464,-0.02528897612445911,0.011510640195057159,0.03435838085989859,0.022836212028569305,0.021092556546448364,-0.008363108646901839,-0.029272346811593637,-0.10173736315278444,-0.1448294007472641,-0.008463417163969788,0.026431062172943942,0.05866753691771382,0.07670469710375458,0.001353336035788879,-0.1017955216466685,-0.2442175745773525,-0.27065365850244244,-0.14803868056696223,-0.1334685423076771,-0.13151856378631008,-0.10700496541312172,-0.06725456718646046,-0.07029959951130489,-0.06661868115904886,-0.024672116406684902,-0.04412532516008344,-0.09933889930538628,-0.07212835189163448,-0.02099348313268098,-0.004526771591474238,0.03141873528246122,0.031343768733520336,0.0033833476569866848,0.011194820553824815,-0.08240914083135313,-0.10613470406041625,-0.13381450923586444,-0.0502270625415411,0.030345824221214273,-0.022062022314666602,-0.020143476209108845,0.051139338680101704,0.0309930686511649,-0.11410486885382395,-0.17096817194870348,-0.1359239668585852,-0.13287163440401537,-0.06631079746322453,-0.055235893548629525,-0.10729053916615103,-0.11853899898609452,-0.09714463749734971,-0.038819669122246346,-0.06773873223450848,-0.05596565997759591,-0.043596671502126615,-0.0037625891533018215,0.015768844161970795,0.02492846588970838,0.01919588116321288,0.0340026313372363,0.005620661952996352,-0.05106340855433049,-0.10058964921731053,-0.11985459156675703,-0.12186045262184536,-0.047105848232162885,0.02086558632594457,0.09251213229222044,0.11414724177917573,0.06408385142663288,-0.0030252916016039076,-0.06439917652649685,-0.07093828820186399,-0.05940723663755663,0.05102668450213301,-0.031281715992690445,-0.1184388173341024,-0.10056545307033404,-0.08205228028192088,-0.08615214241591845,-0.09400183340811227,-0.0615591875952641,-0.004735571147575904,0.01124263120410222,0.023760621160708054,0.02316409929711449,0.02237492482108107,0.013189461420839703,0.004116900137647859,-0.037082751627180416,-0.09346447548903437,-0.13576384079791287,-0.11862751030187123,-0.048856165191889414,0.0347680186762543,0.08896178080829174,0.09760934620176452,0.07872092763090165,0.07405875765153419,0.04120452634926906,0.04495211365863991,0.03940377795752381,-0.08178219865583532,-0.15177876777742771,-0.09570009005019235,-0.06962285429853167,-0.14183158714647487,-0.1182696869183893,-0.08036731269720457,-0.06478997824679653,0.028778166212464734,0.01645721164302303,0.0004408549653690383,0.008269942640741892,0.035212513882052765,0.0261930323019841,0.000984968378358986,-0.03344586744515994,-0.08228517395760812,-0.10442839081377585,-0.07728448395895582,-0.08396174341092198,0.037076983684475866,0.07747066886994314,0.11091524882980018,0.14765190754016944,0.26486272528842625,0.19254842672075267,0.13775424485039253,-0.02862964206511036,-0.14728598977529836,-0.15650218575586158,-0.06537093350872886,-0.09349710249769122,-0.10788669021847383,-0.0926885567087702,-0.048624570437174504,-0.005858935158117767,0.029228588404739277,0.0020227764272874697,0.0341512970905374,0.02964173133902026,0.019081816750132374,0.031999041750760925,0.011800043859572257,-0.053153541481442225,-0.09673111141974937,-0.07088466945724649,-0.04190627476242507,-0.032219172717907606,0.00019473615575407114,0.028948303834829405,0.0850449864812188,0.2082311430178622,0.247575557597186,0.16091292799563175,0.047868419177236714,-0.05805989163174213,-0.07810470738243185,-0.07669431088811138,-0.0812440265242898,-0.0636052835392303,-0.052023897233072776,-0.028600586281918163,-0.0212088108316424,-0.016818706761621147,0.021708049109488568,0.006935687080046637,0.021721390643599552,0.03423724213249944,0.002931421974780254,0.002454936270628411,0.03044513336842727,-0.019375438195709156,-0.011674171802684413,0.00197583321882436,0.01462951907316781,0.018844373957714922,0.01134772198747077,0.020224609505648302,0.018839645646060464,0.054855167803837646,0.09735194934061558,0.06449071434981916,0.05358693848262567,0.021857930700736782,0.023614643832592073,0.02013473885901363,-0.04602436149918877,-0.031045934477816308,-0.0023384837062560273,0.002063576160860332,-0.0033699113081890777,0.0073430496784017375,0.007439142298875381,0.002759157480575742,0.03381694572485705,0.025182555115997558,0.0016011821508318416,0.025032724862350673,0.03277196766728301,0.0017598455822552103,0.01818689039237892,0.024761882441399843,0.044804976410709206,0.025247504507833324,0.0300937876804832,0.011859566147549773,0.021067447058834846,0.032360943786382455,0.022389963971529137,-0.0017044523874361916,0.024364895261330757,0.02424402798201344,0.0252999368538611,0.024383919704787142,-0.0004725195125521911,0.004017327240149994,0.0018401124680974886,0.022148685746982914,0.0005337808379224491,0.03327404887215022,0.03354350483805493,0.028508415505426057,0.006716822075195449,0.033225047040826086,0.028615658089413114,0.02540090928174126,0.02759193414129052,0.0047915293428396856,0.011017602093360088,0.03312811897139023,0.03257396516100114,0.0089608828872882,0.003408466463043388,0.034943712856560304,0.010530813934419188,0.03209469718935313,0.032439101040234695,0.0036558766734565134,0.0007834395081252486,0.018448342160990058,0.029224486431506515,0.0323221715370249,0.03129748292455583,0.026412183596270764,0.016250445000109876,0.030641258071338162,0.01286805507424464,0.0193271894588796,0.028137288439161197,0.03258628362720191,0.02266384239299013,0.025884032023441354,0.03474817057356383,0.02986065229410973,0.03189700329227734,0.033247329776505755,0.025212887114029026,0.02620845556133345,0.015905195005696433,0.0015730805062313233,0.014621347480687259,0.005613792350214935,0.035566103212473756,0.008118535474926858,0.018494040843592654,0.010441652174448115,0.027327533506417683,0.026948512798966255,0.002003146278527966,0.024664829879918717,0.027064819364411432,0.0032061269941999204,0.03171857006761721,0.02599139857391535,0.01243364811010504,0.02179431275684146,0.02276854599686232,0.026152859915547406,0.02805109457320764],[0.0031473781132916085,0.011520830865148648,0.019040447466513327,0.030592824758966995,0.01670619481081723,0.0081008229439065,0.009849284564077711,0.0030536030522460727,0.013273797070677615,0.008933399584495929,0.0018349888940863265,0.008309630257176863,0.009711748701426272,0.00452152411980096,0.0019014701429946228,0.01859303877227047,0.007504434473513399,0.0156286752678859,0.010199810990510594,0.01735702272502657,0.020647694514102262,0.0006909580069631716,0.023746321156960896,0.0008905515449407446,0.03239389942037147,0.03559597078490306,0.020012755884923943,0.03219549821185709,0.007551956914847542,0.033626403691790444,0.021669410642758156,0.003318490686228827,0.030507804396923133,0.007306064765522821,0.02383249685668904,0.02900582075542294,0.027255555323080275,0.014300716440960955,0.015046601642448983,0.021219518868760258,0.029940987008360422,0.014288503730013648,-0.017446208870620632,-0.04662897574277975,0.021616439291076223,0.004605371766720113,0.0157964811716178,0.029714493633510728,0.017696580105223753,0.027771632273760512,0.026476838825609122,0.023791061187363276,0.00048586334082046615,0.008864911912895108,0.008162426204291473,0.031814046753048435,0.003893957695775901,0.01664937195617169,0.012669989946221372,0.015749592258365745,0.03242940928098997,0.017854651628432524,0.02345387109703694,0.028156801669091625,0.040837945021476064,0.044341078864681346,0.030428370077395146,0.018262723268958236,0.032432820773400026,0.021090590479952702,0.03502390828573775,-0.04601932977708998,0.01238980308956573,0.05945899240045054,0.028499565948479903,0.033739995968037964,0.02992582562114005,0.032305704685044116,0.01207653977106012,0.011125448579449844,0.02531778880298276,0.011523854360052424,0.030506049908128045,0.009113191647763252,0.005885633802692723,0.019623257881515928,0.018557546445137116,0.02140723898101173,0.013306528297714268,0.031560263997392986,0.021199947055301177,0.027746457344520914,0.05240579947985719,0.05710057196519598,0.05984700362281847,0.14284039604411178,0.1422056525380364,0.14117113159225253,0.11469567524370346,0.009448006731110273,0.03615578815867357,-0.01900552378324636,-0.08821338442281612,-0.039794397036923064,-0.010696835024265612,0.010111783621945147,0.02362089315017134,0.01129456793959904,0.023729086580371407,0.03071197350192736,0.022320061564248952,0.031210557097807488,0.0010313701546637022,0.010197629117611628,0.028323442623192682,0.02280984366628639,-0.0005192245346181967,-0.018548924237415942,-0.00776218431458791,0.03339034645809946,0.06846054918022913,0.1375914794351518,0.2143336846383416,0.2734067884633588,0.23374232109158524,0.12506361171654903,0.0408403169316768,0.005681155883096679,0.08169606309475975,0.0556806057935163,-0.004982090803953055,-0.0756811625341333,-0.04773515233430596,-0.02980972414412964,-0.03086793422133464,-0.014481768164450787,0.013312541523555642,0.00402994875521735,0.02304729602636826,0.03043321792549505,0.027804739646146954,0.012471689776991701,0.015721049273729252,0.00045716218089098833,0.007376330063816478,-0.023748831038515047,-0.008078915195828042,0.09603364157603145,0.19467790287249742,0.2939755448270346,0.3628186333850468,0.39065384040049894,0.23513934996032984,0.13009889661677468,0.14217333673449573,0.09637248804548783,0.218760348257137,0.13007353894426787,0.07210625717657833,-0.06587925652809117,-0.13658636317673603,-0.1471950044648633,-0.10051187465662251,-0.11291696968609055,-0.04999433069559105,0.017803666709455917,0.02667676328502964,0.004780620619298285,0.010752651581621087,0.01352823232440113,0.019095812304883227,0.005844178844046907,0.02459665910249433,-0.013754779757625272,0.05023575435771622,0.11462164168324679,0.15283418581219732,0.1897381227011091,0.26456773967620856,0.2295685893732142,0.20641417151589384,0.2924013562629376,0.1912992868691801,0.14063901568429193,0.1675183700756134,0.041607119519832016,0.0051013986911709235,-0.043094843415170676,-0.13369904625120863,-0.11887636470804004,-0.1302504386119684,-0.1255396716461502,-0.04960909908203996,0.018128857083335982,0.014062030524837966,0.0175584089467276,0.027855868297166273,0.03383640426946875,0.04264744125748479,0.01805241376272393,0.02490706683256583,0.03937217908211823,0.09954191111775851,0.09193036075332599,0.12970256145907003,0.11197693050568022,0.04413321465116008,0.1267870826176242,0.17986299871719566,0.25092061777664887,0.09581444741143093,0.044922556702724006,0.014463391264179712,0.017096708074317124,0.04862406934357699,0.01645157309942776,-0.08938073361608867,-0.07954681968742061,-0.10087196937620709,-0.09031836527802423,-0.003917843747909515,0.007644257524896954,0.00808547738624223,0.024169788611763873,0.03398386022571074,0.006900638753578331,0.029593256249372608,0.03392326982228791,0.02279203573535053,0.06388140354145169,0.11685363588920437,0.11451514098852593,0.1425561589781317,0.04402723022528405,-0.03613349507269255,0.02722524527778938,0.09854517420380983,0.0628273422456298,-0.07530357265438459,-0.11678959947160761,-0.02609147705980473,0.06040452603992451,0.01183367543541633,-0.030859080198586804,-0.04215357478712756,-0.0642007080566664,-0.05968844945222697,-0.0006277443509751053,-0.013161386204513912,0.0063779118366796075,0.03260644805255837,0.006627112324818575,0.03555667494995909,0.012574596440893223,0.01813763602391814,0.03169094516902907,0.04788428097040358,0.10398652271580444,0.1426555204300424,0.1543996287623462,0.14884598635507956,0.08489166442151858,-0.037721799739534274,-0.08671304523196124,-0.00856065820998564,-0.11263464455532361,-0.21819518704566004,-0.18147347815432838,-0.0027634260850794177,0.03355141810450235,0.0146062994384155,-0.05966684889629372,-0.009935374872388499,-0.020590310559139423,-0.014551855454921048,0.022193266013156566,0.00020033828730714465,0.03182567238330441,0.010045656317212307,0.005258218477034242,0.034960591849512744,0.014848717098977327,0.037112445557119456,0.009502137812101984,0.01801018100071351,0.13217814170694375,0.1849343272041971,0.19836562010444528,0.13655352777703814,0.050511276858138464,0.023468737188751018,-0.05230600060303473,-0.11046809417765284,-0.22649477481335104,-0.22090859508062016,-0.14353155418584831,-0.1047865678067221,-0.01836111891637988,0.04653728572815742,-0.027187564756082,0.07196647321437986,0.04379954851060471,0.028580585920905604,0.022394821549967622,0.016584287650779683,0.023717015881269423,0.01728844874784096,0.014208511063865285,0.02151302167048525,0.023563429424622348,0.012764356227989182,0.022069201571583784,0.026803502161496483,0.0704019665955885,0.16843029265128323,0.21113348756869504,0.14614191009304806,0.03665861090003856,0.0011353705406401133,-0.08551031191656581,-0.21770930179368023,-0.3700928880464267,-0.20529421255362468,-0.2242289376576848,-0.11068663245172763,-0.04757536444319326,0.00573882846745689,0.09331588769856715,0.10113031944780727,0.08496631333327034,0.08446634084412084,0.05365745209211477,0.03050484919039862,0.009349849190535744,0.023827334032362774,0.02579960990299992,0.010267497605483384,0.0014722345772279735,0.025722526338520096,0.03467134879703982,0.005387052287218393,0.035827901913226705,0.07022859626496045,0.09905074827670234,0.09740998074898546,0.07307328136236246,-0.006366290913856332,-0.10243175545456704,-0.32062996824885764,-0.4063227409527916,-0.33588166795482793,-0.28540184670992896,-0.06085785384430786,0.0007974720429192952,0.0807131272893473,0.1403940591010718,0.10328654544606297,0.08279754603102193,0.08098445877976566,0.07012275297249371,0.02789834714992557,0.021316024190561115,0.028960526092996427,0.001833647629327036,0.014403989172587138,0.020212989170760483,0.012166627704879729,0.016500232352938224,0.02393233901128504,0.047148989624584,0.05413172861160789,0.08708168348570101,0.08388093518893219,0.07120300467855177,0.08011700370569841,-0.01982108097410104,-0.2302818317206802,-0.29575122139619225,-0.38597072183332715,-0.2786042000526026,-0.09724705037382395,0.0059236733014479005,0.12971985955984977,0.14856978174807112,0.08176516052876917,0.08719053597401634,0.12045473272359054,0.05640482787582762,0.06434720110799093,0.06307913452337052,0.06541058389977421,0.026776228949226356,0.007633793273967103,0.03445425415678434,0.015099252872007873,0.028769748432743332,0.025078051144185248,0.0480227610339374,0.06883239758605761,0.08164371733675721,0.08484975741082505,0.17815485082779026,0.22603057277870875,0.10032851327788703,-0.1252227099766166,-0.22112231552814504,-0.4271806622351706,-0.22593819677317775,0.06228994992013262,0.11899968760809773,0.1824001293527729,0.14098877952675792,0.17574630994225904,0.1562507676281192,0.13028567603151367,0.11173423395364819,0.07708865063235444,0.04457956465200558,0.01887933669272007,0.02631841371593634,0.019470304425872824,0.028814170931731546,0.00151751920523218,0.02485055333374387,0.017353023871768604,0.03304890211595393,0.0886813036567419,0.10860222836362293,0.18136081188173922,0.2318673235782686,0.20676820382118738,0.12417933246306992,-0.01926529692452726,-0.19572052195406878,-0.3636170485251939,-0.23888831637245914,0.0673287000018004,0.25727877600108984,0.2313933119169926,0.24789081668222301,0.2224547458968043,0.15287501652615862,0.08589117029020024,0.07362219378220716,0.06311809829037231,0.04050476599953243,0.04364514864539718,0.004002998390147047,0.01201556299850832,0.021947249145969402,0.0013158671390449649,0.03220585538411177,0.015998265032879898,0.038769442820965574,0.09837379356262578,0.16433182220585163,0.21800122782793552,0.2630570345009642,0.2847820160039978,0.20499128074666553,0.15118119465774488,-0.05547951405972397,-0.12078173222521733,-0.15796134201849832,0.12772678180980046,0.23937698744307734,0.1970425344848404,0.25514522395574907,0.21667430462507967,0.18948108422937512,0.17153104529771837,0.09929733717347299,0.054838201193860445,0.06808843106770354,0.05721383548248085,0.016099991479957353,0.00915844435129066,0.010871951568231349,0.01864319664093605,0.015757341997905096,0.048236875385320205,0.07727630918822723,0.13417329584567753,0.1833438935192496,0.24123181090314688,0.344058266650396,0.31565698408543036,0.3131364320601618,0.22589114481485645,0.09480052963087769,-0.09699388622584085,-0.15449527337637092,0.05839568917313546,0.21340541664025295,0.28667731715245065,0.3196930676308097,0.27050097307807,0.23430060252365978,0.18615877365045197,0.1535721543867401,0.11335109073886632,0.10240924847212803,0.032392438814667614,0.019030849828785393,0.01052945036967856,0.005689463464551954,0.010901805250771529,0.011508939568246036,0.052071373354575595,0.12486874500484224,0.15809011330854011,0.19304898910790516,0.22548086742565926,0.23088382535805937,0.27372322123327747,0.25511160845822417,0.20848872560016107,0.22675022766912598,-0.0023428975401425097,-0.1343253075932438,0.04869253777593423,0.1494197043551919,0.10833046973748131,0.196084005207276,0.25726040513406345,0.20530355293885,0.21723449879410778,0.1895033471228066,0.13394693719774706,0.029734405039635467,0.020417385124783798,0.03216310560129495,0.027835670550459803,0.012660480307773503,0.03344479820902667,0.027810607013136448,0.10353872175103249,0.10030840041765152,0.07919688322508857,0.05581015263209118,0.11686020951931364,0.13270806933411058,0.2059507753832269,0.18587406881251647,0.22389824390125615,0.18645204177365457,0.0988779089171494,0.050086972135032944,0.04007792425042584,0.15554922871548732,0.06873235166274887,0.07099291862373722,0.12354550837596577,0.1732168931003946,0.20789270265355095,0.13940091214745515,0.06850064277202812,0.05081160313289768,0.024959032918817795,0.008208623290689528,0.023615659253516726,0.03256198555411055,0.011048902053901757,0.058726499183503256,0.07352907547265376,0.02238327779950985,-0.014174686218186601,0.030286350172328527,-0.024867719968099247,0.044919882518936166,0.11164750342119682,0.007811279745354727,0.09785723733403309,0.23328127540613436,0.030786726814742503,0.03235748041016083,-0.008379040670370175,0.0026345443588799158,-0.000424408768794697,0.012203680851888029,0.09385721999390513,0.16083908843318448,0.1721417448260615,0.10921945686319999,0.06335355512380765,0.014827083042560535,0.013835995435746757,0.012961839422417572,0.03249614829461817,0.023230293702481208,0.032060611313067464,0.019569184904969103,0.023317458313486576,-0.04938592830307248,-0.08457884511782146,-0.07610432659869655,-0.09415750435801945,0.006725115748475252,-0.06075109565519326,-0.004426468650556221,0.1144670170944243,0.16807754055515886,0.039640960326442036,0.0351583040459607,0.05030753573732017,0.055161848922790725,0.027491553268860793,0.07582114322635371,0.0569953824483937,0.0992828758822069,0.10355012080029984,0.10137430253477579,0.03927147701202566,0.04532713500292802,0.023880770177670124,0.01530527133766573,0.00223784889787933,0.005000643827372767,0.012400135232634519,0.045840063206177326,0.03152261278532962,-0.11118945250990626,-0.16006932361543832,-0.08812337984990856,-0.14937215736853673,-0.20189135592745044,-0.06432576047020941,0.04326738246772982,0.09626586564043839,0.08890192201299459,0.03193763114143842,0.06326632229680053,0.12989245282254389,0.034422986133292574,-0.017930991269776354,-0.018410696923021774,-0.01008638491507938,0.06864199517761495,0.08693189730400087,0.05345040002783402,0.046693377800922524,0.02314156392959377,0.018504615407504338,0.023668351346565294,0.012141119077969387,0.00314612434115426,0.012095391325903081,0.0340841934159237,0.013613901452811035,-0.0639812595399373,-0.061318273572807384,-0.06105078597964841,-0.04528074368787321,-0.04970795200627805,-0.09862599658298146,-0.07573309736187527,-0.13454263957913173,-0.13449533903130936,-0.01621208689714312,0.08174047056600087,0.0926382731200133,0.07646861530715275,0.11738200638766337,0.08725728418624691,0.048053076536978316,0.08296854528308839,0.07815768110294792,0.05763119937688501,0.02739120139634042,0.002526189050785472,0.017989582751743192,0.017218338239942694,0.005089461229712814,0.01709213489635927,0.02822017491254965,0.001243873046919182,0.032184879866635256,-0.006015832284435286,-0.0038534558977981635,0.01125689889106015,0.006172861826284614,-0.01455111586815251,-0.051487561103747914,-0.03461554494048333,-0.04294073945468718,-0.062118894635639924,0.019615790439341203,0.07116385951723274,0.13456099832282778,0.12268824358921837,0.057092714614520625,0.04572267515241871,0.028152950968229007,0.03660608069616839,0.04706653911506648,0.04410022347557687,0.033202999460164105,0.007891021413371812,0.0185577101125094,0.03292567099798369,0.002868599067099028,0.020913334520069667,0.012656138875146336,0.031741313317575945,0.031207835676952227,0.03369225915206226,0.0008387349930218818,0.0029894345203668195,0.02777346381114147,0.01868900224178746,0.017219906821118673,0.03781282316289708,-0.008291466177611326,-0.018528486685231035,0.00484627729994527,0.03602456372132921,0.06537635752298819,0.036823706316215836,0.05544943718185995,0.007263067399132535,0.01710798722512858,0.03260928660706715,0.010871430400505413,0.02215543616131259,0.007581332167338673,0.031529998269932684,0.03262589421787424,0.030663723718526992,0.004523839569770601,0.03400775378431684,0.03511793339463296,0.03085769003292932,0.028811403284935453,0.019243387677627517,0.005035150854206979,0.03178532338735849,0.014736757453885687,0.011639930725411347,0.01686852313248337,0.008038648034215976,0.030708158118066882,0.010819318762751115,0.0213554814600529,-0.0015004077573861924,0.03150077148738331,0.033410077068806235,0.014710883626035383,0.02995763640433916,0.029336926885351507,0.014080044948125077,0.005729345865980562,0.024276290155322344,0.027586576174379738,0.010804364304709293,0.009346514045393954,0.029353890532965284,0.0012531092993609391,0.008671206633428503,0.0347040500179305,0.005500490669654071,0.008939937284850612,0.01276192168861841,0.031227660044866063,0.015638053229755113,0.013140601537461669,0.03025718230835417,0.031764185413455694,0.017806629067109774,0.030838958935757443,0.029407796855669417,0.01771610312081489,0.0002100198549123847,0.02309025975401056,0.019287097371490092,0.02338736198510841,0.024862764663813652,0.01735149713025564,0.02866318401371078,0.024295581757525934,0.02990368735443048,0.010994243679934861,0.010662444284784387,0.03048499500899057,0.03550501554583351],[0.022462804731713908,0.03169057765790342,0.015538280252641043,0.029704427490235188,0.030090989482259887,0.01286434008714701,0.03556488862487415,0.010113634878327107,0.013065703931761288,0.01766571155540731,0.025731361794783896,0.021932109589865707,0.015641580068404458,0.013423188957539384,0.010152796183054277,0.019551115601825843,0.019419922623684114,0.014544275977457952,0.010034474487987832,0.013744768506276825,0.015972790293141265,0.008781570110303156,0.019786697435647434,0.007369026674016859,0.014011063170768858,0.02200270891596021,0.030588286838983552,0.026004774172711416,0.013059804427801342,0.004375840814251979,0.020460655919528718,0.007351256795061537,0.022991921267729056,0.02893700076597682,0.022163884805402007,0.01675141587817464,0.022071253409251743,0.004503945281803137,0.0073455863666607845,0.0010794988689191438,0.025573369974453936,0.03436086970164094,-0.006708507329557668,-0.027619005093709622,0.001226973918620028,0.008108016788426568,0.025531078881697485,0.013293691106666252,0.024051973958835886,0.006812018009308426,0.012222165693466782,0.013547097038937155,0.008627555388651691,0.02226052438843949,0.004780567118339201,0.005971911082303113,0.01728875488385143,0.0313306522969558,0.014468874196661517,0.004481179309806851,0.01284535463499466,0.029356368707522576,0.022781384474490768,0.004602082645938627,0.022124801345213503,0.04456455203343603,0.02545256825951435,0.022737611205023874,0.01855417251826076,0.03226111974630026,0.011771709949297325,-0.02897302003153012,0.02378333661052503,0.03189978578159111,0.01756100699378519,0.024313080953106553,0.032373538119311034,0.029566274993777383,0.008679747628336194,0.004750325965690352,0.03469354405263271,0.02384077466978326,0.0031017033846511477,0.004386755566974614,0.011216514231201315,0.0049543185921465515,0.009488151758735913,0.010814523252822294,0.017932300799537955,0.007702191919826693,0.011175229780788701,0.03965726683320651,0.04332998079817517,0.04459090348192931,0.0615332603947818,0.12950521897541717,0.1679356392695594,0.1262272715885511,0.1262421638778755,0.012501977751455296,0.045390319466457406,-0.026320420248539207,-0.06891595160692189,-0.05699651101052402,-0.025850690326213385,0.0022127002525694564,0.026900369399856586,0.004288829482039293,0.027787746530648496,0.024026571462442782,0.010537292826998208,0.01100929150054045,0.009474764021458328,0.025280942744812716,0.011249967881697078,0.026975807450159327,0.025397476454105675,-0.0019857470023028766,-0.0058148637811419445,0.02058541398853544,0.0666973157085164,0.14573478234370446,0.22576582880381646,0.2725485348900916,0.22245868943931932,0.0976791294538894,0.017430202107292788,-0.008705050204994496,0.06644631010571053,0.05776936188934179,-0.011165629376256066,-0.07509747939095582,-0.05602652690960215,-0.035164667466797375,-0.01705648507066585,-0.027969855169908703,-0.01126732644603047,0.022444961036816004,0.01905969274353069,0.006687939297438716,0.01708104722543074,0.0012517161235636018,0.008754574916859475,0.027361908088228408,-0.006978225980619918,-0.03717098556151106,0.020565846422019737,0.08326728747797417,0.19245839743952903,0.3061638485356355,0.3605239375810202,0.34739845572374894,0.2048414958938114,0.10486456166822634,0.10649716877464094,0.11529934966515896,0.20148515618925272,0.12414755179702877,0.05131144632649716,-0.07816296922270906,-0.10064952918142926,-0.13666314161112394,-0.0933541424184521,-0.11182735653462424,-0.03150165565001018,0.005838454342856766,0.03432607937595336,0.0176033494374151,0.03478524277544277,0.01836391865752775,0.017925456903970845,0.0084251492510861,0.00387240225265072,-0.0008397244477321139,0.04708470529744556,0.09037166533814894,0.14443245720698053,0.1983868849148067,0.21918772639998627,0.21725131932063318,0.18797460480322775,0.2877052377485237,0.15624156955233212,0.11301105765952557,0.15750601219055535,0.07324206338262652,-0.006408984486580201,-0.02485346566862264,-0.1371779414747808,-0.13936274623807976,-0.1139420125258692,-0.10304950408072305,-0.038125944770565634,0.016890499956431135,0.025556792896693173,0.0019385280351196241,0.008410183562383853,0.007788355965328612,0.03023760084101567,0.009898220741847106,0.004144476706066588,0.03157615645197434,0.08023520449726416,0.11926266471084357,0.1334322690797853,0.07503636236069768,0.04702049806378775,0.11568577686315565,0.1500964730303008,0.23375111547575322,0.09209134307507479,-0.002617685847663576,-0.0010691130448599552,0.03782303833455792,0.018861310086817233,0.017952717179734862,-0.07306106143956949,-0.07479930118733373,-0.10751116753421733,-0.07031120826390434,0.012765526492353534,0.02415500978798815,0.030930806600615625,0.01215356877783859,0.0021010158032010477,0.034923563344219595,0.03264099562658573,0.0013756641779999288,0.049320931187723474,0.05371927172192499,0.13865739174925082,0.11595605886528779,0.1405206545873082,0.05764323227837702,-0.013546237899461916,0.01242032880337111,0.0889011550605932,0.05549898631473005,-0.06562288333036184,-0.11278500277141525,-0.014882105424885909,0.050296575766376146,-0.01178249157779852,-0.03817251704106236,-0.03958707375349185,-0.08511160353623283,-0.05518122640138522,-0.020183800614763443,-0.00879029765449645,0.0014306743522773298,0.030513799813529332,0.0086817993552815,0.02081891657720252,0.006124822682499965,0.019415655097885225,0.01989371179603456,0.04721055201776469,0.09509042359357837,0.128168265758633,0.14926377062876273,0.14564474262547353,0.07365541189190437,-0.028349724071632353,-0.09046121107955234,-0.0442593342809443,-0.13490249668975793,-0.2367981929679936,-0.1825865313286349,-0.0053375439553881125,0.030938519225631483,0.019271148419187128,-0.0537097153910807,-0.019082473020473507,-0.01649786716906612,-0.021219845750433217,0.006891720404532515,-0.009386610349498845,0.007350368207515585,0.017492436109915164,0.029106687305003043,0.019010318735124654,0.029636209290794982,0.026137359393343412,0.014886628229250043,0.04051514830544879,0.10605941138579564,0.17982730310242903,0.21238652342413697,0.1258911952752038,0.05383513446793492,0.037057361715337134,-0.06248923833284618,-0.11669215250971117,-0.23731184189987434,-0.23007778940888382,-0.16326838836208327,-0.11207041740298222,-0.025788809261231817,0.062753800106196,-0.02682994176831091,0.04820251813023835,0.029881416427781343,0.03949981936277936,0.022112311837390194,0.046412004107022,0.021302496518747303,0.030690749659467012,0.026417328057952678,0.03150366269965984,0.0199996911908212,0.010625022075389288,0.002906029663776091,0.00333439065564928,0.0505352877011236,0.15868385666623172,0.19579602920269626,0.15018363045332947,0.05019951325946185,-0.003436664064518904,-0.0843869112728193,-0.23039153205096496,-0.3643073690957027,-0.22429739223357592,-0.20487244280749917,-0.0963280220802843,-0.04679695864344978,-0.016802043650398776,0.09557494667232368,0.08086941231293261,0.06463071485183147,0.07297984668499474,0.05057960443456169,0.038058968803156165,0.015468255104494925,0.023078037466823277,0.033143640914702704,0.03471644222789898,0.020329616771608546,0.004734079021049805,0.006719170093261515,0.005241299870971504,0.0497698372333151,0.05628933813841015,0.10195748092838838,0.09220539811037326,0.047480897633472643,-0.005807195054749014,-0.0936608114504303,-0.33791279315958916,-0.42667737517856247,-0.34826905823278437,-0.27510097680117807,-0.04085404309678711,-0.0048028885455715445,0.05333154422322331,0.1405510024127876,0.11521770445620529,0.07470769435104911,0.08528010349767698,0.03452695394385974,0.028911014361113544,0.018619314973659658,0.03237398287210286,0.03190014683537191,0.010878045519839095,0.024489661816089244,0.023762737568480075,0.013387625520183058,0.03193585255523901,0.0445175903617004,0.06171358436482154,0.09113333972937862,0.060185507930682114,0.056936038199403065,0.07767132319767922,-0.03551109702995813,-0.22965021376060904,-0.287335950057069,-0.3551680580976613,-0.2823467770551455,-0.07773824920813639,-0.021207964335751367,0.10288686806704349,0.11585394054595984,0.10607643030017364,0.08657466392032935,0.0865080540745275,0.07945289073167079,0.05122221695151428,0.05395129511542911,0.06834616968909979,0.025851177668669168,0.027329894940908133,0.010989977670321798,0.020869180675147512,0.009650064548344852,0.01996071591537308,0.03058022574089904,0.04470832704064985,0.0632271084658186,0.08557902837398623,0.16513955694875718,0.19415029483774257,0.0928636545688187,-0.11914413822107288,-0.21592894272797122,-0.37665520428789323,-0.2030922480220343,0.042927267912584485,0.06561658175234077,0.1860859154861222,0.12822049919136658,0.14350532640011354,0.1258440792604135,0.13513546949968414,0.12082721347909646,0.07580508805405005,0.03991972303409804,0.010166949819767221,0.005957637094625756,0.005364520354540008,0.016814872430968828,0.007522757076970897,0.02843121243567105,0.03490817273812914,0.03581962932527407,0.05235419755486206,0.12292901367508724,0.17615892388266238,0.20089842537055605,0.16894957221080348,0.11598731923456058,-0.031436134796262574,-0.1861636357215953,-0.32638859906559436,-0.22571629991153527,0.0402557320949257,0.20483459823820033,0.2246762728841966,0.2277857902401407,0.19428428853480417,0.1381984054566361,0.08837771745886827,0.08275303418898018,0.05399130796722776,0.0491266556412073,0.023613707872733293,0.018365754105893594,0.006765670092058204,0.0038876105248914334,0.00449319322542808,0.037644764828251305,0.04440775438539384,0.02647202384545809,0.07426438280244498,0.1633843416414712,0.20212932714798312,0.2652447161986464,0.23165979844841353,0.18177416673918032,0.15650061902568269,-0.0336764712985651,-0.11648888426418057,-0.15987461335796277,0.08796879987401708,0.21199850004351914,0.17431457329167277,0.24196062069021124,0.22091131009233328,0.15967559635673237,0.16151733373340302,0.10736819793576874,0.056082854666419615,0.06941592643570065,0.05841396062554515,0.029313054415734466,0.004141195205361754,0.01341631421272838,0.02911651556379533,0.004674709396108246,0.049407278833000924,0.07376244782837796,0.11659380481547492,0.20323652343284426,0.23001953837655598,0.33806731006544094,0.26759851015612085,0.325853409195975,0.2411935621396033,0.10120430430912383,-0.10867462732986653,-0.14972376160242398,0.029108872954610704,0.19298352104309952,0.2606799909795399,0.3023564064118491,0.270833662205917,0.22661208771332006,0.17275078919469308,0.16597293154947584,0.09497593147120571,0.0746407607909155,0.01793331864750525,0.027112584004346865,0.022838461298123943,0.025961577998352546,0.0009593371042043614,0.0368592961582133,0.0725289899971055,0.109294906223478,0.14083159171309417,0.1710579763450295,0.1914669930791234,0.23267742941619615,0.2533215172346738,0.23361888132563396,0.19080171855963377,0.21533719530297962,-0.0409518502776766,-0.15655212679832542,0.012904069859148585,0.11426349775517626,0.1117686979850525,0.1701389003641101,0.24950098838043416,0.2225468585187063,0.18729631797699692,0.1838010757710575,0.10153880020310506,0.03676287159881451,0.034833661315246185,0.02823790701500394,0.01336262529903881,0.0282929213954365,0.020028380518693278,0.02319277884656019,0.09968131867547342,0.09723777005387689,0.06025398895912367,0.07786639425387039,0.09864519484412324,0.11980508916764009,0.19787225787280655,0.18124860889099498,0.22023964046996383,0.166252732797518,0.09289052537823453,0.010065616890894169,-0.006241659672453271,0.13654215854257726,0.04767048672051175,0.06073084828192379,0.1091607468038511,0.1647021852109587,0.18263068890989115,0.14695425228556488,0.09216447911157137,0.03464967690947499,0.009638911902502434,0.02033071789179787,0.000979158190073207,0.011782765695665826,0.024530688144347966,0.04451394036945824,0.07346365954006509,0.024758075548028623,-0.016551344523104423,0.03640606647328228,-0.007661647404733463,0.04727837630587539,0.10501692813329704,0.004323126225108861,0.10275456529267002,0.1865005206424887,0.021471009415440404,0.004547503766603197,-0.022649294674410077,-0.002999074303150902,-0.023642053027333812,-0.0034828887466174913,0.08028614229033362,0.1269436361735699,0.13810309912914828,0.0879379352848292,0.05191819878191172,0.014153717314549896,0.010668658385426981,0.018852661724883143,0.028455650935335846,0.019850062687520407,0.018500124018782812,0.04185394296745864,0.028562782008416783,-0.07783059629475682,-0.06445576732324548,-0.07706551096262582,-0.09965013406249636,-0.023875925873357278,-0.06941675957320317,0.007822428785112067,0.1016675141584159,0.13781754920323883,0.01288405167849556,0.02550915220291323,0.051083119751784534,0.049932377068287265,0.027780908985069387,0.08340123552268905,0.04279491345435018,0.109437313019559,0.09710137388113906,0.07485546695189593,0.05439641437028952,0.015960918712629352,0.003935181594738727,0.031059794767303934,0.0029303188541484984,0.010564175733272048,0.017296384075933403,0.028896019697425234,0.002404547662346578,-0.13081366773281328,-0.1493717187183394,-0.08070965115164751,-0.13083698508495165,-0.1927075568027312,-0.05649723751634028,0.046148579766799924,0.12182175252539973,0.06108590339657956,0.007883677841399261,0.04467051076047431,0.09690106878563803,0.053598329774932084,-0.03669683709153106,-0.035163879082424326,-0.00933254559085645,0.06630262775423691,0.06140947303307624,0.07882970727908022,0.029849152806974744,0.010860271517128388,0.012776909536736856,0.0008874261998681534,0.006814085649614531,0.008756509986976397,0.035461585303583405,0.04766593019102766,0.030321449947363254,-0.04946453153675648,-0.05190955320749311,-0.045709564108036116,-0.0332011963476549,-0.03479410207351027,-0.0874855142019387,-0.06255569834525439,-0.12524036845967249,-0.12370093438399246,-0.02155326484276427,0.04071396337399191,0.10874448560817328,0.07721206656729737,0.12196126736804182,0.06472555234995163,0.07851597942344804,0.06128773474439843,0.0612927352251544,0.06234225975776562,0.017472066993589344,0.02012004000229666,0.024086534848293387,0.03217087409213094,0.033009923531283555,0.00791499528769982,0.024209667424001515,0.02585739952505869,0.0002617260656276807,-0.009482691451568147,0.0031680302375383966,-0.011334379168553154,0.010306290460199093,-0.0016543083539571094,-0.050561374591934,-0.0524524148318996,-0.0476214097195817,-0.06315450792809314,0.039015473888823794,0.03698929710673979,0.11226491554596081,0.11761257711482459,0.03869114865977226,0.02154332130127677,-0.002158358637513401,0.029864596400358417,0.025737393079371368,0.03593076303950939,0.01016263295966088,0.016254225196741384,0.021751580222005646,0.033743973806731886,0.005545281098674637,0.029562362697923443,0.028902889286914497,0.013064755949002067,0.00929948937455741,0.024930267901229822,0.01991882659833882,0.002831639320058606,0.014132580919573619,0.0275841546308538,0.01934437659167247,0.028382360076884453,0.0005013215508190981,0.00845489805324867,-0.0031338263881825522,0.041765810253589754,0.06290169254693519,0.044946522226083606,0.04722423723701439,0.00883020113608634,0.014105554580200418,0.02346647776075049,0.02880277606449089,0.012435302945115976,0.006460899274845672,0.01919001207276495,0.032485819075879635,0.0028105440349103623,0.009806159265964629,0.003699346460784157,0.030704342907267725,0.011599274979371632,0.006590530809497627,0.01975816464522991,0.003156963008000454,0.02122586119292411,0.0029534212527325765,0.033537223892216896,0.018760535344039358,0.03204505689401864,0.035027127614098666,0.03295122700700285,0.01651584804873705,0.024062732379981484,-0.0015543399508109355,0.029696677492442553,0.028807061520546153,0.03062694734555924,0.030144141419910113,0.014251838399896641,0.0073678388878522915,0.015766042217807173,0.023068738311956993,0.005358576544944775,0.02168620950294794,0.032246024916970685,0.026909686570087972,0.009673209637880233,0.03553287676642913,0.03187522876905881,0.026151859895598335,0.022660987674152533,0.0017587290661366106,0.02348105407742313,0.030956530032040002,0.015008884319919582,0.009295923183367551,0.007020746414147794,0.025205856894494918,0.03139840072880396,0.01380155008216922,0.010767365387166923,0.003147253921330021,0.015731641945978734,0.005258663490755869,0.026769556813012962,0.02310972234961897,0.030645905893032812,0.022808121208646788,0.015264000573146601,0.0013844063500675907,0.03177559174957495,0.0012404360342460222,0.017520915562480113],[0.028506469399779435,0.01545413422229182,0.03411400035557911,0.00045059663713870046,0.012836735890904108,0.010890139286990366,0.02463742509522025,0.017845300716193994,0.00987760738842447,0.006317385945250038,0.007977823372024953,0.03041707961117856,0.004981705723966938,0.020514622015094415,0.02673226198250631,0.015503689710605251,0.008326981400243136,0.020264245666378498,0.00230161517318715,0.027882798556357995,0.0038146751294206383,0.015368213388713716,0.00474861409687753,0.012988129118769755,0.004660348249352774,0.013183551740782538,0.027447912237559855,0.022908650321307455,0.03308789880495118,0.011002195862097568,0.004326797971021408,0.00791814672365764,0.0077037686378390435,0.03166032231672916,0.03129354208321069,0.0030406402137330944,0.025545260457612417,0.005112643527859011,0.006115685941712529,0.02865841492792772,0.009424681804868072,0.02166951070614195,0.020604015878465477,-0.011717263985383523,0.011063978113041786,0.01010467825131513,0.0347187526686836,0.006163020590875471,0.01794420324030021,0.03258365771124433,0.029530268607164765,0.02964253907140049,0.0014939821290075237,0.03395405913440718,0.00374219624830509,0.019440844171275957,0.0021370292583155004,0.013833211587496508,0.012855551876995386,0.0036910965932000655,0.017148378578365108,0.03329589876082691,0.01840607751684228,0.01684959944812177,0.026865851558441924,0.035772633498932775,0.01689719345298408,0.029407153183632524,0.007337673396356415,0.01168963065876071,0.01770467654554755,-0.022378002399401666,-0.0014071958540478058,0.02848389435425763,0.04107686871888966,0.023693181320388577,0.03106304769100759,0.008900951598121027,0.007349592811881321,0.03230573512509392,0.02182207311327561,0.029845153192640018,0.02387257935744381,0.019555291739676184,0.0020064292696138153,0.016412198409012257,0.01504358790908521,0.014403073049562946,0.02659297682252229,0.005105493187471454,0.017875156472065695,0.006919401553987887,0.031752965616970025,0.014976220549286537,0.040287593701468616,0.04357741213191761,0.06453729384614278,0.06100513515445832,0.06624406201600024,0.032052384986285716,0.0323954388048693,0.009272384537938156,-0.014571179852843969,-0.010545624958262265,0.016245830287304492,0.022211359449303327,0.019129575766492674,0.011695956561772063,0.022290612089832563,0.0015065899652738537,0.0034319781886557282,0.029905535347529575,0.0126600401739419,0.01085355297637562,0.0017482510812930176,0.01730112387205124,0.022578797715998442,0.018084606542346282,-0.0017240755974497971,0.013631546560326219,0.03127041555140759,0.08675129672448938,0.10011348200445468,0.1044469487808308,0.07868113642578105,0.03404140195642576,0.009538251615917223,0.018270122846273107,0.026210026049494968,0.04920215696059861,-0.01924756334037628,-0.020407403716668576,-0.012163140249336653,-0.013084365281870621,0.01005912759851939,-0.01352764771554011,0.012811835033540695,0.005041084818443258,0.016931721743306,0.023766453628193098,0.017214130749640472,0.010821119427877588,0.035131270082528934,0.02756473798691599,0.0009354464684202432,0.018780017542868524,0.01003776567160113,0.0410271937345862,0.0947133620594083,0.12087739933588178,0.141291629597769,0.13294121563498712,0.09789616100102769,0.03874058381511165,0.052568234812559254,0.051350568508141306,0.054699238153722206,0.04937531943092796,-0.006019315178117764,-0.03629156993749812,-0.04283797114866318,-0.04785745864086628,-0.04176893808727551,-0.018887111754476188,-0.0013847797406783045,0.007139340804159343,0.00009498928918851104,0.016256486781821042,0.01889701379296686,0.007310687557407237,0.03021405128106628,0.02539850386740095,0.0024102900509677724,0.017105876190130796,0.047525059337416665,0.054111347380388385,0.07265556745818467,0.08366998247954686,0.08828383277737832,0.07574296488497365,0.0848677848040149,0.11153533479736422,0.06613118625821286,0.03203843384456685,0.04314735615872527,0.027613016015066785,-0.02414449094056995,0.00004657019291309533,-0.023007446104150668,-0.03873069306265627,-0.035910973569090794,-0.008988673828868492,-0.010960790390011304,0.021934842806244158,0.03472123617726287,0.005210833913228019,0.014486192495278811,0.001724478634655627,0.03616645186603883,0.023136163826258365,0.03161274976460699,0.03216691318525873,0.04631710500177611,0.03679872239713033,0.04963750592143848,0.05355276608030161,0.01873617529346843,0.06535634334475957,0.07858073898840633,0.08420434303126229,0.005099378568313419,-0.019417080774858975,-0.007819578119580973,0.006137317876539597,0.02362779893189341,0.009201997567737236,-0.024529560180766782,-0.012402542176748362,-0.03211791911535647,-0.009859573788323273,0.014448381945669315,0.009270921991182304,0.020497522019364833,0.00452507757767962,0.00602617966757898,0.006551670029424253,0.02983557265351114,0.027659018143358836,0.039576087810012046,0.03628883532559862,0.06650409888206686,0.042021995337255834,0.04744953649136469,0.029239824773678657,0.011106970579979773,0.01905228874638061,0.03442248893355241,0.008102208988717146,-0.02972595774626829,-0.06380317715185022,-0.031138503376489428,-0.004379915396034959,-0.01152967728434901,-0.015494393779636533,-0.007589798730008856,-0.012773242362070674,0.004153518936896699,0.019629416143827988,0.021344193908702767,0.014158061501033768,0.002523025149211552,0.025062147082318083,0.028442742208426568,0.00892867681137309,0.021124442452306734,0.003757379226922728,0.039476792851375404,0.034697117470538226,0.0544927767591903,0.05587551181701535,0.047254640841670796,0.05031816217973491,0.0046777049696951475,0.010083976325542653,0.00032447975479683026,-0.03758750129458396,-0.12325210118259643,-0.09515975538210573,-0.029328016972944043,-0.009991816299986417,0.029239015381350413,-0.011783923006611467,0.007941342417200343,-0.0018830956210503745,0.027479019618042694,0.017850943956874366,0.011959191173250984,0.029645172337267944,0.03495809089631541,0.022159008944496714,0.00276612151610394,0.023504774232840264,0.011396502834595122,0.0243105808690568,0.03349372450192402,0.043268244741758416,0.08317919178641948,0.07521043406869171,0.07263354406207037,0.038666851091938834,0.01038340262076115,0.00959006173945018,-0.029030540881427695,-0.10027554199779277,-0.10936023041567909,-0.09458298037284207,-0.05248447522033704,-0.010549564653575597,0.018777635978376516,0.01837657121285526,0.044121988662669615,0.03879072959646356,0.033633337932066035,0.03354080279746425,0.008087338899863687,0.02569175226505926,0.009055969643380688,0.005982582466346547,0.00041436758311359193,0.014225268684036292,0.021996957539267684,0.010349271572174254,0.00805407598540301,0.016510282147525104,0.08220529072994864,0.0838779721382451,0.06284032295716742,0.030947486938213926,0.028032525090078964,-0.02270788581226101,-0.05909408970066833,-0.1572405018190531,-0.1151594146741986,-0.1206092130015253,-0.06272457462726973,0.007673523905657376,0.02313090261032289,0.06022606019433081,0.03765970019478679,0.040485609775180995,0.04921774320683325,0.03483733894347597,0.008970871189901372,0.03279933797134808,0.011344291354510629,0.017748135030659196,0.021668666841922177,0.014933815452189641,0.017432233571258268,0.013239754551796172,-0.0009530710833047832,0.033057162757400955,0.05175195516135386,0.06550297481376238,0.041174945939101176,0.053402839656300743,0.013530087941182909,-0.033134714501288715,-0.11258976357315582,-0.16295238942119217,-0.15027948302369637,-0.1419495965304684,-0.03907194106807445,0.0136752025985367,0.037068922796707905,0.08102754518136576,0.0470537576634022,0.03550516611400088,0.030781192798247616,0.04867090406543505,0.018169100178920143,0.02653813692285331,0.03097058905798968,0.03313724911573685,0.026721012065334688,0.013894125398660877,0.03362130872712864,0.02751952890111813,0.038646331286001374,0.0228445570981362,0.03955421710908113,0.05589702872563361,0.038289763416031075,0.0524232824007465,0.03450884874520949,-0.010956792663772558,-0.09084643221043161,-0.13828547969484314,-0.17212248694184235,-0.1158665256993896,-0.014983166320713141,0.010306814871471047,0.05586857478207578,0.06476949010925251,0.03459462327265055,0.0627809173362395,0.06924960637273048,0.0357808176513588,0.030724211052776177,0.031549941727611136,0.028324980473359927,0.015020797158071272,0.022576756470696197,0.011167733174435297,0.0027205021632097097,0.004563587711391092,0.029359704352300682,0.029747134795720775,0.026574701952291235,0.036777076642881004,0.052057770734232095,0.07691092893671055,0.07989070250893514,0.029597047445087402,-0.033671284623848934,-0.10010771870408476,-0.16764934714067325,-0.08447290677905683,0.025207475562772756,0.015637559552416424,0.06924747819132923,0.07856913347989215,0.0664298194913489,0.08193044572809173,0.05647463567578388,0.05451648087376701,0.030334838633106882,0.02654717337969328,0.01752475825941802,0.018683400723405855,0.023099057528980733,0.0286341519306716,0.019138068909612227,0.00410101174928749,0.03788262071486606,0.03911338548679912,0.025736056317079172,0.05908390274054758,0.05662454797540521,0.08450566092322111,0.09021944527202935,0.025944445286113234,0.010888749891659163,-0.08652403643172363,-0.15137593283089545,-0.11077653369617307,0.006456821189812611,0.08365180795098055,0.09061125365301531,0.08061603931439525,0.10074258801206162,0.07435360225942426,0.036757838605722716,0.03926182676736025,0.028589883850514582,0.0298737018090816,0.025468546293642844,0.023261050697024596,0.03124933508438296,0.00013257176582700536,0.02595462498264664,0.01686632956482283,0.023578554141798276,0.048412922016063,0.050610052392568064,0.0808032858058346,0.09715999918340956,0.0917385171981625,0.08727496136206343,0.08696669393886701,0.05316084726108692,-0.04539966615899443,-0.05398861447927351,-0.09130744774054855,0.008651946759967326,0.08480951803910355,0.09002273817984528,0.12329323499860013,0.11066650664390681,0.08096427767018684,0.05432029554700082,0.06716089066724658,0.020218356856288467,0.027822370923141125,0.019254589150467575,0.00337692769483959,0.026815348852665875,0.02941745575128243,0.014304936044615224,0.012950109090851791,0.01516030036738861,0.046766621562746774,0.0467938317209753,0.09854537368941035,0.10885756710939674,0.14276870062804706,0.12600907218823076,0.11898309537336445,0.09549365033537333,0.03167746848195132,-0.06671164018714529,-0.08267383940701138,-0.002969520410084699,0.06773838454663801,0.10150842132031174,0.13297391835236363,0.12363599553307704,0.09441478717399664,0.07691725303587266,0.05541463791443384,0.05678938190054336,0.03875925539060951,0.027957707539235703,0.018355988838952002,0.017658211723109007,0.02916204489588637,0.0027842942979812695,0.015023516172982296,0.021994860114935923,0.05596475526622335,0.0649805143055963,0.09891712636315808,0.09221036408967445,0.08361512469032341,0.12021089514644025,0.08312259048683154,0.06864614665030803,0.05563232826002928,-0.043118643978436934,-0.09481123925831572,-0.004118006264514733,0.07057198769437197,0.062268663067306114,0.08865556255992103,0.1213895374101918,0.09794541009411044,0.07400215951079626,0.09025301410245472,0.04664403945273397,0.03804323722106537,0.01322205432366207,0.015056167771077015,0.02144069822831282,0.013868463339923542,0.025411981144519494,0.037881803192621855,0.05910226710800332,0.03770199735133977,0.05094917198516166,0.05445445459291964,0.0383787144452911,0.08241408646888194,0.09324654050830784,0.05698346069886826,0.06231908867571472,0.05114386185465345,0.020072294499115448,-0.010572556628444646,0.001421785955919454,0.06394325934751113,0.03732122774965998,0.046381694983262674,0.05186732124068986,0.06282419230872818,0.07231107269036315,0.07962731963360892,0.025768785125044755,0.017889453112421887,0.03473447544012245,0.03482647184948411,0.008546255771763227,0.03269837500336091,0.023346045831592572,0.028404904384374305,0.03584878710383329,0.032076096533202626,0.029051058027172547,0.038660436544172665,0.028878778490535006,0.03572051503948588,0.048937654495342264,0.014453737170278393,0.011832466293419582,0.030094576785904853,-0.017523064737354693,-0.0014652521182637167,0.0113126320777754,0.010094685787866922,0.02934489282410187,0.015933144462862113,0.048706040143456884,0.0775114079027477,0.07567982714824505,0.05632237333657326,0.02152295416252317,0.005045796368136771,0.0240313354680966,0.025184575170424266,0.006370756551675037,0.019978427091976454,0.022144420003421376,0.01843832746316513,0.006472399133488767,-0.01811247234841805,-0.0025624767358774993,-0.0068749800527980465,-0.0319729276898692,-0.01064789570565201,-0.03984443509250847,0.0017899247598447525,0.012790582909373977,0.019262761789266416,-0.026276523481059546,0.011345638877690146,0.013525524986255423,0.05508408615363877,0.04781512557612752,0.048432465635063364,0.038581594472781755,0.060268855029411504,0.07195412071396291,0.05202153397197877,0.044129870453290296,0.032035285003931914,0.0082832992984339,0.017908818578573106,0.007652886128326902,0.0025594685127964135,0.007904412689016064,0.014613834226879634,0.005566800922338331,-0.036767151809239174,-0.0337627173588246,-0.023484987527880676,-0.054430513523345374,-0.05489059117640602,-0.012030860397153842,-0.0005210789595341394,0.033395542664634556,0.012894670396168456,0.000015769567271529624,0.024072341909724477,0.06493422959975663,0.03937239547651115,-0.004317705876807979,0.022334486055978042,0.016212629568019086,0.06183268279364284,0.02726875624917442,0.050885873066056346,0.03769637939449521,0.00460534474481206,0.011168071639135893,0.034584772247461516,0.02780357164130192,0.00833180139452284,0.0017948101343884016,0.009431874802530743,0.03285297156983644,-0.004081835248743837,-0.011313635997242595,-0.0017233443443341546,-0.014699968118261344,-0.007156382462106952,-0.03228212721725525,-0.022821529494976723,-0.04677957269384533,-0.05120353395050624,-0.026767375119218194,0.02422362583202687,0.049846958836300664,0.05381214728277759,0.07854094978437752,0.03551934686563284,0.040189251599702554,0.03384009193299848,0.028420412500906378,0.048377007102126245,0.004341989933063394,0.021050997571591398,0.0139924922961761,0.002453096782640274,0.00019352118367784086,0.008532197046195638,0.02057764652243264,0.006737384381319338,0.012975439472946871,0.0242650129750504,0.003591397802439713,0.032506255148822376,0.02542072399514502,0.007186164875860381,-0.020804644952210686,-0.027826043020889264,-0.01618486263968766,-0.01046845649451198,-0.0010520480161078567,0.025218264106012862,0.054490063304640866,0.052424594030174486,0.03557536012876939,0.030399487594283434,0.029203288320501182,0.02558891673794673,0.013088622799352334,0.03710434663262112,0.017394661114251114,0.03130075001080732,0.03551455929894703,0.011517015094244838,0.030641485393444776,0.016904123926125027,0.03093069577660976,0.0003408689670873488,0.011735020136441994,0.02792851819043619,0.017119491069266395,0.015459028499686391,0.015904264057586714,0.007014814873809229,0.023079734368208614,0.009534594103553068,0.025608099257715723,-0.007331739848028303,0.002514756126040137,0.03197096133191799,0.04221123731421689,0.01655951803490568,0.019059076176397936,0.014685531425683622,0.02967992361562108,0.028865192917358253,0.023868694863203227,0.005101438731706728,0.03393883455951007,0.009937886185522375,0.002487934546112204,0.012582843003574904,0.00175072583744601,0.035193054454446024,0.0187723443419379,0.009733699246142915,0.030542369826374753,0.02568361654071581,0.027256678816152864,0.013710792995411907,0.030554654245279582,0.03301043738385825,0.01993111561406065,0.021247432489146213,0.017802078416032825,0.008245850714166796,0.015257429306306485,0.00003149259227536403,0.010252806161560641,0.029222580209947946,0.018437232755341742,0.030937967699081154,0.0195702818234704,0.018782095570297672,0.008465959395951477,0.008939474722998553,0.006024309251032057,0.027123633729527204,0.03325408283225504,0.016566248254009337,0.028061919209978074,0.012557787115519232,0.01211973502527727,0.004965489186352042,0.0036196258439231055,0.027515602952850184,0.011106753245113439,0.03463193539067166,0.022002063327084913,0.03231974801142033,0.03309883216152678,0.029855659446394116,0.02843769933411035,0.004298333662342938,0.013919807818671208,0.014489642657617794,0.0036287397894014966,0.0025664841978065766,0.0010817649582924463,0.029977827254246532,0.025824173889660556,0.023645570344205787,0.025863313931378498,0.0028657360497690776,0.006930681681705043,0.02631716472617452,0.018966036366138663,0.02540515811079802],[0.006971861636043035,0.03190901614982728,0.00877119779758104,0.027335333398214978,0.002972406607610461,0.028800198422564482,0.027096978671821776,0.014497328743022246,0.0032728173810305954,0.0015239906239806675,0.03395893715708314,0.024955537892019018,0.03566319174508379,0.030499076273084177,0.007711141216195514,0.0197654021843218,0.004355612174865028,0.018764376974327417,0.0037811037058867298,0.008495627262120926,0.026172372319527966,0.008152126152740271,0.016052254390808103,0.00399062606069543,0.001653353622522058,0.006996815315558823,0.0248945506349531,0.006573858792100802,0.022996537282924452,0.03558215693114723,0.0009414867197600525,0.0025924227857939447,0.0013565093346740561,0.02585542770614723,0.027203382958754456,0.018223382324718686,0.013704668791976559,0.005875384171469305,0.019289567554031578,0.007168883177941207,0.010327953916981795,0.0078802377771983,0.012242831560204373,0.00378669091553947,0.02475459829864704,0.010069046713291322,0.02916967238676332,0.02846147898955237,0.023414640467859824,0.013811405362842175,0.01931348148082218,0.023433367298200312,0.027855123428725957,0.03055500444255142,0.011126089632108658,0.00754292792964985,0.004730349543358587,0.007738935636448944,0.02081693289217176,0.024453534015006953,0.02823811457921564,0.020595924177198324,0.0011880029516496983,0.02102878072699889,0.02246579044934446,0.02941220483561042,0.01862908577775935,0.021313410681063384,0.037018418687337455,0.006614163864746313,0.02016265093480338,0.028591165710022515,0.002270333504623551,0.033709750958860224,-0.00017914826579731085,0.008550265878254937,0.004822370678088229,0.015849715289953596,0.007181069232066613,0.006047076417670306,0.021617720917021795,0.033147141523977484,0.014332588528016499,0.029310066139106656,0.025552775237723764,0.00027333154685718223,0.015553288190121611,0.011427584964455478,0.028076486165623495,0.002792179569822811,0.028657721492645102,0.020305995024451916,0.01632171817863941,0.0072680112893017445,0.04288930954750923,0.014295256335170215,0.016545011717248318,0.023569762423915293,0.026985203634604445,0.028665933552223653,0.0052152827249131945,0.0139802272877236,0.0037864028040996687,0.02560418561053271,0.008417803422964873,0.0013000086985276015,0.00658519227232365,0.0236811930715004,0.024581092333519686,0.0035860856658954895,0.03181824217408192,0.012532121975746593,0.028631488942108048,0.018593320118475625,0.027249850320620807,0.01828828156253989,0.027648739328478698,0.03565549871878426,0.028120010103703692,0.03414797640075431,0.006360696587333441,0.02304645894395018,0.03757800588273791,0.024622064662964488,0.019529436253969613,0.015450192536234588,0.01525225158292328,0.03578396284777272,0.01848280732764282,0.02710829429731891,0.011068059213144707,0.03428867428154027,0.007827855971236126,0.017670482549315074,0.025697705363638506,0.033091676331978445,0.015421834183516782,0.017937308751014788,0.007346110092162184,0.0037076289419562774,0.03281408024574729,0.03316522542858432,