{"layer1":{"weights":[[0.03204111830030078,0.01904540976047881,0.02993613793731348,0.004686408801376274,0.009464760790448374,0.031202221520553623,0.024693447256617786,0.014549800442428183,0.02660045200535475,0.010960045011327644,0.02534096271479756,0.02217848129676239,0.005460591575298366,0.00035357785976296605,0.029820488292725437,0.02630922451426351,0.018566442068900766,0.017950895527777067,0.0021364392665139042,0.027014478215790966,0.021358542542061747,0.010155124597093137,0.0075816167442894055,0.022248778523947015,0.0055848253818767445,0.001505565392529876,0.026159931926434295,0.009764539156309522,0.0029159780758958942,0.011265346012870452,0.03106333785292465,0.022007495494810736,0.011945672432196616,0.03151806257354485,0.029320734765771055,0.024066865394917394,0.04194052633510654,0.03339818500877548,0.005311624300150679,0.006017865106912547,0.0353704155224787,0.03006907410398546,0.02128632943438395,0.02036706968505944,0.012549582883529344,0.029019692683386465,0.02935549706065388,0.04060252985449738,0.0333634319033234,0.015265970161178215,0.01202331637411156,0.005780177990042148,0.016524497957476673,0.030631289072476395,0.014994266951812853,0.009320037475081746,0.029666474838640242,0.023566093803299326,0.013330765787884448,0.023471444829160745,0.004489036829572826,0.02188327516325439,0.01724138504290199,0.012206574751987805,0.03675860183499338,0.04905221778223971,0.08612017238164177,0.10933160158211884,0.1287385500980452,0.1265197191461906,0.19656867692312466,0.16868678818852792,0.15913170683849676,0.11834528373167895,0.06413694949106469,0.0773869289763957,0.08393191406680606,0.05356693127089637,0.046426814651781834,0.036706122539187105,0.022037699251015532,0.01615190461598482,0.009902746916500591,0.0028544206456215643,0.0106436232166657,0.0064398197672320846,0.021652491858194463,0.01955052661858788,0.03967171512982236,0.016434417114042525,0.031594334054496985,0.04282931760336246,0.034258288059262995,0.1074992182604539,0.11555647741861202,0.09654406526620944,0.0010156677073884359,0.09681074737521332,0.034589721370639065,0.1292504573604857,0.16645089973601188,0.04224447414859089,-0.04937553015219164,-0.034149200579943195,-0.005640185726911181,0.0675835279091884,0.03346597852749454,0.09950705497327882,0.09425210878623615,0.004920567836035615,0.01829623593413099,0.01094523874079778,0.025520603031903226,0.009647601061250673,0.03541098804477882,0.0009239910106777522,0.010792824936692747,0.034580830497085914,0.012703951708972434,0.03117354089298105,0.15009851846937916,0.2604741386831359,0.1818979829650104,0.027474172659791928,0.07693503285272084,-0.026455705083139488,-0.02064577808757064,-0.08134279323672192,-0.03609250863799545,-0.07944717291085117,-0.13824253384375765,-0.12011147325552043,-0.10332395128433672,0.011651424727416261,0.06425111800970722,0.04173279218942291,-0.05033498733621852,-0.0592249661948326,-0.017059595551333285,0.02121803031702724,0.007127263222686071,0.0030596457988987407,0.017861640581067116,0.03054043239172913,0.034918513086167856,-0.03789171526629646,-0.06916841313017175,-0.009919820794088405,0.149029304349615,0.19824210139618254,0.06201380568860722,0.006702687545909685,0.16105626503365283,0.24038710120861048,0.49098857861071515,0.29279637526255603,0.08111998522333885,0.09418403951402231,-0.018154143280193293,-0.0038590111699584742,-0.07485171431695742,-0.07020288081200557,-0.17873133664520938,-0.2304919246112075,-0.19041388999921424,-0.15304173562667464,-0.0028917576226673808,0.0018072434714851207,0.0037169277261950534,0.00848694299882178,0.008257656647474338,-0.018774592030660984,-0.011621329284269937,-0.16603155068615325,-0.13366040188345632,-0.018839583977602003,-0.043718856351386,0.03042659613581431,-0.09759849462143422,-0.11004837449334405,0.0037180225903798527,-0.04544670312185265,0.034466014396729076,-0.003944761476418512,-0.20219059024960734,-0.28897963169019264,-0.1388336250192394,-0.2636360581682339,-0.16625385527489075,-0.2812595164785434,-0.4271855620634603,-0.4120994654569971,-0.36383321725342893,-0.21094152293063087,-0.03856923283207592,0.007870857616111249,0.032078996092270814,0.025346361475195048,0.02062031594772302,-0.07181551366376866,-0.06300879090537091,-0.24085131211462957,-0.03267818592347605,0.04167639168688343,0.055996207686740296,-0.08223663903915797,-0.07586925223828864,0.03477409266997949,-0.002256487929840752,0.032249753056604,0.048840979219141496,-0.20203663362682403,-0.3749110861036554,-0.5084229317666941,-0.3269316432148276,-0.39115158521206905,-0.3648466895621311,-0.2646490858777525,-0.26003864022897605,-0.39816920158033414,-0.36815680316732957,-0.24589491050883244,-0.0363931390755318,0.025163631159648543,0.023380252233328833,0.023332380187857295,0.005490064305273034,-0.07853017267516843,-0.08717502278390193,-0.06410435786424745,0.05109801065552504,-0.050298752746911306,-0.09711016411555412,-0.06090053636198014,-0.04446038766454665,0.2682606327007811,0.2248945779353036,0.25592067157198634,0.11071799567428119,0.06889796052710447,-0.23372199707631774,-0.4508884895884743,-0.47046449133717666,-0.39888013242631665,-0.46342879753416205,-0.30092421423596877,-0.2964326591251178,-0.4142242687860686,-0.42716018670527256,-0.3002118419532236,-0.030075138130452456,-0.001958967920131616,0.01748167343595747,0.026175894896634303,-0.009294403789806312,-0.0651543907532652,0.035445174123991625,0.1851324200760428,-0.01998788743662848,-0.21239280033849092,-0.26409132890780584,-0.12375789706743759,-0.06130798856923104,0.00648753734858265,0.19103628689253777,0.13965561194311843,-0.04225777924170442,-0.010764995959441276,-0.2919077281467963,-0.27830926915917825,-0.19878497921245064,-0.3010878707172357,-0.4205970188815965,-0.33220134592953604,-0.2824973026304319,-0.40792154043306456,-0.48013928991094884,-0.3345157565404096,-0.0747065508230357,0.0063048304167761145,0.0013071643754582053,-0.006953877159709388,-0.014169876016949532,-0.07748281922132237,0.08694804500112213,0.12776976323110736,0.03539439631728731,-0.2550335967158262,-0.3484455439225719,-0.4900203545547969,-0.014981527381172918,-0.2542772669370633,-0.05022549562542193,-0.07193123363218372,-0.2803370679250875,-0.45763485734741033,-0.2752843042200779,-0.3386145109344899,-0.19153724082776924,-0.29668774221412986,-0.41809060227059874,-0.23666076978522213,-0.22909061433767272,-0.3098828069494398,-0.3139012963750422,-0.29357665470642696,-0.057174338509143795,0.0340998104909375,0.02665515724431596,0.0030425664781439515,0.00644837863886922,-0.06310600414497396,0.14714251842347975,0.0800651056489229,-0.19208825244577443,-0.30325909729284556,-0.44683715112884304,-0.5142061932343913,-0.31313398915215623,-0.44091395574626385,-0.5798497443196527,-0.76099008088451,-0.9622101220311964,-0.6800855490407989,-0.33382354581393014,-0.406392866628004,-0.14102004495710344,-0.11186552785418521,-0.08026107888796169,0.22502099778471846,0.10373314022092125,0.0956925879345132,0.08592278240164326,-0.09151401799507201,-0.025847115532368705,0.008504494808467142,0.006520936246776882,0.01514725276960777,-0.008992537889456214,-0.012109341857407738,0.09591652968926206,-0.08491543606542144,-0.35721799836612345,-0.5181878119501147,-0.6226438093142102,-0.5013864074968433,-0.5100229571497874,-0.6645155749289816,-0.6386325258626024,-0.7736964956936568,-0.6692384057271628,-0.46826164357922895,-0.3990827453149221,-0.23582627832226685,-0.1885317882799753,-0.016856383030939864,0.21573907688916816,0.510928821339508,0.326579735712056,0.27202774895172377,0.231352401980838,0.020204558228218664,0.03467135811068978,0.030509331160561592,0.013259156317088166,0.02804932575032027,0.009984024099208866,0.050419736565861344,0.06033233405381511,-0.11423611952030212,-0.3300025706307719,-0.5156925185001873,-0.5026652721564905,-0.15925167807878424,-0.24607671042289292,-0.26028030903438726,-0.238807188330342,-0.2483480098410508,-0.19618726280133889,-0.34403223439329544,-0.3417587994895568,-0.41489398391454607,-0.2113697529419139,-0.09099641387907684,0.01564126068491066,0.2507833701284494,0.19742241599678692,0.22085739297807053,0.1949096831270494,0.08088208147682655,0.034836470188175074,0.01752723359888124,0.0042092738327643596,0.025368786473779322,0.005149074176539958,0.06314018386115886,0.03705038588966054,-0.19682245669899187,-0.17120371014412744,-0.15610557289651084,0.0004270499704283673,0.24390404682409023,0.06609003256399067,0.15376423255212066,0.11816055686554612,-0.028232801739561237,-0.0791790484165643,-0.26683623923026983,-0.12043884907106421,-0.32061026998473785,-0.2637080755363773,-0.3605242914732717,-0.2844445459152354,0.005720180847127696,0.15243763263467652,0.0633286658751649,0.09907415605772034,0.06146541300438527,0.03906061163157659,0.025444270949891285,0.012104857573316767,0.0026266895746403607,0.003863135112747171,0.0765872976181938,-0.022979853886641616,-0.05813440055075757,0.275779320067919,0.2957192044034214,0.4451883177524031,0.41770719363973097,0.3364517089464959,0.28431371373085385,0.029571022076610606,0.04792537119751192,0.02516606012982311,0.0736599208933157,0.02408371491233682,-0.09463819294111583,-0.271438146963167,-0.4248247489637922,-0.17269793605870365,0.03686308536675363,0.06747685662263748,-0.02671623329229565,0.0761914409900428,0.09622950809036099,0.05918496906282198,0.020918839732596523,0.01678830811719851,0.010039242598132587,-0.0013074382170706535,0.03444480962641433,-0.03127124456431484,0.15921595454976056,0.4355881409867427,0.3330152448060677,0.2910433699190831,0.3690174372317119,0.5454326770881007,0.4136484798835818,-0.03068391667941425,-0.06294560028802265,0.03969576657062239,0.09418762021917886,0.05732853493340185,0.006595067021829235,-0.28153158502949377,-0.18404644708012552,-0.0006144661846662032,0.18880054324013218,0.06236783816549305,0.07511518156677652,0.15091596278084254,0.20043792928782458,0.053736461652718094,0.036301282979712315,0.0026449938681173324,0.009865228514161712,-0.01481973163050855,-0.033610287140873135,-0.0061315285149234604,0.26970350321726894,0.3331297719184724,0.2388403263330126,0.34362780596247916,0.3653555539438897,0.7223688896720001,0.5032029234800005,0.306274719429109,0.31117258944097304,0.36580600935564545,0.2970899020587591,0.07494838571760083,-0.020698721639654024,0.0835422526490443,0.13238630667568596,0.20925754641753702,0.1537451510119561,0.0124245532659642,0.1360839691195158,0.393426751055845,0.293719888067736,0.08862611719450349,0.03616489418593487,0.004348382945711469,0.016362961754223394,-0.03220286342212899,-0.08088558401700968,0.09481324043120612,0.26895204177099197,0.10568999910667998,0.16558523414378792,0.20333300484592298,0.2929910038876329,0.5156453267580509,0.4387906320610294,0.5446716367226387,0.29941589428660054,0.29684059115803185,0.1163468536931268,0.02876301692817993,0.12095498592113055,0.3856242660951365,0.3494710361685118,0.30772653633565017,0.3056287441954732,0.2987668995454274,0.5216669285462523,0.4307160007980478,0.192639894535221,0.0480537925269876,0.028686308574234463,0.02682880497301228,0.01444059188390286,-0.024913229466776956,-0.05722207686444223,0.06387738104665702,0.1565310035723518,0.042115847870026916,0.1706383549671939,0.1955307003682305,0.255325446915989,0.28157287872955716,0.4216262107120373,0.3866535634790649,0.30123797632562715,0.02993782828594547,0.031601613088723716,0.18351531204072585,0.3040030580078817,0.28492197515641066,0.268708038462421,0.20652478437086685,0.3074868440732563,0.3420068447653047,0.36676104802968634,0.3836359464780588,0.12107537246960773,0.05845015913586701,0.017062511851669352,0.03505534848574393,0.01931909037047187,-0.007814565822233855,0.04551978842752454,0.182719947371518,0.2116087880230151,0.022926546205620273,0.2762887359493355,0.1884387546341065,0.1746560375133898,0.17446612420032998,0.48696414230090335,0.4310510186202333,0.22952048228087893,0.23662897873432487,0.18630655017521125,0.20250870739793483,0.005426593686104674,0.4203252992739071,0.3846462541742256,0.162361937170432,0.318661670100069,0.3616657248199171,0.4576913601166458,0.2313531750767354,0.06067557297895058,0.06469487415059233,0.013389286819823794,0.018379869207296624,0.026814289796180522,0.03925644327630442,0.0548276475918239,0.11631930891199166,0.3220669353637474,0.0788895986287861,0.19168270928804612,0.21022554190846737,0.23750255517816946,0.2493038180436002,0.32711769603377067,0.19462182738996034,0.34413739904146623,0.37104290171762455,0.15388067927128846,-0.13986094163279633,0.08671590833575668,0.2643364044800175,0.17625406326277845,0.12154433481298028,0.32565673041033194,0.3898249678299606,0.4304982725655667,0.1754509909786141,0.06840261034226985,0.025524837524767575,0.01068941793486434,0.03512561133202067,0.03474151659264499,0.020083377185540294,0.06528035377692487,0.24321586777730178,0.32285258165585123,0.20243219486641756,0.18835837407259215,0.22883791523170505,0.23727776221644686,0.17953515838312095,0.0016153375348690057,-0.09145638714349101,-0.24017621259150082,-0.24225325673604325,-0.3541584392551411,-0.41274280705593086,-0.267639949342667,-0.21919298652487657,-0.0588396013731797,0.17482013945336036,0.39967327282276927,0.3680855835339606,0.28493931693138974,0.12237590978384677,0.08361232289988704,0.030038710546642235,0.02349529897517899,0.02529882874453802,0.0012971123659489905,0.032650614138776755,0.032176739822175116,0.09953503319229733,0.08264870237490914,0.017428315279904915,0.003597576197273793,0.13429258054045468,0.06134805452548145,-0.22077934573102795,-0.1206225550963281,-0.2259394932997221,-0.35922319786700113,-0.6242118453934291,-0.5970545131697208,-0.5139270531619995,-0.5588513543858181,-0.3234915546552487,-0.10420153467795919,0.11784770135218017,0.2005114814571472,0.24173341627655998,0.15741356024970155,0.073382123936726,0.028721025892159694,0.03750018373125906,0.00021191966444065815,0.0003927094344585079,0.03364808621938674,0.012732053484614585,-0.03310376880653021,-0.05000386903851373,-0.11772825344656608,-0.31535604892289054,-0.325974698150484,-0.2336505252725076,-0.4409426581249481,-0.5354610588834151,-0.3556733668776238,-0.364158179952637,-0.4835423813898397,-0.5193295266643906,-0.4903383941972857,-0.41606945749772023,-0.3887616874609886,-0.23797119040049897,-0.09953187337219134,-0.011131652093588951,0.008540423677394706,0.03707140559463909,0.03431624468851646,0.0531495735934285,0.04249073686159865,0.001913925790149857,0.032078053868612295,0.004573016331952189,0.026642724802061035,0.002621786267274528,0.014440077915608416,-0.0025311551358474767,-0.07852255464090539,-0.15075857698361705,-0.19065957619277688,-0.23718090721633237,-0.34007090908451737,-0.36496755435702305,-0.30519765964606904,-0.2475175301109238,-0.21310420037901778,-0.21114974186312332,-0.21433422521973772,-0.14284045819252614,-0.06911084824368804,-0.052254833257025644,-0.056946463508635255,0.018104393465607767,-0.017294093869812212,-0.006036019783310266,0.016909912452556623,0.025760303948115054,0.0037395435444630746,0.0077908383383813425,0.006466720960034644,0.02768838766499499,0.021675937734074977,0.03474937013812268,0.021871120372926885,0.020214542075133266,0.016493592656082343,-0.004278366598924648,-0.031644398607225274,-0.04368635456006128,-0.05344069442262057,-0.02813839828073905,0.0018991228980772532,-0.012042557865502157,-0.05305558292370056,-0.0173190062434941,0.013480906787121301,-0.0012592268915682472,0.04113205561667732,0.0286975137961307,-0.022497963772302062,0.028667298972550898,0.016529515358940015,0.024035494946212484,0.020014784044050313,0.02401415911477362,0.031994491494482774,0.021586983659026622,0.01663147990740713,0.008420739087392088,0.026909783674420214,0.023076586855004726,0.033388821322846936,0.014993878635730939,0.013786798184822754,0.020779453942524995,0.02292217146543261,-0.005041289583894976,0.01039055338565967,0.020132905948498318,0.002970053890564758,-0.006733116777354948,0.019292111523584673,0.005174914196180788,0.025023387242352445,0.025383264541110735,0.01514461084395574,0.007960307755077892,0.025328939355805474,0.025060005459387736,0.03156650674109696,0.01665778427670387,0.016010689295519777,0.01071104150668391,0.0021546277529997777,0.02144769196739889,0.03366911583584258],[0.014199542366296305,0.01344232881130313,0.021256730456036543,0.023207184964487045,0.0017350792753405644,0.006326341326844945,0.025294506464534856,0.016782095927898144,0.018232180865103562,0.0034657669216189924,0.02617745370481121,0.013279059042953813,0.017228510770402033,0.0020625547981241634,0.010275918282344353,0.00846440706609557,0.013954095458408573,0.018488776957347335,0.006006529480704974,0.023049248295061515,0.00585997803505934,0.02755438554207865,0.029399702545778315,0.0046254362861051935,0.02514766914784855,0.029966117076826893,0.01099682353777027,0.010433898753642312,0.0057644851586385005,0.0002658468685370579,0.0006388560891168063,0.010181006801474959,0.011140745288123817,0.0305082641105886,0.018029136993043007,0.020395634751270715,0.019929810700562416,0.024759511192656306,0.0075087314414008085,0.005817773689856975,0.0004999424818632533,0.02205727599632631,0.005611851306784526,-0.0011087321168217889,-0.0034199216693064096,-0.01214398207059933,0.015253488418605205,0.0063882678346514725,0.032168019504759504,0.03688669411315189,0.006218012848748117,0.014849115044252712,0.008924635192035386,0.002720557490282121,0.034031556645378956,0.004333909058435915,0.024792634438602572,0.001622858407881884,0.011940896756103254,0.026682188837266595,0.0317980625427834,0.005630098758003677,0.005181322792680771,0.009526006215142614,0.031029182290110997,0.03597276515354641,-0.023784593326398536,-0.030081084375252073,-0.03395095493390019,-0.046858034788413515,-0.026126861891389793,-0.04926688345354301,-0.09280210157601074,-0.11903740716180487,-0.026054827759102256,0.021319621836337354,0.04097465799674627,0.06045649426154232,0.04236711431787166,0.034027750638719226,0.0290317454288062,0.029738314008790307,0.03229899734137277,0.02858495667670608,0.01867183482003557,0.017457498837361855,0.001473332944819805,0.02371683692538595,0.015107120778820654,0.011294497010539502,0.031895008715554736,0.023378214299625992,0.038895379418996026,0.006264424723041383,-0.01840713306783985,-0.04965986510502153,-0.0990854559240898,-0.12208876635343235,-0.03568765304401739,0.010034031000690833,0.057105352805497,0.09904357446214797,0.1457628323867885,0.1684029297007731,0.16610494793921404,0.20010110861874733,0.12496230647726551,0.07656375503867652,0.041657476588644736,0.01382101698534575,0.025697593593277702,0.0009676636195096495,0.005480793685364019,0.033897773649489316,0.03311344702118411,0.031074100862046237,0.02530153599771228,0.026221211757384278,0.015768957883224705,0.017316902338425942,-0.031132147846105778,-0.07316408888794705,-0.08708760391809044,-0.1471548301209473,-0.16814695028663404,-0.08028729366172754,-0.2630624812571098,-0.3922537630205543,-0.14531943005398867,-0.1317579578414906,-0.1075178869412153,0.038261157186561194,0.09397024732657669,0.136235348998557,0.1414888758506288,0.13530302028436003,0.04142346525761696,0.006853284328592983,-0.0009286221668996526,0.02304708901336798,0.0018678598097277724,0.0010402147398648357,0.0077771249653376465,-0.014609788755715445,0.006550071090969827,0.036154180010182856,0.017183875552841937,-0.0007632121330192777,0.06140061301773803,0.009104670264705579,-0.09498905343892654,-0.27970956637540306,-0.29042339275230666,-0.23531909219105251,-0.520495395249575,-0.671728628473424,-0.6800391838436721,-0.5748251869233013,-0.4326119907774492,-0.35183313542909217,-0.2817886381430899,-0.13771470155301233,0.03250613506244479,0.10945126301232169,0.10603808000212828,0.03351594109459837,-0.0007987694292600576,0.016697552507561466,0.007815970073931073,0.003370765735068283,0.01784157443265836,-0.034065308720076494,0.003696222241685916,0.06312566466648671,0.10142035357196454,0.07905915644001002,0.09942231389047036,0.050021667025023295,-0.1292392172533202,-0.35762821347629997,-0.44950414250792475,-0.501843555218154,-0.43188740165589745,-0.19258058760991126,-0.09792897757635156,0.04164717117412643,-0.18503403671602467,-0.31448247342331087,-0.33264182263058206,-0.20462742415069116,-0.2147020826863004,-0.04803463503485039,-0.041059260025794526,-0.0677521887852745,-0.005268536860517376,-0.010124344598905035,0.009585236049158914,0.005066631636789853,0.051666438002792005,0.07592268348520198,0.008646023065728722,-0.012319160381803373,-0.02888452454919787,0.11261759567182322,0.12508145818823704,0.13484455593341316,-0.04401902732827979,-0.1546354459760889,-0.18282442642097374,-0.05851589539949097,-0.020141847962673782,0.04845086531497349,0.19177932896017036,0.08562691496874077,-0.03867593618882621,-0.2528803075113898,-0.1632997489466641,-0.2688085448507799,-0.25970289465469665,-0.19838861272454525,-0.21009606759550942,-0.20485068174670013,-0.04537133032438881,0.026003391947577954,0.008071749767838997,0.003186218171550121,0.08949077052058386,0.1308699415042852,0.16637899407844306,0.13696479591416919,0.02078164485712213,0.14843725793908374,0.1929766315694191,0.16423153161080328,0.1971786898219079,0.04892759008786357,-0.1870290482617914,-0.09850481188772606,0.027278397587189893,-0.020449901857004883,-0.02108359501496887,0.1107435071484037,-0.09431496675134403,-0.27981324573791966,-0.16163234802360082,-0.3622160484407521,-0.4432015871989185,-0.30467872818523634,-0.4494732605830848,-0.3078394710191474,-0.16450338821610808,-0.025650422157297546,0.03112516349940412,0.019559997560099632,0.09619234854924996,0.17646785085629768,0.11956311219083599,0.18914611401082737,0.1103080693131033,0.01425452556969001,-0.028709135191364886,0.20114893197065603,0.35476658620737045,0.20420775043974446,0.44998380206750915,0.3646960235174845,-0.03314707147651953,-0.053294816389169664,-0.05979118912246017,0.022942781113214315,0.02669341161725178,-0.05251589348091637,-0.22259882301220965,-0.4931998707511862,-0.6991755349857021,-0.7761938417094496,-0.7492840004677234,-0.4484993148288583,-0.15683983413644773,0.017053214107042674,0.010553067991856553,0.03096518776415168,0.051208718829792554,0.13186395469755965,0.044206481487289125,0.1147842003655737,0.07657055701014842,-0.060869794324845794,0.08975748853565764,0.2402876898056646,0.08832724437466985,0.14930708274698967,0.41851624155964134,0.22286952241460017,-0.2884561485417581,-0.19620484342270797,0.017535669968750115,-0.08988137598473593,0.04127192737995515,0.2505158350774909,-0.2820033209445422,-0.3117249591223279,-0.47583898092082694,-0.7982336145490798,-0.8068887501350328,-0.45132597125380564,-0.11481166018759888,0.023019616503387,0.016107658145207888,0.02667451488072181,0.029126248117017334,0.11628242989522872,0.13710499958287123,0.15042621388179006,0.1996894572355547,0.12368424566929072,0.2149888865093291,0.16902014413151015,0.05754019729071168,0.38486428469752076,0.4190519493661702,-0.12164874690680018,-0.43801723959440375,0.06952648517166045,0.38003005208311014,0.3367465467507458,0.4092426723764378,0.22330159017003398,0.13904650146459455,0.0845510284857962,-0.051047048449624745,-0.6077477411188873,-0.6139088726698249,-0.29615451690163613,-0.05226675291357274,0.025704074471836594,0.015076454123349046,0.014731529921727384,0.05036411917787687,0.043292965250058206,0.15246814715637944,0.17917418298789242,0.29939464979999936,0.17162282233723036,0.15034089012281718,0.13858318093870975,0.14910349858657132,0.24540343030892717,0.1784488650869236,-0.542562501745029,-0.6015064596979698,0.11643816995803725,0.5713079072276422,0.5107485385399566,0.5577390022987345,0.5155014513666228,0.23946942819238456,0.280332757688595,0.34972573952589353,-0.05764327714736827,-0.23574993675740671,-0.12943522896685422,-0.061474753524480674,0.027195701975842614,0.021602154849585706,0.0364196501958831,0.03116568141587726,0.02228829723192809,0.16624786869218972,0.3344767863951316,0.38485321303726683,0.20492076715396756,0.07258221659376633,-0.1184381009415037,-0.06448626400890928,0.11524688815661784,-0.2662497170418627,-0.508621267778399,-0.3415038268093214,0.3445942508731689,0.47488011418300047,0.3853824095134677,0.22384865281555646,0.537337034565991,0.33084381502142224,0.6346907836916033,0.5042722152732784,0.1407019337446764,-0.022865848658816846,-0.03659005780809193,0.010400588788622876,0.009468057236910606,0.02039524586887829,0.014481434910780914,0.03514373288364088,0.01671656007500015,0.18286966006566885,0.2769126031580747,0.28461181224973436,0.1924517781317444,0.10824833675607874,-0.023603429557952037,-0.04817630990760517,0.0595146383472642,-0.4799830495504489,-0.6170769496053724,-0.38394457913172675,0.3587858206646348,0.580819727333342,0.4728517971787766,0.33218063641100215,0.8008349796523675,0.6098284903827402,0.5966432152154834,0.5871076304026384,0.13842660213354643,0.007088036414269594,0.008337700708757763,-0.018840427376061133,0.021652804329220437,0.02192912119019351,0.009185196137696106,0.04121407130564818,0.08471168091862709,0.10367036411083655,0.19180813956065002,0.24899689858677335,0.035310439286413454,-0.00918593558335842,0.16370670714542962,0.24941253187551388,0.14563877681794554,-0.312828316375078,-0.3914502788792662,-0.038835628655213866,0.6858424297787443,0.5731735659326409,0.6271004214727378,0.35588403750126957,0.7441680764045671,0.7146800864193243,0.5867853891433317,0.390025692226133,0.021485118105263833,-0.04215334803389734,-0.018680849200075702,-0.0022790094658456895,0.0061402941836208235,0.02873667036435271,0.02100889620771468,0.016487241537004732,-0.007056816156177387,-0.07511451442149908,-0.03367729093514627,0.09995883513889954,0.22358532675023204,0.18480409587971258,0.21639218986507788,0.2841052354544485,-0.018914565438682158,-0.273476335647073,-0.44994397914818096,0.02049614220035688,0.7180854848279549,0.42068899174566693,0.46172762475878343,0.44705996368744205,0.5519148260085031,0.6058199782929524,0.40781032702013886,0.10641115351308644,-0.16497600383512304,-0.17124958460046727,-0.0814957703530958,-0.042458188176967046,0.0031287787666250976,0.007109758857456453,0.002668758186234296,0.03521414025438004,-0.09071572121661665,-0.17404486696177812,-0.31639725553153036,-0.21907856611482404,0.12256605681914189,0.17073477040560275,0.3906888963035283,0.26277135756487013,0.12777646887063157,-0.05292933131261358,-0.030727892468405554,0.22614907109655372,0.6914292295766902,0.28902688052462616,0.3686686467518286,0.420801981134997,0.18033146666388483,0.21905610758173769,0.10693433556361005,-0.19557371639054158,-0.21648441396858137,-0.18898595710798266,-0.061877879893331336,-0.026900737616127126,0.0033107809862278504,0.0018139486627874216,0.0013006795229973606,-0.011235894670868794,-0.08890462729212685,-0.30081596124905213,-0.3396446012356216,-0.5015037892260998,-0.4278040035514856,-0.3957329026915557,-0.06414346135800689,0.27108081458219646,0.27738179158594706,0.07536739929683992,-0.0003980307089690832,0.1269229677674009,0.2076707644036462,0.0928619797579549,0.052155380663942125,0.02295612731444237,0.07898595356599752,0.051224855413125374,-0.26094210115311245,-0.4556134401456106,-0.3855151789157696,-0.23234944857395765,-0.08875566267000512,-0.014861238534622234,0.022137118153053408,0.03301613887410476,0.0086489581027772,0.0014425677652001251,-0.08616378095035156,-0.28369661435740484,-0.40838612101860816,-0.5588057641812375,-0.6181930047067572,-0.762626808015592,-0.6209899521567079,0.04287681589376006,0.24457332114238153,0.022009696477996055,-0.07689459412204065,0.05684316959657485,-0.07926329708945441,-0.17947181934942505,-0.05474680490606825,-0.2525603500030576,-0.06210024567646872,-0.18745121674204873,-0.47407580087900886,-0.5608122374486473,-0.3510421335372994,-0.144458091810212,-0.040497614895798235,0.01747705389748635,0.022607099258783684,0.030508707659822245,0.016623206119284806,-0.03421395627417648,-0.135983981803481,-0.271557497738419,-0.43183138214892725,-0.6853074333128436,-0.8521747883397737,-0.8289977950876712,-0.5977429188094748,-0.4019726636664287,0.01034121161441899,-0.04663945150844562,0.04264864871194161,0.11127625673201282,-0.07781104949862927,-0.14419534810248136,-0.1486359961549617,-0.4080788158979438,-0.3635835404253717,-0.5046428372105733,-0.5099509491389331,-0.5029639837317051,-0.26456371851441335,-0.022410029743212895,0.011229284783036982,0.018513429144587788,0.0065097748714683995,0.007583189524709861,0.024522249565233595,-0.01794140962066845,-0.18472630618975974,-0.291070496415767,-0.37526379402250565,-0.6938576014270178,-0.6234125460925729,-0.48258342087641215,-0.2878705624949228,-0.2894673961226761,-0.05507968004441734,-0.10869605183276987,0.011820645373492252,0.015875462393824258,-0.05221057260656097,-0.1249083746856805,-0.14307895758324285,-0.4819976642204341,-0.4737104335609978,-0.5655123596801295,-0.4696179244165255,-0.3576612550221475,-0.14838501686327984,0.0419935040032358,0.03376352775130355,0.019188772734794926,0.00728301014564447,0.023037334167112934,0.014334052617393728,-0.05531199995349295,-0.1461103347105055,-0.23885057988531544,-0.3763202485902829,-0.4684137079007651,-0.28808672453926787,-0.12556463863243367,-0.22924565926986729,-0.3180437420623064,-0.4802777611184726,-0.2758204034980029,-0.3861391645750872,-0.27928313116306847,-0.31146159752100966,-0.347700535068913,-0.34694928937116926,-0.4036390179290317,-0.5226757154820262,-0.38867048856828085,-0.21316255325342492,-0.07121132885459995,-0.024802125623833687,0.05477822956867192,0.02694744578760063,0.009986695315606283,0.0038341349612739804,0.012312046126050778,0.014220813133857804,-0.012782697982409889,-0.07837717560431341,-0.13516752449258873,-0.15525614676721403,-0.10703996313976462,-0.05943695043743362,-0.1515040503393272,-0.35511469572421533,-0.3268633106728299,-0.4462186862400393,-0.5393338764722821,-0.7282952136933525,-0.5692744230371609,-0.8501765097065663,-0.8189832281634472,-0.5456144139714111,-0.4472279881142785,-0.36371074956475247,-0.15918835533561754,0.06805123636736092,0.1415119750184027,0.06102019333520783,0.04463142811252386,0.03278528749479416,0.014013466152820647,0.025047797461257737,0.007666217669192288,0.0033201940276140047,-0.0015087326669823262,0.03038466254197279,0.05460230859834611,0.17730860076691116,0.1878902109657227,0.14973464975285417,-0.01695020577211891,-0.12262270155892259,-0.016004030074066138,-0.19626256625824146,-0.2368457438429868,-0.29514647182253,-0.5360653011581583,-0.48616125491864953,-0.40722275882170306,-0.43921321749892417,-0.4058379422947803,-0.06656203408445853,0.12399989262224796,0.21975253771939676,0.12206805354716824,0.0757140857630535,0.0174597198670266,0.02963335520540058,0.018626449306067067,0.017903034157335598,0.0074192373563975135,0.009309585468216777,0.03218393487305799,0.014977018840613046,0.08182514505643229,0.23270864837712807,0.31932541095995376,0.3108210080948291,0.15518809317577587,0.10765490244525176,0.005940584027002618,0.27261088717223,0.276680276294332,0.18754452009581765,-0.03416949833284448,-0.13008133531262528,-0.1910932621534502,-0.35375645194519745,-0.2110963001555314,0.020463215691346414,0.16088907174557554,0.1401792880024079,0.08630349538117284,0.03402009635970357,0.02601370858690011,0.027623883124378964,0.0186290563891493,0.009003992670796188,0.012852923058599475,0.006504042643015684,0.006681230939642894,0.006134920072493974,0.029323361292149772,0.06435629779679254,0.12950112424918128,0.12183886948545147,0.1524099729512492,0.2016908999193301,0.0923492139479616,0.09152314853274404,0.12226534507503212,0.1912015455943766,0.208192304806047,0.08754197121163988,0.026088575249557745,-0.04733620446577569,-0.039393681197440036,0.016044601930224077,-0.01105458595113197,-0.009592727046705518,0.045795049478985744,0.0126373386314338,0.000983824731219488,0.02993410392836799,0.02578521803079109,0.008755736359960789,0.022755674569474953,0.03355300608357909,0.03451044492872772,0.010833047504629132,0.01671163504252919,0.007055369246911451,0.015421000764670071,0.0026114638185428442,0.030267626737306794,0.013343295934645068,0.018938284813181085,0.003749637358628617,0.02799794369925878,0.02940959411121506,0.032875323536281184,0.02923549331223054,0.041975943445249166,0.029553408992766986,0.016652290700526002,0.038420465811009503,0.010761829283200009,-0.0012838160464647584,0.04107266437365697,0.005091511396367342,0.008389072583724606,0.008171895084753768,0.01960715881394786,0.0059831296257128784],[0.015463500296109878,0.02491426026565164,0.03279649877626008,0.0012599711527896326,0.015514887023810391,0.014158070141604822,0.027668777522565365,0.018322140518735573,0.015346996136995108,0.006793153570312095,0.03414824036987694,0.010399927235257305,0.02080664266562413,0.02181862232326237,0.03525876279835066,0.006145919101447778,0.004400460983792297,0.01053178085808736,0.0045222957454679035,0.0008580191924822321,0.032694453840677526,0.00485068903445928,0.012539095403207507,0.006955007540071699,0.03269279220048576,0.011829915045278543,0.0013178234376099282,0.006392042292424064,0.014903218858620773,0.022848184166722556,0.03475136921954953,0.013026573953043788,0.030520671472255987,0.026300585360804905,0.023001840338938404,0.003985956423220106,0.03653313586318163,0.02396588655516546,0.04021322932423734,0.01614028572598902,0.05473447267131468,0.031089944052404787,0.01744915634500425,0.008690577270623308,0.03911418196383811,0.011856030808498053,0.02242303782254717,0.03456517608675178,0.02965973763291995,0.0003322515284131424,0.016636728131131793,0.0352396613613339,0.0329807204926169,0.03507829534969246,0.013273018947790047,0.034353287398531,0.01704408366788487,0.02419265734634311,0.03492182520576038,0.029459191296757455,0.011363479268261232,0.019649524583719512,0.03339411408234458,0.0028344540777164957,0.01772869780053602,0.04211078126594484,0.05792192557760078,0.05423825210358845,0.08578225134539687,0.0665612773442854,0.08424485850074673,0.05783205772938427,0.06384442247517107,0.05352025489672118,0.023043787401173292,0.02204355392395307,0.018528390302337768,0.020884926070683693,0.03586151857531373,0.006331084613127725,0.028151806618706615,0.008617063170512492,0.019120469654119492,0.022374626106414892,0.016521987621820382,0.027990933485827058,0.012394973477427304,0.014070154080314923,0.011111425066122286,0.018415950342560113,0.0151505959203731,0.043398773025562304,0.023896844850337752,0.05550806987836983,0.08608687975718118,0.087236329095767,0.0845551610397545,0.09519206118802759,0.05107464620862619,0.02413621773967308,0.10213557685846146,0.05099953402887696,-0.006053304388676386,0.008358614306699756,-0.016157205137061217,0.007402573477990678,-0.0024406315488999775,0.04970181184776627,0.0362094562281835,0.007630821943032713,0.00716448895477062,0.030039952568934127,0.003141811270652574,0.010539126913414193,0.008091512495234234,0.014012642476197183,0.020170707271730384,0.003946020529570562,0.05005667909627396,0.04357758155361062,0.09985562905695738,0.14483335683059237,0.19186050836298799,0.1936281180583125,0.20171081669417706,0.0722024303760619,0.0477303820054627,0.020643906370169596,0.11533292447001563,0.16673957405390108,0.007332581217985314,-0.08211707584717085,-0.03567688485194745,-0.11862973068715568,-0.07772267089190668,-0.04973673646963636,0.026405190696845427,0.047185025797527196,0.007095858575783592,0.00419879278772286,0.011114896567289503,0.024464926257424358,0.03261382712532353,-0.0018692960724259323,0.008447916572738827,0.046322488562846945,0.09344756189175443,0.14271811771871556,0.2058109256822495,0.23157159178551062,0.28401482342233014,0.18928015620327243,0.3255024171009879,0.298076317013298,0.27568836588780105,0.288727959103161,0.35361782605847075,0.4428073244917881,0.2548340681271792,0.197257675626996,0.2235493422860839,0.07334387441189635,-0.047447419471261645,-0.0728086320733897,-0.02344290137453505,0.040886081472830044,0.029861815155743016,0.020539946016456107,0.028350118642466123,0.0019924574205140025,0.006299674028082184,-0.02684642701847644,-0.012251563038452915,-0.04429257359624403,-0.019603659298327154,0.09030057929696679,0.06929674216864164,0.05857226334078709,0.0030602375426743928,0.005080555412759315,0.08704683663162116,0.21469339127173478,0.30040242019634344,0.28180721320276997,0.19956090212460112,0.04191762771401585,0.0293130071385005,0.0801263987863077,0.13246813578104827,0.042915897594824594,-0.028717421963985506,-0.11878521119755829,-0.02625925427996149,0.03304932938994413,0.008041530184401444,0.032898278886621064,0.018533717354985345,0.00829255316628952,-0.035233177802121866,-0.12862072414504575,-0.11926421155277828,-0.15698431274160965,-0.02003287634404487,-0.014032823944007738,-0.03278612935348013,-0.15786115325853006,-0.09543306625726597,0.00289532581098423,0.22541188405874654,0.18220576355358875,0.20979710122381998,0.3226605178975156,0.12576492178506932,0.12130395626372925,0.08356043576470051,-0.03628972928498971,-0.14361346755049992,-0.1606226501085872,-0.08923619816550883,-0.06492835155135625,0.038414431593192494,-0.009931527214017709,0.013124716159207834,0.030036418658895808,0.021515334938083382,0.009333985193405277,-0.026399301358872036,-0.18969996737935582,-0.24150318807278678,-0.23614247596278837,-0.15851312371561607,-0.33368863501875295,-0.25117646485974915,-0.0163522413911374,-0.16445546314361517,-0.10851931746293814,0.1258442445315506,0.287645462390821,0.06114874057213323,0.0937280098515083,0.07908116720057687,-0.13090984044902848,-0.21449668876338499,-0.07984280582021971,-0.07989525844487932,-0.08132619994179713,-0.10464209361919574,-0.03349694500155974,0.10853161441237538,0.04447948024542944,0.05442762768790908,0.036049580630408126,0.0005875294804410136,0.0184330242229478,-0.06392036771919571,-0.23361783958970977,-0.28600328535698855,-0.2990436732052016,-0.313797430316457,-0.3136432220005611,-0.055693220124162744,0.032414943574859405,-0.09878673049376632,-0.06911833881579704,0.15553952437714855,0.03902928162368068,-0.050008736981815224,-0.27727039207019905,-0.282035829622078,-0.1958100051885226,-0.23310002690736234,-0.16173852465801944,0.04800115259820855,-0.0770847858914197,-0.02707960855805062,-0.006939994436199384,0.013699993448423157,-0.016288110190390066,0.03561975836426426,0.02650919760896419,-0.00003989323935085555,0.020709130157972835,-0.09643321755470792,-0.20650015124688006,-0.24041490492615686,-0.28416909719253913,-0.2000777945592462,-0.20293382619579753,0.06849935626714825,-0.11542764831747868,-0.21342376993832565,-0.026991835518379234,0.1785140172923604,0.10586710034561765,-0.4239374274965155,-0.7695787901565811,-0.4239249003343982,-0.23389126372669589,-0.23437764267056355,-0.2106409054893985,0.0008016916616431044,-0.1188857174204743,0.008377908844360005,0.11386680049292378,0.09782567865432759,-0.026661293860634813,0.02363085555145802,0.02570650889771453,0.010668105406140512,0.0112780418816957,-0.06689653952554336,-0.15053294120291705,-0.25536507228666544,-0.21308623284216338,-0.1667212320378541,-0.13940227084841755,0.05894837398828124,-0.06184698371902594,0.07547135326562623,0.273245291183923,0.4085083802656903,0.3314216098397994,-0.48257420472622004,-0.6025431968310089,-0.08623483402204164,-0.005831132313652241,-0.1074690241026761,-0.05569517285727036,-0.010262345561016286,-0.07693067263579455,0.13185666615327585,0.22430624507930114,0.23569875406702376,0.03964454568069288,0.037219952708980805,0.009012180811742383,0.024366293459219868,0.00008533599788196011,-0.010595328714163509,-0.09979228396908918,-0.19112560088909908,-0.12754116792081327,-0.04994722725248425,-0.1876017015345803,-0.08113731586898222,0.09667561298205425,0.378563804554739,0.7401576957602235,0.4845187368386729,0.3889856441265822,-0.10826762895999566,-0.07332749969292314,-0.0315490335604818,0.16514754042265023,0.11817924079526972,0.14006290993630818,0.12236347233921598,0.19612455962039185,0.1601967238231553,0.26389376577927465,0.18824404048967341,0.04859710176090997,0.03460594702880835,0.01167022614017199,0.034982405353658645,0.030335122099291685,-0.0034101786248475845,-0.020153302972173496,-0.0553034361716976,0.04604165370899356,0.08293941916251268,0.07535881022117145,0.23610405858753122,0.4906259919641678,0.6183160380477395,0.6935886884248188,0.3526497196485983,0.252320910346734,0.12226809947405948,0.19653300607269605,0.06135960421584508,0.1833547353356519,0.02587618800076131,0.10197261330446424,0.12265545540701141,0.0913259334797615,0.151303653267948,0.22956675002475196,0.15392721818831123,0.03471410742255182,0.01882545710948951,0.026295120888853125,0.0125993148878647,0.02343541245207216,-0.0008396726095250666,0.016554689566182067,0.008651434799133953,0.14943348596239642,0.30621197798922073,0.3658429954655915,0.45586847917884926,0.4963350668214173,0.579797460205926,0.28294828403695466,0.02473804746684873,0.13757600510895615,0.027712333566354212,-0.04586869758609188,-0.05573814056323534,-0.22432362880875475,-0.2097173652137566,-0.2120466170063464,-0.12445987178910717,-0.09166330690722072,-0.001117185697213743,0.0861061924629158,0.07192308945442358,0.004112432648967966,0.04249396594566923,0.007252177521239537,0.012787591956758,0.012310446515543886,-0.0025939938543859957,0.04494412231592246,0.09718667921572516,0.22641780015313762,0.33529266589768875,0.460858121594878,0.5242212064381175,0.4016500039757875,0.3733975825568325,0.04639900196457611,0.06652990223195797,0.19094853885188434,-0.08524438128203088,-0.2317157636152835,-0.23339806499731777,-0.2715124471571896,-0.27560747063824076,-0.21339674442756307,-0.26294690258012915,-0.21099635503173503,-0.017133600982234168,0.08220196122613592,0.07402298405173573,0.1188724466899684,0.05537799556518958,0.037357302558381794,0.01469650873684314,0.0006367367248312977,0.011585092034791097,0.10102599070046613,0.1530246290323294,0.23460263814924104,0.3479751711465992,0.3759933308665463,0.33538514437856237,0.28755406456066396,0.2982909381621295,0.31352975947830763,0.2647886219699556,-0.10301751573289175,-0.28789674990178826,-0.3195123754001272,-0.23538703680091932,-0.19511262599081847,-0.17057422215492485,-0.2156327519780174,-0.12355085737925092,-0.015265423341334825,0.12877923030766938,0.12498587633007127,0.17372103179961226,0.17082404295650525,0.08108798450454054,0.035878472828955704,0.013765608548099542,0.02760098391604219,0.021225125993985804,0.10404843918957768,0.13821629930748794,0.17295249149549835,0.31535946655300195,0.4033262567109326,0.4410833884176497,0.21615344346815027,0.18926702572289433,0.17388281105045045,0.042341255945771414,-0.5180384825292726,-0.5210148992814922,-0.24622701229125088,-0.11483747614847452,-0.21363215136660443,-0.09850567740098821,0.002961761097665153,0.11565853115992708,0.2955078189888562,0.20249454818699356,0.2339145370528551,0.27126483296224413,0.16042225254376472,0.06977710638677341,0.024092472575512353,0.026861806982921833,0.025877126393857086,0.010252685803670614,0.07166637544662971,0.10787294213198162,0.174450144451644,0.2904264352133776,0.34416888259199235,0.4381843583511361,0.3853108317465033,0.4369937462092075,0.275252663379034,-0.034270381685029654,-0.4925813140989366,-0.36715131052408284,0.03779547624601945,-0.008619075107415679,-0.06645757111057916,0.1405040262863305,0.2131891010748964,0.33522173158328006,0.4360799289287378,0.4195627208026199,0.376254236139224,0.2351036781212275,0.062382572971982166,0.011029923687844077,0.004871736879007343,0.007320676760817597,0.018609277803963768,0.0014448365392701148,0.012862441269135313,0.019230632182633437,0.13556669493751772,0.23888717876071797,0.24116182524009042,0.3551594829051206,0.37990774542944833,0.4866664664496163,0.2905857212786115,0.016580653508782125,-0.2538459581979709,-0.07428036573699393,-0.0513719175393802,0.08267921238544598,0.1848006398212215,0.3631503078134894,0.38790757583257696,0.40717568908801616,0.5146812674337704,0.43507095581916405,0.31524961178967426,0.15612654213425992,0.036307623151205476,0.03430871978428343,0.02284769312117912,0.020941172001189088,0.009691863151547776,-0.005808573488988564,0.008983014070552514,0.009096522232389383,0.03483243797392987,0.0749134699649905,0.1679382249568265,0.06896978328373167,0.19617151554744536,0.1502693155012615,0.042899866603948664,-0.06471415801550316,0.021848042010335873,0.02228364369864986,0.08842950380233554,0.24756087226408333,0.37277238305894667,0.671208639344836,0.522620290859929,0.539009884243169,0.5147027528861927,0.4117024249313636,0.2925291776328221,0.11770010509930681,0.04083584554637982,0.0210823807019914,0.0317100920852331,0.02206400840523931,0.034061379136070706,0.030297007835560576,0.027785237120710096,0.02927460064136522,0.02283142664495141,-0.028370349054680707,-0.04916161471378856,-0.07935783634748035,-0.019753181129629583,0.020652691509866185,0.09967094105782279,0.14625494854224674,0.18127663142549696,0.12009513523419568,0.22352346583412494,0.2957715398395452,0.4019188321785665,0.5666334644800514,0.5381245198868188,0.4975470875235223,0.3998350499472863,0.286421703003472,0.15028310048087654,0.06615272201808685,0.014178766994101465,0.005075729055049031,0.012349102546232742,0.013725331546636374,0.03395238423872777,0.030129222493856918,0.029445941103066767,0.07163317382482243,0.012255515546932268,-0.0874557177831904,-0.08513411299584862,-0.006293949979519067,0.06180801790186553,0.04901566961728208,0.3242680766826665,0.30577284367242463,0.3122223346098091,0.26975174827110876,0.1568213657628185,0.20178011499054788,0.18164381631008775,0.2958863457946197,0.3627800998417522,0.4252420102877331,0.3275025726816677,0.20737999459917056,0.12279688601637187,0.06188965432630962,0.009291689760538006,0.0013611059683821963,0.014353765039107033,0.03331360474234183,0.021930609781781945,0.06433203678017793,0.07036067872363003,0.0032688262103116495,-0.1045004632548151,-0.19050164903183459,-0.1732233839621346,0.12626929754772293,0.17424924244108358,0.07669515269849185,0.28912325526983534,0.21518363822022274,0.31408475800833,0.13470749069683952,0.0824721660962106,0.2470336471723813,0.0135194629975489,0.15312458638489984,0.29132675230216715,0.37355241872856026,0.2767408833279159,0.18245879571601836,0.1342667215682317,0.03559347202287413,0.03630871934978129,0.010509352374740643,0.014179062901415074,0.0297982361367037,0.020733332559136064,0.04840097784039675,0.00948040333471847,-0.03910509669906053,-0.15753621557716413,-0.2360408166359873,-0.1401036657026354,0.09673364718475191,0.20081282548228294,0.11687663315739873,0.13573449390070935,0.005567617810465363,-0.08246960867645522,0.04813556069298875,0.21401561647139272,0.19537881321421646,0.05520559486177445,0.07112027036267611,0.10023754124751763,0.14956345259531018,0.10978323825502576,0.12174368682101917,0.07198294541645037,0.03586432045422611,0.0166380828675255,0.02253459747075004,0.01671684014322799,0.018080299827920254,0.007394142503651256,0.026474104825721746,0.02083000350875958,0.0024629691768254538,-0.04781416644605104,-0.10348619039118898,-0.09648811174826963,-0.09134727855719449,-0.05084993848685514,0.10156839205036157,-0.15485864061963556,-0.18692261757675574,-0.16399328633717264,-0.06673377215774698,-0.023965448786680377,-0.07929890646912038,-0.003744239756448518,-0.09936923952826403,0.02420099469670039,0.09724730745062109,0.07724272498379878,0.04211551539486558,0.02878567823669408,0.011422746593246184,0.012841977396871578,0.005021897749253402,0.014261693268355977,0.011645513311166256,0.016891212540442783,0.015145779836443465,0.0021956322992936488,0.043422228498445806,0.025634651759186944,-0.008779204172947133,0.0174138055049667,0.03513465602797907,0.06255261488812418,0.09485437442706665,0.04330581379378831,0.051357796368913765,0.005330160693178859,0.07669026062396712,0.027192079578691197,0.02607076651178646,0.01792668389981431,-0.028723366141508777,0.008298408496225785,0.02967384822121031,0.050862527197122115,0.040774266537022645,0.011058731987730153,0.03387085606139548,0.01232822348173662,0.03218538553535388,0.0010688335778975147,0.012098945538320607,0.013252790750043224,0.02938027831041596,0.016392460789834053,0.012126512921413363,0.0016241789034574044,0.02753550867755241,0.02179054832398897,0.016608441547741916,0.010752283306027401,-0.004296574426992365,-0.0004301172595112557,0.014142599183475508,-0.04313243909370338,-0.012552716325843915,-0.0010185744675936604,-0.026448668432621964,-0.014614408709175337,-0.013273243294820625,-0.013288103003270171,0.041449810166681776,0.02184597796653988,0.02752007091337405,0.006107574674946098,0.011730216151088617,0.0101826156496406,0.030238303827229886,0.008247838145392008],[0.009420329441342,0.016660103041425272,0.03497495313255292,0.017199746043181696,0.008714943052400543,0.014602176538795355,0.015481579385913926,0.02542584575838865,0.015202878646016018,0.03046253750774986,0.02843001267705931,0.0038255752958253103,0.023182084638336924,0.014378002688480536,0.02715888002015942,0.004587172040762197,0.009722362432461338,0.03115609234706857,0.013924309072035386,0.015335018371787643,0.022999808906857117,0.02963310103221023,0.013581220890935577,0.0005120197078822988,0.0007263524420633081,0.02482536314436842,0.0333170182019896,0.03328924389516151,0.027754863570057773,0.022080266950654983,0.005277452680864865,0.00484304171901262,0.030660118258244457,0.010612822836438834,0.008992290065772195,0.011047770059993132,0.033113407766236315,0.03423413319429712,0.036271546140344044,0.03050361756322847,0.0306844515004189,0.046052920720919904,0.013926652941525211,0.006177481096458609,0.017247088654542355,0.03013769689745528,0.031339218925834605,0.03616697746652739,0.02102583227198765,0.03248735794862068,0.03643563576910246,0.017119818902526153,0.03160911978052843,0.005911936709498118,0.018929721243100075,0.013798989608749954,0.009842074939069316,0.024703952175573467,0.011100825453819158,0.004437279923756665,0.034670500159622475,0.004046829300834657,0.031711786966830934,0.03310586856399059,0.02863690942725822,0.07360180806167843,0.10631564261413551,0.10318374011233396,0.09171070481113507,0.09306639712257052,0.10625958916121395,0.07304259319587476,0.08904222978422906,0.0812708929178003,0.13227240558199896,0.09502115603635596,0.07017026310334866,0.09531688213417161,0.04803387849791357,0.036508692245476926,0.003744630103307522,0.026586750270443393,0.028976879648412897,0.0014796473381071024,0.009174400224156054,0.0058928105680088405,0.028879545305395927,0.03674765237595717,0.03793012998975114,0.03053703376204114,0.0344069061231657,0.043336061508982976,0.03420494666833133,0.07422245137182863,0.1270880816354396,0.020956325338844797,-0.0624180706772103,-0.0008751214572546009,-0.009720604901547112,-0.05838122193930983,0.03644924173708043,0.17979992770179046,0.20487838532041613,0.1590612084259241,0.13916626564353662,0.17539489316742832,0.10089827964700754,0.07837255649992142,0.06900902220220745,0.028649338972255696,0.0021078269651512807,0.013652643817927397,0.013202651229055213,0.034717712536067646,0.0269267064895464,0.0060382093606451475,0.030512640339980183,0.009530603286495215,-0.012807127629259136,-0.08011287421307361,-0.09805820019000917,-0.12325075855765312,-0.21485002154391494,-0.28013495501129226,-0.3289738602651365,-0.25761770267508194,-0.30067740386407477,-0.367013078535368,-0.18416377655011865,-0.07322654337452286,-0.17742441493957872,-0.030252393328716022,0.1115786875444028,0.11101024883569127,0.03095263883767395,0.09590314645091638,0.0567149915841562,0.015758693367971845,0.028451382376609786,0.0160407283004058,0.017337998229901057,0.019062631911176606,0.015456026190695632,0.010622196107743207,0.019955395247673757,-0.027365574926020965,-0.06538732073473948,-0.10131293176989044,-0.1268177451909361,-0.17745984118070202,-0.11073633404775664,-0.0916806499259404,0.13457836487950683,0.2089820977700235,0.3605864027818545,0.20512629696356285,0.3023964596604481,0.41522064088246896,0.11782789732667859,0.06599932029083806,0.08915171368711294,0.09582040769543505,0.06668749246608806,0.0310527694250363,0.009419007934683386,-0.016203313972895646,0.01376757889860656,0.023824559528382777,0.02085780095814776,0.020994355220241682,0.009723387888789497,-0.0213330195621845,-0.03652240942166391,-0.09241231196246365,-0.07399884984796005,-0.0052090260019344355,-0.1565692591806652,-0.0729472895266095,0.010882454401087635,-0.10774202227523375,-0.06258232716806222,0.12589718715152326,0.2695908575379718,0.10103770983435587,-0.028997540127143416,-0.036909954632860544,-0.038730464474093,0.052589390995130054,-0.03442497065730308,0.10613172822088715,0.1488123562250789,0.08487807058713209,-0.07406947912362774,-0.055143538920616714,-0.023135496650172917,0.006762271176100308,0.030251459855064024,0.0319827012863039,0.007994659223783179,-0.10266960211394402,-0.10534226073459095,-0.09072075258298022,0.0025219660403138465,0.08809163666710311,0.056371975966810414,0.03171218972393659,-0.039513124342923846,-0.09290933916018644,-0.2756186004977175,-0.29916210879433014,-0.12905209629418854,-0.02787891407551892,-0.04772680957416387,0.04042548953099285,0.14305449927595887,-0.06000828386520664,-0.24441554587110123,-0.006216524484244918,0.10901476879555344,0.039114616448715556,-0.08872209070114002,-0.08137789898180608,-0.01944819925703658,0.03190188083950095,0.03340572253459863,0.029491670240555493,-0.004738180362687764,-0.12147819717725875,-0.1997361244157129,-0.015803019740447753,-0.007316010477750043,-0.011860404153069541,-0.02325298163877706,0.21750802961534021,0.07040061213505705,0.03091774488773038,-0.2208134392509122,-0.3514531096951423,-0.33871039010590775,-0.18082135036835456,0.08746215202302335,0.2261603505902548,0.08731260778998169,0.015657118840105063,-0.21220861943851355,-0.1685393366246028,-0.10108872683420617,-0.07079743402244139,-0.16332732214484466,-0.16905258033983747,-0.03745630700877785,0.043107827942722186,0.02541402032300978,-0.010648655399817731,-0.014528212434805501,-0.12220117372610102,-0.0894774195603801,0.03709659936570169,0.004048653826558959,0.049192026288228094,0.1751982738675443,0.15028566935907622,0.19073276881193765,0.26445811064643715,-0.06738919610439716,-0.5492231078408147,-0.6905313532783881,-0.25101174524755954,0.014506812284834842,0.09235471576031351,0.09162904760872566,-0.0640156082300915,-0.3716091959706889,-0.24786213544847022,-0.1803749750936072,-0.1322190910118419,-0.26471203681549754,-0.21803522737926884,-0.0537675392453214,0.010632610373442538,0.013766027147898818,0.00372966047143734,-0.04980433362158379,-0.14653083422589502,-0.018567159744232932,-0.014223375920497053,-0.026471806943348716,0.09153603101372734,0.15783187319358827,0.16641723354847035,0.3083118858134415,0.36132133228830277,0.09691009754394173,-0.6435272557415275,-0.88847941146338,-0.5539278415637489,-0.3347326595775442,-0.21293071450118675,-0.21799464551507286,-0.24852753080255083,-0.5234196759634346,-0.2328767421093774,-0.10106797595512897,-0.12975158093484584,-0.18971392021579153,-0.21175529387955144,0.006904286340289061,0.028848370097506064,0.011307471205618475,-0.008086576886410238,-0.0510072094632012,-0.11554964654454192,-0.051031730711040786,0.036787574911819984,-0.0339548845699758,0.046061033678558294,0.15075169910810585,0.18406506904055456,0.4203286725209315,0.3328875942339631,-0.12758661949454286,-0.8412351280075181,-1.1269311504834547,-0.9474299286200643,-0.4997422573922181,-0.5288462340438417,-0.47796649510501793,-0.21496043130744286,-0.16543541766200726,0.032076902552003995,0.07276872925990548,0.11543215369128096,0.0658838980680648,-0.09264478272890111,0.011350845455770567,0.010814999051214828,0.021125229779836018,-0.000514641923240002,-0.02790981743901005,-0.07769572363439745,-0.18881097152940596,-0.02400204302848678,0.1508767599710296,0.14304476890856277,0.11678548320215196,0.1599447026751096,0.2186200384384134,0.27830576488516573,-0.01728479494385538,-0.4112095370822901,-1.0453556994821223,-0.7393485785886612,-0.47166606445021764,-0.32019377142258326,-0.28453824916711984,0.0844685844663217,0.17253842048088883,0.30740938150338193,0.26907767457529985,0.2901362859046565,0.22046117027974863,0.024308667910554773,0.024826656313845695,0.021960285718229836,0.002100294817684256,0.02767700477252722,0.008020335872660336,-0.03903432265281875,-0.18481460103210817,0.02116435727468215,0.20665104970323914,0.2548086572213963,0.35105081408283684,0.3535737903825844,0.37391069750723,0.41845157821230033,0.3278616914614968,-0.09504647322076935,-0.5741777998424173,-0.3558394508279394,-0.2842919946592654,-0.17341433127390968,-0.023787464368047597,0.16215745619540273,0.24541768683886916,0.20709097255515743,0.23516229739484262,0.3279269056157193,0.15166529499565615,0.010505491091881869,0.0152509470271939,-0.0005451734273183649,0.018447864673210586,0.014063224610234022,0.0192762120968309,0.026419374413015815,-0.06723541302905821,0.09146171241754958,0.2545295708257016,0.42049199001665793,0.5859694230282013,0.44002352295885705,0.4169164259775803,0.5775613101057636,0.3829768117317472,0.012216335500003847,-0.12510003488183435,-0.28657743492020143,-0.24685626579330258,-0.2613145239555703,-0.0975847662225433,0.06244321244076746,-0.01839350616875455,-0.12665911965899077,0.12637145194473237,0.16684890207944789,0.08565918103690795,-0.07140292017222465,-0.017260559456925468,0.026129997538736245,0.009080738842892615,0.02509074098380314,-0.0037296425172954725,0.0684125225701382,-0.05995019013601724,0.13788702514096662,0.29235940094826157,0.5256389689431272,0.542454440513398,0.45407739354851645,0.36174705725581957,0.407565044821993,0.19743705429093095,0.018713700447997462,0.030490651599491162,-0.18818142561975376,-0.20980581700616488,-0.14490000955003196,0.08289540642379103,0.04626214786973707,-0.21447485899187768,-0.18053290893307872,0.007560870400394344,0.10229568012630307,-0.00920425759011412,-0.08030153886299454,-0.002674312617406248,0.00277279586260896,0.029238558734508417,0.01730179090470121,-0.023873245464836948,-0.03431255515537672,-0.08422585438851625,0.054140497650590556,0.22848859175035255,0.18029823471063838,0.15474626119461862,0.18943871070342538,0.23207922149685112,0.3038256391470751,0.051998703219690946,0.027429454177245266,0.23573485503269592,0.10055907161557111,0.017176977622110543,0.05488049695500002,0.02784745492933475,-0.1485973355818493,-0.10792857798863614,-0.23776662078482194,-0.2760826462699684,-0.08066152663245953,-0.02237163046334311,-0.025428412601543413,-0.0026189257838493273,0.017200017169633364,0.002707317907911122,0.02085187696739392,0.004212749842265252,-0.07199436097107982,-0.12107138245793472,-0.030764178321573823,0.1776761949816622,0.1909486919726854,-0.017135231813745745,0.08017978386495896,0.2974097679530734,0.4818392728242738,0.4059980795759215,0.28037418048605184,0.17258311695542222,0.11572754350048796,0.18316260682935742,0.02568606792535393,0.06325170751718318,-0.20247967916451262,-0.1297622629893729,-0.2413784882269159,-0.27835179415264644,-0.07106975593841384,0.042323112445251755,0.036270273133761376,0.02584776538443371,0.018785461697359507,0.017817672414209316,0.013616484027983426,-0.009290762445386897,-0.09484245420548532,-0.14365497476533853,-0.0004831070306048263,-0.02359223733040919,-0.02065142801688364,0.0008923179197317246,0.2341895513494167,0.49464942743967844,0.47706954343004265,0.5517114842831583,0.07919392034872638,-0.05473968031117645,0.024331039423415725,0.10448924637446627,0.02507231844462442,0.12481151102590293,-0.13786629144683502,-0.216474566099002,-0.1954580976121845,-0.1769698378169799,0.15510430970136524,0.23797157754022086,0.09572799216046513,0.025130591851090563,0.000013261854451328394,0.0064665688413026315,0.02152741629200919,-0.039699985351288665,-0.11262016289904969,-0.15578077882938726,0.06102077527003824,0.026476343420049307,0.009121858921759044,0.04249954116058666,0.1767073038975388,0.48085725370844845,0.7023167350419124,0.4061950807579165,0.06123499924820574,-0.005272171279142069,-0.10800934888106398,-0.002326046755146583,0.029844918404370584,0.1872479094454719,0.042479311631340014,-0.033647659050782826,-0.03160235946272623,0.023971241172548632,0.14640797947390474,0.19309703617096902,0.04625249775551135,0.015073835290310028,0.029393631296345542,0.022453785004621037,0.017331745484603988,0.004991801556612728,-0.04856838473798764,-0.03049839817033196,0.11880650884659368,0.015925103008477576,0.04663497180111663,-0.005699166909822615,0.13093928068914007,0.3121818437606624,0.5728631053494107,0.47607653711776915,0.19050851574826372,0.18657051558282714,0.09505309930527191,0.10339825675941736,0.013456022693374849,0.0988207515410218,0.11696441354754754,0.18638450814977467,0.14927942660593008,0.17409999568142492,0.22394502275887598,0.1132654254422678,0.026162372075126648,0.0067824819464424365,0.012671089299305943,0.006972160071399808,0.015965334768463905,0.020388941448814882,-0.0314914253471609,-0.003646130756033404,0.11302319081394031,-0.031952950504337836,-0.07817194643405183,0.010775315995261362,0.1431269877935275,0.2633799744744151,0.4200193599548493,0.36988793706807016,0.4243878879336233,0.3256023870624234,0.13285048002466304,-0.12411685317345043,0.07954302870976819,0.1508921722326572,0.20982690994424727,0.25938178056504435,0.34718384323926144,0.24459010278854668,0.25147138389525797,0.07388174793445927,0.03823557057754908,0.03554699918696625,0.0156339212161871,0.02704191630228032,0.034370415814157555,0.029240540003752823,-0.0023495439815642448,0.06637783412069402,0.030307728006383802,-0.007496402431434233,-0.006488083720708382,0.06877170816307762,0.03152324257094608,-0.04082379144858851,0.022995439048986505,0.1216393213176042,0.24704094395290424,0.09036080591495203,0.03569742420948548,0.08161058221269164,0.08724058562262073,0.14250030621212267,0.2557489987815008,0.36494039515029775,0.41002777655147987,0.22861504771858288,0.13073361994834892,0.08749947180299655,0.04817309481811214,0.028483447950003408,0.023833436183704818,0.018825977603700663,0.020144376313217607,0.02663059040627927,0.009757157030971325,-0.06204903247231674,-0.11615178635447844,-0.2235760680618334,-0.1882346451126583,0.09466813319267224,0.11318266340621455,-0.14588353061931633,-0.01334749526145067,0.13117675236629503,0.17936183282102824,0.14698244929277451,0.18100600280430434,0.19473918735352794,0.17496040067942858,0.28162140628678184,0.3531968646463075,0.3930128909931256,0.2815465050872496,0.14020264413285455,0.044336765320178634,0.06534775623615131,0.03604284343156007,0.02366566835352632,0.02923448684639684,0.007173506271555259,0.030489820328744848,0.00043315176205370155,-0.016554606571758154,-0.09725772602954061,-0.24249316545788452,-0.40526790134545737,-0.4263408742555467,-0.2944551250177551,-0.3382424494819538,-0.3777721409741263,-0.06680914918538028,0.15728289373532414,0.1011930998643438,0.34231519783158343,0.3077844621671318,0.21321240805376332,0.17341762040124892,0.2985948974796858,0.2216172782534256,0.14052726265010201,0.00808857964104611,-0.049539091404416764,-0.020183102683330328,0.048234724039922,0.05332212954573101,0.016815785656314655,0.030350052321841983,0.03180875238647788,0.03250672063793182,0.006717228244432841,0.031307583568929126,0.005429920196078034,-0.11172018767345682,-0.1784028364273787,-0.26861554244007174,-0.385058634718346,-0.5422871624866149,-0.4624370662805688,-0.4844664969558839,-0.3988085165183421,-0.46377911373134956,-0.3323822916305266,-0.24423297026584603,-0.4230096909324424,-0.22702805528647105,-0.20086871090776243,-0.19396191789560846,-0.1162540048275619,-0.09739452549777064,-0.07194811061026031,0.008474418239883553,-0.004128311048860611,0.02973366762553467,0.022600500826653176,0.018760544123083995,0.014095648895609682,0.0034887576882116794,0.012427879848553338,0.028051680109360686,0.024437393507702576,0.0013306124145646314,-0.02835993573262686,-0.036876231325420186,-0.09204586623579096,-0.15238512579878077,-0.11267733983822671,-0.07723797722239421,-0.0652834987031715,-0.13766787604003522,-0.2680771088443733,-0.18866650254408132,-0.17893777424085924,-0.13971799184661332,-0.1402513083842118,-0.1847176490783423,-0.13705614672231334,-0.06422187752213343,-0.004328438010177508,0.02841434365399548,0.029079766365676666,0.006432139831972083,0.017655702616364462,0.01012062215327475,0.03453418508639764,0.004470410607775929,0.01028404754409003,0.018853621534019958,0.006984555448941806,0.022229037586794027,0.02707387926311229,0.012544361783116176,-0.01157790708068289,0.015594960779058257,0.005881397995966737,0.01102194786209971,0.012329290335988011,-0.0356340951070145,-0.04493848079781451,-0.013021797693916365,-0.001726556323097723,-0.00976532476302185,-0.001424777018511235,0.010811732628779581,0.012653733887004128,0.011998138854999445,0.012468155033605577,0.030721556742341168,0.034607440380009395,0.03292234008115108,0.021611118040885596,0.03181763028298929],[0.00999007220162704,0.024584709556439932,0.024733306156858093,0.01821409598258598,0.010959823171599095,0.008002860028647316,0.009501381441052044,0.019792973739912473,0.01727580894748933,0.02190367417151895,0.015247543136572339,0.014144380529696783,0.013352758951600286,0.008798291538572471,0.012146348437204853,0.014407663826368522,0.014935524799305886,0.020637706448887034,0.023052353376420642,0.026768925087461124,0.005036201839761024,0.024270041547407608,0.03307572600850201,0.0018719873381435642,0.027380220130500104,0.0281663962905452,0.01644890423219697,0.022235973129105562,0.000594168615006964,0.01026129221468447,0.023614406129092824,0.006294381635817438,0.0191046630116205,0.028771509804719486,0.0297566926712713,0.010528720731265042,0.01537496120803402,0.007046289516016613,0.0019788503781126825,0.01957204988104426,-0.009907983269684709,0.016592785333622028,0.010549053179898998,0.005713790205610505,0.015368823368213365,0.018382191288894605,0.00349081574316526,0.00344890579661737,0.028437518818242222,0.010824204106849117,-0.000054585502971490046,0.021740222146926662,0.022223166114591273,0.0038697681139606777,0.01074139467894696,0.013812385304226451,0.014530983484759516,0.017365977023806347,0.002826572651207096,0.01097141209538929,0.031139373763022407,0.006151945999427233,0.02303152966284211,-0.0031005475054819557,-0.00023573762176656396,-0.0808804323608369,-0.11540699581609713,-0.16529094927899043,-0.14758059785713323,-0.09979040087408515,-0.09826807027638232,-0.12844497728811138,-0.20728158889377224,-0.1845118268919932,-0.17836933127943644,-0.11106564846625297,-0.09696042085785948,-0.0067365045607053475,0.008732199472566782,0.018261993972431643,0.004396315496016699,0.02468666197638955,0.018835430050164144,0.028464244874725837,0.026872777705701463,0.022610888658745245,0.02412745841602354,0.004412253725608438,-0.0247342003782127,-0.02270156879658432,-0.011647116064357914,-0.06770394615096338,-0.07941422719738526,-0.23223184966959712,-0.2045429867040962,-0.228846264850337,-0.2592295855482998,-0.18057887492713812,-0.20292207610055543,-0.38376377391688854,-0.3226656775111717,-0.2975705361077625,-0.4814149932470853,-0.3606250786535081,-0.21707478591571813,-0.1119498275186303,-0.04601113925053874,-0.050216009864244134,-0.05097439616603914,-0.0024681742943641915,0.02337158115791392,0.013092870860169263,0.02567683907227413,0.004395261860624329,0.032854681382175205,0.016385311715767025,0.0052763110603283115,-0.07457684365704348,-0.09250718356481574,-0.13092070690618687,-0.11494014854744976,-0.17818450062116492,-0.17022018730136204,-0.149579666009151,-0.18728166714065536,0.14552982879498824,-0.056708488428259464,0.019190414696707795,0.15232078931745516,0.07278207325409906,-0.13651716091615507,-0.23069703112466475,-0.08750269917384175,-0.08175559114075906,-0.09133397607686401,-0.11886164137218373,-0.023412518489104653,0.01614738893700853,0.014149737025543266,0.0006466845847519417,0.014790050078044879,0.023185971683661932,0.031577341261532235,0.008965882327101429,-0.015439171166267644,-0.047797063045777556,-0.11986215167892843,-0.110421042560411,-0.1220843760676027,-0.24054355958966558,-0.2697292082955834,-0.3695861488089413,-0.4380874992580672,-0.37007534770490175,-0.32133599404778557,-0.1595691210380417,-0.0729200167149834,0.001505562805865932,-0.025463710298578784,-0.18575136964581407,-0.2589132190118207,-0.15986469232024061,-0.14989880926656698,-0.11276937577815074,-0.12459099655107302,0.016006081292770223,0.007353251338160019,0.026406123219415278,0.026090380053077598,0.010728296583198908,0.05019303004861903,0.03920763776678075,-0.015692987823830547,-0.04303458776372611,-0.12443795442190414,-0.040966245389247424,-0.06254594946075426,-0.07990782948262859,-0.14710527360233353,-0.19543089241628098,-0.3178690086374142,-0.4000334637072583,-0.2725049424293451,-0.33746808049717114,-0.3498331311882927,0.15086285477527261,0.14451781687054446,0.0233568625114885,-0.12374485106234634,0.11032277628574767,0.036260716854014025,-0.053402854254232114,-0.15086392591258363,0.0192372667089349,0.022240457804565423,0.01592448601189316,0.004937292209803376,0.0034551449298792594,0.047698055132493304,0.11808002360954016,0.02646522869019517,0.08131811239992191,0.09111786161495204,0.28588233179582623,0.11189446255103001,0.06900928549938914,-0.01373611857388864,0.22908733811021778,0.2012167236233267,0.0396209244014576,-0.06952020548267836,-0.35023593202413056,-0.045968654742404,0.15318052213696778,0.3003411415877234,0.2145086921753641,0.07134994950828386,0.15123242934876244,0.01868829146887877,0.019638857130825135,-0.018317180141080233,0.16786543835026727,0.026154761794755035,0.0007923787401670633,0.015512495601458794,0.020905530114987515,0.08889188575202807,0.2522779929621808,0.1667485951081662,0.16812437378219072,0.3358176407435233,0.6003707087703009,0.3515570244654353,0.01601181210143694,0.4014027571339153,0.24907165349472227,0.09859357370556397,-0.07716411261267199,-0.109600566013813,0.09552363196224996,0.1757458241938227,0.5271948222744977,0.5951644748161264,0.3863645942694732,0.4736168148232872,0.3609041495551745,0.2746310601296492,0.4609576625446168,0.30353487738398544,0.1782959472682474,0.039004251763457704,0.021176523427448593,0.025529222190811232,0.02629415371378848,0.1240907644951287,0.3044181864766898,0.26140932385277177,0.23214449263807257,0.44719620509506264,0.5395158981486612,0.26235896304593337,-0.006961071330380074,0.12132699382812001,0.16027504857020647,0.3836874017202536,0.39704454567274783,0.08359730603807942,0.33775872944155655,0.6288447141202386,0.8373930197776412,0.6701647177976419,0.5900725886257895,0.5863215881016346,0.6855901642833507,0.4106176973449704,0.4681530466774836,0.3824858062892605,0.30588080856398403,0.035838457388609336,0.04016722971917052,0.005644046144764848,0.04627837397617391,0.12015975057374848,0.3190806155721303,0.27807256677351505,0.16494764622784444,0.10164638178014732,0.42476860969154007,0.18609083484390673,0.32002041040924273,0.20107367940270254,0.2502406471770739,0.5336907589858142,0.6038328776622409,0.33615894093335896,0.42412298853717073,0.6041028102117165,0.885828318566069,0.6613022021597342,0.674799556020454,0.8127876824248592,0.6004845134924827,0.23747749039389063,0.29860701688702723,0.282855441960573,0.32864126332710625,0.06177425494677675,0.026247383614777336,0.030941612911990293,0.04435237871133178,0.1329916960751369,0.227049629005266,0.1711376416296117,-0.059297872889779966,0.10557144080692138,0.3258480370373752,0.06419060976542859,0.5023159444113333,0.29217993155899064,0.4592245023077923,0.6166786531355307,0.4086943351501659,-0.26349582768224616,-0.49654456873549874,-0.23412144258076928,0.421932872039475,0.3087400920391204,0.009805536248105349,0.1773039087571282,0.2028514227927964,0.033177226953096384,-0.01867266494577339,-0.017439429482214136,0.15387789713219424,0.06431464333326053,0.0025918396946168916,0.010695950054377491,0.043055038683204046,0.0787304757369145,0.10418138443786125,0.04064194726096489,-0.028376829797681677,-0.031822429513418016,0.36184410086079866,0.33648825801520243,0.2867030273776008,0.4638603272528673,0.42881853943055614,0.050761289626904134,-0.5983688832715183,-1.2583749175977232,-0.7448240919364214,-0.2661039032966734,-0.3425845177042011,-0.584797824865914,-0.46870154044747964,-0.3120851738374722,-0.20374389265913342,0.10646214309324399,-0.085499056698772,-0.14955625036054954,0.07350380092924058,0.03082476497227267,0.009540714131321251,0.004731197268778615,0.02573165410923556,0.07767974950702648,-0.037010448606486494,-0.1645277963230474,-0.10784708499809828,-0.1648542811314459,0.09634313395400666,0.07132981130910812,0.04521008219117975,0.35178949151941286,0.09817343185814481,-0.44418869671137234,-1.2800222625382955,-1.2400820826830865,-0.8331907622056849,-0.32976121686619275,-0.6568912108278003,-0.5385051451616244,-0.41918841603998086,-0.3944258234310847,-0.27562576540422495,0.1394747803424436,0.00019291645951831707,-0.14812984199289336,0.012752988725939406,0.03250586756945357,0.037143187379817755,0.023224585530316637,0.036802947493101736,0.038080783051055465,-0.03250245373019746,-0.1266607107248833,-0.11334104856110126,-0.16754106868215254,0.05664891650725303,-0.18578695100637704,0.026183648577885608,-0.010472264027079257,-0.40780381725367704,-0.6932441111415197,-1.2066670598967266,-0.7913741386419819,-0.4032720841113561,-0.6160778068591475,-0.6822155050950336,-0.7680814758015805,-0.4616618744244392,-0.12870247739598423,-0.06710699280133138,0.03228419032895547,0.0895624920548966,-0.03969219811968879,0.04151278779920782,0.026878405645987664,0.03403659279694058,0.018618405837096477,0.011115343546014941,0.03372171421309668,0.019908637013647666,-0.03209037367393034,-0.16747487111149276,-0.4015590302499284,-0.09950883279723274,-0.16168379158044016,0.2875088021152867,0.09394949218178904,-0.6620302214391212,-1.0483038208112998,-1.2259958997260927,-0.7185892912793042,-0.3872201539818054,-0.6643066751025536,-0.577180694549811,-0.6336313235519826,-0.08784697141328009,0.17118431119251235,-0.00994856770536475,0.002206688149098377,0.13982797700971478,0.04180050044352378,0.020449250985161652,0.01667105281063534,0.02139906300240314,0.026955841402415963,0.012574231791635622,0.07504682780726185,0.07395702771478736,0.02543075324750194,-0.045872520335215175,-0.1860390197131849,-0.22711989008703964,-0.35684168064676264,-0.3755020671998662,-0.26830331147208886,-0.779944773160928,-1.2550457123854817,-1.1720026398300885,-0.7240099728807513,-0.5828459128191853,-0.6183352897341907,-0.34165301413819216,0.10510469549892452,0.27644002567323445,0.12292117316088413,-0.1261909233991082,-0.04236671870323376,0.03819475376347631,0.05065579089371928,-0.07140544504426259,-0.0015716803010686485,0.017854667866824138,0.020361102359367833,0.03049926081067431,0.05049443162682856,0.047773664676809845,0.1116291322975212,0.4238446142382144,0.48554064426401955,-0.057512981711067855,-0.3517381481896356,-0.4602030434635611,-0.09074856661832158,-0.40026439556600596,-0.9235737047134533,-0.8066285793096019,-0.6931871731517453,-0.44627106416324985,-0.2944110278560689,-0.005510927476213728,0.16994314993986312,0.10723740553126507,-0.08797595892862616,-0.04774295499851981,0.10615028830895115,0.0819230382285224,0.03447201234427064,-0.07984298007488735,-0.019483846172802063,0.01334131976099689,0.013611777033815714,0.017869042499736122,0.01949932336726686,-0.0753424656736239,0.04835235462367514,0.38189091124590246,0.6384241362373781,0.5483077872375913,0.13706834516288424,0.07860038357123922,0.15875039279368927,-0.1014378693704422,-0.434198939304501,-0.3301913670948632,-0.3296335189787964,-0.04709071485852653,0.2701991314790522,0.1684055028653605,-0.13872600157163106,-0.03355926753383196,-0.10466818001816605,0.0989901270791101,-0.11695477681654788,-0.20259982094625997,-0.18920031324239844,-0.08802492174244927,0.014030639685982456,0.021013416139486422,0.01483457810330946,0.02284773159052147,0.0247278895502555,-0.1891506508815441,-0.011546207806429289,0.1264246904456982,0.3245767368709276,0.47853357761617155,0.5142080040050379,0.21802854439205896,0.12323273122602511,0.10840681062253264,0.2261194664467049,0.10475623942986095,-0.03974122550115401,0.21036286760204106,0.16334146697344504,-0.2543305520390491,-0.15330245464166467,-0.10876898688591057,-0.13401506872957109,-0.14820658765240569,-0.1746876790973985,-0.16574842860698646,-0.13881614976436601,-0.06416555395398453,0.002728924254326204,0.03165637245214399,0.0275544753563686,0.018665655598927154,-0.0032745847607968917,-0.28359471704181344,-0.3015325508316931,-0.18058322756346773,0.14061261635616806,0.24385230554502496,0.13436505863731507,0.3639404617051347,0.29541985644933844,0.3878749299038107,0.4411533833028224,0.020265740802482935,-0.0929840492645569,-0.3395413537019951,-0.2244633115081114,-0.3708361947617953,-0.2752079529190269,-0.20500943926128745,-0.1036032657119682,-0.059150446564944247,-0.15211025986743998,-0.17932031625495903,-0.07402436365997474,-0.019806163105980237,0.016192589854268465,0.01388577464618432,0.028778976954574726,0.026730728978780992,-0.015854536328316068,-0.19958651719326098,-0.3598743871973235,-0.4494348474274355,-0.21498272950262037,-0.08916880324612854,-0.032321226599216143,-0.03106486495291337,0.04726510911856959,0.21265820050950532,0.038119496827655044,-0.31149805694638677,-0.27186639893694947,-0.2643844552166278,-0.37727300967950056,-0.34430051267039335,-0.11918925127885775,-0.23726770957374307,-0.16901489367774833,-0.1778491682054051,-0.2057078009305276,-0.14719807229157267,-0.011094104790528919,-0.011441994723245962,0.008639762785296403,0.03222099971990386,0.016857061862773595,0.027700715218266926,-0.042828136597078306,-0.09667350997185525,-0.39391012375616513,-0.3393398708672264,-0.30920415182936917,-0.20539183087702637,-0.12562707760754746,0.044943189568972926,0.027194507471393566,0.00033436715730833006,0.02461814766518288,0.17927351025698868,0.08148188453076889,0.037688487835640994,-0.0242586376003008,0.10837656680775852,-0.06019650858305866,-0.17039803868342987,-0.285438808508669,-0.19299125493464894,-0.20379152916428728,-0.1558011671239212,-0.03791216399846269,-0.0013560782244795141,0.014215825461185261,0.031595576469726654,0.027068433147259614,0.016621914632024597,-0.010758008581439106,-0.027549267252987446,-0.13873588567521622,-0.09563618965297568,-0.0008159078818946798,0.004389363480911991,-0.000950140526562997,0.05432557881930916,0.14862782659043935,0.06664374011503028,0.20611259550256328,-0.1170632562284339,0.08313631868975327,-0.006493055742204787,0.07779758908052829,0.012022806516981203,-0.17919150048412985,-0.3055906956026159,-0.24975727415936883,-0.06268821601498073,-0.11763861021985458,-0.09021361117375444,-0.030623038463518954,0.011825240073549063,0.016279309631002783,0.004374427194224468,0.01601397171692337,0.019879860070520197,0.0023176618091314,0.008939460105938518,0.06597793393291146,0.146934793459001,0.1486989470178657,-0.08901080817144257,-0.14149565305477974,-0.17412277810096433,-0.19731454135695795,-0.34569474682224866,-0.2525733931936404,-0.31602682217938244,-0.13955886564212966,-0.1101068611040757,-0.01763889968505454,0.01899226402318259,-0.06980339222707134,-0.10136856162850626,-0.07095002168135404,-0.03129310747559394,-0.009134636159749254,-0.053355911070814895,-0.007524861897438795,-0.005348190223330677,0.023202372447728003,0.01692820799932293,0.021877221814177044,0.029532697421232466,0.006142987744583008,0.027038655316553226,0.07994740513238402,0.14519511301107602,0.11675081102268135,0.0260263190781056,-0.03978693964258723,-0.05634972551188786,-0.15875571989828158,0.15784403127771496,0.10796195474024123,0.1007995514778138,0.15230107617661423,0.06831239699230945,0.14495746117397834,0.03790662342295771,0.06765914630134204,0.001690076103616961,-0.06368857367327607,-0.006092427948282506,0.014659297591950723,-0.05530407823703867,0.030155247316059446,0.03297953506671343,0.0010979419772181962,0.006186973986867549,0.02268556836227033,0.016027671886260808,0.013350467859484785,0.019251257440005606,-0.01142863053178576,0.024591985273035934,-0.03650786459653266,-0.11493202658083668,-0.1541516679760577,-0.17828675019196832,-0.24884133701434086,-0.18469212092224643,-0.2413893651578467,-0.1188534294351805,-0.12528405665273112,0.0007843903408862365,0.08372853636205634,0.13277629542357985,0.20515789952914332,0.13469505991624534,-0.07738458583894194,-0.028438251735348506,-0.00475625911750797,-0.020855844651820634,0.00588863374154446,0.01732830441637974,0.018359081352825816,0.016603974624308127,0.030374391489096424,0.013500566169755321,0.02819542140101345,0.014740138239267564,0.0308280609270341,0.025470542664292377,0.008795023168137175,0.03980868112889531,0.01618095337826141,0.018698336634542928,0.0517395806537532,-0.019736991059342745,-0.024527388908906912,0.033376580275292965,0.004768935789258273,0.021226294458990682,0.025966592818210187,0.02868669972074494,0.05976673360659182,0.059123375670150975,-0.00745138822926447,0.03286341504634016,0.013730118351432681,0.018730402242846167,0.013343394514128946,0.030379942731355993,0.007610234580224925,0.01221004435776599],[0.024695123147393496,0.012866896090506579,0.013004612444645356,0.008710202351592136,0.03104151888234436,0.020710495776498725,0.0020748303035586424,0.005707794838156009,0.015820649441177972,0.02615159701720284,0.0026429501908649677,0.01570071853861751,0.03022461473452201,0.018876942306931054,0.02980531204164144,0.003315909495172477,0.033936744042601566,0.012699683854732136,0.0064000083809752405,0.013595245106788445,0.032208637106532816,0.017155783472634873,0.03553981178632485,0.019786766756464704,0.014213809320055202,0.004183534895166731,0.0014621080962431818,0.01702356094863538,0.03312277203596665,0.0019273698517376211,0.014136704049290152,0.020500685395393847,0.02659884628460715,0.010581158276049617,0.020633466122169666,0.035611465451850365,0.010405753786187707,0.0286365476189253,0.008811046120801433,0.002635127957446956,0.027896490351413002,0.03199239163442931,-0.03982896117943987,-0.08296817055537158,0.020196238383529536,0.028263656684296774,0.03185626294937996,0.02134486031398807,0.029589674400653354,0.023037247135761715,0.03529994653636191,0.02374422166656211,0.017828397068909565,0.01030668450012492,0.032113270303697046,0.012657846547340115,0.027634299137670355,0.022449685996890217,0.01997621138901036,0.03284722465590191,0.024300064575815527,0.01081539821819263,0.028982785580034056,0.0014069043346927842,0.018368905175359905,0.030859493128414635,0.028909998884047078,0.02757723204219112,0.04288283117483394,0.03390207650855191,-0.06623638852980715,-0.13395700573576194,-0.03980775144669022,0.03730701791559099,0.022875731820809063,0.04458915873995967,0.023386355120407556,0.039071393030878636,0.012970531112548324,0.015604898737421208,0.017327309512776858,0.004738330331490515,0.0016195619500555178,0.027625786085074853,0.02471198136148175,0.019078058854282424,0.009303596243893495,0.022152277863252072,0.033174588291125184,0.02392857757765563,0.01880343614934108,0.027047793785389136,0.046422881864452446,0.07933586307079539,0.11817578554498005,0.16723043034029458,0.16997728474977813,0.11530136518239166,0.0988343674296662,-0.029449812814636496,0.020116446302709,0.09762363645048687,0.11389688656344121,0.056410963396488115,0.04519638517798403,0.04305957794187412,0.007934540970189427,0.027535555386605064,0.00486094276202874,0.0057636649352917875,0.03132072110947813,0.03147754154361088,0.014230009650785453,0.0069206566414498055,0.015462510749877473,0.00609003444313845,0.00319149113368209,0.016133731114710982,0.022999635129102566,0.03398134893664839,0.07928710521157309,0.16829884613426363,0.06998343178511841,-0.035881042905523915,-0.07525092945317431,-0.040001960563177744,-0.05180313698636942,-0.10950661641484027,-0.003847819283006942,0.15462000290456976,0.11683911348110769,0.005129325280758584,0.022632267410989004,-0.004590746682076968,-0.005859800898142829,0.0009375050633161756,0.04322021799046686,0.021313425072472077,0.005898666778323174,0.009809403957917366,0.00009186836107158028,0.011007085437550563,0.010021774752740126,0.027025164025674973,0.020805701658662388,0.015259882776508044,0.06230723528028639,0.09376852701348419,0.187035342546176,0.2584389602378478,0.10684911127241487,-0.03389369938063008,-0.03281177710688277,-0.07308318262355999,-0.1495207079136199,-0.2049722354957758,-0.10016105411566802,0.23884169519601625,0.2148280936653813,0.09521098502740014,0.07763750420329127,-0.01184715950650205,-0.06869170315702691,0.005824730490315305,0.04116301841846255,0.060648894257128085,0.019648684244780314,0.0284526370914521,0.0041220296569828285,0.007172259917244896,0.017815454882502874,0.02882428676399382,0.03944739269547544,0.07300760126582191,0.1173027671244322,0.1579928099801512,0.26616354705234424,0.31287951032937567,0.12407213024871125,-0.13856674616111733,-0.0727248167414954,-0.0036012697324088066,-0.008233014990233583,0.10274688306621879,0.10493118890665935,0.2807087537930692,0.2610430753689889,0.19152550007921496,0.08554189729252769,0.04256456078174757,0.03302809081074161,0.04454802335624887,0.11255213140715871,0.10232907145718177,0.02042322753205725,-0.00019368818084796865,0.009643429452863467,0.029556011067175772,0.015853262077231426,0.00831342585269424,0.02978562287583186,0.08120562063871128,0.12488918311609408,0.17332111797606037,0.27122294631287447,0.29817986244984873,0.14086328900138267,-0.11005783066748812,-0.15092550686051942,-0.002305008061083991,0.004925577961089364,0.22702404067895976,0.300357749266101,0.3203923788888198,0.33693601979826865,0.16937970014759088,0.10956976918834947,0.056398276008631155,0.10869097466319236,0.11562357897171172,0.1845426051032575,0.08866199377628177,0.00871542497256985,0.026636853828832668,0.008720789974515149,0.01810466913392166,0.01647731966278872,0.015586922100065676,0.04237206063351607,0.04948623855328224,0.11018636383963154,0.20340564444372072,0.24065896479758958,0.288282173932088,0.14525670259201134,-0.059337103380204585,-0.15484768187809733,-0.2448402710036286,-0.09630339620771525,0.09972981933907889,0.3182178369269714,0.2751366034704418,0.2558112878541985,0.2159507799443559,0.18674226829838939,0.1520961222138293,0.15950512138842327,0.20306648727803414,0.18056595352693855,0.09421019036657655,0.029725794887143837,0.01512213627504834,0.021648877004292133,0.025769402407178246,0.015808239462028476,0.012336782100120302,0.03933848720145903,0.0563969002039769,0.13058318001331523,0.16178473153444073,0.24814947738427726,0.28237911160562457,0.10526353216591422,-0.09114364962781236,-0.004263157918734694,-0.1674862984884278,-0.35063506180649373,-0.15257251207168174,0.1547724152819029,0.30740485613162327,0.2328560309296653,0.31422080755676607,0.2672826849728572,0.18409833344205634,0.20689115760997692,0.20966912788925807,0.193091287795053,0.07126733399259635,0.02757772837424487,0.02642691864463293,0.00005297357255994355,0.024957138763271915,0.018771938271573897,0.037270389506703444,0.042789347070806304,0.07273225424408664,0.1420193882851219,0.17944769934255872,0.18788906191432528,0.1823527804414598,-0.11952064479755707,-0.17533277172886277,-0.06213445796767097,-0.2598551101013872,-0.4807461496024614,-0.30000845165198753,0.15512813891882082,0.2395269147617663,0.2506813960492819,0.25176574400203205,0.29297976185954644,0.21181589987218083,0.20598929747424016,0.18690929222470543,0.1181678421930232,0.0456553108280319,0.018887622220773326,0.013478912385049386,0.0059889524687514245,0.03949589933165341,0.03380233833822069,0.03656928942500135,0.03646796356516653,0.05366296778726542,0.07796530986420386,0.12194951028035467,0.16553384454517614,0.15472793667713497,-0.06979352579816628,-0.01696022402386923,-0.060894149351577796,-0.2550016380461299,-0.40618987485868374,-0.24292391502281946,0.042189270039383234,0.21134541967145343,0.2692077812277175,0.2545357781842819,0.2218980595207176,0.15139395460243454,0.1339083358176384,0.10707360556242128,0.07005936966933593,0.052785004643519394,0.037822746026208345,0.027470408235352056,0.012145699713658115,0.03592449377417451,0.020667557805267873,0.04178623452993874,0.009833031492569267,0.050375508119642566,0.061105737540786,0.09927503944862602,0.1385777778324598,0.11853109614397703,0.10816092031526973,0.1600999427096347,-0.1407794032997364,-0.05157181241366068,-0.31764695689073247,-0.25136293203026244,-0.024346500038407985,0.11720248560020487,0.22069839419780574,0.22737544942596175,0.15493140751739976,0.05397464620061665,0.06984788274337903,0.06392233681009472,0.028650126998559972,0.05023413145192933,0.03288810552381834,0.015579297519898104,0.0068512726634558955,0.009637590940497032,0.020821384878023493,0.0036456524976039217,0.011014322835116615,0.039790241708210466,0.05632303095652019,0.051381908807606604,0.08756024139852524,0.10104788390138218,0.23478678510152082,0.3462030727502627,0.11583726454192614,0.155291574018834,-0.31650173346224797,-0.15996062860634694,-0.056781333479763156,0.07524784445250783,0.23463390003486959,0.19553440881460743,0.13300426856052694,0.07032241080874649,0.08453822816058018,0.05844845289200162,0.046798163378099465,0.060378376638495934,0.048973441819420684,0.019736802340458062,0.017595771891188206,0.02025847288505556,0.012854238393815757,0.006214408825213795,0.03656647368777165,0.03640992562378458,0.02582803137076143,0.0460338660475055,0.03637054789107042,0.09204249325911093,0.3039904406059681,0.3945247569119083,0.2290642978500606,0.14284725137680201,-0.22893083406137194,-0.048565346426295675,-0.0892045839194685,0.2384840950341084,0.31012807396707875,0.20370575683787284,0.14072961773122147,0.08896876997325423,0.04477413386308488,0.04243641424651127,0.037072589832440724,0.015106399696195058,0.0029709382508419997,0.02895860321510295,0.01650872257545121,0.019008363171002973,0.017800335483062455,0.026953597384746616,0.023201163089913067,0.07501484943994292,0.05383564442119064,0.03705660638133273,0.0832979689442445,0.14240650935386892,0.37206389145884355,0.3250498454246997,0.26757622220937216,-0.05380693378466713,-0.37566222825951406,0.045300419382847,-0.07088540602968729,0.31751208464629044,0.3063974397239453,0.1850819274279722,0.12547192424787,0.09484425560119791,0.04308741076071599,0.05233188204589586,0.0459181950757854,0.023009556901353007,0.029957583403003436,0.0188607431493379,0.03198586143377392,0.01173985430916132,0.0308166320017382,0.020205670142718315,0.012722677639584463,0.07281429470239072,0.12669124600718468,0.1060548425767253,0.18527607612431968,0.15097861389708891,0.2673199517659082,0.31750907096300035,0.39252221704156615,-0.062116938388028925,-0.4632256703681214,0.0015291494397747048,0.14567148966220295,0.4180279952852923,0.3486724569947447,0.186639303522271,0.11231507951896338,0.07181931244509265,0.05694184162568646,0.03916207678118604,0.059814160823913,0.0295754938158391,0.005960605235271828,0.02311167517199846,0.006801190554495422,0.029491858176126307,0.033789229400567236,0.02884340994546323,0.027143696334515504,0.09799110975148742,0.222253210186325,0.21339451531354556,0.19802595318868554,0.21301121773443746,0.2173565065406172,0.4499123632667043,0.28410611760686144,-0.16156662665192795,-0.5075412499057336,-0.08070036943701134,0.2929231011112035,0.3123496757870934,0.24038693176982548,0.0655734108996553,0.0039057469267138596,0.018643062124976406,0.032418977470329166,0.05782365969467162,0.05921726231216927,0.047029788809599,0.020410070383255745,0.03374274575289792,0.008062809910215882,0.018525009620996725,0.014929263803498573,0.0374659994025715,0.05591137301802443,0.13645134172606005,0.288786275846903,0.2688947807640323,0.2191365262793564,0.18646755989790093,0.26734737165016104,0.3940031194373187,0.2148375301309871,-0.154965452186594,-0.4718198297481296,-0.11374805603276375,0.21933205423343397,0.07254662091178872,0.03803361543560157,-0.11192754943597642,-0.0639640245640333,0.02841757099907359,0.07903263754871606,0.04663679475778138,0.03117858352342007,0.024214440267148158,0.027253594290034718,0.012677366222361014,0.030130321864360186,0.034109226554005286,0.020346986919803328,0.03773979768970349,0.04763500707540143,0.13979111451870632,0.20055357642689026,0.176998595527857,0.17887915649092725,0.14710389832428053,0.23072713868381867,0.288664055564268,0.13485232658326904,-0.24554469249356892,-0.2922124787427088,-0.16062889171940592,-0.016549012374793164,-0.00955886034436617,-0.0005260496529996467,-0.07425343108742964,-0.0039797877264495666,0.0940164497753578,0.11201642694903144,0.08064393501272842,0.04703088014359969,0.012277637076101272,-0.0008164819989792125,-0.0016999452344895409,0.03384823681626931,0.027834949165960375,0.019958751622304257,0.029663562811537106,0.04255603875111551,0.09909731657554198,0.05185492939481441,0.1122876320315971,0.08607657083883147,0.13585785228138864,0.14673398956346068,0.07556703346963371,-0.04147884757019078,-0.1493079679767549,-0.3090204930977694,-0.1467836206254771,-0.1290574397736851,-0.11518586950149762,-0.07853087294716293,0.05191465550647797,0.13777559285547614,0.15891586506695357,0.16424311906000963,0.09797492929631907,0.08242361116637018,0.020234108947046803,0.01062341443260714,0.023390137151937534,0.020729078717270186,0.008726655276705245,0.016477955925781274,0.03334923345468219,0.01918735725225592,-0.0023678731421901485,0.01001837656249718,0.12926543742009305,0.16496878210917676,0.197691063995913,0.07907236269306914,0.03326167864352659,0.07219238099391818,-0.05951518675655203,-0.22108128863554327,-0.1978982949646882,-0.13579439411967872,-0.14783064884419372,-0.15029662471265004,0.0017945871124871924,0.14204943712223608,0.15873684218205555,0.13898877455405273,0.07825517543335947,0.03901514440761718,0.015303124038489054,0.016860960332114802,0.033578836389608575,0.034226518432844064,0.01726445901554073,0.023953715661959828,0.011207084586445912,-0.009562682420087903,-0.09806296190806314,-0.016817747022939377,0.0543314624483223,0.13733636284620196,0.16416451894516296,0.19317713292830357,0.18657749033061974,0.1511799510899171,0.04255981871520547,-0.16062439151124447,-0.042023618485698695,-0.25393782271744963,-0.37141839975359575,-0.2896383312913524,-0.02494032947366555,0.060880173988310894,0.12747788036628568,0.09583886367527279,0.06616382621377329,0.013957914153875695,0.0364300475573462,0.028758110708784073,0.031555171229860436,0.01837780954721117,0.001041665255607227,0.02572196194919442,0.019170107133882983,0.014857137055374522,-0.05504086622768021,-0.0874773527796131,0.047253786515834305,0.03677929187148993,0.11941720202043724,0.18314032616459866,0.1476202373487399,0.043006651246799164,0.08981431882246804,0.1338135328243974,0.012368998065928442,-0.20385846295766533,-0.3491681751321556,-0.12696250263459857,0.1027355849581858,0.10539495913822981,0.1115005872383623,0.07550920983143707,0.034030978055632946,0.009004856742082167,0.003294543062767628,0.005104666593319311,0.005757209150979088,0.03282512765117027,0.021284709462058737,0.0027455574876878446,0.018209125164504587,0.009068866708821075,0.005245828829714149,-0.005254484570251954,0.0852528439385924,0.13778176528292005,0.14544442008735173,0.20647359908199303,0.2798185699126861,0.28371558815576403,0.33927557233317984,0.4312589760468749,0.4221927961730642,0.2999156399734653,0.03725210111499821,0.009265487100874062,0.0503808068835238,0.0287792723435868,0.03590958818116982,0.025040064766886652,0.0027874564121438293,0.028474317603092585,0.0041666247938708,0.017552655856416775,0.0009714976060714904,0.029621259124164856,0.014266566321867577,0.022007160926770263,0.0031699978638361154,0.04263640405534371,0.04949071503584408,0.04534807465408567,0.08512225951991423,0.08404870885145002,0.15650224914776933,0.257937190401774,0.2875620451648607,0.24215186190045263,0.18176594567404222,0.2843913667580072,0.3260212151073834,0.20579371233148724,0.12446811529932097,0.08446185183127691,0.030743669379698423,0.027594276272880552,0.009258263646090902,0.03437157230046192,0.007282635677626457,0.0294180784373382,0.024788863103863763,0.0269454872419217,0.029537071660389817,0.01997678882568425,0.009106747237477699,0.028439849709447,0.0028077834732991714,0.028894200367531726,0.01368900173266898,0.00946139716407109,0.0264606156897792,0.04628853193912066,0.034639652106061854,0.056965226048389356,0.043355347478459094,0.12158941104722139,0.06494022672049335,0.08273014655032726,0.12048126279458313,0.06354629690306908,0.03687418908755622,0.027049657475440966,0.026784642988479625,0.006968076498723255,0.0026066856413110213,0.0004715722082613924,0.02400470145632542,0.006865144347874259,0.023990525296206915,0.006147741055079425,0.0034743275868634777,0.008000919024690942,0.011827211119825645,0.03569409068716491,0.014168534138076712,0.02121487676822828,0.020410349516850567,0.03318009742251098,0.004720176594498217,0.022877653340537107,0.002754632470152489,0.015979727172047715,0.004550500641315148,0.010450125857037758,0.01814741332098404,0.015810153764967083,0.020655190328478918,0.007451793090443337,0.03383705241221543,0.03782096841098325,0.022666437105436723,0.005728161024546013,0.01081644527181513,0.006309377496088846,0.03365721013750292,0.029802262963099076,0.03246348159506408,0.0007361055288277621,0.03479020118878375],[0.02378893894131978,0.030133028183811996,0.018482787152512576,0.005453614062069774,0.009945958389306144,0.033739854473899815,0.01342618396714157,0.010816620337281853,0.014678917900209223,0.007600848476026585,0.012733493599646,0.022619612766420365,0.01363156488116188,0.02130350396783968,0.02031238112552364,0.019634893465116928,0.0227771049954362,0.021887616173140983,0.017106930146877777,0.017426378402713986,0.030076456154370546,0.01048472045300661,0.032019991846920004,0.028264328375527868,0.010219026458952507,0.02700778526309357,0.003444209962521031,0.005304553664647414,0.03201713246344445,0.034432791001581774,0.007027290261567549,0.011126316207591112,0.014813578175617506,0.020211513262343123,0.0370912532261914,0.03098970731713056,0.045188364441886904,0.027409373350424763,0.04073376437289734,0.015890226857304644,0.030188037257082845,0.03970257877503218,0.027359817623442785,0.023253830802318826,0.021553882387775437,0.015763642776026484,0.029755861089070797,0.035850108624478794,0.009410523013102298,0.025192602670634952,0.0157341154590583,0.03429129520079551,0.01326280778148258,0.013807372791146197,0.023189364197690472,0.026327352313309453,0.008867788080625383,0.02998865644958254,0.016598282779554413,0.028218761290601677,0.013556018467059916,0.005739971284835277,0.03334382098686301,0.015878264898833355,0.056540991815154575,0.04346818730037295,0.059306251182631865,0.07153854454734411,0.051896962059458575,0.04819112221378811,0.05943238115741257,0.04391668226416366,0.04123669214946129,0.035349213771257215,0.029394119877178743,0.03848207725527041,0.035880735923069396,0.03053522016601979,0.021145721087365874,0.025280380872619065,0.031793996415586404,0.006485656625750074,0.004441320193692382,0.03360393113678945,0.01473523261598092,0.007716258423318935,0.034499152801725476,0.0038182189745239402,0.037517724553159285,0.01075830765865768,0.024083578005212884,0.043033562250039875,0.04137419279679739,0.07051590611616008,0.06302761250476954,0.017475280743998838,0.008560764540851952,0.06729029605131415,0.07213790768417333,0.0658380081981742,0.046276930908916984,0.04744722251569821,0.10258697475740315,0.06765321021836374,0.06181966278124765,0.03850167183632033,0.05354881133822451,0.011212480426316104,0.010316499560722928,0.019166222232950364,0.033470484172100884,0.02707057199783854,0.00349816342345818,0.0011388480009217586,0.02334159421621976,0.011474380393318998,-0.004356628561362986,0.03234840400532021,0.03733978578686546,0.01631681032697108,0.031756102210886955,0.05764759064578553,0.01846762465621107,0.05183203212289358,0.14482497788654664,0.06911282433603257,0.08719338540092077,0.11942735011869622,0.06935542217768467,0.018934138194335436,-0.00016230281257522842,0.012299136190348737,0.038602155870457004,0.033419314180808596,0.019641170880067737,0.03764619728162366,0.005793325937732738,0.030015551331849813,0.026635324988218856,0.03514806047714959,0.009678798188792423,0.033252423753084126,0.009408573579178653,0.011628272981975931,0.013080703542717205,-0.003974071930643882,0.006077297137899599,0.00456105703445507,-0.05714254549021448,-0.05968061383859289,-0.0855215756531451,0.12732492273249157,0.33694706804322977,0.33152988968367486,0.3277519435507959,0.2964576171449458,0.30384832874779494,0.2765270067043776,0.044593952906112726,0.03356693249968678,0.01608000773386961,0.03881363229801375,0.05532701147810266,0.030795782024607362,-0.013274366051876992,0.022392060457297427,0.009505786560226973,0.030731157292151683,0.032948728593143704,0.010829340949485795,0.004170620754058139,-0.03555316339330935,-0.02632390322102074,-0.09269186450426722,-0.1071803448368425,-0.1366882748939328,-0.24998877095081434,-0.19658071014247203,-0.13034503696779948,-0.06323751507716177,-0.10616619573425115,-0.16232279848807102,-0.06863351721781319,-0.08303134369086129,-0.036230580942811196,-0.043056431038324815,-0.06810875130016157,