{"layer1":{"weights":[[0.0007656836557082745,0.006710752073950642,0.01719257365843662,0.019371061485856544,0.028134342687104692,0.01664539832569342,0.030612900413772563,0.028778439694724482,0.03544584733579661,0.02387357442446871,0.020871931964481054,0.006005291789069865,0.020949565413173835,0.0024528413854559812,0.02332929267587552,0.01203286382867276,0.03046572705286862,0.005433655920540213,0.005457221855482364,0.004421741275314599,0.006131700429007371,0.017288545673495255,0.012178361537762385,0.03484660741898881,0.01719596486082545,0.006868403733320356,0.022587984460458788,0.02999028680191287,0.010260974699221643,0.03282018411986487,0.007186291761108243,0.00595236227734075,0.01437554687477388,0.0018172913429345744,0.0122731115470474,0.025531993768922043,0.018606868113066426,0.002407683034586489,0.0190915560932709,0.001714823168818296,0.03823792023819223,0.034241638187021486,0.0020187639061497336,0.017598818973986356,0.002734034158918219,0.021373745860325352,0.027921123617794877,0.01932478357351446,0.0018877133549775067,0.027647786812473343,0.025468664898072903,0.011957938481636543,0.0329944663832051,0.00024695363300189906,0.01178737505647291,0.004965694723131702,0.031666374983212585,0.022309500700066955,0.0017639446177079613,0.01132892838020451,0.02321230072377021,0.018220338454669378,0.013407961138216344,0.010539626442486003,0.005906902654754665,0.02255669277111864,0.0063534490879839116,-0.008661843857532839,0.007147897677080556,0.011848787946445569,-0.02256772154177897,-0.023379883279465757,-0.02046915205322583,-0.004106415578058279,-0.004807709930095579,-0.017854663659376675,-0.013030143681790061,0.022044995333109916,0.000941964486586371,0.009598795986476314,0.008647595777497456,0.0028610872779550873,0.0015377672674335113,0.0058264571331929004,0.03057011951790813,0.02102310483744168,0.00972366996210112,0.002553289595128361,0.003212715181471834,0.0015940475706292792,0.02429687544295292,0.01488515425923315,0.01754772764117489,-0.01779928131697995,-0.04056914588212955,-0.02891506745975903,-0.05534710877896355,-0.05428167678270857,-0.09236020164015811,-0.0688961547748784,-0.06044414523940552,-0.07967745458023989,-0.1057953259631748,-0.08155601122232631,-0.05373578645960204,-0.05775906010045113,-0.023109131662416543,0.005456324811128679,0.014425194827948693,0.02533038212555388,-0.00009333256061896196,0.00043513870024767094,0.02039824462286836,0.01674633351994492,0.0010682981709771039,0.032015476077446973,0.020523825606762938,0.016553648987301335,0.0012086147964170159,-0.03889597290394998,-0.024958196379923876,-0.05226417601170279,-0.09084158586585785,-0.1046773357879649,-0.09311810051605435,-0.07831066511838677,-0.05090933144562428,-0.05964857267996588,-0.09733350264554626,-0.11383224343170296,-0.10131050508981339,-0.08054503980428426,-0.06319364501701745,-0.07542605723339889,-0.055644472606458176,-0.022281343799280873,-0.004729793366866171,0.000642947313549225,0.02605719254221185,0.02008687209486253,0.019203206342729102,0.03070239023103524,0.03481008255964342,0.009063152644188204,0.0038790655707855687,-0.0003117673922136963,-0.037897594550001724,-0.05735286069807858,-0.06846443515474049,-0.0980768158613893,-0.09565407454715508,-0.10556193266285983,-0.07050932103308159,-0.02333553233447065,0.0002649797204181325,0.024834286763549398,-0.0012335279754337953,0.00893602935039122,-0.01494655626213061,-0.04053422160717911,-0.06830703872321789,-0.05668946850252257,-0.03552150067983586,-0.030109400493565884,-0.02984260627612799,-0.019223136994194798,-0.0026241989763547613,0.008504975738720038,0.025059379309894318,0.0012699645749784927,0.020572011010765837,0.031476298471673075,0.0008211624927808583,-0.01934419624134419,-0.05412713171804308,-0.06996875493660026,-0.08007481895708077,-0.11502115699879197,-0.08922711402903176,-0.06609688029694295,-0.04672176138062379,0.00916379307648136,0.040690823514992584,0.04737559338592282,0.02214070781430383,0.05246039434817649,0.06604887475572527,0.04493463623933446,0.0021539223144315524,0.0019468077062255748,-0.002189497374477258,-0.04355262677473763,-0.06055929621374773,-0.024056957231591,0.0062884012355262486,0.031110079545138527,0.02580616305457319,0.031682247404928345,0.005290929384846572,-0.004895705087298047,-0.024323706494405815,-0.03704484307125927,-0.046063599015501396,-0.06821194597744298,-0.07993243268511487,-0.05144739463028171,-0.0350880586382376,-0.026630780006926976,-0.013811199918548712,0.008939091054513099,0.009134002142066458,0.01821175391374279,0.03545248878531315,0.10616381214978912,0.10747393774179301,0.04695097472113182,0.009358408885614653,-0.04078476393607852,-0.015621531473445518,-0.05325629071029987,-0.08417617545019278,-0.053444484001098004,0.007663584651148713,0.000221876040174413,0.035631892465521724,0.01808002525006699,0.007488955969334434,0.004816657994672765,-0.02002030022142339,-0.05503076788173306,-0.05953219397700842,-0.06710957104724548,-0.08331515076557339,-0.047210021630763675,-0.01303229753619723,-0.051374996416364865,-0.020474842240841933,-0.09806759568357919,-0.06592927914070439,0.04517183999283269,0.14464235808831388,0.17546121833221257,0.13427069559422647,0.0933021603759476,0.03692767885334661,-0.03330387255953337,0.0072613047859912795,0.03416992271118757,-0.027153418816900803,-0.012953133897294848,0.005879003028187685,0.01894099092222409,0.01822106209266495,0.013092472404324502,0.015395123101487159,-0.013212310866354887,-0.039789534176849606,-0.03696045490646613,-0.046625150532150834,-0.06308437428685541,-0.032513027621107686,0.004860714739258287,-0.0532754775598019,-0.06974119057229475,-0.05136338183344203,-0.03303141280383636,-0.025115247237080945,0.000960542550740118,0.07908467211264607,0.16910289531161013,0.2098963434866683,0.1445862370492087,0.07108043166050002,0.03332577950272958,0.05711244662644367,0.10801770354384257,0.028678980207890656,-0.003052415598379417,-0.011036373849895587,0.00577414138254428,0.03242990158252881,0.009332469312744488,0.02108242315986852,-0.004532507537397017,-0.03957522434745809,-0.017597475197790237,-0.02661919172618731,-0.026447247162016085,-0.012385276539858407,0.004283487319180027,-0.028389163982604663,-0.01024403657645971,0.00003961820574949203,-0.025778869622647912,-0.08750444197482576,-0.10322218816701004,-0.025347067562465173,0.10995942593492339,0.2145872345043628,0.1649789317357037,0.12924136033200942,0.09473067716054082,0.09586857280946577,0.17649043098478714,0.03885435910725761,0.007620687495170642,0.006198978648894506,0.010156452741279676,0.02887277720460112,0.027344657481568172,0.004350724177405019,-0.018311210769547157,-0.0557493696233696,-0.012263384944244943,0.04563586360806532,0.03936517214883086,-0.007050275271973921,0.011352160140104782,0.028421573070041478,0.03538782030355104,-0.025918701145398206,-0.018820316602377273,-0.13084233191223768,-0.2694359658564495,-0.2157436725739384,-0.03189554772312781,0.06589542339787034,0.11244186525592777,0.11889866578726165,0.1036335670744731,0.1308867820871211,0.13603604287001725,0.07242314942458455,-0.005576275179465103,0.010861767714657933,0.015514595764059906,0.019629049998541894,0.03381605733408734,0.012870876910650775,0.0041597025452490095,-0.01149331971272511,0.048358055529872136,0.08004222741773764,0.00989011016287243,0.01848582557836995,-0.005686213763382664,0.00205345598971792,0.049053816123160364,0.04591214976474491,-0.04866603488280416,-0.294825780944474,-0.3662240844474605,-0.31936063491448163,-0.1735679269338358,0.020638339829572395,0.09623245826841414,0.06094946572199574,0.11056542427304147,0.14496856537899502,0.14223117006110628,0.07667274094681434,0.021735736165622247,0.023846149789436215,0.008321311225035282,0.014988709358554843,0.031227163192179833,0.01933969394474664,0.017691171888537652,0.007305284901370603,0.054230046183680256,0.08862300294811427,0.04656092572928459,-0.011426538646995464,-0.01106177642342921,0.08331677420826418,0.058787448181780236,0.028968121605305337,-0.20510845121980006,-0.3620671551107845,-0.35525944838613777,-0.2905570860365747,-0.17187687581752284,-0.004128792249586073,0.008263730598565175,0.02950450972738465,0.06785936735923133,0.1352818066275945,0.12466930525669216,0.07388600728594835,0.014170662838338262,0.03230105742266848,0.016045622953302325,0.00959788891724206,0.017620056361714573,-0.0012854442297687491,-0.011191019368927219,-0.003629788425566267,0.10171565954135454,0.08062638967159168,0.09345861799293201,0.07378484066333434,0.06594755690222324,0.11726948973593003,0.04299457625462037,-0.022661778792500798,-0.29997196283283073,-0.35753960083046493,-0.3212575719026787,-0.2339214072427393,-0.11643357890702488,-0.05853706645918374,-0.005217587839074552,0.02282340630913544,0.03292820511409571,0.0710270160259773,0.11512218886382448,0.06130764842956215,0.014506961933421351,0.02788475723444169,0.0006326537932219043,0.01883517057285928,0.030808543729622793,0.00707041495180024,-0.017033509018147562,0.023470541913234107,0.11480857892884005,0.07411900713535471,0.09568131850009944,0.11305969070163482,0.12098345367988193,0.15064099549933693,0.017424060689137117,-0.16643008380555024,-0.40984277573723393,-0.39536892383940014,-0.35479983990061015,-0.26256012293123565,-0.12746477547306995,0.012256218555500726,-0.017173200772915464,-0.003440248413528902,-0.0068770559455584145,0.04360579352640411,0.08714503486601427,0.051590819323084146,-0.0022211903479580687,0.028518750101180806,0.027975360392733385,0.030203991461882813,0.032984303887192645,0.0310059416612218,-0.022943203459296402,0.01805594044117826,0.09089626975609726,0.07938974129582713,0.09151167279255372,0.10113041742617684,0.10512201534338655,0.07073333854982836,-0.0814997337246568,-0.34011487219267406,-0.4379295068791017,-0.392662525916304,-0.29727589535122145,-0.20933155528863254,-0.06719749653412468,0.03950543443492053,-0.0027564810137655337,-0.03920219440951465,-0.028266373133371065,-0.007689834222115161,0.04238632650513757,0.00007967895926505989,0.010032809977429289,0.007855796492491969,0.0199193200954485,0.010424368627628133,0.016647570085915022,0.024982319412885593,-0.04543793523092703,0.02151515504767047,0.07288623309490018,0.132977325718116,0.09986289587613766,0.12610133648561486,0.11094572115401716,0.06865036877739472,-0.11460815817551023,-0.3494747276755726,-0.42446848669353404,-0.3677319177343508,-0.2476182835776651,-0.1034769472509651,-0.011520623122238657,-0.006171094689717413,-0.03449155425979041,-0.042177462374237494,-0.07137309755236376,-0.01790828858323803,-0.0036811129399532466,0.002173415019498267,-0.018864561945091576,0.010823264640263607,0.022736104352970753,0.03161472653757798,0.034465908011943366,0.01564656462688037,-0.05997561534210436,0.003997264255071211,0.06127607202570141,0.09334771282724597,0.10223900456772202,0.13742136627540483,0.16358833296609138,0.15250630213210176,-0.03670152928189625,-0.2373987878733784,-0.3257645462036668,-0.2715140360611599,-0.15077981482627453,-0.05620846492367606,-0.012141720644098087,-0.07728933673317423,-0.08619156177316498,-0.09247751143266211,-0.05988930796202413,-0.001762090123801599,-0.03683119151925514,-0.021302580336435898,-0.01641146165623767,0.012300542195120463,0.025386568440664423,0.013692304697122903,0.01982496908230947,-0.0010064685290956709,-0.06281986809758762,-0.008239036049445484,0.05036628330154716,0.07179324412430414,0.06517261859036506,0.09716251992814356,0.17508036109338404,0.17593673280044814,0.06475095797825556,-0.0678928704014377,-0.19672797764067526,-0.16801181964385783,-0.14411554563569867,-0.08795984873450961,-0.09959058576344902,-0.10867754991422086,-0.1288600922349481,-0.07807396379654795,-0.022144033745254213,-0.040726981301552834,-0.04912864932488588,-0.02667931521333315,0.0004726399275561187,0.02540914744110588,0.023825456560268996,0.0006627290532159444,0.0016499342705417438,0.009771818980753154,-0.04225600197217228,-0.0307968115322742,0.015478930332121799,0.04182785231346777,0.0328864575436483,0.03761532703353949,0.1297575954576129,0.15779063844031757,0.08614994388531265,-0.02908628435146485,-0.12978028359842392,-0.16227183372446505,-0.14304897670980296,-0.16474737090592906,-0.130330377922255,-0.10754213694750292,-0.118409993828232,-0.07779806905477901,-0.03085824006825365,-0.05312540190818396,-0.04250904722524881,-0.01146978552726458,0.014427193494270595,0.03114334940899484,0.018805535769427336,0.02139384182770735,0.012320796339231747,0.0195847149487088,-0.029232089858975036,-0.016291656004487752,0.007330089486488244,0.024864119350747494,0.02562394454332418,0.0378389752236416,0.08162379609929482,0.11617986708141421,0.13587455523959727,0.006334206011230225,-0.08028356630214568,-0.09598039306414063,-0.10050359508319924,-0.12398672556078447,-0.14618168775605253,-0.09192281261153518,-0.09715954772093807,-0.05840952413724901,-0.05010216806197159,-0.06460823010918625,-0.03243816734398193,0.009592911456488879,0.015245484306856027,0.00328602746080561,0.03340769235715648,0.02058507057144425,0.035340147308484664,0.02374986909926151,-0.006761977191181879,-0.02610779128849662,0.0024306537256312925,0.05196569199530698,0.0802672584714363,0.09456426373888165,0.12675485090179714,0.12380832851100265,0.18630849167750746,0.1311163134569196,0.08911335257195324,0.01164457892623093,-0.02173199615390059,-0.08999246485323484,-0.08720316930314746,-0.08856210209905821,-0.06353139976701214,-0.07375762751096074,-0.050027374778970436,-0.013436499122582107,0.008443404579248423,0.018780532434331854,0.015044654718247438,0.014003402975090453,0.011506029120341307,0.023353259821894463,0.0015988264496348667,0.012479069269056906,-0.0018493442707550455,-0.000261369152738971,0.002648142216035694,0.0022730556022225734,0.05008971801777924,0.0929107431244468,0.10913932882334129,0.13680240058116935,0.16906270930552988,0.15382435194219385,0.12810810877339146,0.09933319373337894,-0.00999172529999875,-0.06332325580644368,-0.08117141362680082,-0.10183474522736238,-0.06896503386860407,-0.05494533001874128,-0.03184578420004502,0.005550914834557671,-0.003392142169472043,0.009109711031441644,0.02424642963394932,0.02185221434251624,0.018789762521905087,0.00577153136331137,0.016890031266911774,0.00877291775263905,0.032597310394199074,0.004459106593863334,0.009361055894424203,-0.00536885987634413,-0.027805980124260946,0.000866375510759026,0.004834082482307393,0.006931814179254156,-0.009300449534203567,-0.03085566612849719,-0.024194094982859324,-0.021719162939581486,-0.056040463714349814,-0.0896052962731634,-0.07439427448380237,-0.06206690020139068,-0.005493079584427427,-0.01637001041041084,0.017521383820128026,-0.0034615409905064706,-0.0026864670439074494,0.024164947188650043,0.020607569704552624,0.01108823259337741,0.03287129834683013,0.010547186375261459,0.0026888153391423203,0.011700671464789326,0.008292150252600036,0.0032739838558795815,0.01943257247154416,0.013811310953048642,-0.03613742680920357,-0.04658039104236441,-0.09422310223854943,-0.1105536750146933,-0.1364296964578456,-0.12934484275047825,-0.12110890725882946,-0.10586079641604185,-0.09865284487857985,-0.0646154585116343,-0.05967440879504614,-0.01845663042551287,0.0029312642207510705,0.006619405617377716,0.024681272712794383,0.030542794845327705,0.014921825763994452,0.01022334533045546,0.027923449762228294,0.011257804757391927,0.008567702124569698,0.02386130510150704,0.017547428269576677,0.015425783055824158,0.020828125834021678,0.029376708648396456,0.005064556396429424,0.003440966343249637,0.004281658565263166,-0.01815738658725564,-0.041100837260094114,-0.04304435407780224,-0.04735185473384662,-0.046190181183872164,-0.05954639733792831,-0.045748987155016796,-0.04800900097630042,-0.027560331201870025,-0.004122173461214119,-0.0022520919542580505,-0.002197606383056144,0.023716557923157727,-0.004430553652723119,0.006017282031179857,0.028863276566718644,0.027444983995296234,0.03415068874618609,0.01941091984957519,0.028282845478285832,0.020491807912455546,0.0007702000083734435,0.019048193202393895,0.01918954090384521,0.025655243632401344,0.031891728590830545,0.007770799294134006,0.011169233541153192,0.001343421923013885,0.016007540691378087,-0.004916577702034848,0.015058940186038788,0.018313781922506257,0.01137957885953523,-0.011177546255113448,-0.017436206050754754,0.011939684106571796,0.008451303657278045,-0.0012685380741181069,0.02409627325100366,0.032332684816550446,0.00579035640146466,0.014603258075737756,0.011298514918853945,0.029466582259204035,0.023160534820212693,0.001467089562703559,0.0237938081519748],[0.011390153612580691,0.02125757246588799,0.00643421882318107,0.029871303594341998,0.0029756636580250567,0.0011613871086968827,0.009260753957991403,0.008189475704401554,0.007857702680829581,0.01016638657882232,0.020557279629390912,0.014385103058432587,0.014862013088430074,0.014298651967126794,0.02710750262876001,0.009981722667990212,0.017080217547443637,0.028614989098457302,0.013615939615187962,0.010838461261633727,0.01644317316749594,0.03483510765567206,0.002794174617323778,0.016251715595223242,0.03407234625789992,0.0108260163415627,0.029274312121616988,0.007626540607931641,0.0106745688909777,0.010088333901176425,0.016957642732883898,0.006824080453393071,0.020051554094016037,0.013042735622326062,0.023640375101267798,0.009895480255129532,0.01319196346402635,0.02633125218884978,0.027885886881622912,0.02040858818558566,0.006191750811020455,0.014563939542895293,0.008598627182260744,0.004837417026461344,0.006402305263206149,0.004871966668484544,0.013916100196631778,0.020034767135086673,0.02256368884056177,0.007269049068252542,0.02143925616724044,0.000551533836251297,0.03229376029269868,0.027355833259366667,0.01100028169385779,0.007038323886170515,0.011487514562072032,0.027484334558658112,0.004172000781610551,0.011813490164254242,0.02485517945423964,0.01662452199307356,0.0029401002507882003,0.0005106701140164189,0.01268437095388816,0.040058426636517264,0.0031420732793035187,-0.001498611083101179,0.03260340474307495,0.027611627032815386,0.04606037084803702,0.04035355818245004,0.047619772578523574,0.03691289698660555,0.05375553692574223,0.049275329910467784,0.05802660570268327,0.0386926130427457,0.047452023040391866,0.03957021969601515,0.010826512096346812,0.031687483151463865,0.002226926153733742,0.022304387983247503,0.014549417028114029,0.019060532945636515,0.033408921362611255,0.01820258099016587,0.0016685584627002183,0.026814101812572516,0.016586970328017783,0.005926017013795037,-0.001017502305006893,0.002391131808696448,-0.0330219032555197,-0.05201627670305087,-0.09621235214114086,-0.05954415300852643,-0.03568437913205702,0.006253853318477363,0.044191161891562546,0.06426167204263532,0.08044036896722706,0.1038449101554691,0.11384797890282831,0.09284700812853891,0.08646919009689906,0.06011514008909239,0.023962505220697438,0.034037001821501635,0.016181928174848845,0.008993143545528668,0.02827322705146115,0.003951768238185616,0.032062880942428665,0.033481536776790596,0.031626953624597984,0.007376943327424992,-0.003185545871132334,-0.030827659358436035,-0.06265317258107671,-0.10747338602368103,-0.1763434104553619,-0.2376057803143775,-0.25566639478192044,-0.2414308639530508,-0.20823854827382046,-0.14899025865765192,-0.07351235379616732,-0.017511095153099242,-0.003656540168796467,0.054135565418201505,0.06528937088445161,0.08894287496403232,0.08250108861609812,0.05965972502159177,0.036499101669379905,0.0303383795963144,0.013910993520470098,0.0207192962632307,0.03564965771822368,0.0056343856606620125,0.021454781808766137,0.02112862131905362,0.002633557644629526,-0.04178112469362429,-0.0516811758377663,-0.09999933438212982,-0.11022016456642991,-0.16214403229658264,-0.27368761619020754,-0.32834699140819606,-0.3531651405967934,-0.37630299550800395,-0.3269595237254611,-0.28786333803694053,-0.2613179047140495,-0.2111390066807893,-0.12212117543948621,-0.07286144551949891,-0.00402790509765875,0.042519102572901715,0.0659166413525894,0.09324716151749131,0.046628925564790154,0.0016724997212612474,0.02597692340536334,0.02264231388558052,0.031177489431004575,0.008936918228328867,0.018832248842092184,0.014311709406934317,-0.017443019328196786,-0.022451923765436612,-0.04130159471286923,-0.04081509459477456,-0.06489240749936442,-0.08295728904246076,-0.15112290519162397,-0.20405045460244214,-0.2398299348823588,-0.26072037874235243,-0.27663110356030385,-0.28675664010715896,-0.24014695517785234,-0.1950553105631327,-0.15940641387660617,-0.10799784336603081,-0.09050920889600593,-0.004979464793742289,0.06813520311153683,0.062235456930023456,0.0012144768192436247,-0.016280772036398987,-0.009917254921842374,0.011988312336277332,0.024164313107855724,0.007889403611394006,0.007616727701409389,0.02876653139323968,-0.022220328762269398,-0.013351495961558072,0.004953614471217742,0.019062007095553748,0.00430028088166314,-0.005345544772632966,-0.040678296244987464,-0.09060483301539235,-0.13880095660575079,-0.10271265876198238,-0.10356008004341892,-0.064144789128538,-0.047809996324473795,-0.05030043785246605,-0.06228911198678965,-0.0609105247284784,-0.06841218764474999,-0.06036961926921671,0.011788020983181482,0.06871972930024978,0.015172779982848765,-0.014251985881866868,-0.0014183921283326328,0.0170783222829727,0.0206563191813265,0.003358327835231795,0.01539476330771853,0.04438408994938848,-0.01618895578834969,-0.02551746624686753,-0.019805560520019347,0.0359348602494173,0.011254758332788578,-0.022517722808741675,-0.010074527713933145,-0.026986120469877365,-0.03487677727983169,-0.01838879409913167,0.015860054079980857,0.08919725618790508,0.10154869049480009,0.07095146820214007,-0.025567696091684456,-0.04034611287297683,-0.04870517793075232,-0.08083543749968937,-0.006288191086574812,0.11702105030401096,0.04235047393183806,0.0015925631115011238,-0.006289513365228831,0.027294699109085236,0.015713269421969444,0.014484915311860276,0.04732885044885029,0.03271777257858991,-0.010905789749030982,-0.008070924159222963,-0.021918936551771198,-0.003335138135458209,0.02858084354408334,-0.008054614965415215,-0.02604156630924678,0.025556948478226343,0.09282053922617495,0.08608747378936583,0.07428348222485753,0.09103085510114454,0.09360761748155724,0.05729101139165305,0.020669806580017738,0.00006941650223498163,-0.05207177555648226,-0.04369435265404458,-0.0076250507144408715,0.107849051469841,0.03789169756846831,0.013577547209453596,0.005159858447066761,0.03273087365729389,0.012955835781400004,0.022054007569877236,0.026684668214044215,0.0073570512634935584,0.006148219874804192,0.02498298548168653,0.027218029068986932,0.07366737923187162,0.09126131565886429,0.12246385761718566,0.12888114473687176,0.13111080844014586,0.16590303068713436,0.12232877201301683,0.0066563861176132146,0.03389947381162489,0.06607095841584117,0.034387993959897126,0.0043028321494203775,-0.03824639651316481,-0.05254804088631798,-0.034752515861804896,0.006095721317369758,0.11147018519867093,0.044370852488830596,0.005834999420026349,0.029019459697680505,0.02608784080703459,0.003158649118684533,0.015147382243720888,0.03766786060323839,0.00590541643809015,0.02454636604975753,0.07474459662081574,0.13426615797429942,0.20316838933433606,0.23693794380975708,0.2162728424937909,0.22558243975810363,0.19816400487888605,0.1978513222383008,0.1267696899248748,-0.054146494026456334,-0.05708983343930784,0.03096054381640493,0.05864736414868369,0.005610056463399202,-0.0015751715503055663,-0.019173206467992514,0.02331282055982045,0.07038135982477754,0.09429882809327618,0.03421008786663033,-0.00549582256036024,0.0279296137230364,0.030448078501758662,0.011542738788604031,0.02072969630347838,0.038028637335895135,0.005085929130826544,0.02612363203370889,0.11274398483493846,0.23497215417556735,0.25940907913741496,0.23800248284463005,0.15434814224688662,0.14634760131712776,0.2034673937307788,0.21203574802332065,0.0012103456550633905,-0.1845317975578326,-0.08986026853425777,0.052695306266990975,0.09560706360769805,0.06381815899001396,0.03927158123405874,0.03559145079678176,0.09893613987517651,0.1720313272392065,0.1648151645939854,0.07689847563390459,0.0008487073902461291,0.0026562352608707268,0.034535941041714466,0.023497913796064855,0.010082665352822498,0.023628641952080216,0.036006857034489935,0.033771012909123634,0.142077308045139,0.26056055775874926,0.25114542624111563,0.16892791561366902,0.08986350746131562,0.10954403498923096,0.12264591096200539,0.018041448903983476,-0.14346607960209903,-0.21092742178507257,0.05520163726239464,0.064758998378853,0.10009291661544555,0.07026742895817688,0.10172580642124619,0.0854650168736009,0.1506910363962369,0.2219306968150497,0.18476859203308396,0.08656825886693101,0.017553660882847877,-0.0008009750872587227,-0.000028569171493053184,0.021083886949666897,0.01999285782329545,0.028290979713014433,-0.0018356117555533736,0.057821025936675104,0.14502258080010053,0.19932908670862287,0.2021552638801551,0.13773396760383444,0.04492766591577955,0.06377035780203867,0.027302198869981042,-0.07452273109499157,-0.22286075641483857,-0.10872515442791603,0.11230511406573863,0.07181885878251776,0.08024338975421738,0.052983989754359306,0.0956030260243427,0.11097443793023311,0.12038333040916947,0.18495713274260778,0.15232717469478804,0.06627474981975041,0.00723955104265561,-0.010197932378485236,0.01257513084795374,0.008270267963457017,0.02616003718247527,0.011549970129022395,0.007695291679245784,0.0015774980304153194,0.05307759038731297,0.12325115213134612,0.11227957175570132,0.0844687668484576,0.0529890983270695,0.038937903362437846,0.006606113064119371,-0.1427913946834107,-0.19228823084730673,-0.0032155934158053403,0.09273252537887329,0.10571066706915586,0.123513057036304,0.05825799956515998,0.04622565926803374,0.06717969322113065,0.06360562961353955,0.08377553269025037,0.08045973542763141,0.018751843914297957,-0.027998259780015824,-0.004140586430991042,0.018003837011441495,0.011702389473337705,0.032577324434014565,0.020801119743850925,-0.020587821838915964,-0.05868390914446762,-0.001936662082711949,0.03392565598124795,0.0915638067662154,0.10446748041646478,0.07344264849637552,0.09275080575609781,0.03932435875961011,-0.05688725629825863,-0.030274825991741482,0.09047541923237648,0.1770952134571616,0.06040161120713305,0.07329608921106473,0.05159898898354941,0.02227373588777975,-0.0014282552364801137,-0.04595270510509477,-0.03167519852723563,-0.04089982574667973,-0.04495301921727343,-0.03583492572034019,-0.0010118283206607646,0.025385027308262975,0.014394726616185318,0.015591640917033881,0.007694488345586407,-0.06866189676005016,-0.10373761775768842,-0.07231022734825983,-0.02377077212442472,0.03253077218999763,0.06490439529993455,0.08009034251877445,0.12108693614842968,0.10897175216560454,0.05883335524452213,0.07941627543543232,0.08851350643946786,0.10234159796634992,-0.011157114126570613,-0.006224209054818357,-0.041134201223430575,-0.07448011567507902,-0.07587638829110885,-0.12096676792694533,-0.1603736486234051,-0.13238084226009322,-0.09943411694174371,-0.06427893076078256,-0.009409254160831692,0.013902161151393389,0.02213934961793337,0.016068949184752834,0.009761050092666064,-0.05808165135279657,-0.12915099348561693,-0.16789623028063233,-0.11696065940519973,-0.05950047906051999,-0.019213133273875374,0.03158277034366047,0.038218373669282435,0.07827157408370597,0.08027232226705673,0.09088035656875329,0.048538587535231964,0.017503272264467417,-0.07084678308112013,-0.0962191991706272,-0.137674599633788,-0.15894180520552034,-0.1944544579415216,-0.21580729922089117,-0.2373570566014539,-0.21588736965340705,-0.14929895315972652,-0.07461228153522623,-0.009291673920154663,0.02822565967557666,0.011288781682991477,0.015391809332462291,0.0022750304857861903,-0.0763169278935237,-0.17228779181902476,-0.2027049040747847,-0.1705737772730253,-0.17666320394958127,-0.15986899566035195,-0.11872264860792997,0.008196161784053304,0.09853778492456439,0.1479987796478985,0.11602080594366346,0.09041617855763504,0.06345124439604008,-0.06446032205324814,-0.05132173387341101,-0.09521709083603823,-0.1479269257547878,-0.17721756737128722,-0.2594541173369974,-0.26925740105713053,-0.20665368140073684,-0.117651124395143,-0.028375625063153914,-0.007189747816348101,0.006330219879662721,0.027182507446239828,0.0017669891859347978,-0.013339900315684002,-0.08212555159601054,-0.19352540104227356,-0.23135227785530252,-0.22307998775348598,-0.2427695357316426,-0.2481889481340244,-0.19379724513714144,-0.023798586077360424,0.12819318383243522,0.22761853590849324,0.23459025955630408,0.20151332086867596,0.12439507828774907,0.04401037260023095,-0.006370875973274044,-0.09985046036969483,-0.18670409400004961,-0.22057767384168367,-0.2687039157368656,-0.22998450421258795,-0.15775359348763923,-0.07299543147824351,-0.025127022004923914,0.020115569319647454,0.021166949372752385,0.02131248038361522,0.023066262932089358,0.01903478780529183,-0.07640097190661474,-0.13961954211934563,-0.2186359372808127,-0.22363013120622385,-0.21026493125308812,-0.20512169405729253,-0.1733447789876846,-0.04239170249782309,0.12624450760961667,0.2210224288469969,0.250789143221284,0.19240940534010684,0.13409469759770648,0.023246864722888498,-0.023379079202170774,-0.12570099951532138,-0.17249077796977302,-0.20580592110099458,-0.17448193369499018,-0.1408217378138009,-0.08649721618075795,-0.021150108164056797,-0.013567641194337047,0.02327281109957496,0.018797243784091984,0.024685841614296242,0.008659270408949055,-0.001797082514945625,-0.05719122083456269,-0.10614566946760867,-0.17533296842749768,-0.2150081397645322,-0.20601292975313612,-0.13004903757113387,-0.11854128503823207,-0.08842755801472175,-0.02793685931297395,-0.0023667392193438153,0.02308850049891691,0.024469516013571613,-0.00371078229316097,-0.05540868101052247,-0.06087819865032688,-0.11050579652328173,-0.10928235688244457,-0.12712806387253925,-0.08385727405367677,-0.032160666360368274,-0.024979819484495118,0.0018234372296579311,0.016569687697722855,0.03305092382330047,0.02351267404558203,0.012489795788847109,0.020439937236983254,-0.0016211309369221357,-0.014784905495312167,-0.06262417187547327,-0.10686305116493483,-0.11735866066726157,-0.10039968212802454,-0.05096459727334201,-0.06238503842566383,-0.07313974020619311,-0.13443545466797222,-0.14893956242596285,-0.15294436731984792,-0.0859185854978542,-0.060201657113494254,-0.04485344682022925,-0.008904276612644176,-0.009376274768458998,-0.016579495306928427,0.02159950825585839,0.00948166510636641,0.022100955936234363,0.019960730749463272,0.026849396417055634,0.018371859384019786,0.01631781479940459,0.009817705328279667,0.0024844330692023664,0.019338015417825778,0.01259540915017671,0.03371433253134304,0.01275781769187474,-0.018169743275282774,0.010986153784415453,0.020144908532179363,0.016827060779416265,0.010742423001316682,0.011649182588844275,-0.04806055492718739,-0.031361070421293664,-0.0038402562129651453,-0.00008616807584953414,0.040733358470338106,0.0631903376083968,0.071855233383105,0.07069300012588939,0.058532571287707814,0.07412877554302806,0.03627091681571201,0.014215176989868693,0.01360821703559045,0.030508461476069365,0.02916279474052472,0.00914389593929272,0.009073993332643597,0.029461131851176832,0.01700303350606012,0.00436338371566708,0.030337417196408194,0.03678564166717494,0.05242512598400643,0.06578532236857218,0.07937427687494089,0.07668997095963867,0.08434722655483529,0.06725152227535217,0.0642030824779084,0.03349481254812061,0.05857281484593163,0.03537007535397004,0.067604576029759,0.057146793285726756,0.018091732312662423,0.022224245606645647,0.020837265646693744,0.03605484914011298,0.0324905109677244,-0.0032866151827648828,0.006357319987974661,0.01585296329076871,0.007237395347032366,0.03180099918944183,0.019762019447752528,0.030310237797291886,0.02212244183192525,0.003576991255528509,0.005594226650707896,0.0034937156097077844,0.013367888978465296,0.01967771590932914,0.0437263229636933,0.005053172521046041,0.009873788470189363,0.035220990352115296,0.03208716519899138,0.03847166647461285,0.041581705041866056,0.05656776949810254,0.0353484869633307,0.036987738583264616,0.03255505851802999,0.00890716530158285,0.034202688456948266,-0.000355985513566249,0.008294713280426021,0.028043013466776626,0.006644126892583914,0.02730843888663564,0.02189513592819199,0.01138414253854735,0.015560071961321293,0.01006848668131423,0.01112930863157471,0.007910346335722407,0.03220073056617225,0.003091472047227325,0.023807084104994988,0.02934123482630576,0.03275871178801265,0.030222836073806117,0.01437734934185917,0.027441381832428804,0.001076014263757351,0.03078104213644586,0.011859019645610862,0.020492109743035156,0.008984862584120923,0.032779808188180645,0.021752771609153367,0.023251983069432228,0.006456925048302907,0.03176779342374865,0.03385581130179722,0.014213793773967913,0.03231240858630223,0.0008853653126564276,0.026276943196840503,0.03313055354220145,0.01145870775730949],[0.013157997297598764,0.033983571187478,0.033972277676714555,0.025599303911386706,0.01267414483744991,0.019080244626550107,0.014260039601038468,0.025791020634504898,0.019496714782120703,0.026564400334913554,0.02043324562369924,0.005737283483355893,0.03256801668940367,0.029431003014432303,0.03288050206051006,0.03170868981402319,0.010400594385735627,0.026331484675009446,0.016024293726177308,0.0352946698567836,0.01792257622341668,0.003687668706645402,0.02795108863917291,0.0016725482716558604,0.020636547095624173,0.0018230360832934833,0.023391835280370366,0.010255510839790285,0.004476176013238424,0.015382464573245451,0.021681222885763376,0.0024282118754376325,0.021539737828415683,0.02965624036233306,0.03142291953626072,0.012215542537412827,0.035445185476879235,0.009610033723309116,0.03567272948618837,0.030149942563961758,0.018471081164873716,0.0008618455168052816,0.00021174542648121596,0.004427913602902929,0.002810036456490392,0.01775374750635209,0.006750344221098698,0.0066111761625053085,0.03328718751604989,0.030971499128217707,0.005785151730123936,0.005374723637180105,0.025342608040143415,0.020070936480655863,0.008770989597612744,0.031880916587228234,0.006767153388263424,0.007878618256476613,0.019571097476370067,0.0013282487327397968,0.009801607266624997,0.023848989075466318,0.012993089928514752,0.01698939486445461,0.03161199179142201,0.010708637814572214,0.006612745960312213,0.029302568985073836,0.010201984598686622,0.02753009135063149,0.005304376358147713,0.028682208826985203,0.03479402821120713,0.03071708560608739,0.02648542960231357,0.014350808907081042,0.017626365643158195,0.011576244234542362,0.024235763457697512,0.023500746875191773,0.014613491862572428,0.0116730111352003,0.03552574247958111,0.004582041308551483,0.03006237334523468,0.008926207605032353,0.006300518266990507,0.03149043599080474,0.024626984119804015,0.0165508216086284,0.017208736834070582,0.0292832055264393,0.023084308615913825,0.029061304255693147,0.024550998302567704,0.037852627845903875,0.009247689478305413,0.03404442130607638,0.02564951925650305,0.04019238361021906,0.005732071276182132,0.014063725802337865,0.022587688817579603,0.02473725161763279,0.01888387506892148,0.030428803650267778,0.02987449238761145,0.02978776591106606,0.03115272887089795,0.0017214527956119323,0.012536855249364503,0.03092299853359725,0.03166413903561165,0.0253433325901928,0.03421998747527679,0.03469289709135515,0.02982994267854207,0.021062257563964584,0.0061138795605137275,0.01454764730742412,0.021866046079615904,0.008446844465359643,0.02259199264547507,0.04481371352355552,0.0293795755717099,0.03233624621822072,0.04049268501852955,0.028681048133356323,0.007657541229705367,0.028846144077881657,0.025157441401073326,0.02647253772590527,0.032018665161451694,0.014360874679495365,0.005221012290751371,0.028163927396638706,0.015257726003665005,0.02610988681028668,0.030863399210993205,0.029198107749228427,0.008197661887851006,0.007069067650649186,0.02063338028913019,0.013690571069547384,0.008138499306445373,0.024058727997062747,0.02420846628283347,0.026109739809047145,0.0327015969788238,0.043985217305802994,0.03817761347980548,0.025196084108281426,0.038273531805139045,0.0380665468992825,0.02982613860615165,0.03924731194858704,0.04432778344437649,0.013572801286092851,0.027917085624640847,0.02247165753846125,0.01060808690907308,0.03741740491426074,0.038094068878596316,0.0033124440567426925,0.012484834876373604,0.01812095174013773,0.006755606126726319,0.033003555751115174,0.005580693186624337,0.0016121277061325815,0.003719458702072507,0.0005540722733011985,0.011398984014691282,0.032805364597181336,0.020667568185453636,0.006324365305652072,0.026711695089885943,0.04016150845263776,0.039415175032248916,0.02638066351856622,0.024935490390162702,0.03982734415678415,0.039161849655257805,0.033380169958755534,0.018419933621613382,0.020043787720672765,0.004706756667207617,0.002500335777720748,0.016666610555650198,0.017637815468260022,0.02775805073791175,0.04107960645291451,0.01332521852887485,0.032820568984059786,0.03618008023282632,0.032703645786003564,0.034128086375894415,0.011225936878509316,0.02545599470550362,0.01644785769378612,0.009122078737419765,0.027797788212407675,0.015202495192777684,0.028903235155318396,0.027202300467327637,0.025439930391639675,0.021184005749293883,0.0167165050313087,0.02213381536801348,0.006485345233413871,0.02101408054460215,0.00623832410635588,0.012085251150959465,-0.005928275217414994,-0.00673307908520801,0.028017567565556387,0.012054341193832495,0.03654476283067289,0.024329223842026407,0.044520689982452295,0.0162865704790933,0.03524418884480879,0.022690326735862364,0.005224825485361316,0.002065705507129326,0.021250656725417025,0.03280146184856803,-0.00008043736258940926,0.00034826008343021166,0.025300664766486222,0.005388473898345387,0.012365988940422817,-0.0027865083725526728,-0.0010812485837185194,-0.0007542930891262938,0.007614057385431504,0.009310209469274678,0.013671814537389138,0.016284849545354578,0.022947087429598965,0.012998706394686348,-0.011520215777350172,0.014979607618280821,0.02178047833030522,0.024571986061601162,0.023393487022599652,0.017108786332855345,0.05239275053614649,0.018851486085181935,0.04213991045123326,0.022519679440039343,0.01502829704836023,0.026325663756504965,0.01633299460642475,0.01660104200666973,0.015411515514497383,0.005326716008589618,0.022341137488071112,0.018718566667733434,0.005047355038048744,0.0006884371867137649,0.015739023769215352,0.027353117719436163,0.010464810089033945,0.009860849197483031,0.009345622677892945,0.010227501901991995,0.03470372032560995,0.015072927194143592,0.012066290261690992,0.01990599715846394,0.008888167611069,0.03413847889837952,0.027035472216399174,0.019738705691834807,0.01597080640950922,0.03666827070705817,0.037185547050431325,0.036904988206798876,0.014405495145738731,0.020073838836826653,0.022286226992739355,0.030167301994304906,0.009779103454377498,0.009968721914910618,0.005604775256719083,0.017189308062680007,0.03186020928631766,0.004842102656744511,0.01491530052090992,0.03509483132320504,0.05086555452037532,0.028119272017745583,0.04392783729897206,0.034671772130898316,0.011868662742853342,0.023910528682828298,0.00521665113876194,0.005438948581618982,-0.014653740967590973,0.029343926892503428,0.011127982134531353,0.013003259448534468,0.03922917982510397,0.04042650108268285,0.009004169027333793,0.01309877448806975,0.0006320379454175347,0.01210549415775376,0.011055878878510682,0.0002079146597398763,0.007430033605540182,0.024032330970050027,0.02718379277928417,0.034198237711025634,0.02233103189492344,0.03536289773030481,0.02039431141521092,0.026661349051926755,0.05110001679752625,0.05586208733194769,0.03372558208606803,0.028438089391832535,0.024038700594245573,-0.0007295614211865981,0.006967711302859416,-0.005106547260294737,-0.00494621904449389,0.02841294317335689,0.0035015629181960302,0.012387833220256269,0.02864261869139887,0.02077509641075084,0.01523342122073228,0.010941634292708592,0.024739767507831304,0.002743843244319332,0.0355355876719431,0.006434300052376111,0.026825026206159987,0.009000013081070218,0.03586246840298739,0.01550713931269387,0.02446926189413168,0.025520933973440504,0.03947864527536267,0.05214429279526866,0.06017885104719239,0.05646852365594588,0.0344066773169768,0.041744710644351916,0.025717839548213797,-0.010898118670331776,-0.018494739037505384,-0.022192952485383756,-0.0166351450319906,0.019629373693515077,0.03438419785929425,0.02052437637804053,0.018658612483504037,0.00254503168702448,0.01704412685287456,0.00859927883062843,0.009313861675337603,0.026521441148754675,0.02960973751319164,0.007116055235654989,0.007992451460317783,0.025986521240539837,0.017472678506561895,0.008185596740589815,0.03125676053204659,0.01853144986940787,0.04910261129236084,0.056484529120392986,0.052730447705501,0.04415266844961959,0.046413568653697376,0.029131732717812085,0.012301240611200566,-0.006643089562939902,-0.004998800545888971,-0.010885097688677986,0.016682156784398307,0.0036834819938635468,0.01779057258133819,0.014697462370804696,0.001879625802582876,0.022855354278942697,0.031124360474150643,0.03554842090728652,0.00881548705256759,0.006354692209449105,0.024332119999109402,0.023681204937524652,0.02072030032398959,0.022854079095003893,0.02675892462402161,0.013888440983719505,0.005691885997878284,0.02378739217494245,0.016710524930821567,0.053266840791618586,0.043698137653285014,0.051931369592860585,0.018705449846959467,0.0005630834882602723,0.0027472007173949442,-0.006761237205527361,0.0075904597372464236,-0.005561667287811307,0.032665266540796815,0.003836343105354232,0.03199522471363264,0.0311236776153933,0.018121115514686946,0.028588988395029654,0.002074313767180967,0.009688118087734668,0.02333781947970467,0.011252420079091555,0.007561119117438522,0.03416342320126966,0.0037642421316926443,0.0232400130402652,-0.0026989006129177306,0.023271570436502426,-0.0012020753390371579,0.015200585395624324,0.031424188113407414,0.042561683397078866,0.016440740279649656,0.013292288858886859,0.0007534269279223084,0.009779851825222702,-0.012347504749811273,-0.006688646891400699,0.01733027901926892,0.004646134079488396,0.012567781158495082,0.017045515324425733,0.02875961736955124,0.038352960492162184,0.004417992635270652,0.035717531988961174,0.03645547098260007,0.02731788764202931,0.024603608198469826,0.009079186687938869,0.03268643890270563,0.009294459022529875,0.024927351328873998,0.020950036030400923,0.012572249956285574,0.01210063098350443,0.012071369858820303,0.011332189936978295,0.017651471659613515,0.03375136916001617,0.01492895554842777,0.01600560208512859,0.003055050410627386,-0.005162361213968679,-0.007169107681263544,-0.009789061189211924,0.01943996356729358,0.03893891894354801,0.0480642754989237,0.017242743566619048,0.041508397717740564,0.02138586551234206,0.026598943585128598,0.02981878135717516,0.01849853497611796,0.026870763423349632,0.003484458719091435,0.011309512998521811,0.032780519423955524,0.004069097448496943,0.015680216888546608,0.015752861153187525,0.0234199101564736,0.016160772727165595,0.03940405446137261,0.030782994004569575,0.012256840283263978,0.0370176100256231,0.032026530794484906,0.008963459082068302,-0.015646060968292838,-0.006853213107783494,0.009545957732474833,0.02449166855987981,0.023333252943083544,0.05062827450468593,0.03761764257772625,0.048355132807137116,0.03731281544862849,0.034793842268547565,0.008344185621191904,0.04059474934003644,0.032987082712057844,0.030194442048337124,0.004319895846255281,0.003964722094758859,0.02049113759376595,0.0190598285489027,0.018102161652563745,0.03853531039402352,0.00833800679411093,0.034481628924038846,0.027300344254650357,0.05041985555205639,0.03110218388501798,0.038739542391986286,0.015118314428112725,0.030203710498787225,0.011805328693074163,-0.0031261013317098302,0.0016731139173565754,0.03444575623440269,0.04514248045769672,0.05859879317477409,0.03713854939325121,0.032049443143369966,0.037009743898757844,0.023066062557850386,0.02289090483935397,0.01398832048388761,0.01009134202099487,0.03174324352491402,0.017026991833372,0.017019048144749534,0.0002890750105761089,0.01185407934692486,0.020227528427222304,0.020160373279018144,0.012756936614279504,0.05473280495538421,0.035958087183275554,0.060889408652932756,0.044026329275946324,0.05196237012596509,0.03508588923693986,0.03187021715711723,0.00011719255765855193,0.018133176047086533,0.002994314991119759,0.03796729261138908,0.050315674965094245,0.0569692763791854,0.03947157319570548,0.048542886762143696,0.04642596713345576,0.03308419743435465,0.023169627445427873,0.03140661465166934,0.0025181311672046957,0.0024789928693930217,0.00593681957739193,0.019203414555052527,0.03117888350227644,0.018081099116921195,0.02510390791839487,0.00764455790681809,0.0155390968520057,0.02805081606478134,0.03244067660743292,0.05071459266127267,0.030734068699114745,0.04422064250087035,0.018387129810094348,0.026745736714726583,0.017705667439570694,0.023784627165487064,0.04185812101986925,0.03626050246112274,0.041103819144401726,0.02636891764196907,0.052361159511412896,0.0178169934314374,0.043895194480763636,0.040745902888691586,0.01535034061263035,0.010265046406751122,0.036440421464585364,0.011982796692518187,0.020299275513502253,0.01923533660025281,0.010457621664423012,0.004270306483692706,0.02848728965675971,0.025420691271186107,0.018496986315545392,0.028017064145794295,0.04839444945785473,0.03290330307093666,0.04243745311637743,0.03730038918586323,0.0357641657626682,0.02316417481308814,0.01260824173972515,0.010675033247997972,0.03925413178251131,0.032513118259138614,0.027139405722753814,0.033512150896652465,0.032345311875790934,0.019015490594280864,0.029967004250011326,0.033885601490919376,0.03763841037398354,0.00472970114159333,0.0011656858870098211,0.0119251466283965,0.032348385340700475,0.006963182050145853,0.032524257213342865,0.00499721407874764,0.014850157143285534,0.013103861818267185,0.01943496157268752,0.019677050232306852,0.030048161404753065,0.052405320919808075,0.04045945946756989,0.029784194687576374,0.011863374371696978,0.03503323235743539,0.036528409096194134,0.031705782760565196,0.016386473039151504,0.030099624650245398,0.03081835569400622,0.015724945923233015,0.009920777661497805,0.03886338758221352,0.020638136452869493,0.005220133682402001,0.004779985729725383,0.0019648534625846463,0.006087544039800243,0.02570354573463326,0.008216835318618642,0.024030873527783294,0.02603143101357123,0.005210036007845776,0.010463382478652274,0.015091300059407188,0.002441883131693938,0.031127402195233966,0.024758153007653733,0.018708381713515566,0.032957615217223644,0.04038298332671677,0.0066686201481341275,0.010691480580214914,0.02303156614250341,0.002496928045166477,0.007999053108639511,0.03223247295903844,0.03499378697136679,0.02798139423269138,0.017960013184991092,0.020031508409117417,0.013950656161287035,0.014652049956117666,0.029062682602234675,0.021141084641316327,0.013341847556805852,0.01743206378813105,0.018912083937765167,0.002186242323255142,0.011932488758529211,0.013273118236992147,0.005456111739876924,0.034322390889646316,0.016482386651602284,0.03220643044895494,0.004435484016580487,0.015968380650748584,0.023341260397104643,0.006593005944722144,0.0052749319418221915,0.027159126845006234,0.006230640113971648,0.0320112774033982,0.032426492384111244,0.029462844628201573,0.006706018098565266,0.01668677590143413,0.004990760907212618,0.00011856482798030518,0.018546080696803986,0.033731109129615224,0.024178573616798527,0.0112320155574207,0.03336269233305803,0.030401756143190576,0.02613676253541397,0.02471706197279064,0.011829301161921093,0.009421356597968424,0.01597825523705505,0.022141148041593048,0.0012428497268422347,0.022298443448038423,-0.0007961707326308169,0.025073407907811835,0.018129912515711197,0.008878193167462295,0.010807664960308617,0.01953497397296735,0.012646599079394133,0.03211013014637386,0.02363721883782974,0.01564613711720459,0.004852045242498458,0.00961003329052464,0.0015193126311302918,0.035378731302173665,0.024205390324479697,0.008396386890130898,0.028327309494728763,0.009516368403545791,0.012011573343362766,0.0029598567344100626,0.012586598302977108,0.018475067592159427,0.00563266431052594,0.022545538005518253,0.027072728940647613,0.006520473521575681,0.025887533827190033,0.02746826165072531,0.033820628725444106,0.0037333070001018967,0.033680218703229785,0.02815769378820218,0.003136520723132091,0.012255472039207562,0.010468564292767471,0.000965407495437951,0.010212065954318604,0.026038060899595584,0.003694663753067195,0.016820233816244583,0.03527287262655323,0.031968649193423036,0.018739963985362693,0.006575709182552207,0.004900964954607657,0.006023245969883343,0.022255108339665437,0.000989635935963367,0.02945861346247891,0.019941680579155883,0.005901368460971668,0.007844067519959854,0.013559181563704519,0.012499213096532139,0.008218667357304393,0.02228186043340258,0.026199340000581148,0.02262057979544241,0.034891618956160955,0.019454616945596023,0.019588594573563673,0.0031198565834544677,0.00756110511853448,0.01517394579431078,0.02486170556337148,0.0008599141511077245,0.009184643511251266,0.018452115805726865,0.026788220240809617,0.024911822017028275,0.03574971940305661,0.0072001754880134375,0.014196781037432759,0.0061963944847957374,0.010728401896638207,0.019848763656506167,0.008169340105836174],[0.025455232223113824,0.022715152077741448,0.01363889855406463,0.028601770124305814,0.01424866400684702,0.013183138023086753,0.0047291308661594955,0.027548307734683777,0.033688617968449984,0.0014292310091677846,0.018607891000854953,0.029653235668299242,0.021197869084675434,0.0029497411538418877,0.02424929618767707,0.0166819953866513,0.005303541943110081,0.01572827817422834,0.024944483775793176,0.004934842584966602,0.020911093343290017,0.008892270221250704,0.0006487398640700233,0.027759262458433607,0.034792896812915176,0.020813838357288807,0.03465147775810605,0.007996377468734257,0.0022140477739338977,0.033128835726015674,0.018227221179070417,0.01746863583942029,0.0312176272204906,0.03207451710588368,0.02100172392687255,0.016132456615953125,0.03131534750487525,0.011632473947222654,0.0068985476799663294,0.0273689490051787,0.021749716594564168,0.009714291115874274,0.03212003010467011,0.033758139017740336,0.026076475939061757,0.0046940248795984355,0.019695169343650978,0.024102885742607504,0.009362167133025701,0.029584179600620493,0.014172267715733307,0.02360479792996284,0.0220057467057534,0.011307722316124575,0.029913438664573393,0.010007891285984314,0.017453572260482924,0.001272713295200702,0.019162237783728726,0.019727329906853004,0.0004803070430869506,0.01725894769482137,0.004868883100886813,0.024168835536478472,0.01587867009864248,0.015016864613986514,0.008660163236545114,0.009342814902169613,0.03544502182249362,0.023382794307515293,0.020761388341710575,0.0025085045261439135,-0.0002632253258514374,0.02006499300086156,0.032902094633658334,0.01317689987271368,0.011858798523151479,0.014261048487787571,0.028255952800444448,0.018612707306389004,0.029085936262558346,0.005314007636423892,0.009334205373050528,0.0029846065679757067,0.00434476683742114,0.013488311502394903,0.026591852818970006,0.015334603456967215,0.011251818055809238,0.0005275111366280253,0.015852079752351252,0.005340286973783508,0.031978887546292356,0.0339762383845439,0.03426088340796582,0.012867770243064534,0.015113276784021093,0.023441851976839078,0.011731955385448481,0.033872170050734035,-0.000095865320264914,0.031162293139184182,0.008993287635514992,0.010557851890704755,0.028570039106766913,0.024914342235629064,0.01649512437790581,0.003507737538687815,0.028086447402644713,0.018109100812921476,0.006368720764391354,0.010462087812037637,0.005981101745968109,0.015877170793293507,0.03452080360441894,0.02931207069926448,0.026298109731932237,0.011619053412594999,0.0355607101050053,0.03560713750216631,0.024673027389676784,0.04064867794057916,0.028482615425045276,0.040394972778652824,0.01196146785250256,0.009154597841877068,0.008821204922981848,0.008835660431683606,0.02919786984217334,0.026179247695922715,0.013605651630714652,0.02180624639943776,0.033697962125769816,0.00863241657395952,0.02638365615860074,0.001949744815944387,0.01117589105188377,0.02650294976107769,0.030374913338649407,0.01958353851969864,0.03313518730985036,0.007205368463726285,0.008005582959433313,0.009743314521865762,0.010295883958465622,0.024555044388568203,0.024212027218254627,0.008469489213360944,0.03140919833611236,0.02617699099427441,0.033122544108401965,0.019998470189307917,0.008430776514045503,0.030204845440631074,0.006413995715954518,0.03083718882164685,0.007820994388003965,0.029252760788551116,0.030305210797540737,0.008542828152346384,0.0332419540226972,0.03682482837269976,0.040677990634488216,0.022120409439645664,0.022607995746025813,0.02868175227348697,0.015931364610675926,0.005717571215366436,0.02346065608191411,0.011672391926661627,0.005514154179335875,0.017412859873257806,0.0037789697231993312,0.010882071712964347,0.037485893729912095,0.011370028743483763,0.021632230611583064,0.005108935698152349,0.029241454602477374,0.011897584851095344,0.023501517360454114,0.014303941810870135,0.02752435525721232,0.030955440583753522,0.01855155529343528,0.003781111737520154,0.03251700507042766,0.038823901942482246,0.03195257426345187,0.01276956062916486,0.03944205542104839,0.04268424748307978,0.03394243686838699,0.029381063364881405,0.009577868902351235,0.017745503707044006,0.02647041412183054,0.029844271947116405,0.0026426518253953903,0.008951139693375585,0.013729495585179283,0.037757172984870455,0.026121194526330372,0.026963768437696475,0.007868633630445647,0.03216919759582492,0.02456916335363073,0.02536024536251141,0.02390984539104237,0.027021753697661462,0.027393986213008557,0.020714843356856673,0.03730968166964096,0.010312117406201375,0.02113791106227113,0.02333081716934146,0.0277191323257964,0.039958998016984805,0.01517741544840246,0.027417027329512105,0.04092950133277011,0.022572319965065177,0.020298475638892206,0.0205519418933139,0.026730882631236984,0.025391071862633643,0.03270489647998135,0.03441296216748945,0.03344437489977722,0.004025391019261171,0.005784535582642363,0.018850491247941584,0.004169239406436923,0.027058967186122142,-0.0011198672062238389,0.00537774283980799,0.0257049937881834,0.032012004253944217,0.06396675162930536,0.05512724686847487,0.041121476756167355,0.04897838646731441,0.04362939152663532,0.017547507173984376,0.041510285820018485,0.01980142412597251,0.020713299401694557,0.023634214983458586,0.029391653140484225,0.03192388033732796,0.028709810205692774,0.01945749233990617,0.030641312029405923,0.028685228854287596,0.004322877179227802,0.03208235730485909,0.015118093551583556,0.03590052832294798,0.026596081558093555,0.021376586959019346,0.01284985171052351,0.009715224650117742,0.0062443436936150615,0.01922811402414618,0.034446711805443404,0.07115909973455488,0.0691186310610827,0.08243436260984527,0.07722873381857652,0.03887169496366058,0.04056137246424551,0.007315034323974531,0.014080648950145987,0.037346518842294694,0.03836502098458702,0.01514402182610461,0.011834498594379328,0.008736278838630828,0.008024253528689467,0.002578276444685535,0.033713941935017804,0.00913448405630875,0.01851278870788861,0.022695829338028523,0.03210153630915052,0.020967696429728813,0.02218883540284306,0.021729671141571115,0.010400945079032579,0.010482178604313204,0.0045556272579834155,0.03311769053177981,0.03376734884975226,0.06863397301978168,0.0668629500035958,0.05919810217191458,0.045110064374879515,0.02486836021673582,0.02294185525009177,0.031039477790501098,0.011336825158574005,0.039058719876575373,0.031359959817838234,0.02403807294890831,0.01726428951020278,0.015748545863994545,0.01833848015637808,0.01502266285049142,0.025908620509373134,0.0157208607894776,0.023642768567258055,0.025185842478557718,0.028345221550141447,0.018139557329857517,0.0236798477090907,0.021453072646382056,0.01225181655476445,0.02223525795353341,0.0269461525350289,0.04100999805212938,0.037572922858178356,0.06300242060664359,0.08797542757068755,0.06791076108937799,0.05081949033880708,0.023730969766178885,0.01480580297831547,0.029328348211364492,0.01702476240215409,0.002469439018303353,-0.00019789917161636546,0.0034120711537306767,0.028187326317335955,0.029461656052090883,0.003953706965930261,0.014968785218806653,0.0038522291191478504,0.025765715157807595,0.014362572735867033,0.011591892451282821,0.008388756754494162,0.033007325443748015,0.0016061646450473864,0.011990506734608632,-0.0038319865243212183,0.006974643919197449,0.020100996005343222,0.029340940728409235,0.028524145189180054,0.05671065706621497,0.0578956178144379,0.05811958513902815,0.04510695720997803,0.030322127477618276,0.006204048764972068,-0.004982418103888292,0.0026559194348153995,-0.005460755369531885,0.002867385521836877,0.009116055311950437,0.01734376635875542,0.018487132532021198,0.03503526078803304,0.014804090547630383,0.016997324416386492,0.033371439956226746,0.002550300533063997,0.006532999085208736,0.024210226815533677,0.01156400105212917,0.0040296370047972225,-0.0091637339584976,0.02539858034673172,0.007104206289459953,0.009738558680477974,0.0055019395646424205,0.008813963410065252,0.04256279945905367,0.07184097108857092,0.023906351394569227,0.013479037602322094,0.019804076151317716,0.02742548296545972,0.028245339710191792,-0.004409508151827108,-0.008180801382440574,0.020074745651639476,0.013895222945033953,0.028745444098688264,0.003784579248560922,0.016215678025377406,0.0071822601677696395,0.03105550947141629,0.023964256518824282,0.03479204575347359,0.031743835469272536,0.007018368215806637,0.017454673612910608,0.013850107888651632,0.0156554029427889,-0.002935392941516339,0.0037726584747924665,0.011113288122000124,-0.002344494496460591,0.004281468553041195,0.03621214076759631,0.06895081745829403,0.02901356838972644,-0.0010478624725461917,0.0024695028085060266,-0.001132490676799414,0.01871211118126766,0.022910850833165217,0.020152789294879923,0.006511788108512238,0.01137531491304906,0.02444023610678956,0.036972367523461024,0.011032617104987002,0.01905211396211464,0.019721226203797196,0.0026058105077206187,0.012207033889216682,0.011419240363835261,0.0053596155254137905,-0.005699119678327938,-0.008991895808888447,0.02035676101584519,0.021907268870275477,-0.0071020540353196465,-0.010343830652116906,-0.0079198532891278,0.008634813999789779,0.041512961398578845,0.03705391759678074,0.012980188254491314,0.02711525399825739,0.008494027111434446,-0.000467562620117138,0.020915561763166873,0.01902565338353093,0.028091430695657622,0.0040782572497882015,0.02228627416680723,0.03460853378231912,0.02309324573664359,0.008686110896631278,0.007660136849363234,0.030251269649148232,0.0019442893958294928,0.008590860711655346,0.010993235102136425,0.03388655367388398,-0.00032958954096541193,0.024653278933275274,0.024238755079672807,-0.0021966943799866,0.012501089085631021,-0.001123051413182011,0.0030490400851506862,0.03200557717593564,0.06269935594431524,0.053968820563516415,0.012859408156319075,0.03187616044210358,0.02801578808130219,0.025478076434150055,0.022566893068511992,0.02296899906591052,0.01329418735520322,0.024741117123840025,0.003439903871835976,0.02181225853088361,0.010831303869443552,0.005398185650656882,0.005948129933856412,0.029211984927057916,0.009177024154844643,0.01568779779998414,0.03225716757977659,0.02821750508453138,0.013733449374026775,0.0034722964972083996,0.0202410914793581,0.015102969910039997,0.014367628536415548,0.008310792198768565,0.009832820317062707,0.03685579789329645,0.05593351603096491,0.043190746383803644,0.03392203105127405,0.0303729770048964,0.032328763700002164,0.03404333669559045,0.012810341535610854,0.0035670552636469974,0.0030539682255358255,0.004212921038173761,0.007323855493175281,0.018095548710545608,0.02533241096187566,0.03596061691109339,0.033090470276451005,0.011699484564458185,0.03449616242679818,0.01262587750271122,0.013455705775612592,0.003952783315704105,0.002283879710394457,0.0346144624968794,0.028470916786429688,0.02169964224186636,0.007719480498734138,0.015873146127758878,0.029500888432584433,0.05607567234994062,0.032344741872108854,0.05594939411986962,0.034839740968397495,0.03650233331994356,0.014610192442966151,0.017966935359218617,0.030444528135820197,0.0195806644764545,0.017209750760988487,0.01550511953874,0.03490944016700977,0.026461235074277525,0.008783399649360027,0.02509512718137113,0.014476845120304277,0.008985382707177822,0.021940728037504968,0.02849013360271309,0.018246004659414523,0.03228991921378003,0.02353957371271553,0.014949114042341923,0.033969857626508865,0.0393171597542576,0.03260600931530705,0.02628886038264825,0.036245860421987366,0.04996981120025621,0.05615452509362358,0.06041305819586312,0.05327348796527532,0.047098494138735236,0.02674598909591951,0.007798250082351484,0.01197657771264048,0.028308273909786193,0.037155802514965384,0.035451676415196635,0.02650558698988552,0.00845413973528534,0.010113303059626015,0.015713371197438677,0.02758439401210895,0.006173268055731794,0.012347592592468542,0.026284385412621816,0.021209451687825627,0.01722359654032788,0.023027794915353804,0.015623863549039793,0.051245071367300624,0.04220944218619441,0.0332283401341073,0.04728820741394746,0.03450230140391256,0.03691778392967573,0.04265468430987359,0.02211822143437008,0.034259199636510904,0.01165565665818165,0.03420789650309442,0.019100078906106963,0.02243580527861429,0.0061341869273547935,0.013795972913395375,0.021781857798900822,0.027612522201724662,0.009935235966710915,0.002481091169005481,0.006627464306852772,0.03075846445241199,0.011031900474170877,0.01573904834505252,0.027243868537678365,0.03187934417043134,0.02765999140455905,0.015391176256701368,0.029107336131282052,0.026305341608284544,0.042531118081338394,0.023423920082021456,0.02188984306730142,0.04043500265969905,0.037665296486114205,0.02114830423949511,0.02883787531460339,0.012318208501455864,0.026754110696675444,0.02437932053049556,0.001671386953695238,0.031568153063269176,0.026089986228051355,0.00710213969474078,0.016118836317885403,0.030468762463462414,0.037234580894407225,0.02883203114874755,0.03204820632437656,0.010157838604483412,0.028755646275313462,0.02944360321462212,0.017296091215209957,0.030007941819655246,0.03399465916433388,0.010667296192775939,0.04316718733513538,0.017822703474588236,0.025252199025302114,0.027217762535827503,0.02925262661439466,0.015181180704151793,0.032857949664615964,0.016598833888828414,0.027674743689516407,0.031071536343242053,0.009031658274448231,0.009682956033635693,0.005700225172995927,0.022541907383160194,0.03794790430970415,0.012753820347334806,0.020239809631682034,0.024710348874730472,0.029317381227249653,0.02658566847525586,0.015204139354591958,0.0066420915226233284,0.01866574703049802,0.01630847313531974,0.02097181350969905,0.034036670622058764,0.010639833228858824,0.007050681212888475,0.037051089546745936,0.021506522839810523,0.023114462037967465,0.04102568920586077,0.041354273767013276,0.03670170445726716,0.021527751326417186,0.032907957023671955,0.006002845570169898,0.00862255999938478,0.01485189987010172,0.01912033944353077,0.0326281421742089,0.032101209433136546,0.0022701986907214004,0.009420617605648579,0.00840871479533697,0.004820020675042735,0.014177506918281676,0.022745508317934204,0.010875474834451549,0.005878796630143092,0.002699526105166962,0.017258606897856497,0.015429218478545151,0.002710387114356684,0.006704775596087927,0.0008624851788839303,0.007741654928634214,0.02992067889197186,0.013175355258323617,0.026427716060014685,0.03517980968877928,0.036905825018035396,0.036812940016739154,0.025329504055627148,0.03337762997730106,0.006838821960037441,0.03335003934703783,0.001741639103885637,0.023717157653854064,0.0322787389561626,0.020673910081584465,0.03295318506291783,0.0362608751805199,0.03153960415584159,0.0014312182590500958,0.032366777022793315,0.014675072210957468,0.028214979459946887,0.010505731224415298,0.006251342291091041,0.012018233353274342,0.008953258581268206,0.0178320905117486,0.006964795840265044,0.013935738260166516,0.007346732544988291,0.03164860087332133,0.015165265004250994,0.005736944401400723,0.025632795296736635,0.04301464834971001,0.03957002822350171,0.026394161195438047,0.02205810100909093,0.023467400742010393,0.00876814585499111,0.03339429604575949,0.004157311751362307,0.02000028613632538,0.03290208311462504,0.01586735884821353,0.021028707521993754,0.01971974095272417,0.015599408958562468,0.01848785000756109,0.03561656424214421,0.013128928394842174,0.009812324823607166,0.01911057133851774,0.0055042075835701355,0.017840743120026176,0.034833139652578775,0.01612035502510177,0.0353845765745954,0.023368127048809043,0.02836362066312051,0.024754992666795428,0.03711706966066536,0.027624684673120778,0.023670863032075756,0.009861315594339861,0.035845694055053265,0.022028278695933302,0.0247096506812816,0.010832226211401503,0.02004117121496964,0.03271359409535797,0.021486291960718235,0.030796375892374377,0.0346655393400166,0.020338146570190636,0.020283879648064676,0.0232173955926526,0.012930761153500812,0.00020433742264434698,0.032379915503282584,0.01488461032558446,0.019691101400964535,0.033865605323274185,0.030016804612199154,0.004907904039750047,0.0263403768837318,0.010012291817313699,0.006475102943086937,0.024231148781217,0.027309743490315994,0.013965198957664059,0.007007022067683845,0.030383433027765253,0.02633695900328547,0.02383322925959684,0.012997356528291282,0.010939602905511084,0.03188640611601931,0.010728787730491005,0.004054834742585102,0.02027809095344549,0.027197561341411415,0.023031298247389333,0.006286358364883108,0.00038897370545100597,0.0003127505933459721],[0.02542323287516579,0.007744243076723104,0.035662793655752124,0.022613054577211467,0.018334286002430637,0.02758532717260367,0.014189145983426093,0.027043497486578034,0.0024416051193456023,0.019326896985684523,0.03250348335061877,0.006667168241318419,0.035700084258374246,0.010986746452868654,0.023660372926733907,0.007779663180714157,0.012412981373302838,0.021268452772227085,0.00357150966763791,0.0057416628913793,0.01388195295496635,0.018334536842993885,0.03139595477678557,0.007426540090567709,0.001241734464911001,0.011269396654964308,0.03550062711644693,0.019280178813565467,0.02099654029866541,0.030177600763097414,0.03203224569186203,0.018480406171672428,0.027500286017869163,0.012032425052591344,0.000900659812944448,0.017047918372551717,0.022189852111539836,0.032044835019661516,0.015198195472142009,0.01945574200003093,0.02496399334746349,0.029675478444443307,-0.001574358606497919,0.01087992310739397,0.025320649080296638,0.014584588181007692,0.0164230923438436,0.026232815644589465,0.0005455189085015606,0.015363137123603715,0.03282194426197432,0.023417389595139112,0.003000452455587047,0.007974154373029405,0.019389185095219395,0.020391486085778867,0.0283386189081265,0.016958624665288333,0.018542931084412146,0.016322084864031142,0.02900616359203761,0.009866670488160329,0.003537690277769763,0.023718502742357154,0.03422072085681005,0.01692362866651739,0.009357736077667603,0.03887983470153224,0.032599962177646734,0.04015412282155992,0.006503417171154814,0.005474112758917717,0.003948388698667131,0.033979957324253754,0.027050956998976663,0.016473364795613902,0.0343227763489518,0.017365549107268435,0.014640961775955095,0.013091146744547016,0.003703873848164477,0.016893296419811864,0.016734958091292346,0.008524810584386715,0.030280784103170897,0.0327183053190762,0.03339941749073283,0.034625383927036874,0.002320557245344784,0.02100040176159079,0.001771619530920233,0.010924026905039061,0.04313054645654748,0.07853487168606563,0.08960649841705128,0.088731120638331,0.08950483419430841,0.0773832506530229,0.08249677470551806,0.06643657565206765,0.07375983844626413,0.0908259796563773,0.0907055726929119,0.08528064560394331,0.0658297726708245,0.03581995102508191,0.009506911923714818,0.02457477049471073,0.030382407801897673,0.031192066133483576,0.011142263089713772,0.01123108939897822,0.02428232643429293,0.00615145962380138,0.01755321006628613,0.0039984573457517505,0.00668301196608501,0.01583064171158628,0.012072632966162063,0.039716393180653654,0.06511295105753803,0.10642915593033499,0.10085433614172537,0.1056730347188849,0.09445740133725213,0.09931387870763854,0.06318883307761869,-0.0007226297917890642,0.045555308286172234,0.056980164472388704,0.014772638693154797,-0.022323951863833503,-0.0557155114835175,-0.04300149994012882,-0.03319179415829598,-0.02160199215817739,0.021170558138033493,0.021945730567897382,0.02733469538922542,0.013011870107638646,0.001435750568844128,0.027689314712234958,0.02269283170639422,0.012552777435532155,0.028034676638197184,0.026658380880211427,0.04132987495922409,0.04958565091510532,0.12100631264814724,0.1777346007556628,0.15297458852949955,0.1499726296293108,0.1665669971784277,0.10921046819709938,0.03733471420543295,0.0317754041663507,0.01841855689826928,0.012524340727197221,-0.05851511107826712,-0.11538708381628085,-0.12220091242296777,-0.10695761553725784,-0.08812389282322429,-0.03683817058028207,0.0034768289050270264,0.02511751917945035,0.0033158418855789816,0.020315159423609643,0.002736179317674416,0.006395606849909223,0.034737912214563994,0.029789563516824893,0.008560354422860414,0.04899118536293931,0.06509316256938966,0.11711140354428384,0.14910430540621097,0.21288149649564397,0.17384676371683078,0.10833356670322226,0.14788173203918833,0.12115992467856243,0.05888353911110546,0.07012956194394603,0.02898214787989028,0.027639517537228292,-0.014890870767217082,-0.02997045493268137,-0.08193785027909631,-0.038830803678275023,-0.03300141854602058,0.0012753909177926296,0.03680078442046025,0.05470644137546236,0.03432694747525826,0.0009095389166235402,0.01856629617933318,0.021270611661427002,0.0030805234281889495,0.014687524314100737,0.027487425821200204,0.05700289245753773,0.08888356918585112,0.11848007603501683,0.19997183913767816,0.205747383663402,0.16551443556602652,0.10589919631112993,0.06439542584742951,0.0867991940258352,0.10724196335992933,0.12943072563002378,0.08359538866357194,0.07328272852903375,0.08110782152069858,0.050858150907718724,0.018262720102234505,0.025024339949682426,0.019327524153756243,0.046863964921231245,0.060412068313966505,0.041786360621896536,0.019014446183830466,0.023126941001467012,0.013833188822420371,0.030664419525261267,0.03183545273948492,0.031561604444124265,0.040646494557828025,0.03250735686361678,0.08927508955421225,0.13899385526822267,0.18510858543868675,0.21671808752463756,0.16132961677409607,0.06739024440659429,-0.004130675666051227,-0.03583984765001048,0.04805433381362111,0.08254543867599784,0.1272878259437738,0.09986650304926636,0.08967929716256395,0.09277859712740606,0.08012610585424688,0.0538587519500602,0.07400256772845518,0.11935498326289845,0.09848089503529235,0.07391665747626308,0.020578229503695727,0.008213267361861148,0.005008333497333375,0.03652362323605201,0.015619951079775934,-0.0002177423134753805,0.034585764758140104,0.05897874661059722,0.09751926708635168,0.13014849224557934,0.16852096474811312,0.2052163451584811,0.1360216448141442,0.03771376339916957,-0.07911853595508166,-0.14741084153557524,-0.1071747176688345,-0.057500902559491356,0.06060055868858492,0.10306876379016312,0.10742269754075619,0.11517903512410956,0.0877876570527554,0.09715497371228173,0.11719875795063874,0.14968547052121514,0.11845286424578491,0.04769491429960077,0.02297465500142883,0.035053747558005104,0.02129897029025953,0.011725259978075404,0.011721884516041182,0.02851849890694173,0.039840463322718345,0.02613183806793923,0.06760404525266121,0.10599775329727361,0.11380607433626884,0.13354369123951887,0.11179440683858467,-0.05157216298514231,-0.14520283871551382,-0.19031748821573158,-0.20862469308845893,-0.15142357478044433,-0.02645177266223805,0.09311853844662879,0.08405550344000903,0.05083687204527701,0.06653397921990784,0.09923668025355316,0.10819796145419004,0.10922824643129841,0.08164054738058302,0.03943329201290446,0.01876022958483635,0.006190764851088455,0.014475817903038297,0.026320250050531655,0.012808299821753641,0.02155212479250619,0.035141632330712484,0.028046106459599256,0.0604226937541586,0.06250299214708475,0.12621361306140702,0.13317671546628387,0.13072456328377613,0.01253377799487767,-0.13029732183067236,-0.22844651330614701,-0.2836769540618414,-0.20948568266350506,-0.054269208894194204,-0.01619779341187958,-0.0393337338989394,0.0031789278675200114,0.064718794383217,0.07089717210625049,0.0931086720190867,0.07644243684667223,0.049265280063682367,0.03629664594117966,0.002583773181887345,0.009956484534958673,0.034126508992915035,0.027061388721349975,0.030313925323462085,0.03162970208931973,0.024088764775524366,0.034457520011326945,0.027951445313806774,0.05862831860145487,0.09757371372381082,0.12832323893134237,0.12940191629091508,0.08873348055964884,-0.04848145015772961,-0.19432307324558773,-0.3636391070314711,-0.24098161219182082,-0.09184259150496309,-0.08303951160479527,-0.041016947935319036,0.031025273598518407,0.04697884505020318,0.05083580330773324,0.037280368657724994,0.028423227476771208,0.04376234325842205,0.02549336035540603,0.030624083412509967,0.03374273908141872,0.024630316938293935,0.014894447505287947,0.03127334921347736,0.020173150368949903,0.006059019814903467,0.009248350197873739,0.03973901197879841,0.042823801678756955,0.07015161000556322,0.07386267337115077,0.17500162441260467,0.20110370008364942,0.07642590053203374,-0.10561364193716942,-0.3543148431192338,-0.21628303728896214,-0.11603504166393531,-0.04624136855549075,0.037867220353016845,0.08968981257482612,0.10633356279628267,0.05433414441007239,0.03751625195430539,0.043026687148357404,0.03667075367340724,0.032410518385541154,0.028350975942588095,0.02603797714343108,0.009507830768918125,0.013375008565396019,0.0041028295979439215,0.020518229987634185,-0.0019259371988132907,0.04540901144141602,0.0319371395527162,0.047437876455786156,0.049485081031095855,0.07569213528847514,0.15409896783773105,0.19070925618177983,0.10738652431852029,-0.1334156230035783,-0.2593341631020871,-0.18136379071971087,-0.04524418330201983,0.07118540619215442,0.15828931254742223,0.15580542302426661,0.08718342737321663,0.057921214792879816,0.02923718064766078,0.031257176995064515,0.03513401395434297,0.0058345667229663745,0.02603603180464137,0.025622672391109307,0.03138321015163845,0.015526097237331104,0.02600064281288352,0.022019758621582054,0.020046080534491563,0.03774673160552296,0.03402022358323896,0.048982182381299894,0.038424948515862964,0.0659421303442863,0.10686068724812275,0.10403498300266105,0.019414447197355637,-0.15183480596886684,-0.25830815170607846,-0.08567086371286857,0.02952417126620768,0.17937384629205416,0.16696635432533624,0.15485086136203877,0.08049531113726723,0.04282803242597128,0.04931074357212902,0.04028675168914381,0.02460299206492621,0.03203861349089186,0.01712929064275368,0.015568110676688743,0.016407744998379766,0.03369057330969035,0.01931922435224598,0.029611485146091878,0.021242002732793613,0.057435872108750875,0.07497163620106281,0.08191531839312811,0.05720649495428642,0.034966083661664475,0.03689736664268388,0.02956799643888159,-0.028696399164646242,-0.1641420444611252,-0.2590292833920346,-0.02214654109973435,0.0798846185309615,0.21642827887385307,0.20534160601232607,0.14374388760464166,0.0746202375629384,0.03892418498536172,0.07609654488398736,0.06873084162979212,0.0316114428333444,0.022851386341754258,0.03240825456844033,0.01179448829781033,0.011551438597895354,0.011087477621978361,0.02154250527407952,0.01995119351050434,0.025218218924293306,0.08795255645948957,0.13534948348512957,0.13206561113777351,0.05582227216249457,-0.01103026866532428,-0.04926063022252826,0.0001796070191238455,-0.05261510279632609,-0.1564410773037474,-0.20314382130138098,0.0008802679328659346,0.19871970738095174,0.22755411947065793,0.18183146456538288,0.1299987872335715,0.10084717026507156,0.06277511010367214,0.08133187241927863,0.09153239123832214,0.07633333994524398,0.04840356701967889,0.02224654337659951,0.012387262568179427,0.027318224159180508,0.029729520483087614,0.0024892232733111563,0.037260343199346055,0.03818989639224114,0.11289944728538524,0.21796640125463443,0.1496766783686584,0.028833799096755763,0.028787857558699677,0.014250616061855318,0.033207071476581126,-0.0007506595408736503,-0.06287074561518727,-0.12079311724634519,0.06378793695142755,0.19097457499437082,0.17535235530461218,0.1438755673074556,0.07243090979102076,0.07407455394500935,0.08701780114529732,0.10328744441002993,0.07872112163040568,0.048807914288907926,0.03468779277810488,0.0245038933443943,0.0049952231830163426,0.020882851389861096,0.019484275197555637,0.00879160771387905,0.012217736310422549,0.03156552899213247,0.12610385144466255,0.15927712931028132,0.10613083378467653,0.0852535117720809,0.039395658235360155,0.0766990299893265,0.062427060294775266,0.06472566052960951,-0.01016495558182439,-0.011671005655490216,0.04869509402543957,0.11049154117271179,0.09935642173511812,0.058769925526178414,0.056636039037066245,0.0875592269191368,0.11411153532746615,0.10424379808430984,0.07491905176845194,0.03754660776836667,0.035361348612155966,0.024481291707262876,0.022871823319087953,0.014144954922138948,0.024510190250237446,0.022724587396488336,0.025453554890198512,0.029686996295936196,0.07298859005035101,0.06469096823773922,0.06266231252863723,0.02432518326683613,0.007875038500545299,0.017562149918580804,0.025139512347958484,0.04242247127376893,0.0395997299745185,0.009965993701613088,0.06866770343475458,0.028942538170154134,0.021862261872783527,0.053867317071252405,0.11147350845568978,0.11131067617496271,0.12172980444360991,0.11716889089362235,0.08184874769853458,0.04158609022321623,0.04027514721125498,0.028513840687352524,0.011800158985486342,0.010304009016263833,0.005809376387342105,0.0121493444149982,0.010190601737379144,0.016325961458209214,0.04158360573208482,0.04028988174790183,0.04345550483919549,0.06862749132328533,0.03337399236027261,-0.0021010243448843957,0.045395145012380275,0.1156330835810008,0.07893652719659683,0.03188706433317994,0.021346335428421927,0.004377356541550419,-0.03590498644423391,0.011798126833562655,0.13590700760864757,0.14605462870644784,0.11731004790416892,0.11022580306024939,0.08302108469820149,0.05662663723992388,0.010948498190570836,0.011746973824661368,0.021098721027616948,0.004544228689740344,0.02864653343212411,0.0371760026946691,0.01422973373702822,0.014689032995370358,-0.0373897442762493,-0.015026977036354876,0.018628689892743525,0.03776700772612104,0.00562071043285691,0.03825481275344958,0.08623236013068367,0.1294251957712881,0.05576579178822704,-0.0051016984486898,-0.012882694855677194,-0.07895488877684809,-0.11527722974958488,-0.04514320863199156,0.05752267363971499,0.1010891535307402,0.08134360942708434,0.05989406860690291,0.041238237649734846,0.038615856627576266,0.015679291651441236,0.014687175412191923,0.03360632858142804,0.005936642678441969,0.016600411594417323,0.022205678155380645,0.04132364967171571,0.012750148908099617,-0.01257408157670055,-0.04270308655345755,-0.0043978866295430845,-0.009168899837116683,0.013962944352418818,0.010778221000929632,0.032535438500378974,-0.01192452001212886,-0.023380550179753816,-0.005290288555007867,-0.04588364867399894,-0.11389580431886227,-0.14104713787185832,0.0017460080209907687,0.07265734171433362,0.08363895810509603,0.06300604025738021,0.046593114883363825,0.044971460045686466,0.027301623720057833,0.006776644447914219,0.02611148024640073,0.015696155059110904,0.007873171144289546,0.027095213712921506,0.00850967694246566,0.016894318142387597,0.04021104885602625,0.0137860489276837,0.02822461878086749,0.052254714800117376,0.08093484231198601,0.13039393044046396,0.13491339498895555,0.16626834119551392,0.1706836783638799,0.2132152329186038,0.1867056123666552,0.11479485350933118,0.07200432290573963,0.032647780524274826,0.011581976604138945,0.04209911577834157,0.04184893058698649,0.04193395789394309,0.004939236060980089,0.027570057254328376,0.02517256281346818,0.019346951090579493,0.02736532493634035,0.031478182256741656,0.035635602703784186,0.031145959053913836,0.011851646620629652,0.02896926616235879,0.016401497907862446,0.026932060451454486,0.055377773934434334,0.04236843006994899,0.07291144795075744,0.09978012374294827,0.12873697837541162,0.1251355483955844,0.14621949557633301,0.15426111071777332,0.14538294483125158,0.10924195880615321,0.08584287830836546,0.03456895835705769,0.015067459229788333,0.02578886831018698,0.009528949454890249,0.014859526731115989,0.00608067709829532,0.0021838123977014484,0.015448857163809792,0.0270352955931513,0.0026215891423660817,0.025102646768981735,0.03186902944975135,0.016599821749782744,0.0011448460141277792,0.008517811403731852,0.024449908060891846,0.002657757105739391,0.034221721493515427,0.04260944919314317,0.018733764186884532,0.051397333264981276,0.05967938762900892,0.02772018843989697,0.03732462143805868,0.07111879740109826,0.06665891079726619,0.0641016121174722,0.008727160933500813,0.03507342471323174,0.01959312799832019,0.0069676236283353525,0.020622173570143433,0.0029789588603802613,0.03201973037605069,0.020342560960200002,0.012391206782436366,0.010035921928934726,0.025787547894351576,0.00537658099860402,0.000472254472214947,0.017963165237110088,0.01713106025246155,0.027590169435013284,0.03241184002738462,0.010888141027092001,0.009950399143655203,0.011118455751731359,0.0023345124084313633,0.025218171618661616,0.013844938948973083,0.03443635782706639,0.02350463481764398,0.0032224239924268355,0.0037384331443766476,0.03398856677042348,0.01199694615529551,0.013452492350389474,0.02033500832366582,0.018736157584897897,0.0014273378884240003,0.01520030389502609,0.02279932967428981,0.007784137804545047,0.020202394261677043,0.03130712374976064,0.03290538535519104,0.034958421936707805],[0.014347797917708969,0.03531560889525714,0.021358647564948516,0.01088016443204932,0.02000231128713903,0.00925461523492403,0.009250656027643174,0.011113908935146148,0.007480813863515036,0.033207197610344664,0.0033923888410400077,0.015569310532409905,0.022104747045322455,0.009159157638224096,0.010552283904957127,0.0025520438553314705,0.01423197239032492,0.024630439147639793,0.02902894371663694,0.005620932087177217,0.00531950963022787,0.013559947843904139,0.014633843674659086,0.02057045529606156,0.028319653413192997,0.021601837716429255,0.024360554537364354,0.01293673434399234,0.020577372739422704,0.0339832571389254,0.004775337921846209,0.027623517566377747,0.010331331740602027,0.02584380785543666,0.023799789618101936,0.00587583109012157,0.029931168337006816,0.028660564093044218,0.015466227176380022,0.00998506115627054,0.014704710402624305,0.023144629412824646,0.019950893397689233,0.03293348860712259,0.02864835906564109,0.007004265384148417,0.002209601771963549,0.018419242196972083,0.03213327785196571,0.021575742316736132,0.008783329803310973,0.019664686822046768,0.006548390262495397,0.03376666272774643,0.02639668065318878,0.03498471085868632,0.03070685100987075,0.027590951268777215,0.03150467207797814,0.035228475790206375,0.03161292028733933,0.02089375555635182,0.002984967654843115,0.004315457438456092,-0.003840304306799049,0.005639911743078678,-0.004849067264738219,0.007434049164393959,0.0011835898771595165,-0.02605441834225402,-0.01880831877012335,-0.02766809804195445,-0.006247502274994883,-0.008665413064198775,-0.002918981379004492,-0.003663736999262179,-0.00800296184404618,-0.0018076185510890776,0.02106075709456069,0.003090743154161033,0.028616576550427795,0.023376555678787027,0.028084421780717628,0.031162298971323135,0.004258130420667678,0.008063886715299062,0.015795431462784504,0.026457183912200116,0.012502391034665293,0.03197236335145518,0.0005494126305249578,0.028284430327855374,-0.004960656520680707,-0.004682373711275412,0.003773076137200949,-0.017187957642985273,-0.02996655009166325,-0.01651389406407238,-0.03212255319068581,-0.0249686360210071,-0.0681664848259096,-0.07486418168079105,-0.03412640181954246,-0.043608973763013426,-0.027716682125881714,-0.006543779372578172,0.01590047056835325,0.00020271498006817955,0.012783803828680012,0.006715551265364536,0.03199626751863032,0.006535027229461976,0.009000418116182685,0.025489638068853335,0.00887735704170905,0.022434912584748938,0.006170931055409633,0.012545816686629536,0.03195139627608244,0.02690287936129508,0.01579540360831344,-0.016414544647763957,0.0201265316738029,-0.0009068232021527558,-0.011751920298719534,-0.008642512250288179,-0.02718022801727695,-0.032899320857361705,-0.0665899904072862,-0.06781940522200619,-0.04895828655821537,-0.05737105799597069,-0.04923328910958966,0.003354046096099715,0.004555080822350561,0.031242004143642962,0.04243480330337341,0.022551382739742398,0.019815297137099133,0.019778301328231284,0.014184626468433294,0.011379990101416246,0.0347817329108112,0.023090544781190648,0.03904314005352274,0.031742389730236034,0.02648771630101165,0.026981590774240588,-0.023620447475383197,-0.018315618631677705,-0.010335771076163415,-0.008341016596221058,-0.03293287466741043,-0.05703331629970736,-0.05969386144380304,-0.09038015855449656,-0.13805244984629494,-0.10794214694073409,-0.08602690952176113,-0.031868288583040305,0.0037447181163028837,0.03257572672687171,0.06701042251218595,0.06490063311236278,0.06269545041039369,0.060140290504383284,0.03248368075534937,0.03188572767488368,0.006423112856783193,0.015082653014507074,0.019594955240038014,0.04232910508551961,0.04005679388469312,0.04490654913598003,0.026928366493982298,0.011600359683170414,0.009142337211081113,0.0014815706302414111,-0.01310580943796109,-0.0012393508728730542,-0.035503711091592394,-0.05788755945250236,-0.053659441524173186,-0.05827876550492666,-0.054562748139386615,-0.08156244945028002,-0.046554439357645055,-0.015144949369910789,0.028354284510999132,0.0694350102325225,0.07002913482092721,0.10993532875916018,0.12352343536752237,0.07936051848542816,0.042466363181989,0.004547800479045176,0.029583740549833218,0.004866056491231593,0.019611765836736142,0.022906938143722376,0.0709011311295676,0.07117219264221009,0.03268042883597592,0.006478416392786435,-0.0041035611362674135,0.009639661994341285,0.05132769170015975,0.06239793075964486,0.0930349151736894,0.11414868604728245,0.09619634188419376,0.09494615314123354,0.07077704409650562,0.036832615309783996,0.05307379769507731,0.031524471117252977,0.08481725056938205,0.09652592550659299,0.10517923387083862,0.14465295898329092,0.11532271940798515,0.0847544105177451,0.03322544551434373,0.006894724213402816,0.0029455604367806445,0.027103160327829872,0.028396989559205294,0.04700032420194545,0.09027570359925342,0.05953957999992455,0.04757618500985321,0.049212622064755254,0.04760598773287909,0.04374488369602147,0.1145532947965183,0.16844958219173672,0.20175809860712354,0.21940911894325557,0.20830232535256468,0.20206221840635233,0.13619899775907338,0.10689326843295852,0.08487581836446273,0.04843876810227094,0.07376487464654359,0.10470640702965302,0.12458687167467188,0.09796342478910057,0.12657041717330655,0.07747060422385883,0.03577759207338196,0.0360302048949499,0.030238033690689982,0.030627919447502806,0.03572080150108624,0.039630385389036606,0.09594644473375104,0.09880831634401313,0.08354779818366362,0.04944336321862311,0.049816447137639046,0.07875646459724889,0.12633799331064394,0.1591984906607805,0.13081892448536894,0.17367449239725877,0.23535598704078828,0.24382037069731524,0.1671368620603593,0.09090499559522802,0.06163568451958287,0.044893150374202925,0.07439299596354984,0.08775869364316803,0.10530549908950543,0.054418123940411074,0.07719014231875747,0.0838372876546593,0.028579014788932773,0.0001840107507527761,0.029115344511211196,0.013666869102488405,0.04092802647776599,0.06653482140302215,0.08616374557118353,0.10044787344539076,0.07945457114912566,0.07135085575694076,0.035498523197512746,0.012528637196171727,0.051288640538338516,0.050006338490328296,0.0576392500626087,0.1302891872827585,0.24345187600042337,0.2848038139656181,0.1896700328156244,0.0730784282671885,0.018389703009444713,0.020593568408229908,0.05842581800726041,0.08186750406679592,0.036705524786204306,0.011650004229698056,0.03820761562109352,0.0506597460356265,0.028447896488315968,0.015868652454615138,0.009082079780413041,0.014807557358724273,0.03984071475079119,0.038654802765200044,0.0833345969554389,0.06185971426086315,0.045849895160940436,0.010198238147156166,-0.004008454932133434,-0.056298276110674526,-0.03855375223841752,0.010859073169970652,0.05062608492390145,0.14705795831640855,0.2617904547937032,0.281963450325836,0.1170106889502876,0.018297070358743974,-0.032922231404499014,-0.027238059097622103,-0.024501028418362845,-0.038829586972488055,-0.02137639505451538,-0.053532561835577905,0.0041994592987668,0.046333680376727485,0.02349982963424233,0.018153405632296362,0.0036311380192918905,0.008624713682803417,0.0474355275642063,0.04742965215285694,0.05453064725384284,0.03662897527778706,-0.020857588731130798,-0.02331658854150613,-0.04703900589488486,-0.05791231773850687,-0.05164232344914824,-0.02468370263700107,0.02586296932761945,0.15838520226994143,0.2677682929016405,0.17805882911399085,-0.002847197275398013,-0.08115753163812346,-0.10528047972689379,-0.09191444242462979,-0.05798791707142883,-0.10361086730622276,-0.11410360803837083,-0.08893654788811392,-0.021591765413440128,0.039339001669051556,0.03496631425195839,0.03337504208062757,0.013541417242533618,0.029883760015331474,0.04159243178245067,0.04536804938260761,0.02285051172798667,-0.012053171360170522,-0.0645383551611633,-0.07293664407356644,-0.11432541002268107,-0.09951739651882889,-0.12840310690965004,-0.10928476667493509,-0.0316764761875048,0.12100121017414876,0.13647442436816729,-0.004370835316682643,-0.09428418394389901,-0.14225635052767635,-0.10626843467327399,-0.09352104829617419,-0.026939281889394484,-0.10330029342003702,-0.11630667369396516,-0.10326760327945142,-0.006381601934401996,0.03776739547116686,0.012458949845834868,0.01921042678712091,0.012580548964476865,0.011123724825607303,0.011380990342623458,0.047737528793205405,0.023894216811823608,-0.04172531588931539,-0.08980591246987438,-0.13434081971093578,-0.17344238141893595,-0.18223732174307758,-0.2279146294143273,-0.20785975148943348,-0.09788664402439398,-0.003087162106368774,-0.019181901273478612,-0.11452188877122303,-0.12277053627878094,-0.10239918824800968,-0.04553968407597912,-0.009816065959945112,-0.017741027917996616,-0.044153094040956645,-0.04397439022962428,-0.07729024826182833,-0.005031951195976927,0.04103615759520815,0.01908362295636449,0.013145329797367673,0.001958585530610679,0.017748517821434266,0.007940809434250226,0.037366267280775176,0.024966491562648616,-0.0739983732562323,-0.10803067949485362,-0.1665169408102905,-0.20562660224642823,-0.24367541508099436,-0.2739947040122855,-0.3059052414205875,-0.19103542096274126,-0.1251492324724368,-0.17387753731318872,-0.15232440327253272,-0.10621121001853348,-0.03937738065756106,0.016426547534196787,0.05814778811979652,0.06568602873994851,0.010637639612835547,-0.018117221645905412,-0.012858033751036342,-0.009258932107811998,0.04036562821697144,0.025806211340760304,0.012901386848375374,0.006815165693892192,0.01683376645180242,0.006176910068109804,0.05124989757843567,0.008346976556608555,-0.06086450754187288,-0.10038078778808832,-0.17631536961239763,-0.21213470309583807,-0.23283809998384464,-0.2809242929627992,-0.2933476692281107,-0.23828301217708167,-0.17684447352782273,-0.214215237816043,-0.16464664970009893,-0.09385089945693997,-0.012868952644485898,0.06145198912135532,0.0909239648106834,0.06354408313465838,0.032988168082674615,0.015756580345530853,-0.005563371900078792,0.010895914447766372,0.01990363793480172,0.008447363297945022,0.009079837352524614,0.032556631089209406,0.026584499317727966,0.015344269949335507,0.042428881651796445,0.02066620265712128,-0.021338932865992987,-0.10939208596051052,-0.1542958412240107,-0.19366516187901983,-0.22441811641884354,-0.2850662351445263,-0.27387755333124,-0.220132116428625,-0.15509945126426575,-0.17060002394801432,-0.14351391025621768,-0.08108232025629519,-0.04226317201061727,0.025227431323350317,0.052723432161619434,0.024357850885462863,0.026818184439336566,-0.00891235135204141,0.008345490127905834,0.02415774639177165,0.03143621984989727,0.02414192411551367,0.013974230725116511,0.005161002209177511,0.028235612720162465,0.011550682456408235,0.08181748863218813,0.032544076861539484,-0.007191794889537724,-0.0387338003682635,-0.06450373376921213,-0.11554677422972717,-0.20301133558051174,-0.2936862012203296,-0.3007013651072499,-0.21804847649830836,-0.1411026228102219,-0.07253595576241902,-0.11421967245457647,-0.10422105412404724,-0.08277148962556842,-0.028995326968816678,0.0018940015701901095,-0.004159833986645321,0.004324189955479526,-0.009385232136149882,0.003727529087541725,0.007540017159077288,0.019507752638218565,0.017553988195977473,0.03355644140400932,0.0015820213919963083,0.026634518989885978,0.045382835244011946,0.07674358317497691,0.06817385892793558,0.027920759297431222,0.038115180654952834,0.03619581019731926,-0.033420073889341755,-0.10783323841457908,-0.2508832193588594,-0.2699775735666775,-0.19082363262812096,-0.08709138473751989,-0.07696620835523615,-0.1031897710758646,-0.09734741506694193,-0.08377581450533596,-0.05382494490477738,-0.02661084578192102,-0.0002627957651204371,-0.03861452600490537,-0.01305014998835738,0.005707457315597506,-0.001852797894488596,0.005784694388016242,0.03375742401819332,0.01739135194984668,0.017123093766323778,0.0013643691753524713,0.04174703125918689,0.06504093976717715,0.059388611963697664,0.044567162276245124,0.0862053647241404,0.09693970736309689,0.05803997602017768,0.0018347983745211247,-0.07582166873888446,-0.09007012150056987,-0.06762440812497642,-0.0880277278097536,-0.063463422245562,-0.08432284465689124,-0.06110485059325716,-0.04429854451071008,-0.03763990313917265,-0.018598751961955658,-0.022828849662797742,-0.033541908827512686,-0.04160418101150908,-0.029649630984282735,-0.013730244945270875,0.0007229402590079323,0.03565139700828921,0.007538304699005946,0.004367482605370018,0.004387992677937725,0.028108215394161182,0.05344650743774479,0.06755286310309418,0.06806823648583923,0.07736401177787791,0.09682373887311958,0.09951496859134609,0.05446744756787528,0.06909149480139214,0.011125709958893497,-0.00461749078998254,-0.006423815437772521,-0.03356461294624263,-0.016002471440979084,-0.00565283653621148,0.0014561260388278572,-0.043816533198581614,-0.012280121387502913,-0.03859150233168172,-0.058718551631171956,-0.049478777092132054,-0.02782628809069551,0.007640585731543096,0.01909390164347191,0.016163390795295912,0.013310250381033974,0.028144767534927805,0.019139415142894713,0.01111886794925083,0.045349390157451784,0.05474254777876785,0.057994120347587864,0.070582698453991,0.06919591596171056,0.045493544187876836,0.0932307710025612,0.11242160447465567,0.12380725950666364,0.09863109251897252,0.07614384033681824,0.09806383690775727,0.08219563136822708,0.0615076701962691,0.033926180130965516,0.005426787154237715,-0.018549873369277225,-0.023653804998114748,-0.04141039569292107,-0.041855239355593585,-0.004599014675127425,-0.00798473857398169,0.03249451265236611,0.029861507506969278,0.028528424239043167,0.024974625706771853,0.035601907547601806,0.0317770841322531,0.04116457321836123,0.05474670318083004,0.07356751858203323,0.06010988318625784,0.09500660070220829,0.051882360692748736,0.09224122280300015,0.1311652192245929,0.17736270315021263,0.1456365942526684,0.14888093328160024,0.13181039507365505,0.09917452819200526,0.05192322176123852,0.017551145310955956,-0.0073723698949787605,-0.013950763676127388,-0.029249334159315205,-0.004850496222268406,-0.01477477415978659,0.0043280799448075806,0.023405094688325766,0.01909548729799848,0.011919573226164071,0.034204666682235,0.01363716707077087,0.028851246629891913,0.03022259714427667,0.006160969456917857,0.02083689676546603,0.03716966543428141,0.07617112449903586,0.09801086478746081,0.1276364439018465,0.12293827995491488,0.12908995158117348,0.12328324936062054,0.10637416159583331,0.08641627182670221,0.07016998398424293,0.06132272878694352,0.03518795599993434,0.00698277623350148,-0.01009551381608604,-0.016276927574304757,-0.022063599532391977,0.0010082057543551483,0.03262832953702563,0.015221191403796673,0.0037317741077283794,0.014419431816911906,0.009375300394950598,0.027120491855288024,0.03444187326583785,0.028907145701168868,0.008504317649550565,0.03418092078764329,0.026355594407480663,0.03995402197716487,0.04742104541080672,0.07319011179791687,0.09083642706520623,0.13825395360816534,0.14142513175022525,0.13034142464215634,0.1652950400866174,0.1467527173151354,0.13878861319455982,0.12316800777985808,0.10077846407312088,0.07035094205903965,0.037504982715290645,0.02047049270580965,0.005933573610945569,0.030085213430300593,0.036938990103864575,0.010351817455327223,0.036024073564372566,0.03485512633006431,0.022863450398411297,0.010061783756401035,0.028458834240164148,0.0204718073258404,0.021799754966799718,0.021599963642808577,0.035638503496181556,0.03577461368815842,0.028511947212237904,0.024375385327543297,0.061303115547253574,0.07689599341191411,0.069244807128946,0.07162530667796951,0.09947087635110968,0.08258232867710168,0.10794824048637292,0.08179571729893943,0.06553173800933121,0.05566413698186654,0.052732445745775236,0.041771606032744144,0.030279875994571197,0.015437050926093564,0.036161995476879864,0.01673024469883488,0.0015657266189156522,0.014581196280088858,0.012506758443469315,0.01679023796849213,0.03230612522837756,0.013472327153480386,0.01254062086629464,0.008692886268390123,0.016217621907131358,0.002020438588377705,0.01953781441594868,0.016394670870277735,0.005977917077605323,0.026371866730116378,0.03137973274100581,0.02959085324695574,0.03663329502579063,0.01679700397700707,0.0212111787757532,0.01656356478662196,0.010541912344864965,0.04242280948028368,0.030441767401572208,0.012118167200815606,0.003002913864153787,0.0051799600340617985,0.031948970436850396,0.019033520998362436,0.013491541885188823,0.03070348606293371,0.03327015180097167,0.0070117541751376],[0.025072491320317882,0.002052833181433265,0.017421436129091954,0.03365698249025142,0.032296114382870125,0.029919010192762902,0.015057714305003831,0.01532411495990571,0.0074101098937116505,0.01880790875467247,0.026000972464224004,0.03414294456601658,0.027487417059273322,0.025244979105427737,0.03399946837044789,0.023999451479791087,0.006358182685613001,0.01211265087580375,0.027739562054190647,0.029227108852291645,0.015347086852258662,0.031731666665401705,0.01939939611887929,0.007149493509035891,0.010744307542727594,0.0349674289480421,0.02934995037135676,0.014949310104053854,0.009314630638806267,0.02216811995424678,0.01336484089644524,0.001969621902657751,0.011148332013635518,0.0040730103846036,0.008586174090476554,0.011435046066380824,0.0039003820337362915,0.021524312526039275,0.026836863358861693,0.011248784751475002,0.0008046407023141079,0.031902861727093695,0.008246836766298298,0.004752049323598279,0.011125345865791891,0.025396859206358244,0.019916729404140614,0.009511299183320285,0.028449538294761063,0.018464193864965547,0.012947291569071472,0.015838910237000247,0.02113845829934093,0.016099979127266684,0.022220571053770337,0.03501526410792006,0.01500674680015687,0.01875756080755883,0.020203329378577335,0.016627051073984423,0.022186531433881062,0.03194119153951934,0.022741559108283488,0.003948469158376581,0.018935467778105564,0.04086415325543206,0.03969863414213701,0.029143828510464785,0.03986491590766748,0.02843034876738422,0.04909793838092612,0.07771663202151106,0.08797103641019381,0.05956228515478801,0.05801541325734558,0.044790187229352345,0.06859469471310879,0.038739523586922904,0.031697026438488374,0.03729000763598067,0.03511836974023012,0.00807375900607945,0.007968974738140677,0.030763983136840343,0.019442870926510702,0.010553309369419181,0.0018044244369491466,0.018283398550807378,0.022720236451934432,0.0074298710866414165,0.01825162708073428,0.026548328568346297,0.01473526982565144,0.04383028737746815,0.09311524736839438,0.1045293200394231,0.12591831858821395,0.09776381083962293,0.1385141015633595,0.14383192431174932,0.11919705375673338,0.14481911515631568,0.16398808038851106,0.15730926168885684,0.11294183151900038,0.10661109484769808,0.07029741888456875,0.019021650633985126,0.009108055496870108,0.006208070902702133,0.007542159664151699,0.024486812148790806,0.006141503702119451,0.007128236940459145,0.0016852503468229145,0.01470712601476295,0.011891165081504748,0.011451399441247553,0.03716731718709965,0.054770024398754065,0.06511534584193063,0.08139691518235756,0.11152688448616692,0.11568894092310301,0.11468286103154202,0.07208207865841773,0.05900381616693596,0.04451158815102797,