{"layer1":{"weights":[[0.006926515983005381,0.026987957899407427,0.029022421702210636,0.02548284469141643,0.011043238479098891,0.034924843545433244,0.016764107781142273,0.015982985245873327,0.024633900298389244,0.03287226456679294,0.0234432601506745,0.017349559280967392,0.012471791314530108,0.021224319266366334,0.004389099409853567,0.024414064441102175,0.009069118927485156,0.02913531340343926,0.029585379671081918,0.011603284492787842,0.0212156735225405,0.014807235468128257,0.023295765822311614,0.0049459420621681405,0.006988553988285827,0.024867392599588627,0.010542911272995146,0.0032077216032228256,0.011507553964177544,0.0353088196896589,0.01313685494836874,0.01749959106294712,0.010461346124521298,0.006382441271625088,0.03142158228304881,0.03453325151155088,0.00831805554495857,0.01573464894425251,0.016154855319467403,0.042958759422184994,0.06110536826069333,0.022102817710964822,0.007027504810523821,0.03312373592551192,0.0179354308302698,0.01681391856168566,0.03298971484828773,0.03654232564900588,0.0316585986036408,0.0327861585654121,0.027353659379823703,0.023462093617337917,0.02577706196196173,0.034045539384356345,0.022288747448388244,0.026427046905168363,0.01162065542109747,0.000014713536895416546,0.000548974341376275,0.026790459711443268,0.010554514433406265,0.021043354529190025,0.02132844445602231,0.0047182786180447744,0.03150512794610899,0.020399007111581022,0.050512522574779485,0.08705682159974933,0.1275620746110917,0.16147257250385355,0.15722107830201604,0.12187136443791055,0.09627270595357261,0.08718058564590721,0.10533165562188089,0.07504570722567204,0.05939528232631102,0.0762734013999919,0.07801085602954295,0.04711270649899668,0.03521131847350616,0.02759306388659349,0.017324368686959985,0.01586560604313069,0.00517152955828338,0.016241508415673282,0.024916572925433568,0.022757779404803453,0.024282638239206004,0.03523640041029881,0.039383860292605107,0.016672403694074286,0.039688194073370375,0.06281973164852958,0.11871397769255229,0.15225367889605174,0.2647956031247496,0.35332959422170246,0.3115972525140378,0.29460625467698337,0.354479661719127,0.25289404608872634,0.18693808416512075,0.2349178953571085,0.25328032700556513,0.23785694990465958,0.12395802273541794,0.047235742092908824,0.021582307279386852,0.01674810127077607,0.026620901827339522,0.008607461301264021,0.02058363995791069,0.005316363118681286,0.016370669507748556,0.018992911980704946,0.014558900424518465,0.014357242345341843,0.04361004657494455,0.0776812109519222,0.14778487803348136,0.15102394410185355,0.21775544994734053,0.3036841900134615,0.3270279007550251,0.28361784354961206,0.2007510655729338,0.15228478873422305,0.07865337960190046,0.06025408302062949,0.2191729881898894,0.19820420480898568,0.1450654823040746,0.048310198355036964,-0.07640128888384659,-0.08284365026229958,-0.05115652371841088,-0.020293720585937997,0.02169157352832106,0.025426421495837462,0.001714272666263093,0.021955635434227436,0.033389576423510856,0.025729569162674153,0.029507666177847728,0.03639098220357331,0.11105267553681848,0.17396059564023078,0.2998317453442144,0.41145101677461626,0.4452658338931956,0.29021666382565386,0.23760127835858208,0.26385426557579644,0.28953639495552974,0.34352421205269035,0.34002417916892386,0.17959328123749568,0.2088994915052462,-0.00492883087993594,-0.08044460936690902,-0.19606440077499224,-0.358313061086386,-0.43418905859330925,-0.30162559509726317,-0.08665230005840689,-0.00894872432064547,0.0025410430566757264,0.013386918135894972,0.0039007749708520932,-0.005853902062763664,0.010525444161474986,0.03530530065271974,0.0010657443127488416,0.014395241333960737,0.10673184788920681,0.2211837377172793,0.432740890813669,0.259010232206516,0.175129255182759,0.23917735399235898,0.3360341595624319,0.3538113883663602,0.41709845514523225,0.37380655844602034,0.32512205063416966,0.16123267540163386,-0.09407054313354826,-0.18071536064250232,-0.2768684654148992,-0.4061677089352956,-0.5128515330645501,-0.4099914005905108,-0.1864604495849257,-0.03817384508856336,0.015530566980596945,0.019780574671836512,0.013182785077765727,0.003984866168951775,-0.08806942696061114,-0.04693786264804579,-0.06910945557017893,-0.07800946065531641,0.07686938889988326,0.08456933988858821,0.14214120091717633,-0.04431368009474374,-0.10691470489326185,-0.0651681321769673,0.08216752731734146,0.3403776997322428,0.38405958560104425,0.17067633651666791,0.16746536952664517,0.028525228289271516,-0.028514980591684374,-0.21885774980075612,-0.34463009062023026,-0.2675159375820431,-0.4320360560426991,-0.40772890601089523,-0.16416426931215816,-0.03627384094434163,0.005768546980239161,0.02497283124691978,0.013042909089480297,-0.037232613814432325,-0.1634307859713085,-0.1701811122412522,-0.21575184886822948,-0.120360019297028,-0.08128229382851754,0.015847443232376513,0.029238824199446737,-0.055001229052887485,-0.18096134307775413,-0.32243720070663945,-0.2245679837027812,0.13304583320956306,0.21799871844108407,0.2318700711581868,0.07495827309065733,-0.0011566808264193056,-0.11809210568749587,-0.04608245547751793,-0.20759308395195644,-0.21730371483273178,-0.42152826101557744,-0.5104629133798616,-0.22491526063683165,-0.02036810084101632,0.0010961436269049858,0.021834873251104895,0.0013723834553308627,-0.06896687907340761,-0.1823744596597293,-0.24632740314374482,-0.1691104738518659,0.0475811142841061,0.10520767498804456,0.07854947080071725,-0.10781679907702378,-0.08635012313171381,-0.21814407260493576,-0.335103265109795,-0.1002126732623406,0.21536355855983919,0.3764332742251034,0.21831575224983865,-0.09767295695995662,0.02678881629882527,-0.09690122486003315,0.04578934857503772,-0.06206185258617228,-0.21990282991969895,-0.40102945694907555,-0.453535446153478,-0.25304215257064533,-0.04576774145222072,0.014219419800194274,0.030086020128604306,-0.009014692355969694,-0.06698641876447539,-0.13194691390705712,-0.19786431830447684,-0.15031061556314587,0.1375838203597553,0.17921954762472458,0.05213709402596767,-0.22198378709910477,-0.32391460220070023,-0.4832260224850804,-0.35708206933688813,-0.21158939140745026,-0.0710254946046885,-0.04648882615347364,-0.0675340248050921,-0.03694258945828107,0.16268571970934267,0.177954875741183,0.021211671569976307,-0.1066222178679639,-0.17884828394044833,-0.2469891232770554,-0.25673666785528826,-0.20834306879182168,-0.07951078911824724,0.0006656463067046649,0.0048638780032258,-0.03070054031188466,-0.10882639261136233,-0.13482624125004636,-0.20866042549823532,-0.16266169030024702,0.015630535322960555,-0.0755326768173548,-0.2510076914476813,-0.4291004426520088,-0.4632963810653832,-0.4603610684999142,-0.5267202311314814,-0.5240856501990372,-0.5167460961991781,-0.32949426017375916,-0.13381922092824985,-0.07748840888363959,-0.027931661387506735,0.2222798887584075,0.024382516911409725,-0.04890552831404339,-0.11306228225170506,-0.14655799979883946,-0.14166102528203334,-0.14363228399532144,-0.028319002692229964,0.017008226085802103,0.03387115931415798,-0.02974497512308344,-0.08992152894491856,-0.14292974063572073,-0.19107281214328473,-0.13763570852148957,-0.06308370057610944,-0.21082752892020817,-0.22304269622824258,-0.29969949409266716,-0.33948090837104944,-0.33512007389627374,-0.23474579196077813,-0.4145915559357696,-0.478969013065814,-0.2817137332733493,-0.17372462436724137,-0.30223955252798423,-0.04612972074444599,0.15402249138244442,-0.03541776365854709,-0.0686390956706877,-0.03654528793008543,-0.03772176214937875,0.024420381744815683,-0.034894553956016795,-0.019782358357396494,0.008231089474861963,0.01178877622950537,-0.02401781574191085,-0.07125759113402058,-0.11025329772319752,-0.13898529529118991,-0.0706560532033226,-0.03566934964924068,-0.17621274697103614,-0.11091945643798866,-0.08967055781712313,-0.03928079177069288,-0.0783125770207323,-0.0632871474052133,-0.31439509088824275,-0.3155914782769563,-0.30328944221487913,-0.11842527056845457,-0.008768195808853347,0.14683464850521302,0.1870757325300559,0.07332707331950433,0.1413605149845719,0.0753884799023521,0.0699651174341495,0.0693557089174334,-0.0057288145097443,-0.001224994567167933,0.023300559466686674,0.008253586359742075,0.023664630786080935,-0.04342096398399406,-0.06661360872184369,-0.04579810005473053,0.007116282029217927,0.03282088400324509,0.04804011399192339,0.08591510815559032,0.090458301562209,0.06936400621125528,0.017985036145161025,-0.15486828844123351,-0.44149880108096473,-0.4176945742250811,-0.2858619474153321,-0.09066938652899639,0.012149963281643396,0.09620286643030586,0.13726341470098327,0.10294523146655117,0.1002075890519765,-0.0008431264500372563,0.012748330047153,0.04383668602982655,-0.025246579874361467,-0.00473142973928642,0.02029476419770423,0.00924957447849246,0.028291631331612332,0.001500691821574602,-0.03892355081324793,-0.015691126339965472,0.16619562386799122,0.08922220520627372,0.1059003738340826,0.18998494490789514,0.19128803771916186,0.17758675081912909,0.06268920946018902,-0.3148771437267238,-0.2988592152040381,-0.33627922453861886,-0.3732386970841481,-0.3049694870305628,-0.22623585382626996,0.06537235149873252,0.1659530222608117,0.0948628112286279,0.013105954165891836,0.0060607122095425615,-0.05066954428778023,-0.04846570552588404,0.005935871973396563,0.003562793214305794,0.030587004206200988,0.005461348694020205,0.03210112851847663,0.03213215208744976,-0.006287621437065036,0.05076570491702861,0.21580813954765277,0.19746490456130897,0.10126224721672275,0.027660650154204828,0.07561737709895498,0.12781182937037494,0.22972415196773516,-0.1615329305864654,-0.19108659615240048,-0.3222243783068605,-0.5383672709278962,-0.3195208113961803,-0.23329316532428354,0.1770824166133347,0.23632172919816824,0.24503612617792328,0.21007775865167716,0.20315298480547303,0.050626256251227617,0.0401842690399988,0.06314486168461898,0.010978309292284733,0.005665566554886945,0.00804706291276144,0.0185952820095795,0.054360986854999335,0.03839653943662118,0.1727786406500473,0.24631327463166575,0.20571957781938835,0.16742179728605014,0.04720528795788308,-0.1776077700098412,0.14836522127042956,0.10344053265058563,-0.09421602584497267,-0.15714606794878733,-0.30652440681533044,-0.41034380672476034,-0.050316542341899376,0.23266305132251716,0.5002430701575877,0.3163674972468464,0.39563973784951956,0.5461661430172586,0.4155339674180923,0.3327632444770098,0.09390004679378115,0.10097090756441816,0.021284356987753265,0.005172370920877553,0.032502180790051315,0.033940114825639495,0.024472445041112966,0.05688623316932897,0.27989696383513246,0.3482196926379643,0.16796783811211652,0.09533946889406662,0.03274690379234838,0.05863521723235962,0.2057462894859258,0.19569263428834177,0.17504247037960485,0.035869005917893375,-0.11914585710919118,-0.04816995876631884,0.3056533627442408,0.38158923535885514,0.39553423666010373,0.31768244864055967,0.40678733669198225,0.6271697489278362,0.630514301785622,0.45063619400421334,0.26624212198160846,0.13391784054240433,0.018636703232823744,0.029068202816027372,0.0010290673888171033,0.032214493444060535,0.031581756880675146,0.14265796952619877,0.42616540999306557,0.4737080037621286,0.3390221979618747,0.020953145354334124,0.010847571204024872,0.022358796278595428,0.2315417749722672,0.41781902614067024,0.34277681696927903,0.21273164574765632,0.08866240168536735,0.09568854178129735,0.21225098880615229,0.3284769737873819,0.2103294645204661,0.19331207360662872,0.37251018189361385,0.501285881211716,0.46022251102990164,0.32773948256147156,0.1780208776460149,0.05002256139441855,0.00491058400244008,0.006555336797793128,0.013994608990547395,0.022503924691376877,0.03247140992035821,0.15169802699781165,0.47680213826738516,0.5036335818959081,0.33545565652657316,0.1705500676480089,0.1549916465567127,0.12860391959539774,0.07942095416634765,0.17339423136966325,0.13992720575691825,0.11794315078053422,0.029360095595116105,0.049089662717162225,0.05005498339470037,0.20576771334454266,0.09242024980425717,0.14207145486529357,0.3925691867789824,0.4631246714010393,0.35640932898153077,0.1912500197625591,0.05088698261675445,0.011043838022750217,0.012312312225619798,0.03209858479158874,0.00004504434762370348,0.015117744738994006,0.013429667887425726,0.11920266484809455,0.35142083847949235,0.4443158934423777,0.17277208269872654,0.04115670282665333,0.18810539674286816,0.05432727911862549,-0.018211842862585263,0.05652573381187046,-0.008019100058215857,0.05654116348343172,-0.004491125702807191,0.022719462489986998,0.1814811302434125,0.129749394493373,0.060428391476758686,0.332216915770132,0.48119686204535683,0.44593559391627496,0.2387156113728545,0.11998649654729746,0.017101671196879758,0.013166043020803148,0.025893684241179257,0.018332799341127335,0.004057614235610717,0.017426357590857127,0.029192055091033408,0.09827380671182785,0.2866629837578814,0.35471151173730164,0.18003526640978826,0.04837494600019722,-0.014724010719740117,0.03710739127933181,-0.11577308285351622,-0.2413016580877772,-0.12082204805996268,-0.03130135821131547,-0.08691483330526573,0.06121138890691189,0.2612573622322139,0.16329077165559705,0.23405753492078463,0.4491618371046643,0.48061145975652864,0.33479471429438196,0.14986767370396709,0.03138295185497241,-0.0016346251154952818,0.03005093372750436,0.02651671234237263,0.025680003370073687,0.03357718203739472,0.004440262238908603,0.038442013105169016,0.05372887591950795,0.18691145713130716,0.21698848748719218,0.15288320668235433,0.1844083327926774,0.0408688789245224,0.030467359986160177,-0.0002117381950950596,-0.1350520113785078,-0.20069793935842667,-0.31567128081060897,-0.3389035626368764,-0.07315434829951452,-0.019445028185168026,0.19103545975824282,0.2500354057688373,0.26868545390176707,0.23600967981449372,0.1735322951639283,0.09350033633092687,0.026227659562091266,0.043719427983559406,0.019527570337082484,0.012955801172255376,0.007143634805743014,0.003444391134155963,0.003734832118277988,0.012883489844252402,0.027337111955313496,0.07834554421910282,0.09639852354785226,0.0471843958080853,0.0809481453032623,0.1149910917622046,0.09201702206447004,0.0718139197590217,0.22963155581197392,0.20805101248492722,-0.0028335980607240756,-0.007342962350741115,-0.006276360273384328,0.1015966452426998,0.00584303868889671,-0.019896883917622718,0.006896284747332019,0.07729046528426324,0.034475390660286986,0.026534895071816594,0.05905605766233332,0.013640034123559297,0.023024702185054823,0.019988140884467858,0.0019810320539216148,0.011967675390660388,0.014224845351458761,0.024547063418292,0.0011462154611921556,0.00489440674030351,0.0009206209841781485,-0.02933124443809433,-0.09185752390455183,-0.0803710302174299,-0.11481493565121413,-0.12224953037201465,-0.07987786547160693,-0.010852506845995572,-0.018836626557947163,0.02589012743725346,-0.036305458783978256,-0.1648372686134566,-0.21741702134905821,-0.2049634664912627,-0.12387684189674725,0.06628085754257,0.03170327711059432,0.0048315109979946815,0.028003269169712294,0.030919668948641007,0.016212409111239782,0.03388792265583414,0.014071480944894767,0.00896580626875944,0.01888483183606308,0.03222804463513111,0.011732031935780478,0.025170545714667435,0.02808075161903115,0.0020861603520429374,-0.014462381881425736,-0.07285854850091435,-0.10968993469676425,-0.12216420451615591,-0.13294623624179844,-0.03532940151535122,-0.10599304939410847,-0.2242062654874985,-0.18754454452928085,-0.1685817253121043,-0.1477502944393261,-0.09542568917194792,-0.06034704723851378,0.04508898947294711,0.02994820199938553,0.0019356462659832346,0.0031936593545164108,0.02688360349278679,0.015296533837878263,0.0353478547849911,0.013062280448657633,0.01789193122707265,0.0033912223267043573,0.022071489370200623,0.0005427195423485243,0.019342443661477585,0.01596241704272885,0.0016216508313489579,0.003450045122916122,0.024090324022065443,0.019544311819689655,-0.014137197131144221,0.003883644894059597,0.004589844359484253,-0.016789740242138973,-0.0411096900005277,-0.01938140268229484,-0.004916562424009339,-0.017359857972558145,-0.035545374012606996,-0.002854415776960646,0.042014543954726875,0.0009787165497641276,-0.00720889803164029,0.006261654022019565,0.022890905812928273,0.015858341787273918,0.0023097939592049027,0.016624638378888525],[0.026698920755518694,0.022872862734103463,0.0016119185954856508,0.010738529872411775,0.005567743852246192,0.013539348498038197,0.017239963327569274,0.011552339291940494,0.004204802073613583,0.023785501295722117,0.01741038809275917,0.02048758211823289,0.033022222402495326,0.029705111532475157,0.005749784421552473,0.015166674717206919,0.030406779991932056,0.031126062422848638,0.030879697025496176,0.020609445104814612,0.011740838223930525,0.007293317796852645,0.012851073214481994,0.013432094163277366,0.009547282413262248,0.03247949396137667,0.012897955267036085,0.005849453442768089,0.03355695315722407,0.00481694504169062,0.01158467575493787,0.031442304024235056,0.005789727232467065,0.009859936750764105,0.03189133255665919,0.014377933099895442,0.009323981697389051,0.015834349944095123,0.021624874238834066,0.002387691673563093,0.014728525821603,0.038476151957975456,-0.015891123586806263,-0.030194584474073957,-0.06273873459105625,-0.038480747423860914,0.003940664201699193,0.016083699956362565,0.005175962348008572,0.009775377445839097,0.007059230652665345,0.023274181492043942,0.012090592976084185,0.00420131398444746,0.0034809679369705504,0.028805446554596055,0.007030397203322365,0.03137170039045561,0.03545744491966422,0.024587763429245804,0.017741892999800644,0.014589439226131455,0.0045012679415845636,0.015066863097475654,0.025444322023056982,0.015446554022986158,0.028015347821997633,-0.05273398997217027,-0.030193133951876387,0.01794920899193631,-0.01628437848545372,-0.04987823117585201,-0.18428956030550445,-0.13776042079393047,0.04331483434350357,0.12020315897175951,0.08193018878022885,0.12206078323493322,0.1082635751738712,0.05175131472566615,0.03800777494160191,0.02838733620515951,0.025822386286341353,0.005140766448154033,0.017091120580973847,0.011152310324678418,0.007039468644735772,0.010599735968143535,0.0011946512803768486,0.018989866097562293,0.009890748837908645,-0.011800248478191685,-0.0012625670207914432,-0.04261311599349347,-0.056813264815659716,-0.14724137936473664,-0.235246652936633,-0.1330767401791996,0.009002666494291343,0.06382921485821377,0.1850034463997081,0.2636531291780923,0.3158178000806322,0.3475401911516142,0.4210100831153066,0.43600795389494523,0.3356714266219478,0.22518062972637234,0.11450608883418457,0.01947556494378495,0.0333190836194006,0.018316013520508965,0.0014505115375234975,0.00734538882585851,0.021864438009133836,0.020100194817249135,-0.009741254961752736,-0.006973019033262101,-0.04047476616029097,-0.09725904317545668,-0.08196857027042094,-0.12284935679999427,-0.22400407514582524,-0.18083251666752628,-0.221065496189483,-0.2178769884154569,-0.20723016888415152,-0.10964169419861775,-0.03690420551781815,0.06013735563443475,0.27273013798879187,0.5001847427696261,0.5512519213216481,0.4535888186463476,0.3555066035554576,0.3155048601049995,0.16167997705868475,0.050511873747027494,0.004405676110203142,0.009421422123301477,0.016357314271935215,0.015219498254652686,0.004385941269945513,0.019595588778942997,-0.031352871877450186,-0.09321003329855497,-0.12194619353471182,-0.1480480102099548,-0.032233407024890734,-0.15807916248584022,-0.2297311633883615,-0.29412651088423714,-0.2498144580647952,-0.3972332860422923,-0.4621155224724796,-0.5305790003719641,-0.7101138112462722,-0.5267364742570777,-0.22038238128880588,0.0033079161581332076,0.1379283902319024,0.07090880048104273,0.019115852259038894,0.11006551627846656,0.07255831903790068,0.007783955708526579,-0.020642949488308752,0.007838727171293698,0.018682073959828318,0.031063196155776997,0.01909356880612644,-0.03256006001409838,-0.07919453004994523,-0.08001297254926323,-0.12071115236697141,-0.06954321713114757,-0.09792822910816584,-0.19901563631423283,-0.28839635702025346,-0.40189767434743484,-0.36959040282422595,-0.22852781815891124,-0.1516582028118398,-0.1913772393930868,-0.18476523764313998,-0.1356640937599407,-0.22812166099077127,-0.12959870003214896,-0.24364876017421105,-0.15955111569284436,-0.18109725846793245,-0.17691760070757384,-0.18891476617195213,-0.1306409079695666,-0.06703555708321735,0.01485643972055583,0.0058928287091763,0.016344865959579565,-0.013334283933577594,-0.011646637655072959,-0.06802270016168777,-0.09366192830324448,-0.14498386018717715,-0.013592889599586502,-0.028358152248328702,-0.07773998244600851,-0.21700621629930417,-0.25065035095260985,-0.22085020130072003,-0.14585385785662217,-0.18935056807139383,-0.12743026958825548,-0.03574902731501836,0.16299685464999544,-0.14527697734179199,-0.15527508771447385,-0.24414825432533158,-0.3598142430714934,-0.3084500266549157,-0.27333139876752194,-0.35387105332811863,-0.2278583095474574,-0.09221191394012673,-0.0000465745606321026,0.03050040011479409,0.010794157407916484,0.03962021890785528,-0.005623952050951801,-0.07899924642797615,-0.15318565697683062,-0.20372084077953803,-0.08366724367090143,-0.013531590122258526,-0.006477699474754154,-0.07334884000314924,-0.26078870596146797,-0.4189782973887863,-0.36697866209819896,-0.44372008365213694,-0.42855181655394514,-0.24492765372460357,-0.021923426498369352,-0.23049735712500585,-0.4206959359224091,-0.3075393929128757,-0.34336937690704705,-0.4174930717036238,-0.26786674871751126,-0.5077000226486925,-0.43405375201282087,-0.14675038437405613,0.013426296549613689,0.02724257166334246,0.03538794658814127,0.043161823793226174,0.030963050182969576,-0.012419532863880646,-0.09502491149283415,-0.095217741564156,-0.13222452516564934,-0.017291856152487087,0.05842431911686055,0.1415299116753119,0.07909577713438208,0.1365829489854475,-0.0641521498981639,-0.01976023070301704,-0.03293757396627119,-0.105033398466413,-0.2879523428676389,-0.1864701884205044,-0.3041253827880001,-0.3490734293773376,-0.3301781125897178,-0.41925137348248137,-0.3966002097162874,-0.6644118371632076,-0.5419661874894603,-0.1261167298519701,0.018357784963160387,0.025356862772376854,0.0064215095887970195,0.003807134487166749,0.0676181125034336,-0.0001454273580478506,-0.04141849609305632,0.03556137043741348,0.1499011674811081,0.1701068914543353,0.30874624733498357,0.4848299487964113,0.44676584511619305,0.5416059436361473,0.527320878430216,0.21791479564704488,0.10286933731283866,-0.07957016209499569,0.0006409143604581679,0.10340857959231962,0.07224242776323675,-0.17496397603498656,-0.11531184640034187,-0.20017547157223445,-0.2802997219019086,-0.508388574107404,-0.40836106748415024,-0.10751694882306181,0.010874493180426265,0.03434623173611145,0.031018033449439736,0.011382636186660144,0.06692485395871295,0.05543360783931331,0.11272560037740342,0.31412654736135165,0.47974021825615343,0.5047477485924539,0.6284454721870406,0.5491512875417656,0.5343087375956229,0.7385132017549475,0.48417788922998695,0.08573754008473228,0.15810022141132532,0.10925175659775016,0.15142229318739275,0.2018206418486694,0.11174008199341318,-0.006296285594315105,0.17359438130789215,0.10991615518104128,0.023022697273020875,-0.21855834028212512,-0.20679721979843566,-0.06709392614791704,0.019193103162691877,0.002230932106261514,0.010901730287030236,0.024178766977471983,0.08713996582070895,0.14495328275772684,0.3113256842665695,0.5600914100743896,0.583003672017642,0.5308640214676027,0.5507370151257233,0.36304170629793475,0.4383623584344015,0.41636299906776447,0.22425029125502063,-0.1573711549440225,-0.020698239972193853,0.16800346722473872,0.0965383139977495,0.18405635804320508,0.005137708690508473,-0.07503787458003557,0.3028282020456075,0.5444176251670919,0.4025782843055914,0.11969777835911131,-0.022518326977371293,-0.032933066328145535,0.01349732493494541,0.021633136846666533,0.01613002779626186,0.018884889151190454,0.07863452580688587,0.21703724495507712,0.4905080442905338,0.6885390866681583,0.5731800412814727,0.4451801899404746,0.2355918590801443,0.268899166755879,0.25085476864812983,0.07899712411271696,-0.34472742649704957,-0.36022214382785117,0.08580721911510641,0.08627200608318315,0.13879250199453702,0.049454564502350855,0.1437733714383861,0.1244642985589601,0.5503553426701265,0.593327493332584,0.5495030813022582,0.1860374253897561,-0.04823920613601795,-0.010643155538441097,0.020500387861373155,0.0002658764798992453,0.003140001603779642,0.016703384629169583,0.05761682846730193,0.14763298695400745,0.44448746537140893,0.6752882778468835,0.4786843979866202,0.09700305194728683,0.04235428290527284,-0.03572813878564575,0.16341999744143781,0.16509192153989846,-0.1454448391429771,-0.19302921834304015,0.18768610760494117,0.15783813219145157,0.15206194520861918,-0.031111006733789626,0.24951766314717488,0.3525790362092634,0.5034616483001689,0.5141139039009812,0.4327826334827996,0.1679600004051948,-0.014130937518103485,-0.058069576862834156,0.017603726013575748,0.02810988765188498,0.026740791646907815,0.01204880857897766,-0.028998232057010877,-0.00614797793485136,0.27211775367874597,0.491498542316333,0.4162177951290731,-0.16032728973397523,-0.07673096686760832,0.040503208606303215,0.20984377517304334,0.00523534047460099,-0.2790985677284635,0.06968430645673525,0.37309159324639485,0.28062835447518975,0.25482862498674275,0.22881981511403324,0.30591687159540926,0.41585630520385014,0.43683640435501714,0.3498711368249959,0.31256691091993155,0.1309532329356419,-0.055640823901083054,-0.05123626657383903,0.0009943342388233183,0.00784978017315438,0.018080107404146138,-0.0016301497928542664,-0.16597620719983974,-0.1607975445839609,0.005223080805703054,0.1057799057496975,0.2348379882944374,0.04188257392767212,-0.05553205635842583,0.1079264237858698,0.2209118807143059,-0.23723906519992902,-0.4111174692943685,0.0468229863711828,0.3699005813831948,0.1596372786601725,0.30722104952565554,0.32022195567614026,0.30738413075078264,0.3925129859262891,0.14995679064821626,0.09332710893438163,0.014735784733849433,-0.1323778117600388,-0.1808225240314184,-0.08385478691686059,0.004926912275559798,0.020111245353520806,0.008887584186374567,-0.02093342331240133,-0.23497059282961888,-0.3486589702085889,-0.25559354029430265,-0.16156699128372062,0.22094638388994456,0.379429212781832,0.09282437033618456,0.17493290115546836,0.25201714089323196,-0.1287143284605347,-0.11638819896191534,-0.06845487683979043,0.19682972244420335,0.028291893611274932,0.12237755948343836,0.11508706241439484,-0.060629700947755695,0.0899522228450399,-0.0063199860120785045,-0.06798123921754662,-0.21046751814815134,-0.3844686082865934,-0.24382594345375078,-0.09719031168162691,0.016642032134521735,0.005676985104690357,0.033821062782582775,0.014762749420171807,-0.258298462011487,-0.4385835041580739,-0.4936782893751005,-0.5644440563572874,-0.306954759116698,0.08661250856254668,-0.008337868117317859,0.20624412320552643,0.30076954621767926,-0.11208284630807186,-0.35138832938307,-0.10010087481837057,0.06511611867497041,0.07177401095843705,0.009849563327246055,-0.060790528844973005,-0.277575329295757,-0.06345975795343929,-0.06285929985990918,-0.35136703124963375,-0.5699034845387141,-0.609569129855157,-0.2726715236589751,-0.019662839714029882,0.008823963242363458,0.0348691952430917,0.0280671070951237,-0.0015437781154838178,-0.19247901598708494,-0.3550396915897871,-0.5306637653560748,-0.48776697021068993,-0.6072242975663251,-0.41662049949277996,-0.42143731837758736,0.00317069615994449,0.2137645907042579,0.1794719346513698,-0.10625381389080683,0.11778096965414107,0.17168618114923884,-0.011599645244438805,-0.0041657012277727164,-0.06308681262418092,-0.0469574827837302,0.06735125134447077,0.01133034547561871,-0.36063516280750246,-0.5383334286713516,-0.4250620753313287,-0.17879068272543622,-0.023716776863103934,0.024833026391003432,0.02390347645747904,0.013691273522032104,0.017331124916155842,-0.12406881990708189,-0.3359520668194156,-0.48270987179003316,-0.6286930454304162,-0.6421317141939419,-0.6362812357281493,-0.3958434813093282,-0.13082465859740697,-0.07273861358184998,0.09010165407349992,0.26233675558850494,0.254044677153247,0.32005050250010764,0.13624648388169586,0.24940114070941843,0.05521176488966856,0.16046312371970017,0.05165408962706711,-0.05435811091942549,-0.40387612290227315,-0.429079086595646,-0.2549416133545954,-0.08254554125801061,-0.02430101121922339,0.01338961830007102,0.01410487561870602,0.023232859315658373,-0.004649847364933697,-0.10277077431768063,-0.24566552349579693,-0.39599783140829287,-0.6976335273228782,-0.5532484097025677,-0.3118625009879787,-0.2914585579806621,-0.12652149645649094,0.08658563065624306,0.3583006235231015,0.24227381852211535,0.21921172501826686,0.2022548766847343,0.2631629000987834,0.23992232243333864,0.12354741076377436,0.019777346404040018,-0.15696306166321128,-0.24979725103350872,-0.3678675691415356,-0.24894664485721776,-0.10878417142004984,-0.047995157233564005,0.00013720079863992955,0.02981214283671315,0.005298935839569714,0.019714592302292052,-0.00811613090064522,-0.08205048283306766,-0.20363458580733468,-0.3378962155495088,-0.5166225320202362,-0.5452810974238597,-0.22306945717607218,-0.1733921064139544,-0.1476908445123116,-0.2668507562696469,-0.1779919317421533,-0.21341610536846414,-0.24413273326391724,-0.13666868259483828,-0.01922327246716934,-0.10994017600787319,-0.1616501905683699,-0.19639648562251014,-0.30670408163187346,-0.271921525138555,-0.18830754812403985,-0.17406959298958313,-0.0633568292096226,0.016736012352697668,0.008561406081160475,0.02207635166724628,0.02044212097297804,0.03029575021913422,0.011525150850020224,-0.015357609889787288,-0.09250677268312181,-0.16521780090195182,-0.24884789991808695,-0.2900133953633812,-0.1475574895782686,-0.18345975917545432,-0.21302445172327786,-0.44380966734408916,-0.6468338496748715,-0.6762161868911036,-0.5318580604156706,-0.6919782504945622,-0.7429211951532905,-0.5876858890748385,-0.3222073339680451,-0.15863791809432623,-0.2010698020830165,-0.04432707907602214,-0.033313041016623225,-0.01573661395547082,0.0004163508960371781,0.0013332771937213817,0.029476668751908287,0.0101517691885233,0.017110530298245757,0.014930871338637661,0.021986542196500918,0.019920502842257753,0.028115247628816092,0.05633129434764751,0.10956337484632073,0.10047368331728807,0.14827133905319054,0.1519812608419254,0.1193602159200404,-0.0044685849001017165,-0.07803361147774286,-0.17672110894500856,-0.18897724325853488,-0.1590348041164707,-0.05664069183732762,0.01207004295696861,-0.04390290600764624,0.042251361791821804,0.13966550822127685,0.17599253999878584,0.141905924665027,0.06742880384570675,0.011029197914955683,0.009155000532733184,0.01853274285816903,0.030532260425013866,0.0004061088002368453,0.002923462220238133,0.033796158136596664,0.0059495731417742136,0.04898193503959203,0.10930028428644269,0.19338707172917832,0.3272793017995188,0.3115041302416555,0.30044951398202624,0.2866327328131172,0.30177793070531683,0.33576584012501504,0.2673232441100001,0.3168284381885918,0.24058036582667117,0.1701653325434525,0.11276581678437307,0.15502220135843436,0.15922463648018678,0.1846824511531918,0.20257501411446815,0.12245285916143338,0.065606168470335,0.011409068874116643,0.03245295725268136,0.01781175028015533,0.00941297934128019,0.03204105243996587,0.026427622813686942,0.017978633489662808,0.03585990775281259,0.02276081618120392,0.06408022045209019,0.10584190264498017,0.10681747823114043,0.08321088462291662,0.08423010912888795,0.09234459939699118,0.12700743644003026,0.150850973503936,0.15563672511925328,0.23876325107683408,0.19725634509485007,0.09662398803115993,0.027283615388119388,0.049931058689668045,0.05254692912757575,0.06531560008036269,0.044123929367139714,0.04217623925773469,0.009859565604872347,0.022741962668818838,0.03419068698705565,0.000025384519676168488,0.015540951528845302,0.01613343235863598,0.015203584255525513,0.03454308386040359,0.01993059722403767,0.017186661482343015,0.02875990924216706,0.013391021628312986,0.03549330339127565,0.031449355573255164,0.011593163787035446,0.010809854010645291,0.007607145261575376,0.028628283743210012,0.016278398071430927,0.026001467722350964,0.012219124975626614,0.015598044262326055,0.018550543586676238,0.04180365546633987,0.00951672423167199,0.01619598446552464,0.027029144697630462,0.015314786542470524,0.010828230849450069,0.0023084887674533682,0.005503171167720787,0.020635245702028553,0.001439987528601567],[0.027345633362434722,0.01746523252857093,0.03445480683741252,0.007405880287581149,0.006579760674382674,0.006290551660318817,0.009540324870372874,0.026034814237750708,0.006581403611308759,0.031674267835908564,0.02285433853258611,0.0022020055093887048,0.030748791539915367,0.03196933255857627,0.002085291811515506,0.024160419888533468,0.008211632274851182,0.01810647371339472,0.004572560143002923,0.03147371859332818,0.014805630572626944,0.0009799665627827716,0.03154263990073446,0.007084190177739987,0.007179749392238389,0.021140024435580367,0.013195889243703376,0.01607397934023607,0.026000374528953523,0.03147399067856899,0.0008956294653538913,0.018832323291949855,0.024695750169632734,0.027460690094831774,0.006998446610684042,0.03516227893020424,0.033889286096824775,0.004404175060917009,0.007074464943620983,0.024248268732843248,0.01954785395825356,0.0061226806735162525,-0.021694906828960237,-0.019081044824332268,0.03164283180080292,0.02192493278837119,0.006246356720458287,0.03501898694743447,0.009237289335617972,0.02982183965835364,0.02892383552132797,0.028757279502655907,0.003118745308601123,0.0018346089704134555,0.026194323931036798,0.019027681198551194,0.034242301228509894,0.015623514456068672,0.004179580618598024,0.0065785692491360645,0.017969019501624203,0.0010989893700725276,0.007232019867297076,0.013127865870617943,0.01905956148325423,0.05324795968581229,0.04650539064577113,0.04568011298728137,0.026108276747153016,0.012681636347615769,-0.02069067441322689,-0.019330775350070908,0.004298092090721775,0.03552222045273956,0.0218066753588853,0.02949835048095643,0.05567139350798313,0.044285619488970335,0.001897396928337748,0.011777756533443375,0.007923176945231673,0.03539033945505967,0.017916978719081805,0.020511069200260097,0.024171159705245582,0.0008475321533037428,0.028974744544427576,0.030382561935589286,0.02321801682088674,0.013883493929361689,0.018402442406225142,0.027937074176126057,0.057941676943499484,0.1288442080832216,0.1872322274324081,0.2183329300537984,0.182993410072996,0.14330259856217623,0.13515943598203914,0.10133244779705562,0.1165465054504983,0.15246335577339562,0.1424410378407283,0.08717846593217804,0.06030137303523522,0.013422139764007962,-0.008531141356524047,0.015955506947156237,0.025361447283662665,0.031037606297288512,0.010456772603570627,0.005726114284846063,0.0004849992859053171,0.012919143286265145,-0.0016064640918738112,0.029533197856895895,0.03352044762472202,0.02409582212745067,0.03767859190234792,0.10035391351538218,0.12155892211089141,0.20897108557277158,0.16943353984442894,0.21006245077827823,0.18614271360135035,0.0637798070071913,0.054919222143277574,0.012578050645940352,0.0187871020854359,0.10265019722592827,0.11813301473526502,-0.035418097082535197,-0.037036379479773195,-0.07099829321361897,-0.05677690716677546,-0.026263683591251846,0.02522009074797825,0.045473826033849835,0.02198368108211208,0.01666954190231102,0.018756643391936865,0.024725191673330902,0.010612921481718149,0.009965245681314435,0.03734447670234688,0.06477702072113299,0.07490916531760221,0.10282851264657929,0.23600033569205947,0.26599765608361114,0.15866273115655935,0.06288959164705846,0.056057982248479944,0.008846685517113314,-0.16693867504415066,-0.16828539901660516,-0.03724791419886711,0.12353587864571437,0.063259460736591,0.03519194065582918,0.0634617245420372,-0.08867837160887183,-0.07256362525697954,0.032824193132347045,0.06499134923016933,0.0756073355342974,0.029845282172392403,0.006645215695972875,0.009339971521983641,0.027716734215135985,0.004950715713218402,0.028183629929617746,0.038638572344845,0.09649848773257444,0.14690919013817225,0.17210017745413742,0.24108547481357137,0.23380839276346158,0.038815368164450706,-0.13051425981399717,0.03298889539354875,0.03336772759825129,-0.10120592518364079,-0.007874072173121416,-0.059967574917161794,-0.10187100764465513,-0.07215326719216036,0.08874048504581354,0.13906822072831945,0.06898971021259023,0.1493643444111001,0.1559971738860536,0.20176619067076942,0.0919489612749035,0.009431121404466686,0.01875937395643623,0.002112895724586772,0.03420868202969062,0.03290694859651478,0.02999515481551871,0.057061832807849,0.0994049078383174,0.1581276243450622,0.16177809967232845,0.21666244412878666,0.18655521031173633,0.051621048590397026,-0.04893666871564225,0.018274018713511562,0.04488363112085967,-0.18848253008613114,-0.04207703089663182,-0.04302799277804224,-0.13930265208759232,-0.05286524227580133,0.021826960752562685,0.16055788694419512,0.21012957512687547,0.23007706819238866,0.2547526489249157,0.2528275186272729,0.11577037474894672,0.013624464074960993,0.03292766105130356,0.03219431028887615,0.03554294393801797,0.018674659786734032,0.018814524500857438,0.07533857649324702,0.08889194579527966,0.12851905152275728,0.17891001728594996,0.20582024057482484,0.19981813217806127,0.1305480179458665,0.023888267006497616,-0.017253883431337175,-0.1414987056140996,-0.2963680435727809,-0.1673923928714972,0.012147438167649585,-0.14112767607226193,-0.011471318721956095,0.1733353097278703,0.2940484013495698,0.2735376595007892,0.2961787087955629,0.32283393387231935,0.2713343183722874,0.12036262859097047,0.02255468589867413,0.010419794895464268,0.022323137554228857,0.019028178204389925,0.016702696396535575,0.028806649429835445,0.06072481325294554,0.11418603122816069,0.16098622666716048,0.14482925197811897,0.2118857546098832,0.23433072108969805,0.1833563092743682,0.049216915959438154,0.07187661947887979,-0.26142695739563093,-0.4063358541990022,-0.31700121424893135,-0.1868642852698731,0.06682449029774493,0.11123023077473423,0.3173379513001751,0.3099708369843942,0.25666114315663946,0.2955640655668917,0.3151559505062347,0.25626571330932757,0.11583242733412037,0.01856188496011322,0.02613253524118236,0.01130663560803503,0.033437222632518415,0.03962884810400292,0.0409676707226483,0.06229101987097685,0.07725652619094472,0.1328411816569185,0.1714114645094493,0.20254077671663948,0.13469119343059852,0.07066232365032597,0.03526945515022473,-0.16673667176794868,-0.4086429838703338,-0.5425917195220875,-0.4835673174211254,-0.13672155042690864,0.10530944905352915,0.21663579231811736,0.26670125808121325,0.3579889172846635,0.32196024181217175,0.2983374139734791,0.25779854762590493,0.1774736464650129,0.0994704898701381,0.04595721212209346,0.007252575324833556,0.026399911248487975,0.040529641760256196,0.02222236332150123,0.0651164351112133,0.053501148222723706,0.04961779159645821,0.08428024752208711,0.15578196832009814,0.15941839304317154,0.11863913306295346,0.039085697863355695,-0.026696594121162966,-0.2505590192001354,-0.4234070211492079,-0.4691298597075053,-0.3502284942144099,-0.1311991918600866,0.07944311663669165,0.22036379232013498,0.2844481014912734,0.2806098107619652,0.19785526524688238,0.16388268532916783,0.14349696565466047,0.0900753297152943,0.06792251746906991,0.03136224428115742,0.028105992846106986,0.0066378832456954135,0.04109878644314742,0.046739989875188716,0.031581084454106075,0.027420851453776336,0.060834316721967346,0.07324579579078076,0.1235959638319928,0.13511585492041522,0.10865567331659985,0.10857553951372052,0.0390513648997059,-0.3652951916126818,-0.3145094177366434,-0.3498206390578771,-0.20145316361190566,-0.14056769552016193,0.03349679787243796,0.16014657298799767,0.314287548579985,0.20882389734528822,0.10003552104941331,0.05198561806610949,0.028245868216681177,0.012672510795667995,0.030359574657564715,0.03804855343010728,0.011109386908817185,0.0007176753057024897,0.037295082086697455,0.034760899803353486,0.01592239408024013,0.034191343094224697,0.04597828193400865,0.07081715732454442,0.11021774203206074,0.1138230484290056,0.08635808164352238,0.10837666906414115,0.09393033785561113,-0.17224104058357403,-0.040254125262130125,-0.26075578847687886,-0.08261245985025793,-0.14969031145305833,-0.005397395514252548,0.17340298284347158,0.2626153826220195,0.1229664464001412,0.021217144460600985,0.06869641704988301,0.052982230843463395,0.046473188223441056,0.0439064253181476,0.01919177343296204,0.00726652838487556,0.0050368398926460755,0.03422306474825058,0.015145037449084284,-0.0017567590391065102,0.02582955576851921,0.05362775713111797,0.0494433543261638,0.10589687669181418,0.08472343304895298,0.11149055369008576,0.21890264331391893,0.11864129113518401,0.02119406717126336,0.0782663936210762,-0.026186624761048077,-0.0477014128390374,-0.07765874988357968,0.1259004518796938,0.34490939964444345,0.2797372496242865,0.17162348527238147,0.09581395338951716,0.06545322079891008,0.03773576140671624,0.006254185893631026,0.03851190855741916,0.015398260106890285,0.008678676232398087,0.027184850870952373,0.007008982432616452,0.018845053913907714,0.02619274437736774,0.028943621156909193,0.08556519521177881,0.11078093148833067,0.07939823073863105,0.09373956899064301,0.12914116980192297,0.21201652213693703,0.03886407302023552,0.003988111600435948,0.002428582901537678,-0.15073324475755634,0.01487535035458919,-0.14542043227645882,0.2415368414324116,0.37261595651930013,0.3199214061738423,0.21745338037144155,0.11575949044442274,0.08824948013539258,0.04524777600210715,0.026390049192359908,0.026148721093922404,0.01454861150190454,0.00124063715533393,0.016641997632598767,0.03194338525848843,0.02076016210807483,0.024149708112616877,0.034246097624697214,0.0935868371793152,0.16374554662117108,0.1231263991385253,0.1375236354055112,0.05906830695499459,0.04994151731681886,-0.07154733896132968,0.20648142402083933,0.014040863301486016,-0.2142567467995792,0.047331956740378635,0.11748459111438805,0.35355135950485395,0.34292544941886666,0.2733909978535506,0.1554711501213285,0.0743630125774772,0.08752396139786374,0.06547229721796274,0.06102714146700379,0.02242842128072273,0.039464872812624605,0.004487224781564181,0.006554841108965148,0.02531828751425697,0.028522160059216713,0.01250358763733522,0.04344976885749169,0.11388364434251376,0.2519191995016988,0.22384623517000782,0.15060393686987414,0.115671946865505,-0.11635675635548318,0.10325344739454008,0.10134755114552413,-0.1145794679822789,-0.2111381847160196,0.13815349518368542,0.36281785055094906,0.4135272501576777,0.2709804490352154,0.15032888723718432,0.06390070105723096,0.007421285335164761,0.04973406947284145,0.04261312964968642,0.059036915505742,0.05649666996152367,0.013336812774099845,0.009937607226740587,0.03595339742944253,0.0009275407306867883,0.007316151601382921,0.03412726711267527,0.056990707990168775,0.19010062740382094,0.39120182688296223,0.33335880002631907,0.2608677219296836,0.12413150198854342,0.000533496707106627,0.04589014492186352,0.028190827009123138,-0.04251112476145504,-0.019400852281568636,0.25806901183424397,0.4025515670292697,0.20893902419998006,0.11453435651521968,0.01444007746230587,0.022198986803393578,-0.024501953005496725,0.03977709541893097,0.021749652567155237,0.015702160586360477,0.005527450572540498,-0.01216989635715139,0.014601746190802395,0.022453000706366022,0.014189263134028744,0.016363294122388457,0.010419739637541928,0.06825093188280058,0.2033449056109736,0.31782358337539074,0.33370996935257546,0.3906508656802312,0.1426726144066718,0.054017196850272495,0.008234859829327201,0.05085827591794705,-0.0059734873647031275,0.1513208626066637,0.2527925695350997,0.1638663484079383,0.09112721220132634,0.035007541618855775,0.003608670251240922,-0.02194078761977212,0.024676800387697092,0.08150212397499113,0.026026931138264375,0.025372503787221674,0.03831401269068419,0.00956005126344446,0.027904249695162114,0.00358626835647613,0.026243963115416602,0.03379883347293522,0.046932625452053296,0.06827958539960467,0.15104716208833474,0.1843517233861064,0.28033733800497534,0.2505945565833166,0.1227779606483557,-0.05275527337820025,-0.17757879696115816,-0.06173688811093366,0.11806346874098442,0.06959887169389821,0.229658447110621,-0.010456187602759808,-0.0050312378024723135,-0.0598052711729851,-0.007183846413642739,0.013666245323676414,0.08154311156497679,0.11827744531131854,0.06547710921436543,0.026649869238612317,0.015632594624240756,0.026252555540116598,0.0008037135152512889,0.028490606842656065,0.027036851749682646,0.05084802782086677,0.03997472958079568,0.01984144864321361,0.049643998715137555,0.0647792176791139,0.16796556630486903,0.14649653720667735,0.15170069934093863,-0.18052803229917364,-0.12019726339630958,0.06784937101632081,0.09325577477083047,0.026925171660802147,0.05974839873628693,-0.0395892067915301,-0.09588113354097712,-0.1950877666012213,-0.03290070483078378,0.0896457906200952,0.07977682446991918,0.13555294879739915,0.05435036357883374,0.04783745158655652,0.014917013899530922,0.021647785841813712,0.024742777940960883,0.02901356341546648,0.030464015125439413,0.0366344884675986,0.02201046647053904,0.023901061610812027,-0.07806860766036712,0.046232023687264145,0.08456344173692534,0.10727080897853931,0.021747296038426366,0.008661895774654437,0.06305199699376077,0.13946432561958982,0.09305129372927115,-0.04314608185847273,-0.010760721156368506,-0.336616198678504,-0.4461545420220337,-0.3824431259797503,-0.11821679431234565,0.005659783171966243,0.08703188940699905,0.06905751274713463,0.026630557312893797,0.010239161035145489,0.03166104679962545,0.02069256638002702,0.006688930880666412,0.033515876776059175,0.026783855369026197,0.02602362096544324,0.016508835505936226,0.02125801289289184,-0.0895890115143833,-0.05861421505850133,0.07905692957136098,0.09594754499858939,0.08675102398384298,0.019863272199645433,-0.03225457182524713,-0.09772825502650974,0.09573894358437472,0.07774641633139809,-0.09828114463867808,-0.2945080960071943,-0.4085420766670045,-0.16322323194524796,0.044948283016401566,0.09695035152769825,0.07155853626635736,0.030287042759279594,0.026719674167836716,0.011289442315657252,-0.004961563818520193,-0.005862311164770294,0.02441101763058795,0.03346534955050092,0.028646662020418562,0.02608816463733789,0.02526719754052863,0.0195573583222113,-0.007988985404674062,-0.01560349912754474,0.11061249002301518,0.18230923293178547,0.14172986968794915,0.17645115105381107,0.22750053101534348,0.21389081889352948,0.26976515805955564,0.207243782546891,0.2244544024570747,0.16208843551772076,-0.020837501173205916,-0.004975314811406098,0.03791011245715399,0.030745089709652618,0.0076558609122016645,0.004706129510015232,0.010720112840013313,0.01724688963335637,0.017671754784265453,0.02070697439727349,0.01163425322095553,0.019508682408937168,0.0017966067339172229,0.028503739146873253,0.027851018804797074,0.014725456917613691,0.02553645712214912,0.043972467082745284,0.06634053384627821,0.07753032597991973,0.08838517135728097,0.19477172552955893,0.24733608459766515,0.25328194210403393,0.2721373009975324,0.25073892958307425,0.2589936875191832,0.25321013585533353,0.16784420743977155,0.0671125034924039,0.06981545114479258,0.030531353402312274,0.029428284838833953,0.028543771236244388,0.003002827967610654,0.03250493615688795,0.010199778217443552,0.009568093332353525,0.007740558174803069,0.03341428982512273,0.01147954609469338,0.0028686466439349118,0.03573825144254133,0.015141691791519425,0.009150201829051813,0.018601712161881327,0.0221885534774733,0.027679385754965525,0.047488836265016925,0.053215372942000815,0.0844712618502706,0.1275382153552649,0.11664620966475496,0.11128915738900398,0.09408784639182823,0.05003177486329661,0.07112455606136052,0.061909466326116325,0.05639414737034411,0.011027907861936638,0.025573352989496822,0.02230140575353533,0.027702040316887725,0.014127941245101503,0.03336261012962882,0.0074356272660451705,0.021003962839885686,0.02577650591971803,0.02864476564570048,0.006257403530534111,0.021798987436868256,0.02322963654273486,0.028482237226414957,0.02294475318153906,0.00398511645551425,0.017679701003556664,0.02452928157823147,0.03662665943446945,0.008170831389178,0.025038861407694978,0.024751844476359794,0.01825674058914627,0.025081480779162734,0.018457848827452952,0.030181396530190304,0.020162210142819905,0.01996812584071337,0.004321857303734767,0.02266808213834434,0.025141478086191556,0.00733193945073809,0.006577822494631664,0.02118268416353784,0.031842829340460864,0.0319740839909313],[0.0016915332037808403,0.026914622797039236,0.014972076479154208,0.02199905774908541,0.019989833130265793,0.0324736193992738,0.024701777687831723,0.03425320417983555,0.025192924643957986,0.03303061501878833,0.017641017049560576,0.03203510158872108,0.0346096062436284,0.012086134303587404,0.002261656876509121,0.015281625907802177,0.03319174013343392,0.01119374899501451,0.01783490503611947,0.020980433586437492,0.002509521458249651,0.025637729631499327,0.026735949090798367,0.01802451498347713,0.024532005478768684,0.02184366199435724,0.01073880493140404,0.018144664261428363,0.033917023632460304,0.007248189880677333,0.017423002781683287,0.010133011128681544,0.014231231433226348,0.013560066893411542,0.034959108117109255,0.033292667001557114,0.03436616512362923,0.025162013030456433,0.006729390679383001,0.005603578053233935,0.014343324745439886,0.026211527127512773,0.004160520628580844,0.0015649494664924707,0.021011246144526093,0.023616289717719438,0.018695238534739547,0.03404473265283357,0.02105231500735447,0.02511970361453734,0.03129192385247144,0.0345454505321174,0.0060585960285424656,0.005882501436210068,0.007196222878056079,0.006022662765572007,0.01882298341160126,0.0006063821596051867,0.005398970735590415,0.0007165772602959452,0.0354744443178452,0.023874071309933038,0.013200019454222181,0.029078613428806237,0.03473383158220617,0.03047189832397996,0.04267057331330598,0.025596610656989073,0.019627347050891135,0.03755015094844148,-0.013479763773663047,-0.0034865593021844005,0.02987890311891253,0.06407490150496445,0.029869484335037826,0.015620326039302218,0.028108986117560374,0.03056244321266337,0.004748323248481615,0.022029356757238695,0.028766691660318717,0.02761866668811824,0.023620701878965256,0.03438070796182608,0.016823168972254665,0.016764036093660856,0.020902498803788822,0.0037756397689100306,0.02798204366504437,0.03597133520151284,0.012901234871662243,0.04375983456157588,0.05643843793953825,0.13877249756014196,0.17148303397104067,0.20937608322559714,0.22685549693108237,0.23223756806680562,0.2534495653438152,0.18566823455229373,0.2079623813491961,0.2202671926908865,0.18700866601953964,0.08675614757878622,0.016709624971518674,-0.021338766765812308,-0.004121146503472665,0.014906457942411548,0.01958391362005084,0.016324121357216656,0.010961060371034443,0.012715608341301532,0.023457040778419518,0.017465353287009263,-0.0027078706902055496,0.004777475986313994,0.01307348194851945,0.03967816757834026,0.0345590124933727,0.07979240272144864,0.13529862371059548,0.20429365251154885,0.2098220933083103,0.31709886461462516,0.33598621299532505,0.2772220777119196,0.26766897868987555,0.20507549696085725,0.17549373932207482,0.22102692015382336,0.16238828969682145,0.03556517182393945,0.011139510389733586,-0.04997439149452327,-0.05240417982123885,-0.055131575117032164,0.015530818015740052,0.0438730335580647,0.033347038076932956,0.01844312424153071,0.016468195896301552,0.026995002774967795,0.016505278642428567,0.014381733079300425,0.00929369101658207,0.06757200602756215,0.07306339887992057,0.11790901179058795,0.26139151769499835,0.3502665759287615,0.3335008224714188,0.3166695024052141,0.36287452356760946,0.29371112463233817,0.026038924085930552,0.05744667083779936,0.1688407990146918,0.37326275889238814,0.24738789408160103,0.1294657653545222,0.08662335575131917,-0.12372552314448447,-0.18725521582584123,-0.0701083301204055,0.0016430403317821206,0.0902462332975651,0.06214262243763529,0.017733670774061076,0.024806130158500504,0.01771432535385798,0.02525646995112979,0.015581128431192767,0.021028138531046646,0.060223319577905665,0.12518727209960667,0.19602157386819002,0.3097796085411375,0.32763251448621467,0.1810037806772971,0.08953312331895866,0.19603286770073386,0.19232504871917638,0.10136861499011551,0.1806886212637498,0.09395146857963675,-0.012891567494869194,0.03937185014984937,0.06129070897228089,0.05295966246288884,-0.05493385330209188,-0.023842420852514562,0.047138087941807495,0.12945456551926357,0.1319530900423425,0.01594526492531568,0.02011419436282992,0.029199091739809318,0.003483007913862203,0.030384371582192194,0.03461185628482726,0.049928935549030384,0.08890004649398596,0.1493521996978573,0.19095073130215082,0.2103763273676729,0.2071056273342218,0.1379207340268468,0.07765992908682534,0.03095817216304508,0.13700184312470962,0.05248034163051315,0.1665493822634565,0.0272386784246411,-0.1640086029858199,-0.10352973010719023,-0.20970608998150148,-0.039525899601101644,-0.019177190526430986,0.015020372646187335,0.13275182105647165,0.23574157931289394,0.13478046106274988,0.025809071140676956,0.018363202943640244,0.034838630875078914,0.032942151386397736,0.03103935541302196,0.05002875767778378,0.06599562969870579,0.08352507936356056,0.13527088783788313,0.18181530160492246,0.19757674614596313,0.2205463002923573,0.18212347743766952,0.0802308479964635,0.10006812718467543,0.04398303367361395,0.061905304279273946,0.12741159540593935,0.15425174889191257,-0.26258849886425983,-0.1803068450621699,-0.06898877795015158,0.007210054115148594,0.005286409311706197,0.0637589748350315,0.24999975653236706,0.30334322413723946,0.19098878630056115,0.06606081798487046,0.0082149541996509,0.00850244755676333,0.03900161970067473,0.033120398012440905,0.05434598593735648,0.10303467425748351,0.14382665680211926,0.20818435049106024,0.1877478647658006,0.17026952139062743,0.20126244092904813,0.1790698819867467,-0.003374739781012884,0.16503144476137557,0.10057774394249559,0.0790911170802297,-0.09533528123978799,-0.08949303274614658,-0.022220465473367666,-0.058767238099228084,0.12685295059026044,0.08011577583419727,0.06431585922661245,0.17330174830119996,0.3546181773073023,0.3765388438883321,0.21545370224342494,0.05928337138057561,0.007494311976072803,0.012911939361793969,0.03163098638594709,0.03589602412080013,0.06791110984357636,0.10859942605519604,0.15929119355969484,0.2472138717344971,0.20741143698682482,0.10718655838057248,-0.017697326183758497,-0.06159509192590878,0.031502906387719486,0.09495388930086791,0.1287569324653705,-0.11712323786986976,-0.4275008262352032,-0.19466303331107657,0.007909300081030983,0.06987052668902531,0.10979771291141509,0.2164701063633845,0.2529408014785068,0.3309678846737089,0.4051412706766655,0.32186047599560114,0.15538238855820485,0.03950561965774827,0.028825173850936723,0.01267914574622543,0.02933876712468894,0.058371285492846835,0.0931966640962804,0.09025635291503947,0.09894234155935194,0.2127418783746579,0.17270041545437564,-0.02644567751405075,-0.1682619243498841,-0.21630991066063482,-0.03800261400897097,0.05494451640502534,0.05265626463984673,-0.239321692845437,-0.5599021327493953,-0.3423289152670836,-0.15827181683601174,-0.06435184462185335,0.009711073793997134,0.1429649351509848,0.17834813779708222,0.23916181064105527,0.23725333624295603,0.18222128214328207,0.09632216324089425,0.03930630237215987,0.034507694501065035,0.026723563213677415,0.024318157815368918,0.04443991980433898,0.06331509626600508,0.07593387204810184,0.12494097639395059,0.120235833546459,0.08265810191263145,-0.04148583599755784,-0.2460314921018302,-0.2986132471584207,-0.06813601656745698,-0.1485987953160638,-0.09262341678135455,-0.4286872667528824,-0.491361962211243,-0.5656533615012433,-0.41441315424141906,-0.26232959943229334,-0.035222713204768406,0.10537305682153084,0.07467140991378966,0.0826863932832964,0.07774998565844511,0.05099968287576854,0.05080686515307809,0.04653610145944711,0.023141584740560876,0.015391429579757551,0.00984743937079816,0.05091404311864409,0.04748840965089014,0.08857557156590672,0.09794605500296426,0.04889640920166153,-0.029116359477946153,-0.10598969536462201,-0.2383183288648097,-0.24927549851042394,-0.02658933943991447,-0.07693008574267184,-0.05327142990338539,-0.4904887623906884,-0.5750700779577437,-0.6079957762259062,-0.5538302211642598,-0.2535770428364631,-0.0038127547247910226,0.07358443707352079,-0.00638177605030675,0.05304062933695573,0.06530145138083131,0.06352596059312844,0.052037867587427046,0.04988553412351335,0.021128261657882695,0.027854341906680617,0.034875114254968316,0.01997803000997805,0.02755659386111133,0.07428518984769283,0.07273144270415681,0.013653082029056964,-0.0618468070019151,-0.09374437394829584,-0.1294505238393807,-0.08736380480635278,-0.06745290384509828,-0.14043048337521297,-0.25884359814942637,-0.42092040280602794,-0.41789814077485254,-0.5696396712816167,-0.456632878335316,-0.04758093811696997,0.18818172408762454,0.16429194531780522,0.12100234240418654,0.10726109235977441,0.0744409940284134,0.054827297948309615,0.06741352569681225,0.016007322246802562,0.02264778348569616,0.03075052723648017,0.0020160637243071045,0.013005026201737322,0.03855688381359234,0.031611126358792256,0.07079437267891292,0.07226327205940142,0.055039724523146386,0.04885244842108621,0.033747132095985545,0.0470378826990478,-0.17176218394176104,-0.23309230860101648,-0.263442815103699,-0.37134749346611096,-0.3192940570345914,-0.5822055611849186,-0.2166162467337085,0.17952860911373136,0.30749765068134083,0.26785133031616315,0.13463083789976163,0.1301671337839925,0.11019572924818853,0.10718205289553884,0.04432053139163961,0.03419480027980922,0.003261908330609419,0.017886171401661183,0.003953871709906108,-0.0007031959227667819,0.004129193128200482,0.04320928366563951,0.11796108346428515,0.18341849844483213,0.17565827841083398,0.25039987410890674,0.23958822883870362,0.1932757234548212,-0.04495116723892753,0.17440870360525734,0.038128002803186664,-0.2505011476074121,-0.23864960698562449,-0.2338157525082712,0.09630863049950913,0.31040888991094406,0.35596655705289715,0.26895493238104673,0.1818412606764151,0.20813665561696879,0.15839547564167994,0.10879930658051291,0.07584209274117285,0.033239123159364316,0.02779327992796743,0.031034759343340077,0.021606264156171198,0.0065232929838690765,0.03331673140291754,0.057043658315213845,0.20454896878745885,0.375849199483622,0.2676824564326152,0.17846678303440092,0.23148888042651172,0.157568534177942,0.30360604904917354,0.14381246559202918,-0.024311599221898034,-0.1514435842489479,-0.06307006629180271,0.19602928642717726,0.39641261014908646,0.4011429473298827,0.3647468067673609,0.2647422433535144,0.15174456188730182,0.2046645107926406,0.18868048377489363,0.14123527229135957,0.11723823462047483,0.03556958367554958,0.02232968162492621,0.024378533765434782,0.003323661240121909,0.017004177416099657,0.027337572880665652,0.07686325569399081,0.2348467508874868,0.5363305758060373,0.3778991472505555,0.19845006615865132,0.2111067317591152,0.2584029376420592,0.23262831906541537,0.20544058231764054,0.09759393136796782,0.04536082944295682,0.26244079378007823,0.4261905242599934,0.3774404315264857,0.4103410181797556,0.32977908787284566,0.2929021076605841,0.1844651618680969,0.2062724814898254,0.1289703388142691,0.11153883362787223,0.057016755386839604,0.011358432236912172,0.022630378317689423,0.01282405322095733,0.0259884758843286,0.03823599990982732,0.03017474572729273,0.08097913329679222,0.2582563898805249,0.351958008332207,0.28196585027631005,0.38057715062038067,0.27557704263428845,0.32448326899734536,0.2849758767629308,0.3152385665429362,0.13459840552021526,0.19605154286189622,0.27067037770058133,0.29953901778412917,0.2986802909532815,0.3573105459855984,0.28449622163620547,0.28649654842849925,0.21056492700078086,0.18824559533454394,0.11091135072049661,0.07483741437763423,0.05345654554848254,0.006594074958497974,0.02493953907609185,0.026281114818402007,0.004836728069142159,0.04861612486626296,0.08266625649222183,0.08714201447430188,0.15749623843284427,0.13877396940092948,0.1993417381172809,0.20733601411923894,0.2488102371927859,0.26224298851657873,0.17173278077061988,0.19606354754077893,0.1671729216567402,0.11955710373223451,0.25442443406610515,0.20591268961115333,0.2667777394811635,0.31325062691008176,0.30176590741788767,0.31485489663091115,0.2454894646749135,0.19025560770073527,0.10855455678495268,0.0558794925698771,0.046512458335580736,-0.0049613631154682165,0.01646601655846658,0.030755168205813074,0.013994400101112046,0.022372539373286218,0.04951567346416438,0.07608199338119803,0.045447773950881766,0.07766475169214174,0.11226668721862038,0.04947257518073297,0.1931230268829027,0.07491545625877492,0.21980591313805617,0.3403653101713147,0.25973492904011114,0.17792961759666043,0.19419608723559476,0.2778528364844377,0.23426847495319408,0.17271955600136163,0.1959773305432306,0.28311598074065614,0.2130748898015343,0.16163566923603567,0.0856258156668011,0.02840555560185563,0.0040027270313021885,0.0046730400504900625,0.0015650238256990614,0.0022076284431499127,0.023350528860520487,0.03958897025761454,0.07066436873185584,0.06374805062382427,-0.046165502182183266,-0.008282878594780222,0.0037790859969382205,-0.022935776792312648,0.035926284250162074,0.14578233297158882,0.33876124469041546,0.38687871679575014,0.29719586211124027,0.17044455753912663,0.19656882913921425,0.06602170858207233,-0.06589954274262187,-0.11597674276842891,0.040711577581733056,0.10854115181999674,0.14982367675606917,0.08605500850928922,0.031321000973701794,0.0023419064915664567,0.005850536753379213,0.01701288347967814,0.023257646527182402,0.022164611649621795,0.004151034128647131,0.029055184758750425,0.04741755998427359,0.07823066269396343,-0.05047656254452216,-0.082407265381673,0.013688193137178159,-0.06107540897031101,-0.017025111500608883,0.03116628945349177,0.06894751184779156,-0.0580723344162124,0.028263819476558164,0.15637936207106604,0.07187677512651326,-0.028144283091582806,-0.20572521479717187,-0.09925010157606459,0.03525816593505061,0.09121359497234029,0.09750066551369428,0.02073540366455937,0.011777416416705712,0.028067084575863988,0.013471147350931642,-0.017523981838302664,0.003740534718952661,0.007600372229321354,0.032255078192005245,0.013744638790843316,0.04056758106225348,0.04200967718138904,0.00906607217815972,-0.038392594325531076,0.012595356696990944,0.035977195683756825,-0.06668350278010145,0.07234422024356993,0.22774879214215346,0.2488805064463977,0.1529322524704909,0.17880181617980107,0.12493475438690692,0.1841899904590107,-0.04436135456895376,-0.09139909997250116,-0.021416130332520798,-0.013743500915437152,-0.023475246799549754,-0.00883562694280007,-0.013027454772863342,0.026422351393470298,0.011487319769934489,0.02280469669728674,0.00874283381088676,0.027635154394220436,0.030367971016506106,0.01969009414092302,0.013781837524843715,0.011316686009095387,-0.011908574608018306,0.009738747469109897,0.024789795558475027,0.029389000533406498,0.06964900873823476,0.2045900177601935,0.26307535667065707,0.2759772084069102,0.16279899831999073,0.14347439428109862,0.12128997201177057,0.14194996765174522,0.1239238261107209,0.05552530392678241,0.03362374355013281,-0.015699112568500363,-0.017462859223425834,-0.007076716065325065,0.01878750636778002,0.008682278469990425,0.010407710974767554,0.016547055428083424,0.019978228199876276,0.011817164405897735,0.004224852888028398,0.03420013082629297,0.026614590309027283,-0.002773625355554924,0.016717642262802458,0.0020268491727808806,0.008830515009573653,0.009352744196885057,0.029796855297396004,0.07165678011116412,0.08550562081915725,0.11837744927901807,0.11484717913038082,0.06327899053305704,0.0673578479956765,0.05986654852181289,0.05692283453557681,0.08351696728985601,0.0655378692536789,0.0375061938832334,0.0360908762304225,0.018945282854007407,0.030758108517667578,0.03087362947658508,0.007047544269083813,0.03216346689055249,0.029980578630800035,0.03295820466390397,0.03130131897590345,0.015747442783326997,0.0273042164716003,0.007551195991590084,0.03563954435707119,0.0056724940622087045,0.03165962228156931,0.034562529031777936,0.0171991164044758,0.03716906872962164,0.03933614201560408,0.020334449640483997,0.01969887927503398,0.016664623750987085,0.033222703100211366,0.011796683299105815,0.033847177206888415,0.026355438083586633,0.035472358549623675,0.00873155065096369,0.035289967053537666,0.0334803718628626,0.031699376792793686,0.02363364460995106,0.02348498738550227,0.03536358043783894,0.008578080822685725],[0.03401137409419772,0.034396774412473616,0.002607661032562452,0.03319658142447757,0.0024525307458125234,0.0043506064066961,0.035482832112932385,0.003967463920812098,0.010299617357338253,0.008501586792453029,0.011670551770305975,0.03488579640806121,0.0027169698362007485,0.029779731747944085,0.0090870792303641,0.009230936884105619,0.027198666941285136,0.005104910656231191,0.013784670481771042,0.015187089639456966,0.0216780883234278,0.007310432046832206,0.01406150543746641,0.030347860437291294,0.0017867628742585437,0.004181516103106337,0.008715093922670543,0.027533786219464618,0.014507845523995255,0.026436925464305285,0.0038489688901570435,0.00778119720363331,0.005582490457483654,0.01717148932325094,0.014337558850822116,0.04520569142976575,0.03638531218452925,0.01724383877170846,0.031066477309988686,0.040485667712737,0.02733604090469307,0.04766238873336185,0.013607705123892975,0.014629437733053164,0.025276965304250797,0.017575358671301684,0.01136896807075725,0.021347851889747152,0.0208413871845683,0.035913195350631755,0.02028303895639268,0.028719037101212364,0.015024639328081133,0.03366929790504726,0.00001958695731765373,0.022703065732890406,0.021334623559521888,0.029557240487431365,0.007850135527968602,0.004330018877295886,0.0168625272416437,0.015731775789962238,0.013895838881996197,0.02555255661967476,0.036488800329828534,0.06247197662685268,0.0806848871628842,0.08842830027859948,0.1046103359819443,0.07741268401162373,0.06397518434457901,0.055457136543972024,0.05267765644925645,0.044473531324333335,0.027518097606926,0.020707718877883387,0.030979717645132864,0.03315290510234888,0.012820179630829152,0.011977578561661642,0.01116708478375027,0.019043767407328084,0.020734630808639798,0.007081713761251536,0.0037614351368413118,0.01120206914068734,0.030911263453671876,0.027208527631395224,0.02684295476655886,0.022057961641803774,0.015810155924840235,0.03653569297885605,0.07783589968687006,0.10040462232412667,0.12488535048685158,0.1235001232229189,0.17251476091604068,0.24657702593970907,0.24045209142878615,0.22101582213457746,0.19060117086048295,0.15777504582931817,0.1296184921738518,0.12894515294059125,0.07318088190364075,0.052185812112026386,0.03055350945725578,0.025610548560535983,0.025047600729212142,0.035645529053145206,0.006379113977302969,0.02026708322012531,0.02394355655497748,0.018334032560667776,0.011366034730641364,-0.0009912297923617697,0.004498274871411367,0.021860585245516352,0.06532133102059033,0.07471466929339682,0.09482119814335424,0.09486247104646178,0.11308565294720206,0.10321563761872082,0.05401654607173381,-0.014038948847015717,-0.12869475728491453,-0.11544936894446522,-0.0963182373484892,-0.020200528481269714,0.14908321384805856,0.059875502004553736,0.021803077928409166,0.030458852015408096,0.024304731649822744,0.022039898805110106,0.007663048303186762,0.026642982848002605,0.0334419450083155,0.029626029646295477,0.025674886051544006,0.0022547393525413906,0.02741053253886625,0.012637214039307884,0.051010785957993354,0.06396598797577784,0.10118203242566876,0.1003662769973507,0.08122413996677605,0.058223162920826285,0.029978583044602873,-0.018707384523677192,-0.03213726759850581,0.018004760864376954,0.08643462784753372,0.11285688381866564,0.014347911851645197,-0.13298100999782078,0.04865921834704926,0.00608946334596849,-0.017859435821905138,0.015336116373701518,0.0888778771639836,0.0793675129108595,0.00888563045871758,-0.004834155123332451,0.008029203789716593,0.0065433126424681775,0.0355111853517903,0.01884575777273283,0.006797947334481049,0.02801282459031897,0.033801704944855064,0.02750670797391642,-0.0195210281417559,0.01058448431356919,-0.0771181096886859,-0.14433349831390194,-0.12946806638306532,-0.09136824802700391,0.08235740449340447,0.2460505763691638,0.20234808660885964,-0.04218306623251394,-0.2194452693692714,-0.3684214406326087,-0.29094351527875123,-0.13412478199090444,-0.015735049343536412,0.04066936550617901,0.23672181596407207,0.1863944793643778,0.0668863642695991,0.031842979612818706,0.012506222838521161,0.028495443092008833,0.018086329483026728,0.00961379344413302,-0.00043601028474768937,0.0003902259692535494,0.012909549308212075,-0.024707619500641875,-0.04423995500478181,-0.07134140739228051,-0.2696334097149982,-0.2914542710314529,-0.23180334118210932,0.05300382590034941,0.267096029133939,0.3863276112018693,0.08250090407252954,-0.32378072500235117,-0.5408074486193535,-0.4647952866433714,-0.3209777078617016,-0.07467445859559213,0.12565768171009198,0.14621526793175246,0.27774954213185243,0.26123819513357505,0.14400394172098038,0.015718156328741337,0.01385364671118699,0.03219644071648975,0.018440193838128057,0.005088661047833313,0.01771186315697261,-0.03195455360503713,-0.040958176710105904,-0.05839758837146608,-0.12527831105300385,-0.1384562642532244,-0.3040136293541428,-0.22321677062029954,-0.10581512269364877,0.16449897908160996,0.22864472789542795,0.16998518563983095,0.027908893019428914,-0.20876479795734795,-0.4034328123323765,-0.2903550497175217,-0.1854670287025455,0.060154748224495645,0.2318208613132046,0.21210990397080326,0.2750335018898121,0.24691501472223779,0.10398926155107623,0.03457983003401489,0.013947380275342279,0.008768900759502025,0.0262088058027684,0.010223994598036926,0.00170129431353437,-0.0824554316683859,-0.12403022872699132,-0.15579677177830165,-0.12431581139758666,-0.04764628932452357,-0.19622356443593705,-0.21629521183794329,-0.09458314219480965,-0.0031544785912034005,0.006179498007587839,0.16230893449947983,0.11769478601303329,-0.026566595431154673,-0.04044636297482416,-0.11253851352188264,0.0318946050647016,0.13144791752731602,0.13529422611841455,0.1406424502593932,0.12464497468243092,0.042653163841374055,-0.007739686260300975,-0.0113389935322961,0.0004811223119684664,0.029752662248513282,0.009977640775105906,0.020787159776930457,-0.0021118856489766662,-0.10345991218426391,-0.14455953322804113,-0.19210154683009573,-0.15069814241729843,-0.11713597532546226,-0.1799716325926795,-0.20999184599285725,-0.2627093979136076,-0.2637058951803037,-0.021041067158143262,0.15521040667643532,0.16486431243942265,0.06568255007620591,0.003996935652699195,0.029122393406789654,0.161365475400705,0.1258853499245596,-0.09185339046796488,-0.09208248057589306,-0.09965536554897386,-0.10622728655414797,-0.04208342756026053,-0.009169306667672772,-0.006383364854084016,-0.005115508327255021,0.029336796240030643,0.010955061902256546,-0.03592157139031827,-0.06706372682756438,-0.14617231948806808,-0.19982350304963484,-0.2803314291646904,-0.37708446454386746,-0.43113556223157773,-0.4527264327196043,-0.30755627548157455,-0.20212190519007603,-0.08049142627676464,-0.040810587830518164,0.023354714184578476,0.0566895845365452,0.002194609717484013,-0.05253258222228941,-0.017540599375968635,0.006856379238662045,-0.1827698762407831,-0.19928866928949746,-0.17802010312510946,-0.0812588371236419,-0.031570982970043175,0.012739033501383498,0.017432385385439324,0.015067309789775968,0.001334730254775328,-0.005331252319750911,-0.029714827273459893,-0.08846216723553972,-0.18660641887641988,-0.2488383873832177,-0.30499064585438646,-0.3592170561772402,-0.42091110867387554,-0.39764766039585875,-0.30863111294905843,-0.1929458235849138,0.15007291705218753,0.1186979298270314,0.10382921531288818,0.04546829512129339,-0.0014884940549295138,-0.07859047192998592,-0.004723266570379211,-0.0469017444549104,-0.14419919383771437,-0.12985257001643832,-0.11787198117993519,0.011928306753792287,0.08521560199457086,0.014104302905800968,0.010791570196190552,0.006883637218576848,0.008920856331732297,-0.002112251707824633,-0.023087662280723863,-0.04218491565934393,-0.1808443078916624,-0.22028193148115374,-0.13618821532777645,-0.2665818855753429,-0.2750593457997939,-0.14820626521226635,-0.18411130981753895,-0.18778378748263255,0.09461420733575812,0.0853134608733927,0.13375929961790256,0.043016130215920344,0.08140211551920912,0.10876481033588042,0.039194801210106614,0.021530468223608525,-0.06441168208471208,0.020550140577630088,0.03174246076093764,0.15651129066225916,0.14597177836106803,0.01864914299208057,0.02390414814571893,0.005293350906848319,0.01988333021350691,0.03229086503338774,-0.0015680565939456832,-0.004576225823989472,-0.09564519939777523,-0.10794322638679922,-0.1150636881718005,-0.07581183207897843,-0.005458290710084443,0.016601969667586654,-0.12932248557245715,-0.24512190126024155,-0.1838135634198453,-0.03839793525511328,0.06484849416594758,0.0281728160295312,-0.08441206080002478,-0.12555428262305815,-0.0533018797191191,-0.10956925357804298,-0.055537173666605336,0.008422521231580117,-0.0004957303629992322,0.0904969660487386,0.10616030829570301,-0.009675545621762077,0.015773498566201707,0.011588607835287605,0.00631698172859925,0.02950579881574141,0.02769343431644639,0.02650038285734889,-0.02810998421773698,0.0015265482484733384,-0.08901275862352527,-0.07418250640509602,0.08116428262900299,0.10232197585722423,-0.15421454628638506,-0.17424748878826093,-0.10105945978733968,0.08821528370552328,0.1400086558873966,-0.07616162532128654,-0.18003640299891843,-0.4030643465761212,-0.15508281947434718,-0.13343282008363674,-0.0865591325674779,0.004599544013275295,-0.02881234480478852,0.0039530071771036335,0.013768767813225228,0.04827268776533735,0.027881011145287588,0.006802984660346624,0.02550600324523044,0.031957102088195126,0.004715317534788714,0.02491980627100338,0.016395945994826723,0.06750381445100799,-0.02431600606213204,-0.1293052875015531,-0.20041734813580955,-0.008341238421013447,-0.11483735151809156,-0.08325713220856158,0.017944287837186053,0.17243524645959374,0.2264269850762887,-0.064176289678106,-0.33183425104522335,-0.2702912874040904,-0.009230466229333559,-0.03662980138950894,-0.04292510386517736,0.0044128290019853625,-0.01686757805029744,0.012490669730366203,0.1224345716146771,0.14821532908458857,0.015078384787839403,0.012693942906712484,0.012363362874207529,0.00527277320367062,0.03471817656655345,0.06033919783349716,0.14024652205836305,0.19882493951540206,0.1963568068966911,-0.01743948956313377,-0.18363650713446594,-0.07900104781445492,0.019666818036297905,-0.048178911622909514,0.021590656019459847,0.10797206174507386,0.23385129310299427,0.009079568573228173,-0.1458533945108213,-0.03355646070068262,0.059320081871051415,-0.015603140098236844,-0.0037016160206775643,0.07658296071381357,0.06820821678860332,0.09895611653984437,0.1289441357321063,0.18320431684050684,0.03649765407959292,0.011820497405777638,0.00306725974980431,0.02462168861798021,-0.002794482125105621,0.07819770922135597,0.2019281922134921,0.3004436228802027,0.3044029503853257,0.24790499615854242,0.11440591406867034,0.07911067453141653,0.10915174492653539,0.1437490360206551,0.30436133073011185,0.16986775499441256,0.18854718571699233,0.1587217589602777,0.0561755596523511,-0.0030349682419332216,0.09676083042442521,0.1504119692988683,0.01632493235943716,0.152604137874225,0.1348438508048444,0.23814346763892436,0.2932095241943537,0.17378457391181315,0.022172977892368353,0.03494418438968065,0.014435796032101406,0.021694027474784966,-0.0002902501965417093,0.08355862648504837,0.24268355269985317,0.3344122613962326,0.46351012090200466,0.3739583195642219,0.288574294125342,0.25729611791305823,0.31046014533302757,0.4889120605161378,0.2831360196656172,0.2825464670669081,0.46952293145279883,0.44568558765955646,0.14234921834872152,0.08189300165297571,0.07059437724501849,0.022629766777129127,-0.0630650779985825,-0.0024216570316929874,0.0019907390458049345,0.15450962374680463,0.2278716861408638,0.11474673795570772,0.039299152917025244,0.009174563317339986,0.02035188838708721,0.022439404864541847,0.01337830660560915,0.1000178359525717,0.21509864390025502,0.30018819052658724,0.45886564897732257,0.40722187577341806,0.39812540404444335,0.3969408167668919,0.395696306500978,0.5648097663816349,0.35796887856421206,0.2341188649218918,0.4031766033803576,0.41625899976121605,0.2171358799342683,0.0034908146772001966,0.01792122211071588,-0.08885296754165146,-0.16658125970903895,-0.04725276421400093,-0.03203268211406227,0.15192801429219205,0.1562001139599761,0.03452831434015095,0.024588112230224238,0.035232050698975045,0.015095915566168629,0.01046656559544008,0.028410560678625782,0.0804428677059208,0.14025560927042088,0.2154310803316605,0.25372253453123333,0.2119325560717158,0.34192054601468236,0.36246921983645075,0.3142055598457523,0.4380732935003056,0.2694792193792686,0.24759620684780265,0.32272795771842394,0.3064260219531161,0.01954361482631549,-0.11451123398345416,-0.14746449956734667,-0.06487355508749285,-0.1958756148910548,-0.01590708726317068,0.016042654871223243,0.1290955574916015,0.10051207529931587,0.06565387971020797,0.0161253930410511,0.020976703187866094,0.033272968566962796,0.0058178797135249646,0.03495428283728466,0.05339328968823299,0.11820259677580967,0.17344652187473752,0.21337241506720156,0.21862551077115797,0.20322848247844513,0.27153219872329226,0.2608901029763294,0.3253937165026337,0.20917175648370623,0.14949571888998978,-0.00539712973506883,-0.031763812672614467,-0.16977732819112218,-0.4771330084279019,-0.32236988662967797,-0.04739412120697817,-0.04632770956951174,0.03305200947225168,0.0528676504343162,0.06095850136839288,0.07822499131777198,0.021982709993268738,0.028716757355410176,0.013938698875167754,0.003953962075078825,0.03502263988499628,0.004790949918950611,0.028498246354503938,0.06766758383538234,0.11083109542612544,0.13883781150142685,0.15061273464301078,0.04432336333723316,0.11916328273474613,0.12759603788681095,0.18126764654981162,0.00009279603267479912,-0.17147999967522454,-0.2998627668600777,-0.3476897781956456,-0.5177803403331962,-0.4992440046536105,-0.2263502461994231,-0.011835531713025248,-0.00898241780061408,0.04463898089881048,0.028073218545505117,-0.02512451482530576,0.010851558397434775,0.03712273539588402,0.01833775702042946,0.027889768910208772,0.021802660166131742,0.022818935639097433,0.027137762436058418,0.005449080344382703,0.02635582851423754,0.04074289108600638,0.05413082020930046,0.03576660722479285,-0.0730362957940582,-0.1678707404061912,-0.21323065301520552,-0.14257663597783046,-0.06374551793776181,-0.049590074162630206,-0.07803052932260789,-0.09129596785689378,-0.05048523201066062,-0.13320577367230574,-0.05116770575220489,-0.03750983105433041,-0.057917265588447175,-0.08432498102903202,-0.0423336343177689,-0.02820442926174481,0.032783582538363776,0.05009485009286441,0.024818818190195907,0.01194929294493245,0.003569487728630765,0.019826905039972247,0.027826182650241057,-0.0007441008976619258,0.01775866132113968,0.004775940934668784,-0.038614488486620434,-0.12916667541917515,-0.211145735640369,-0.29574348326291194,-0.3681768039072266,-0.462245215316732,-0.5071386802103071,-0.4123735292159612,-0.3679262847262451,-0.3211979909138766,-0.3296156614018859,-0.19710621743516443,-0.16194049079010894,-0.16232298817890517,-0.1073576970256283,-0.07989597753063331,-0.04369262791490996,-0.03207188845280308,0.01613119889079146,0.010018234413078343,0.014568876109556322,0.0006939913445520743,0.01736827463408979,0.03237260905606982,0.020971890042529338,0.030779013315803898,0.0147337809007836,0.015042035607972515,0.013346140577901355,-0.046186232295315474,-0.09692826822054368,-0.13456015538351446,-0.17465147524264965,-0.22673602228092352,-0.22904318394942008,-0.28107289842266336,-0.3036912722500121,-0.22861767522335144,-0.17521759263148315,-0.14833628798382653,-0.10777438008403256,-0.06855762074547712,-0.03621769578076742,-0.006262224553767121,0.019365798698882993,0.008694211285166556,0.023140288888628874,0.03249963310934691,0.0014580841150815577,0.0318722555838819,0.011278057717351393,0.003395990284939746,0.029452015705857933,0.024278374210838036,0.024661897095316132,0.0047682805812491085,0.007004128413450931,0.018809874701994553,0.016747601465093274,0.014321788808126701,-0.006507224827402091,-0.015450766868452197,-0.025311737319863817,-0.03843979108766972,-0.024502026044695816,0.014663220424482213,-0.0065226049370729795,0.005583257222668171,-0.007989904890010427,0.005536981694618885,0.031025168026094903,0.011635154319272572,0.008893648063711141,0.002504579237111139,0.03435210463437353,0.03248487211600857,0.012935149921919211,0.028737870603986273],[0.030280306008856134,0.005787152223860027,0.010050849065852891,0.009979533945799066,0.0220243529410676,0.019625337378301053,0.0034907461621122493,0.017239923692485472,0.001344359000942898,0.003998400620124742,0.024088671058904703,0.0021756961876625647,0.017825429686820375,-0.0002508327649130901,0.016522751674018257,0.024147616388273358,0.001556421446155484,0.026038123507791992,0.005306574241973053,0.0039014838794656343,0.009693569246273157,0.009525039811847689,0.016748255803735217,0.0082104122028149,0.005512213689263722,0.03354392275816708,0.02513504194372984,0.02361355903391038,0.02902123247922516,0.023510625615225433,0.01564989359846341,0.00834892855577917,0.01979614822208065,0.0025792156230725013,-0.010934210490915383,-0.05891891252850453,-0.10176007825657585,-0.022603271048636735,-0.04806608613491938,-0.09258304888688171,-0.19177664626482774,-0.08323513252649008,-0.014504731634769112,-0.08429421954614698,-0.04954626463958722,-0.017133950901703682,-0.020508737916118874,-0.010377350155345036,0.005810634822699255,0.03040893900391316,-0.009800479291476925,-0.004594945956315751,0.02889434313621974,0.007600144730561991,0.03117320430597475,0.02784189233633103,0.016352310474733536,0.013184436399785901,0.009553451874638347,0.01575596597598761,0.001771140662665063,0.005085922989343557,-0.025246006997762964,-0.10895397574991086,-0.17271372353125164,-0.1647387007699093,-0.2406240551136865,-0.3343547292445487,-0.42086661860876495,-0.399079238062365,-0.2991313980720228,-0.24552844257581163,-0.31414750472401354,-0.18194460301724416,-0.12361474305226662,-0.05567885200798634,-0.01384785666072849,0.024596224620339724,0.007212304205634691,-0.013464088878854277,0.03471649068141598,0.024965801340430624,0.008061751504914592,0.0008365024640683323,0.026182619715188975,0.020708353029739928,0.02487632094466826,0.011369088465872505,0.02564921814788306,-0.008733058656881867,-0.02288712587832708,-0.12928264558606492,-0.3446058233120139,-0.36254714691487167,-0.37429935033876893,-0.44958647169785493,-0.6014499777662627,-0.959317566906389,-0.6873661012609136,-0.5267064358233675,-0.36452982215210894,-0.2066578840727358,-0.1830786504191143,-0.09931169865868134,-0.05841663134627135,0.04245632700964533,0.06782119343519621,0.034992764848528424,0.01693230218280351,0.03383739142632949,0.03383754661004237,0.02178739047798198,0.027098129642210794,0.011915491391909354,0.029166774942604126,0.02092571050636076,0.037027330183646644,0.026377607633054766,-0.030664465932234895,-0.17711668907360428,-0.3438396525314248,-0.39431101956928577,-0.4815106337382736,-0.46159876069001826,-0.7012414022751084,-0.8158174191151942,-0.5885346440336917,-0.567098676743315,-0.2995475714726261,-0.313153910509027,-0.2710813905609868,-0.12829415488844523,0.07159104322065148,0.09281665973269845,0.15171722108723126,0.1729825392455472,0.05363798750130962,0.004780003591414019,-0.0060338804083782975,0.010474695734583607,0.024581474385189254,0.03338766538739033,0.009254585260202277,0.024812583087635433,0.02802926608559751,-0.012295998828085825,0.006823426347214033,-0.10156284800684084,-0.16431378493759727,-0.15507889300109304,-0.11523170935506623,-0.13845631194494762,-0.4178173054106808,-0.1486816469654224,-0.13038081662327544,-0.15535871022041559,-0.29609368364391153,-0.3579312906840821,-0.457223941405994,-0.3612842605302282,-0.11547667626704551,0.0058823496584229935,0.14414332057507742,0.15212243151818322,0.18907061310388582,0.0637495790292872,-0.018069461084513388,0.015532739448434026,0.02638977708510756,0.02567834220642926,0.021614015228335542,0.007323399180941135,-0.02121620085470405,0.02704392819056361,0.07197400625943146,0.018637802510682578,-0.01911881331805195,0.11866975103476135,0.2114583065204409,0.07935367684869075,-0.19820530127239802,-0.14365799819691732,-0.0883555675412567,-0.1559074705804454,-0.05907125107172505,-0.038757127023699815,-0.020286015166382412,-0.0467338133417037,-0.11895816930482753,0.09180073606400621,0.09986277822538644,0.04794932282627787,0.06707982039767073,-0.008182558910446993,0.037029745798316374,0.0178955025558013,0.022460531722997643,0.020009064222784114,0.000652782600777975,0.03248883098158937,-0.02108128387951928,0.06180450759259916,0.17393828013087156,0.2874167737196161,0.1546220480356701,0.1983186449100352,0.07285200782190367,-0.023215073258078624,-0.09329708830107217,0.28012367352742074,0.13512215726450472,-0.2514198128680521,0.2667383539652462,0.012270929901481613,0.07509073448917637,0.026004847869114122,-0.04903048598299598,0.09705874518858375,0.14701061157251713,0.019338459385780327,-0.22797448610763907,-0.16184111603942358,-0.019261274400571606,0.01895616689849005,0.011830303828659676,0.015566808366878359,0.062159964441749524,0.10516905458972857,0.12106563186959353,0.2136989914636749,0.18749574696735816,0.1933368024200158,0.2273167463091723,0.1344117529766914,0.04096986698221299,-0.13454125688636268,-0.1701966037582394,0.10501744713562114,0.010803750366482835,-0.2070778512905204,-0.08230429475062295,-0.1211977380165519,0.07383454299190854,-0.02940495861925767,-0.038515983718933625,0.04347114311167648,0.04891968445125246,-0.08445808625925698,-0.3913232831455248,-0.3246361474058875,-0.0888544064734641,-0.01295142251284052,0.022223376197871673,0.01259171485108318,0.06158019809237685,0.1790779450824466,0.2020910247051497,0.28919988034679,0.02356787574809171,-0.10369796217552732,-0.13793770902771732,0.031790371425863606,0.0948964560034044,-0.0981550148087847,0.22630530926811906,0.31110480137557,-0.3208619957229153,-0.03531616148917431,0.1682302133174395,0.18461206301085936,0.23610543317838598,0.16548589183757736,0.20708806984896083,0.11018190097889023,-0.07214224738350308,-0.3649546385704678,-0.5906351079834735,-0.36261151451371765,-0.05015361586322265,-0.0026787287841308787,0.022208263084359296,0.03763117644024864,0.06152981740724756,0.12289520000172212,0.049350014904724696,-0.040150241496785775,-0.17099965789738936,-0.2482247961767494,-0.15434206824928282,-0.054312262490377794,0.012541489542611936,0.07242587775587186,0.20606918970650506,0.26249667267584886,-0.26050914384310087,0.23703104720383034,0.43487178634184276,0.40136268800288044,0.32728688709618065,0.3905919735970692,0.17216896139042845,0.22237345147688983,0.017845547286464914,-0.3544500450409477,-0.5332756787697924,-0.2837879461864029,-0.054118483096551644,0.010869403947082511,0.005345316001744714,0.017875591593596377,0.023458309974951883,0.0654611755017864,0.03132095220983418,-0.025510117253728207,0.02983299749459288,-0.05306328251614955,0.11649022563964771,-0.0022832495417881944,0.031165776617502135,0.13661203969340258,0.19806521900225305,-0.3195959206726486,-0.4141473680744498,0.4411492969385994,0.7111017082476881,0.49740602842970993,0.5492602167892753,0.3439725913656198,0.3826450359244638,0.2511503096120086,-0.016265288708879787,-0.3171217402491036,-0.47810640274939303,-0.2179431457032016,-0.006640336160405741,0.012021696848065025,0.03300496301461602,0.03120040286879666,0.057146654224348926,0.07803354243200163,0.11493701943812705,0.0018729520051497144,0.21401506816128998,0.2156153864676401,0.2030156883432029,0.10381727862255072,0.18368003356800489,0.30544513900837406,0.04158778947101685,-0.7453411623487025,-0.5503986655597067,0.27679599012909073,0.5510063046187058,0.5624192875739129,0.37847097079987785,0.38000505569478216,0.10382782354466269,0.2188855616757076,0.060736959978521514,-0.2936937576391745,-0.3694929690105051,-0.11793310543165834,-0.04574498765289003,-0.0034595966195071224,0.03394979685869054,0.013318739382524427,0.06859547044547999,0.06397557407643212,0.18981337890850827,0.22944987725215948,0.27184549450595774,0.40864774773699375,0.33843045553705736,0.0003017766497010287,0.18731081506687494,0.2200046721882511,-0.26182935828319975,-0.7862292211441642,-0.2509832796542974,0.22793702263354662,0.17453831492361882,0.5346517507965629,0.19193619638289122,0.2706353384842809,0.19984985247426615,0.15390952325662802,-0.0804534117685485,-0.4039061064382333,-0.40463749588578435,-0.1695482380632653,-0.07543712596600066,-0.002166407990265606,0.03243045047849143,0.018511061097226746,0.050259705456148114,0.02758607261307487,0.23679689620397382,0.3421068052001061,0.5563790921102252,0.5884091678513772,0.39826847079459804,0.15116361208182463,0.0012794142539914307,-0.24769353588293658,-0.3800990701454181,-0.4660836397102401,-0.2890105423597272,0.18006729153728485,0.27733385858275433,0.6480183126810499,0.4077444083656297,0.49454728943183107,0.397369166934292,0.035298411600452634,0.004802002361604318,-0.24876438159663153,-0.30568575754328137,-0.133467828803134,-0.06652060026231058,-0.0008773135667995275,0.026278195335549426,0.01317911596530864,0.016170475442710427,-0.013186486401715936,0.18643040202267686,0.2612009834992589,0.47794104580611224,0.5513171848217702,0.22872638919666893,-0.04332454821562271,-0.031349468108727824,-0.32142755822607244,-0.3158233397379696,-0.4108413414264433,-0.2587165601228512,0.21703478074945778,0.559045077741869,1.039894528807081,0.6010340755666136,0.6223053148559903,0.3314891861567608,-0.06503103281567539,-0.05181348136082002,-0.19802025318117772,-0.32869279604199175,-0.21279570888277424,-0.02362815141483249,0.017892092892934745,0.009035326802778066,0.03087489047439845,0.0072960152476997985,-0.08344880667865545,0.03105983480294092,0.08945037822680692,0.189244806557436,0.4905665855937684,0.5201077833000376,0.06286631561267672,-0.14856339890838127,-0.1628936890337956,-0.05050915653335183,-0.20913598240336947,-0.209329187593622,0.25025905493136613,0.5081587223344968,0.7281143863899132,0.5095627533862097,0.16122703763750926,-0.03237920034423547,-0.1130422890354728,-0.24787919895147323,-0.3886563347374684,-0.35320610473724395,-0.26034328510994326,-0.05933503977003658,-0.0015415983447656894,0.024979759115338666,-0.00004957614875764804,-0.005158794922692219,-0.16909398741465317,-0.23208431221689316,-0.1515911624855373,-0.08409607633127625,0.5317696820218594,0.6349863220745363,0.3121838816765237,0.003027005472099366,0.022691429095632407,0.37649726785123244,0.38641242591593483,0.0509576529484456,0.46802510445024864,0.26228275514703314,-0.1278168482780784,-0.1705535373442544,-0.2898916486031625,-0.2636391872758932,-0.3740536817021548,-0.48735233327647304,-0.48383142082767855,-0.38730450354107004,-0.21205804290461355,-0.09917571383553009,0.010450868022256986,0.007598993299338353,0.004978218638178987,-0.013274873778123529,-0.19873047840051597,-0.3870307839171347,-0.46342106285907575,-0.5166159673207983,-0.2898543245353585,-0.18510593895512245,-0.4062500494016632,-0.38294065919259224,-0.21544728473312916,-0.10711493531197867,0.09369947014898523,0.3236037325030984,0.32532061659176686,0.05698820075979964,-0.40065044028677604,-0.44787757936843153,-0.49914500495289826,-0.3863579994638722,-0.5323874540846971,-0.7018505335990951,-0.7276409157290635,-0.45080381940588743,-0.2353098490973885,-0.009993537978389524,0.0027644242563727253,0.02451440370180529,0.009726351195714644,0.018244748172199367,-0.12011564906071535,-0.3673005932553545,-0.5745564108939312,-0.7010057079836034,-0.9324413186732352,-1.0431594869338603,-1.0300666194773376,-0.8023859156840639,-1.0566793117366557,-0.8775665768474672,-0.48986611219922593,-0.15050845100464,-0.27316178467768704,-0.40539709215527375,-0.18815606169332455,-0.4124055422321309,-0.3402902670400548,-0.4386027805693359,-0.4857125941930281,-0.4685028031097532,-0.5794734133148925,-0.3428067708302,-0.16030150970352552,0.008717644012886432,0.017825233539999798,0.00917784817951689,0.008755521815809113,-0.034905760697593366,-0.10486995516462493,-0.2787959905046598,-0.41127721533493367,-0.7256168865098759,-0.8654556827544193,-0.9135235144742982,-0.7501809097746401,-0.6900331617161153,-0.7969404428755976,-0.8018465752567332,-0.6015730874121,-0.4774586610351514,-0.3284646326811663,-0.3340344639517492,-0.266856243740546,-0.6741528297033761,-0.3747420192763709,-0.5072719778539733,-0.3996832489212911,-0.3186427812878714,-0.30589975285196963,-0.19443372286720229,-0.0411020248517588,0.013483418249023299,0.009611365947741486,0.027741795680386035,-0.006440118422440482,-0.02203246037416228,-0.15875957781119923,-0.21033374083461315,-0.3577583021617706,-0.6303739025597064,-0.592964930143209,-0.3757072306057771,-0.27133959307332767,-0.24194354728298906,-0.3318487790561621,-0.12392696336185867,-0.35867455167193524,-0.36993025631411397,-0.26107585245794374,0.11644682931568993,-0.21390549687468655,-0.41118949034224794,-0.3442911709640109,-0.441373340639652,-0.25236691762045343,-0.11430351329970796,-0.10559452876541463,-0.0018844814933084385,0.03401000036673191,0.016547489174655275,0.024565122773092116,0.02133119314127535,0.003113780017926258,-0.05749232211303338,-0.14643498748868414,-0.20135664052221322,-0.30497704502620443,-0.45244148823753355,-0.29722078314938244,-0.012516837654558318,-0.14706844831730329,0.04298207162715838,-0.12393618791675502,-0.1624193110079059,-0.30316088688309445,-0.16532901357340812,-0.06424208074585311,-0.038551668320815975,-0.15324339367296447,-0.01586537428443929,-0.15730413258420664,-0.21131339495259996,-0.04933325404556361,0.06255521169596875,0.003511093339462225,0.01646637615753646,0.005463331154801292,0.016171866004235168,0.0018509913192372635,0.016976603480373578,0.019173345355784206,-0.003400536648747513,-0.06986132271749043,-0.1550755461287866,-0.1947000666953652,-0.13174021963236052,-0.11236154928718284,-0.07330602144587955,-0.28891434903611285,-0.1811753937851612,-0.2501633063017428,-0.5508112625183136,-0.3221796672266677,-0.0407189607794753,-0.1524849704395959,-0.2617138039773072,-0.1197409768831816,0.06946485053847068,0.033120662706180706,-0.016017905453312373,0.15198862800116872,0.19707636287681699,0.10652293844300645,0.01540037365084068,-0.011334716788235744,0.028563041998606466,0.005203394523529208,0.02183108844257479,0.02800047160659089,-0.005398382550472979,0.03884969803190895,0.02766351190321818,0.10830852701348269,0.09924724668499928,-0.03335116478533892,-0.2061880983250801,-0.22882528065866495,-0.07570282150671133,-0.3407744125177381,-0.46657440513033943,-0.30265155993438386,-0.4083399263554849,-0.5500378765802802,-0.5223576574551135,-0.2518113380344523,-0.09362345661892679,-0.06990196104535965,0.07551195027920961,0.2819779712580104,0.19724590085119578,0.11755292282655007,0.016291583409620412,0.017185074637974817,0.012332416559039166,0.03128361364251927,0.02093981863310896,0.015486951803562545,0.002949710215591579,0.04898433447435677,0.09916485199986609,0.2463987412724272,0.2265806638449438,0.32689119328593735,0.0833984362871767,-0.04870391575175412,-0.145113631766627,0.09841443371171063,-0.021480147637795387,-0.2726643651981207,-0.32497054702840195,-0.30351110132520326,-0.294043625673876,-0.20332567680523655,-0.014920332038620617,-0.02875875902667322,0.028491060730355046,0.07212411267222046,0.05843041543547158,0.050033555608434824,0.009851267011215848,0.024129737671429598,0.010913923481312086,0.021742195881244486,0.015842397812169222,0.0332932898799535,0.002508710784003324,0.02451298132955161,0.034002640255006204,0.04408674155978738,0.09570718666778755,0.12017509959344727,0.11893296487568955,0.13385939814989056,0.12851560737941492,0.27127722313404545,0.24225819051411876,0.22653140911968625,0.3311549414365352,0.26068142175120745,0.08200164268009491,0.06609936609129684,0.0789854109094757,0.06288228253436455,0.024726326786853627,0.03183749666100927,0.01266493403135762,0.025555238201633034,0.00813160589209402,0.006071885288933782,0.010047403228858118,0.015572445942023925,0.025947875715643436,0.019235978693186922,0.024722544229700272,0.022383109144945575,0.022415942111035203,0.001848585476428685,0.005080688844907229,0.012277251552384813,0.018917678437141247,0.02284657117613479,0.01532484877314405,0.012915090870683646,0.01822767898108672,0.0290027680796678,0.04490833786130738,0.04551348524189957,0.029397483327613775,0.03849980127828162,0.03121279075999693,0.039770034842802164,-0.0014971135798200043,0.03108907324590033,0.019716274953492957,0.007180678804772062,0.007036338763801283,0.004295689720432404,0.015940616687276737,0.010104622773443761],[0.018118227099369198,0.02087302872154074,0.019911892096472317,0.033987794216664244,0.01694664792094366,0.013358830693060977,0.006152229826496777,0.03175818308931293,0.009495430953244963,0.019534107492151127,0.022268824670785836,0.015677006711818264,0.01215770190797609,0.00027925852522444754,0.024257767114239683,0.015579599806753984,0.02650287108534131,0.01378117582558581,0.01087327758435848,0.016069452080280006,0.021584019670487065,0.027246684548303708,0.03184910221172812,0.025836785427088584,0.01132811839247815,0.028245492214102552,0.014163072599367508,0.01843824204076076,0.03206872521703357,0.03200727921711217,0.006326224886407573,0.02134343264593595,0.01858022424176684,0.029523969721999357,0.016655120414295673,0.015393631579225629,0.01576356259843992,0.019370143760819542,0.02917657460231016,0.026786091823712856,0.008508146154890268,0.007212224777380157,0.005641071680061001,0.013573977732267888,0.020454773164670655,0.013509252848607736,0.010940525424817396,0.02736732061023658,0.02480859817807614,0.026340595742726697,0.013885105891149215,0.018813887628581622,0.0076492676860790264,0.0059473029383429465,0.0054854334721923725,0.03530690474592806,0.02322942651776278,0.01824710986056116,0.019985136688424738,0.00964323989355063,0.01203122359646333,0.004258986813067944,0.02246709001758944,0.017745694453351345,0.022454645194074026,0.04834088944526119,0.023311601595973716,0.042563136196964356,0.04383785078372599,0.06073121309838707,0.061706007302202014,0.05937379705992248,0.06720315935148592,0.03669456195452319,0.03553153989919392,0.048883231885437736,0.037726242267353834,0.01694419318301397,0.0007892627666953063,0.032270291464683624,0.025810024021442494,0.02627432034837848,0.022538511446925775,0.009152426722379092,0.0062607433140474044,0.0070463264622170575,0.028759762298335288,0.010085009264140644,0.008848981267015363,0.01709476982299963,-0.0010875790025368446,0.029523320127798902,0.02979914459946003,0.02397660356050183,0.039705890322014756,0.06240376001226781,0.017053904729374517,0.009522280364742897,-0.06772602937882874,-0.1270717660631079,-0.08477223533112158,-0.054680000910153057,0.018365559634269227,0.08819015187355946,0.13604078797421046,0.10569847300480957,0.10534418015372654,0.05603868383225215,0.02155387740342261,0.0067139259493141845,0.00825163100615003,0.023498752093550266,0.02925216821223009,0.0348661443897322,0.014004652567204862,0.029859302126183634,-0.029020267838951574,-0.08810743841934714,-0.08766096534166987,-0.09517268881769354,-0.057216084996499904,-0.022789786278749155,-0.010928151209325228,0.02330225722423661,0.0010770224067563638,-0.009263110357414233,-0.06317354204664626,-0.15973271724340002,-0.0030802287395520493,0.06968094414286136,-0.14954208278923367,-0.0018105342349454955,0.09403586231167639,0.05288341435658173,0.024424710093182877,0.009780080625782851,-0.0021978735229761684,0.011065246826596084,-0.001762557472976262,0.02727265216098371,0.029359350123419066,0.009356687540516797,0.0013205193682633168,0.007244021726521083,-0.047632597334736855,-0.1662035309767604,-0.1756553921657933,-0.09645817818982416,-0.058207458701477144,0.03377615933271553,-0.07051694121189604,-0.028935831747485805,0.15477342440049033,0.10969538328471869,0.16560558346359394,0.10280957568670496,0.02604561576796117,0.22025022585592924,0.262794575429188,0.20580759331441212,0.06478372810361696,-0.020983444091844147,-0.060303003286492275,-0.09119680308619618,-0.06866676891820607,-0.019692674437739158,0.020245829554215528,0.01678693064885279,0.01765041968762918,0.030620165269609957,0.00861184585206896,-0.009360927628697883,-0.07750249194034685,-0.14188766662210472,-0.15987118788477955,-0.07199826990411178,-0.15131670088318733,-0.07139687832574114,-0.13409650735727324,-0.24132754132661563,-0.048049525773625555,-0.07476935848227881,-0.16987367317551444,-0.03431955890807448,-0.11916947079521277,-0.17074472801925183,